date,rebalanced,turnover,SPY,IWD,IWF,IWM,EFA,EEM,VWO,TLT,IEF,LQD,HYG,GLD,SLV,VNQ,DBC,USO
2010-04-30,true,1.1739489664111868,-1.9663056934313686e-9,-1.8056714888675429e-9,0.09675945143120113,0.012928440632008084,-1.0046637184834769e-8,-2.4192589771426606e-8,-2.2388695637939395e-8,0.21402586893679434,0.30000000535269855,0.15790022711383442,0.10040474026056616,0.09288419010600776,-4.092318481533596e-9,-8.707771763120208e-10,0.02509714572081375,-4.199910754767846e-9
2010-05-28,true,0.11307789713358005,-7.78500787621773e-9,-7.194482948812814e-9,0.040220656876329114,0.04959109954199187,-8.730962174360123e-9,-4.840195622361638e-9,-5.098984257856601e-9,0.21418718937159711,0.299999884698089,0.16364685104445284,0.10542384793874361,0.09654207306501414,-1.8864201066058972e-8,1.580592930646448e-9,0.030388459986674787,-1.1557012558113612e-8
2010-06-30,false,0.0,-7.78500787621773e-9,-7.194482948812814e-9,0.040220656876329114,0.04959109954199187,-8.730962174360123e-9,-4.840195622361638e-9,-5.098984257856601e-9,0.21418718937159711,0.299999884698089,0.16364685104445284,0.10542384793874361,0.09654207306501414,-1.8864201066058972e-8,1.580592930646448e-9,0.030388459986674787,-1.1557012558113612e-8
2010-07-30,false,0.0,-7.78500787621773e-9,-7.194482948812814e-9,0.040220656876329114,0.04959109954199187,-8.730962174360123e-9,-4.840195622361638e-9,-5.098984257856601e-9,0.21418718937159711,0.299999884698089,0.16364685104445284,0.10542384793874361,0.09654207306501414,-1.8864201066058972e-8,1.580592930646448e-9,0.030388459986674787,-1.1557012558113612e-8
2010-08-31,false,0.0,-7.78500787621773e-9,-7.194482948812814e-9,0.040220656876329114,0.04959109954199187,-8.730962174360123e-9,-4.840195622361638e-9,-5.098984257856601e-9,0.21418718937159711,0.299999884698089,0.16364685104445284,0.10542384793874361,0.09654207306501414,-1.8864201066058972e-8,1.580592930646448e-9,0.030388459986674787,-1.1557012558113612e-8
2010-09-30,false,0.0,-7.78500787621773e-9,-7.194482948812814e-9,0.040220656876329114,0.04959109954199187,-8.730962174360123e-9,-4.840195622361638e-9,-5.098984257856601e-9,0.21418718937159711,0.299999884698089,0.16364685104445284,0.10542384793874361,0.09654207306501414,-1.8864201066058972e-8,1.580592930646448e-9,0.030388459986674787,-1.1557012558113612e-8
2010-10-29,false,0.0,-7.78500787621773e-9,-7.194482948812814e-9,0.040220656876329114,0.04959109954199187,-8.730962174360123e-9,-4.840195622361638e-9,-5.098984257856601e-9,0.21418718937159711,0.299999884698089,0.16364685104445284,0.10542384793874361,0.09654207306501414,-1.8864201066058972e-8,1.580592930646448e-9,0.030388459986674787,-1.1557012558113612e-8
2010-11-30,false,0.0,-7.78500787621773e-9,-7.194482948812814e-9,0.040220656876329114,0.04959109954199187,-8.730962174360123e-9,-4.840195622361638e-9,-5.098984257856601e-9,0.21418718937159711,0.299999884698089,0.16364685104445284,0.10542384793874361,0.09654207306501414,-1.8864201066058972e-8,1.580592930646448e-9,0.030388459986674787,-1.1557012558113612e-8
2010-12-31,false,0.0,-7.78500787621773e-9,-7.194482948812814e-9,0.040220656876329114,0.04959109954199187,-8.730962174360123e-9,-4.840195622361638e-9,-5.098984257856601e-9,0.21418718937159711,0.299999884698089,0.16364685104445284,0.10542384793874361,0.09654207306501414,-1.8864201066058972e-8,1.580592930646448e-9,0.030388459986674787,-1.1557012558113612e-8
2011-01-31,false,0.0,-7.78500787621773e-9,-7.194482948812814e-9,0.040220656876329114,0.04959109954199187,-8.730962174360123e-9,-4.840195622361638e-9,-5.098984257856601e-9,0.21418718937159711,0.299999884698089,0.16364685104445284,0.10542384793874361,0.09654207306501414,-1.8864201066058972e-8,1.580592930646448e-9,0.030388459986674787,-1.1557012558113612e-8
2011-02-28,false,0.0,-7.78500787621773e-9,-7.194482948812814e-9,0.040220656876329114,0.04959109954199187,-8.730962174360123e-9,-4.840195622361638e-9,-5.098984257856601e-9,0.21418718937159711,0.299999884698089,0.16364685104445284,0.10542384793874361,0.09654207306501414,-1.8864201066058972e-8,1.580592930646448e-9,0.030388459986674787,-1.1557012558113612e-8
2011-03-31,false,0.0,-7.78500787621773e-9,-7.194482948812814e-9,0.040220656876329114,0.04959109954199187,-8.730962174360123e-9,-4.840195622361638e-9,-5.098984257856601e-9,0.21418718937159711,0.299999884698089,0.16364685104445284,0.10542384793874361,0.09654207306501414,-1.8864201066058972e-8,1.580592930646448e-9,0.030388459986674787,-1.1557012558113612e-8
2011-04-29,false,0.0,-7.78500787621773e-9,-7.194482948812814e-9,0.040220656876329114,0.04959109954199187,-8.730962174360123e-9,-4.840195622361638e-9,-5.098984257856601e-9,0.21418718937159711,0.299999884698089,0.16364685104445284,0.10542384793874361,0.09654207306501414,-1.8864201066058972e-8,1.580592930646448e-9,0.030388459986674787,-1.1557012558113612e-8
2011-05-31,false,0.0,-7.78500787621773e-9,-7.194482948812814e-9,0.040220656876329114,0.04959109954199187,-8.730962174360123e-9,-4.840195622361638e-9,-5.098984257856601e-9,0.21418718937159711,0.299999884698089,0.16364685104445284,0.10542384793874361,0.09654207306501414,-1.8864201066058972e-8,1.580592930646448e-9,0.030388459986674787,-1.1557012558113612e-8
2011-06-30,false,0.0,-7.78500787621773e-9,-7.194482948812814e-9,0.040220656876329114,0.04959109954199187,-8.730962174360123e-9,-4.840195622361638e-9,-5.098984257856601e-9,0.21418718937159711,0.299999884698089,0.16364685104445284,0.10542384793874361,0.09654207306501414,-1.8864201066058972e-8,1.580592930646448e-9,0.030388459986674787,-1.1557012558113612e-8
2011-07-29,false,0.0,-7.78500787621773e-9,-7.194482948812814e-9,0.040220656876329114,0.04959109954199187,-8.730962174360123e-9,-4.840195622361638e-9,-5.098984257856601e-9,0.21418718937159711,0.299999884698089,0.16364685104445284,0.10542384793874361,0.09654207306501414,-1.8864201066058972e-8,1.580592930646448e-9,0.030388459986674787,-1.1557012558113612e-8
2011-08-31,false,0.0,-7.78500787621773e-9,-7.194482948812814e-9,0.040220656876329114,0.04959109954199187,-8.730962174360123e-9,-4.840195622361638e-9,-5.098984257856601e-9,0.21418718937159711,0.299999884698089,0.16364685104445284,0.10542384793874361,0.09654207306501414,-1.8864201066058972e-8,1.580592930646448e-9,0.030388459986674787,-1.1557012558113612e-8
2011-09-30,true,0.3499559958592025,-6.251034992438869e-8,-4.39701167974209e-8,0.0268696299757192,0.019422077743013296,-4.555457759952056e-8,-2.998443644587709e-9,-1.1576562477521826e-8,0.10452160086904687,0.2999996842811854,0.2999996184412298,0.12868967041142243,0.07756146909802994,-2.6744853785621724e-9,-1.1430429351434167e-8,0.02757705156011038,0.015359378575483749
2011-10-31,true,0.22525161548463685,0.03403817623267928,1.3685803508584225e-7,0.00787767031686769,1.0922959761136829e-7,1.2270001326792105e-7,8.473642122677006e-8,8.957410081216769e-8,0.054145934224806576,0.3000010143468025,0.30000115240416136,0.1969631617464278,0.06908446587161236,2.2355008776961664e-7,2.515678666520993e-8,0.03788746402301614,1.6848332106181616e-7
2011-11-30,false,0.0,0.03403817623267928,1.3685803508584225e-7,0.00787767031686769,1.0922959761136829e-7,1.2270001326792105e-7,8.473642122677006e-8,8.957410081216769e-8,0.054145934224806576,0.3000010143468025,0.30000115240416136,0.1969631617464278,0.06908446587161236,2.2355008776961664e-7,2.515678666520993e-8,0.03788746402301614,1.6848332106181616e-7
2011-12-30,false,0.0,0.03403817623267928,1.3685803508584225e-7,0.00787767031686769,1.0922959761136829e-7,1.2270001326792105e-7,8.473642122677006e-8,8.957410081216769e-8,0.054145934224806576,0.3000010143468025,0.30000115240416136,0.1969631617464278,0.06908446587161236,2.2355008776961664e-7,2.515678666520993e-8,0.03788746402301614,1.6848332106181616e-7
2012-01-31,true,0.10188551358222672,0.025251741879886894,-2.2652790315257223e-8,-7.528740428465268e-8,-1.7534150751559627e-8,-8.379470259078678e-9,-1.0786805344494874e-8,-7.772271840691227e-9,0.03762856913066229,0.30000036163044785,0.3000005656843119,0.24790591872097664,0.060583447826939425,1.3883798722284243e-7,-9.834876311800877e-9,0.028629320131780725,8.82263843468503e-8
2012-02-29,false,0.0,0.025251741879886894,-2.2652790315257223e-8,-7.528740428465268e-8,-1.7534150751559627e-8,-8.379470259078678e-9,-1.0786805344494874e-8,-7.772271840691227e-9,0.03762856913066229,0.30000036163044785,0.3000005656843119,0.24790591872097664,0.060583447826939425,1.3883798722284243e-7,-9.834876311800877e-9,0.028629320131780725,8.82263843468503e-8
2012-03-30,false,0.0,0.025251741879886894,-2.2652790315257223e-8,-7.528740428465268e-8,-1.7534150751559627e-8,-8.379470259078678e-9,-1.0786805344494874e-8,-7.772271840691227e-9,0.03762856913066229,0.30000036163044785,0.3000005656843119,0.24790591872097664,0.060583447826939425,1.3883798722284243e-7,-9.834876311800877e-9,0.028629320131780725,8.82263843468503e-8
2012-04-30,true,0.1238356288179087,0.03507585318665574,-2.025453432249447e-7,-3.1340402833777947e-7,-1.9914217608959075e-7,-1.6985719328712235e-7,-2.1030049917781046e-7,-2.0089233147841017e-7,0.01806603048688775,0.2999999146432496,0.3000001176278765,0.29999938397461534,0.04190918288611373,2.4377442423990665e-7,-3.117698236743591e-7,0.004950660136375689,2.212601833968941e-7
2012-05-31,false,0.0,0.03507585318665574,-2.025453432249447e-7,-3.1340402833777947e-7,-1.9914217608959075e-7,-1.6985719328712235e-7,-2.1030049917781046e-7,-2.0089233147841017e-7,0.01806603048688775,0.2999999146432496,0.3000001176278765,0.29999938397461534,0.04190918288611373,2.4377442423990665e-7,-3.117698236743591e-7,0.004950660136375689,2.212601833968941e-7
2012-06-29,false,0.0,0.03507585318665574,-2.025453432249447e-7,-3.1340402833777947e-7,-1.9914217608959075e-7,-1.6985719328712235e-7,-2.1030049917781046e-7,-2.0089233147841017e-7,0.01806603048688775,0.2999999146432496,0.3000001176278765,0.29999938397461534,0.04190918288611373,2.4377442423990665e-7,-3.117698236743591e-7,0.004950660136375689,2.212601833968941e-7
2012-07-31,false,0.0,0.03507585318665574,-2.025453432249447e-7,-3.1340402833777947e-7,-1.9914217608959075e-7,-1.6985719328712235e-7,-2.1030049917781046e-7,-2.0089233147841017e-7,0.01806603048688775,0.2999999146432496,0.3000001176278765,0.29999938397461534,0.04190918288611373,2.4377442423990665e-7,-3.117698236743591e-7,0.004950660136375689,2.212601833968941e-7
2012-08-31,false,0.0,0.03507585318665574,-2.025453432249447e-7,-3.1340402833777947e-7,-1.9914217608959075e-7,-1.6985719328712235e-7,-2.1030049917781046e-7,-2.0089233147841017e-7,0.01806603048688775,0.2999999146432496,0.3000001176278765,0.29999938397461534,0.04190918288611373,2.4377442423990665e-7,-3.117698236743591e-7,0.004950660136375689,2.212601833968941e-7
2012-09-28,false,0.0,0.03507585318665574,-2.025453432249447e-7,-3.1340402833777947e-7,-1.9914217608959075e-7,-1.6985719328712235e-7,-2.1030049917781046e-7,-2.0089233147841017e-7,0.01806603048688775,0.2999999146432496,0.3000001176278765,0.29999938397461534,0.04190918288611373,2.4377442423990665e-7,-3.117698236743591e-7,0.004950660136375689,2.212601833968941e-7
2012-10-31,false,0.0,0.03507585318665574,-2.025453432249447e-7,-3.1340402833777947e-7,-1.9914217608959075e-7,-1.6985719328712235e-7,-2.1030049917781046e-7,-2.0089233147841017e-7,0.01806603048688775,0.2999999146432496,0.3000001176278765,0.29999938397461534,0.04190918288611373,2.4377442423990665e-7,-3.117698236743591e-7,0.004950660136375689,2.212601833968941e-7
2012-11-30,false,0.0,0.03507585318665574,-2.025453432249447e-7,-3.1340402833777947e-7,-1.9914217608959075e-7,-1.6985719328712235e-7,-2.1030049917781046e-7,-2.0089233147841017e-7,0.01806603048688775,0.2999999146432496,0.3000001176278765,0.29999938397461534,0.04190918288611373,2.4377442423990665e-7,-3.117698236743591e-7,0.004950660136375689,2.212601833968941e-7
2012-12-31,false,0.0,0.03507585318665574,-2.025453432249447e-7,-3.1340402833777947e-7,-1.9914217608959075e-7,-1.6985719328712235e-7,-2.1030049917781046e-7,-2.0089233147841017e-7,0.01806603048688775,0.2999999146432496,0.3000001176278765,0.29999938397461534,0.04190918288611373,2.4377442423990665e-7,-3.117698236743591e-7,0.004950660136375689,2.212601833968941e-7
2013-01-31,false,0.0,0.03507585318665574,-2.025453432249447e-7,-3.1340402833777947e-7,-1.9914217608959075e-7,-1.6985719328712235e-7,-2.1030049917781046e-7,-2.0089233147841017e-7,0.01806603048688775,0.2999999146432496,0.3000001176278765,0.29999938397461534,0.04190918288611373,2.4377442423990665e-7,-3.117698236743591e-7,0.004950660136375689,2.212601833968941e-7
2013-02-28,false,0.0,0.03507585318665574,-2.025453432249447e-7,-3.1340402833777947e-7,-1.9914217608959075e-7,-1.6985719328712235e-7,-2.1030049917781046e-7,-2.0089233147841017e-7,0.01806603048688775,0.2999999146432496,0.3000001176278765,0.29999938397461534,0.04190918288611373,2.4377442423990665e-7,-3.117698236743591e-7,0.004950660136375689,2.212601833968941e-7
2013-03-28,false,0.0,0.03507585318665574,-2.025453432249447e-7,-3.1340402833777947e-7,-1.9914217608959075e-7,-1.6985719328712235e-7,-2.1030049917781046e-7,-2.0089233147841017e-7,0.01806603048688775,0.2999999146432496,0.3000001176278765,0.29999938397461534,0.04190918288611373,2.4377442423990665e-7,-3.117698236743591e-7,0.004950660136375689,2.212601833968941e-7
2013-04-30,false,0.0,0.03507585318665574,-2.025453432249447e-7,-3.1340402833777947e-7,-1.9914217608959075e-7,-1.6985719328712235e-7,-2.1030049917781046e-7,-2.0089233147841017e-7,0.01806603048688775,0.2999999146432496,0.3000001176278765,0.29999938397461534,0.04190918288611373,2.4377442423990665e-7,-3.117698236743591e-7,0.004950660136375689,2.212601833968941e-7
2013-05-31,false,0.0,0.03507585318665574,-2.025453432249447e-7,-3.1340402833777947e-7,-1.9914217608959075e-7,-1.6985719328712235e-7,-2.1030049917781046e-7,-2.0089233147841017e-7,0.01806603048688775,0.2999999146432496,0.3000001176278765,0.29999938397461534,0.04190918288611373,2.4377442423990665e-7,-3.117698236743591e-7,0.004950660136375689,2.212601833968941e-7
2013-06-28,false,0.0,0.03507585318665574,-2.025453432249447e-7,-3.1340402833777947e-7,-1.9914217608959075e-7,-1.6985719328712235e-7,-2.1030049917781046e-7,-2.0089233147841017e-7,0.01806603048688775,0.2999999146432496,0.3000001176278765,0.29999938397461534,0.04190918288611373,2.4377442423990665e-7,-3.117698236743591e-7,0.004950660136375689,2.212601833968941e-7
2013-07-31,false,0.0,0.03507585318665574,-2.025453432249447e-7,-3.1340402833777947e-7,-1.9914217608959075e-7,-1.6985719328712235e-7,-2.1030049917781046e-7,-2.0089233147841017e-7,0.01806603048688775,0.2999999146432496,0.3000001176278765,0.29999938397461534,0.04190918288611373,2.4377442423990665e-7,-3.117698236743591e-7,0.004950660136375689,2.212601833968941e-7
2013-08-30,true,0.10162881833925116,0.028807897390255625,-6.531289789878217e-8,-5.283684719423756e-8,-9.84175511738359e-8,-9.430939669282985e-8,-1.0982037755729545e-7,-1.0860667514702287e-7,0.015037689661517402,0.3000000740582003,0.2999997541063856,0.29999984878870334,0.00039180359524760753,7.497927901256844e-8,-1.3199481698746797e-7,0.05576349846863199,2.0324332556217837e-8
2013-09-30,false,0.0,0.028807897390255625,-6.531289789878217e-8,-5.283684719423756e-8,-9.84175511738359e-8,-9.430939669282985e-8,-1.0982037755729545e-7,-1.0860667514702287e-7,0.015037689661517402,0.3000000740582003,0.2999997541063856,0.29999984878870334,0.00039180359524760753,7.497927901256844e-8,-1.3199481698746797e-7,0.05576349846863199,2.0324332556217837e-8
2013-10-31,false,0.0,0.028807897390255625,-6.531289789878217e-8,-5.283684719423756e-8,-9.84175511738359e-8,-9.430939669282985e-8,-1.0982037755729545e-7,-1.0860667514702287e-7,0.015037689661517402,0.3000000740582003,0.2999997541063856,0.29999984878870334,0.00039180359524760753,7.497927901256844e-8,-1.3199481698746797e-7,0.05576349846863199,2.0324332556217837e-8
2013-11-29,false,0.0,0.028807897390255625,-6.531289789878217e-8,-5.283684719423756e-8,-9.84175511738359e-8,-9.430939669282985e-8,-1.0982037755729545e-7,-1.0860667514702287e-7,0.015037689661517402,0.3000000740582003,0.2999997541063856,0.29999984878870334,0.00039180359524760753,7.497927901256844e-8,-1.3199481698746797e-7,0.05576349846863199,2.0324332556217837e-8
2013-12-31,false,0.0,0.028807897390255625,-6.531289789878217e-8,-5.283684719423756e-8,-9.84175511738359e-8,-9.430939669282985e-8,-1.0982037755729545e-7,-1.0860667514702287e-7,0.015037689661517402,0.3000000740582003,0.2999997541063856,0.29999984878870334,0.00039180359524760753,7.497927901256844e-8,-1.3199481698746797e-7,0.05576349846863199,2.0324332556217837e-8
2014-01-31,false,0.0,0.028807897390255625,-6.531289789878217e-8,-5.283684719423756e-8,-9.84175511738359e-8,-9.430939669282985e-8,-1.0982037755729545e-7,-1.0860667514702287e-7,0.015037689661517402,0.3000000740582003,0.2999997541063856,0.29999984878870334,0.00039180359524760753,7.497927901256844e-8,-1.3199481698746797e-7,0.05576349846863199,2.0324332556217837e-8
2014-02-28,false,0.0,0.028807897390255625,-6.531289789878217e-8,-5.283684719423756e-8,-9.84175511738359e-8,-9.430939669282985e-8,-1.0982037755729545e-7,-1.0860667514702287e-7,0.015037689661517402,0.3000000740582003,0.2999997541063856,0.29999984878870334,0.00039180359524760753,7.497927901256844e-8,-1.3199481698746797e-7,0.05576349846863199,2.0324332556217837e-8
2014-03-31,false,0.0,0.028807897390255625,-6.531289789878217e-8,-5.283684719423756e-8,-9.84175511738359e-8,-9.430939669282985e-8,-1.0982037755729545e-7,-1.0860667514702287e-7,0.015037689661517402,0.3000000740582003,0.2999997541063856,0.29999984878870334,0.00039180359524760753,7.497927901256844e-8,-1.3199481698746797e-7,0.05576349846863199,2.0324332556217837e-8
2014-04-30,false,0.0,0.028807897390255625,-6.531289789878217e-8,-5.283684719423756e-8,-9.84175511738359e-8,-9.430939669282985e-8,-1.0982037755729545e-7,-1.0860667514702287e-7,0.015037689661517402,0.3000000740582003,0.2999997541063856,0.29999984878870334,0.00039180359524760753,7.497927901256844e-8,-1.3199481698746797e-7,0.05576349846863199,2.0324332556217837e-8
2014-05-30,false,0.0,0.028807897390255625,-6.531289789878217e-8,-5.283684719423756e-8,-9.84175511738359e-8,-9.430939669282985e-8,-1.0982037755729545e-7,-1.0860667514702287e-7,0.015037689661517402,0.3000000740582003,0.2999997541063856,0.29999984878870334,0.00039180359524760753,7.497927901256844e-8,-1.3199481698746797e-7,0.05576349846863199,2.0324332556217837e-8
2014-06-30,false,0.0,0.028807897390255625,-6.531289789878217e-8,-5.283684719423756e-8,-9.84175511738359e-8,-9.430939669282985e-8,-1.0982037755729545e-7,-1.0860667514702287e-7,0.015037689661517402,0.3000000740582003,0.2999997541063856,0.29999984878870334,0.00039180359524760753,7.497927901256844e-8,-1.3199481698746797e-7,0.05576349846863199,2.0324332556217837e-8
2014-07-31,false,0.0,0.028807897390255625,-6.531289789878217e-8,-5.283684719423756e-8,-9.84175511738359e-8,-9.430939669282985e-8,-1.0982037755729545e-7,-1.0860667514702287e-7,0.015037689661517402,0.3000000740582003,0.2999997541063856,0.29999984878870334,0.00039180359524760753,7.497927901256844e-8,-1.3199481698746797e-7,0.05576349846863199,2.0324332556217837e-8
2014-08-29,false,0.0,0.028807897390255625,-6.531289789878217e-8,-5.283684719423756e-8,-9.84175511738359e-8,-9.430939669282985e-8,-1.0982037755729545e-7,-1.0860667514702287e-7,0.015037689661517402,0.3000000740582003,0.2999997541063856,0.29999984878870334,0.00039180359524760753,7.497927901256844e-8,-1.3199481698746797e-7,0.05576349846863199,2.0324332556217837e-8
2014-09-30,false,0.0,0.028807897390255625,-6.531289789878217e-8,-5.283684719423756e-8,-9.84175511738359e-8,-9.430939669282985e-8,-1.0982037755729545e-7,-1.0860667514702287e-7,0.015037689661517402,0.3000000740582003,0.2999997541063856,0.29999984878870334,0.00039180359524760753,7.497927901256844e-8,-1.3199481698746797e-7,0.05576349846863199,2.0324332556217837e-8
2014-10-31,false,0.0,0.028807897390255625,-6.531289789878217e-8,-5.283684719423756e-8,-9.84175511738359e-8,-9.430939669282985e-8,-1.0982037755729545e-7,-1.0860667514702287e-7,0.015037689661517402,0.3000000740582003,0.2999997541063856,0.29999984878870334,0.00039180359524760753,7.497927901256844e-8,-1.3199481698746797e-7,0.05576349846863199,2.0324332556217837e-8
2014-11-28,false,0.0,0.028807897390255625,-6.531289789878217e-8,-5.283684719423756e-8,-9.84175511738359e-8,-9.430939669282985e-8,-1.0982037755729545e-7,-1.0860667514702287e-7,0.015037689661517402,0.3000000740582003,0.2999997541063856,0.29999984878870334,0.00039180359524760753,7.497927901256844e-8,-1.3199481698746797e-7,0.05576349846863199,2.0324332556217837e-8
2014-12-31,false,0.0,0.028807897390255625,-6.531289789878217e-8,-5.283684719423756e-8,-9.84175511738359e-8,-9.430939669282985e-8,-1.0982037755729545e-7,-1.0860667514702287e-7,0.015037689661517402,0.3000000740582003,0.2999997541063856,0.29999984878870334,0.00039180359524760753,7.497927901256844e-8,-1.3199481698746797e-7,0.05576349846863199,2.0324332556217837e-8
2015-01-30,false,0.0,0.028807897390255625,-6.531289789878217e-8,-5.283684719423756e-8,-9.84175511738359e-8,-9.430939669282985e-8,-1.0982037755729545e-7,-1.0860667514702287e-7,0.015037689661517402,0.3000000740582003,0.2999997541063856,0.29999984878870334,0.00039180359524760753,7.497927901256844e-8,-1.3199481698746797e-7,0.05576349846863199,2.0324332556217837e-8
2015-02-27,false,0.0,0.028807897390255625,-6.531289789878217e-8,-5.283684719423756e-8,-9.84175511738359e-8,-9.430939669282985e-8,-1.0982037755729545e-7,-1.0860667514702287e-7,0.015037689661517402,0.3000000740582003,0.2999997541063856,0.29999984878870334,0.00039180359524760753,7.497927901256844e-8,-1.3199481698746797e-7,0.05576349846863199,2.0324332556217837e-8
2015-03-31,false,0.0,0.028807897390255625,-6.531289789878217e-8,-5.283684719423756e-8,-9.84175511738359e-8,-9.430939669282985e-8,-1.0982037755729545e-7,-1.0860667514702287e-7,0.015037689661517402,0.3000000740582003,0.2999997541063856,0.29999984878870334,0.00039180359524760753,7.497927901256844e-8,-1.3199481698746797e-7,0.05576349846863199,2.0324332556217837e-8
2015-04-30,false,0.0,0.028807897390255625,-6.531289789878217e-8,-5.283684719423756e-8,-9.84175511738359e-8,-9.430939669282985e-8,-1.0982037755729545e-7,-1.0860667514702287e-7,0.015037689661517402,0.3000000740582003,0.2999997541063856,0.29999984878870334,0.00039180359524760753,7.497927901256844e-8,-1.3199481698746797e-7,0.05576349846863199,2.0324332556217837e-8
2015-05-29,false,0.0,0.028807897390255625,-6.531289789878217e-8,-5.283684719423756e-8,-9.84175511738359e-8,-9.430939669282985e-8,-1.0982037755729545e-7,-1.0860667514702287e-7,0.015037689661517402,0.3000000740582003,0.2999997541063856,0.29999984878870334,0.00039180359524760753,7.497927901256844e-8,-1.3199481698746797e-7,0.05576349846863199,2.0324332556217837e-8
2015-06-30,false,0.0,0.028807897390255625,-6.531289789878217e-8,-5.283684719423756e-8,-9.84175511738359e-8,-9.430939669282985e-8,-1.0982037755729545e-7,-1.0860667514702287e-7,0.015037689661517402,0.3000000740582003,0.2999997541063856,0.29999984878870334,0.00039180359524760753,7.497927901256844e-8,-1.3199481698746797e-7,0.05576349846863199,2.0324332556217837e-8
2015-07-31,false,0.0,0.028807897390255625,-6.531289789878217e-8,-5.283684719423756e-8,-9.84175511738359e-8,-9.430939669282985e-8,-1.0982037755729545e-7,-1.0860667514702287e-7,0.015037689661517402,0.3000000740582003,0.2999997541063856,0.29999984878870334,0.00039180359524760753,7.497927901256844e-8,-1.3199481698746797e-7,0.05576349846863199,2.0324332556217837e-8
2015-08-31,false,0.0,0.028807897390255625,-6.531289789878217e-8,-5.283684719423756e-8,-9.84175511738359e-8,-9.430939669282985e-8,-1.0982037755729545e-7,-1.0860667514702287e-7,0.015037689661517402,0.3000000740582003,0.2999997541063856,0.29999984878870334,0.00039180359524760753,7.497927901256844e-8,-1.3199481698746797e-7,0.05576349846863199,2.0324332556217837e-8
2015-09-30,false,0.0,0.028807897390255625,-6.531289789878217e-8,-5.283684719423756e-8,-9.84175511738359e-8,-9.430939669282985e-8,-1.0982037755729545e-7,-1.0860667514702287e-7,0.015037689661517402,0.3000000740582003,0.2999997541063856,0.29999984878870334,0.00039180359524760753,7.497927901256844e-8,-1.3199481698746797e-7,0.05576349846863199,2.0324332556217837e-8
2015-10-30,false,0.0,0.028807897390255625,-6.531289789878217e-8,-5.283684719423756e-8,-9.84175511738359e-8,-9.430939669282985e-8,-1.0982037755729545e-7,-1.0860667514702287e-7,0.015037689661517402,0.3000000740582003,0.2999997541063856,0.29999984878870334,0.00039180359524760753,7.497927901256844e-8,-1.3199481698746797e-7,0.05576349846863199,2.0324332556217837e-8
2015-11-30,true,0.13650855372351262,0.0014093839878675874,2.2114268068574177e-9,0.061419954360619824,-3.964024415825607e-9,9.399526593529707e-8,2.958867871254419e-7,2.966143864587076e-7,-4.262051322614998e-9,0.29999997020654456,0.2745744118375749,0.3000000179304282,-2.97636334822183e-7,-4.472138803195971e-7,1.961746687204622e-8,0.06259613995987795,1.6652321818784005e-7
2015-12-31,false,0.0,0.0014093839878675874,2.2114268068574177e-9,0.061419954360619824,-3.964024415825607e-9,9.399526593529707e-8,2.958867871254419e-7,2.966143864587076e-7,-4.262051322614998e-9,0.29999997020654456,0.2745744118375749,0.3000000179304282,-2.97636334822183e-7,-4.472138803195971e-7,1.961746687204622e-8,0.06259613995987795,1.6652321818784005e-7
2016-01-29,false,0.0,0.0014093839878675874,2.2114268068574177e-9,0.061419954360619824,-3.964024415825607e-9,9.399526593529707e-8,2.958867871254419e-7,2.966143864587076e-7,-4.262051322614998e-9,0.29999997020654456,0.2745744118375749,0.3000000179304282,-2.97636334822183e-7,-4.472138803195971e-7,1.961746687204622e-8,0.06259613995987795,1.6652321818784005e-7
2016-02-29,false,0.0,0.0014093839878675874,2.2114268068574177e-9,0.061419954360619824,-3.964024415825607e-9,9.399526593529707e-8,2.958867871254419e-7,2.966143864587076e-7,-4.262051322614998e-9,0.29999997020654456,0.2745744118375749,0.3000000179304282,-2.97636334822183e-7,-4.472138803195971e-7,1.961746687204622e-8,0.06259613995987795,1.6652321818784005e-7
2016-03-31,false,0.0,0.0014093839878675874,2.2114268068574177e-9,0.061419954360619824,-3.964024415825607e-9,9.399526593529707e-8,2.958867871254419e-7,2.966143864587076e-7,-4.262051322614998e-9,0.29999997020654456,0.2745744118375749,0.3000000179304282,-2.97636334822183e-7,-4.472138803195971e-7,1.961746687204622e-8,0.06259613995987795,1.6652321818784005e-7
2016-04-29,false,0.0,0.0014093839878675874,2.2114268068574177e-9,0.061419954360619824,-3.964024415825607e-9,9.399526593529707e-8,2.958867871254419e-7,2.966143864587076e-7,-4.262051322614998e-9,0.29999997020654456,0.2745744118375749,0.3000000179304282,-2.97636334822183e-7,-4.472138803195971e-7,1.961746687204622e-8,0.06259613995987795,1.6652321818784005e-7
2016-05-31,false,0.0,0.0014093839878675874,2.2114268068574177e-9,0.061419954360619824,-3.964024415825607e-9,9.399526593529707e-8,2.958867871254419e-7,2.966143864587076e-7,-4.262051322614998e-9,0.29999997020654456,0.2745744118375749,0.3000000179304282,-2.97636334822183e-7,-4.472138803195971e-7,1.961746687204622e-8,0.06259613995987795,1.6652321818784005e-7
2016-06-30,false,0.0,0.0014093839878675874,2.2114268068574177e-9,0.061419954360619824,-3.964024415825607e-9,9.399526593529707e-8,2.958867871254419e-7,2.966143864587076e-7,-4.262051322614998e-9,0.29999997020654456,0.2745744118375749,0.3000000179304282,-2.97636334822183e-7,-4.472138803195971e-7,1.961746687204622e-8,0.06259613995987795,1.6652321818784005e-7
2016-07-29,false,0.0,0.0014093839878675874,2.2114268068574177e-9,0.061419954360619824,-3.964024415825607e-9,9.399526593529707e-8,2.958867871254419e-7,2.966143864587076e-7,-4.262051322614998e-9,0.29999997020654456,0.2745744118375749,0.3000000179304282,-2.97636334822183e-7,-4.472138803195971e-7,1.961746687204622e-8,0.06259613995987795,1.6652321818784005e-7
2016-08-31,false,0.0,0.0014093839878675874,2.2114268068574177e-9,0.061419954360619824,-3.964024415825607e-9,9.399526593529707e-8,2.958867871254419e-7,2.966143864587076e-7,-4.262051322614998e-9,0.29999997020654456,0.2745744118375749,0.3000000179304282,-2.97636334822183e-7,-4.472138803195971e-7,1.961746687204622e-8,0.06259613995987795,1.6652321818784005e-7
2016-09-30,false,0.0,0.0014093839878675874,2.2114268068574177e-9,0.061419954360619824,-3.964024415825607e-9,9.399526593529707e-8,2.958867871254419e-7,2.966143864587076e-7,-4.262051322614998e-9,0.29999997020654456,0.2745744118375749,0.3000000179304282,-2.97636334822183e-7,-4.472138803195971e-7,1.961746687204622e-8,0.06259613995987795,1.6652321818784005e-7
2016-10-31,false,0.0,0.0014093839878675874,2.2114268068574177e-9,0.061419954360619824,-3.964024415825607e-9,9.399526593529707e-8,2.958867871254419e-7,2.966143864587076e-7,-4.262051322614998e-9,0.29999997020654456,0.2745744118375749,0.3000000179304282,-2.97636334822183e-7,-4.472138803195971e-7,1.961746687204622e-8,0.06259613995987795,1.6652321818784005e-7
2016-11-30,false,0.0,0.0014093839878675874,2.2114268068574177e-9,0.061419954360619824,-3.964024415825607e-9,9.399526593529707e-8,2.958867871254419e-7,2.966143864587076e-7,-4.262051322614998e-9,0.29999997020654456,0.2745744118375749,0.3000000179304282,-2.97636334822183e-7,-4.472138803195971e-7,1.961746687204622e-8,0.06259613995987795,1.6652321818784005e-7
2016-12-30,false,0.0,0.0014093839878675874,2.2114268068574177e-9,0.061419954360619824,-3.964024415825607e-9,9.399526593529707e-8,2.958867871254419e-7,2.966143864587076e-7,-4.262051322614998e-9,0.29999997020654456,0.2745744118375749,0.3000000179304282,-2.97636334822183e-7,-4.472138803195971e-7,1.961746687204622e-8,0.06259613995987795,1.6652321818784005e-7
2017-01-31,false,0.0,0.0014093839878675874,2.2114268068574177e-9,0.061419954360619824,-3.964024415825607e-9,9.399526593529707e-8,2.958867871254419e-7,2.966143864587076e-7,-4.262051322614998e-9,0.29999997020654456,0.2745744118375749,0.3000000179304282,-2.97636334822183e-7,-4.472138803195971e-7,1.961746687204622e-8,0.06259613995987795,1.6652321818784005e-7
2017-02-28,false,0.0,0.0014093839878675874,2.2114268068574177e-9,0.061419954360619824,-3.964024415825607e-9,9.399526593529707e-8,2.958867871254419e-7,2.966143864587076e-7,-4.262051322614998e-9,0.29999997020654456,0.2745744118375749,0.3000000179304282,-2.97636334822183e-7,-4.472138803195971e-7,1.961746687204622e-8,0.06259613995987795,1.6652321818784005e-7
2017-03-31,false,0.0,0.0014093839878675874,2.2114268068574177e-9,0.061419954360619824,-3.964024415825607e-9,9.399526593529707e-8,2.958867871254419e-7,2.966143864587076e-7,-4.262051322614998e-9,0.29999997020654456,0.2745744118375749,0.3000000179304282,-2.97636334822183e-7,-4.472138803195971e-7,1.961746687204622e-8,0.06259613995987795,1.6652321818784005e-7
2017-04-28,false,0.0,0.0014093839878675874,2.2114268068574177e-9,0.061419954360619824,-3.964024415825607e-9,9.399526593529707e-8,2.958867871254419e-7,2.966143864587076e-7,-4.262051322614998e-9,0.29999997020654456,0.2745744118375749,0.3000000179304282,-2.97636334822183e-7,-4.472138803195971e-7,1.961746687204622e-8,0.06259613995987795,1.6652321818784005e-7
2017-05-31,false,0.0,0.0014093839878675874,2.2114268068574177e-9,0.061419954360619824,-3.964024415825607e-9,9.399526593529707e-8,2.958867871254419e-7,2.966143864587076e-7,-4.262051322614998e-9,0.29999997020654456,0.2745744118375749,0.3000000179304282,-2.97636334822183e-7,-4.472138803195971e-7,1.961746687204622e-8,0.06259613995987795,1.6652321818784005e-7
2017-06-30,true,0.19282259025566714,0.05609432188994738,3.2208257258448246e-9,0.004468867174472976,1.2983712099289382e-10,1.1135542590001178e-9,-5.038475733066294e-10,-1.905157949423951e-10,2.602565117680267e-9,0.3000000045001061,0.3000000045251555,0.30000000337009713,0.016299975365473014,-1.9686855847282975e-9,2.281142577781438e-9,0.023136816275781874,2.0979938128772636e-10
2017-07-31,false,0.0,0.05609432188994738,3.2208257258448246e-9,0.004468867174472976,1.2983712099289382e-10,1.1135542590001178e-9,-5.038475733066294e-10,-1.905157949423951e-10,2.602565117680267e-9,0.3000000045001061,0.3000000045251555,0.30000000337009713,0.016299975365473014,-1.9686855847282975e-9,2.281142577781438e-9,0.023136816275781874,2.0979938128772636e-10
2017-08-31,false,0.0,0.05609432188994738,3.2208257258448246e-9,0.004468867174472976,1.2983712099289382e-10,1.1135542590001178e-9,-5.038475733066294e-10,-1.905157949423951e-10,2.602565117680267e-9,0.3000000045001061,0.3000000045251555,0.30000000337009713,0.016299975365473014,-1.9686855847282975e-9,2.281142577781438e-9,0.023136816275781874,2.0979938128772636e-10
2017-09-29,false,0.0,0.05609432188994738,3.2208257258448246e-9,0.004468867174472976,1.2983712099289382e-10,1.1135542590001178e-9,-5.038475733066294e-10,-1.905157949423951e-10,2.602565117680267e-9,0.3000000045001061,0.3000000045251555,0.30000000337009713,0.016299975365473014,-1.9686855847282975e-9,2.281142577781438e-9,0.023136816275781874,2.0979938128772636e-10
2017-10-31,false,0.0,0.05609432188994738,3.2208257258448246e-9,0.004468867174472976,1.2983712099289382e-10,1.1135542590001178e-9,-5.038475733066294e-10,-1.905157949423951e-10,2.602565117680267e-9,0.3000000045001061,0.3000000045251555,0.30000000337009713,0.016299975365473014,-1.9686855847282975e-9,2.281142577781438e-9,0.023136816275781874,2.0979938128772636e-10
2017-11-30,false,0.0,0.05609432188994738,3.2208257258448246e-9,0.004468867174472976,1.2983712099289382e-10,1.1135542590001178e-9,-5.038475733066294e-10,-1.905157949423951e-10,2.602565117680267e-9,0.3000000045001061,0.3000000045251555,0.30000000337009713,0.016299975365473014,-1.9686855847282975e-9,2.281142577781438e-9,0.023136816275781874,2.0979938128772636e-10
2017-12-29,false,0.0,0.05609432188994738,3.2208257258448246e-9,0.004468867174472976,1.2983712099289382e-10,1.1135542590001178e-9,-5.038475733066294e-10,-1.905157949423951e-10,2.602565117680267e-9,0.3000000045001061,0.3000000045251555,0.30000000337009713,0.016299975365473014,-1.9686855847282975e-9,2.281142577781438e-9,0.023136816275781874,2.0979938128772636e-10
2018-01-31,false,0.0,0.05609432188994738,3.2208257258448246e-9,0.004468867174472976,1.2983712099289382e-10,1.1135542590001178e-9,-5.038475733066294e-10,-1.905157949423951e-10,2.602565117680267e-9,0.3000000045001061,0.3000000045251555,0.30000000337009713,0.016299975365473014,-1.9686855847282975e-9,2.281142577781438e-9,0.023136816275781874,2.0979938128772636e-10
2018-02-28,false,0.0,0.05609432188994738,3.2208257258448246e-9,0.004468867174472976,1.2983712099289382e-10,1.1135542590001178e-9,-5.038475733066294e-10,-1.905157949423951e-10,2.602565117680267e-9,0.3000000045001061,0.3000000045251555,0.30000000337009713,0.016299975365473014,-1.9686855847282975e-9,2.281142577781438e-9,0.023136816275781874,2.0979938128772636e-10
2018-03-29,false,0.0,0.05609432188994738,3.2208257258448246e-9,0.004468867174472976,1.2983712099289382e-10,1.1135542590001178e-9,-5.038475733066294e-10,-1.905157949423951e-10,2.602565117680267e-9,0.3000000045001061,0.3000000045251555,0.30000000337009713,0.016299975365473014,-1.9686855847282975e-9,2.281142577781438e-9,0.023136816275781874,2.0979938128772636e-10
2018-04-30,true,0.11025972142530174,0.005433575963918259,0.043754757970095315,6.569873560348959e-7,-2.0145547606798687e-7,1.5483274686318631e-7,3.544113654121975e-7,3.127676148693165e-7,4.663159893022174e-7,0.30000099293500737,0.30000020567036867,0.30000033587467956,0.02724820520380362,-2.4031152822103065e-7,2.632874707815854e-8,0.02356086072267398,-4.6470144637407794e-7
2018-05-31,false,0.0,0.005433575963918259,0.043754757970095315,6.569873560348959e-7,-2.0145547606798687e-7,1.5483274686318631e-7,3.544113654121975e-7,3.127676148693165e-7,4.663159893022174e-7,0.30000099293500737,0.30000020567036867,0.30000033587467956,0.02724820520380362,-2.4031152822103065e-7,2.632874707815854e-8,0.02356086072267398,-4.6470144637407794e-7
2018-06-29,false,0.0,0.005433575963918259,0.043754757970095315,6.569873560348959e-7,-2.0145547606798687e-7,1.5483274686318631e-7,3.544113654121975e-7,3.127676148693165e-7,4.663159893022174e-7,0.30000099293500737,0.30000020567036867,0.30000033587467956,0.02724820520380362,-2.4031152822103065e-7,2.632874707815854e-8,0.02356086072267398,-4.6470144637407794e-7
2018-07-31,false,0.0,0.005433575963918259,0.043754757970095315,6.569873560348959e-7,-2.0145547606798687e-7,1.5483274686318631e-7,3.544113654121975e-7,3.127676148693165e-7,4.663159893022174e-7,0.30000099293500737,0.30000020567036867,0.30000033587467956,0.02724820520380362,-2.4031152822103065e-7,2.632874707815854e-8,0.02356086072267398,-4.6470144637407794e-7
2018-08-31,false,0.0,0.005433575963918259,0.043754757970095315,6.569873560348959e-7,-2.0145547606798687e-7,1.5483274686318631e-7,3.544113654121975e-7,3.127676148693165e-7,4.663159893022174e-7,0.30000099293500737,0.30000020567036867,0.30000033587467956,0.02724820520380362,-2.4031152822103065e-7,2.632874707815854e-8,0.02356086072267398,-4.6470144637407794e-7
2018-09-28,false,0.0,0.005433575963918259,0.043754757970095315,6.569873560348959e-7,-2.0145547606798687e-7,1.5483274686318631e-7,3.544113654121975e-7,3.127676148693165e-7,4.663159893022174e-7,0.30000099293500737,0.30000020567036867,0.30000033587467956,0.02724820520380362,-2.4031152822103065e-7,2.632874707815854e-8,0.02356086072267398,-4.6470144637407794e-7
2018-10-31,false,0.0,0.005433575963918259,0.043754757970095315,6.569873560348959e-7,-2.0145547606798687e-7,1.5483274686318631e-7,3.544113654121975e-7,3.127676148693165e-7,4.663159893022174e-7,0.30000099293500737,0.30000020567036867,0.30000033587467956,0.02724820520380362,-2.4031152822103065e-7,2.632874707815854e-8,0.02356086072267398,-4.6470144637407794e-7
2018-11-30,false,0.0,0.005433575963918259,0.043754757970095315,6.569873560348959e-7,-2.0145547606798687e-7,1.5483274686318631e-7,3.544113654121975e-7,3.127676148693165e-7,4.663159893022174e-7,0.30000099293500737,0.30000020567036867,0.30000033587467956,0.02724820520380362,-2.4031152822103065e-7,2.632874707815854e-8,0.02356086072267398,-4.6470144637407794e-7
2018-12-31,false,0.0,0.005433575963918259,0.043754757970095315,6.569873560348959e-7,-2.0145547606798687e-7,1.5483274686318631e-7,3.544113654121975e-7,3.127676148693165e-7,4.663159893022174e-7,0.30000099293500737,0.30000020567036867,0.30000033587467956,0.02724820520380362,-2.4031152822103065e-7,2.632874707815854e-8,0.02356086072267398,-4.6470144637407794e-7
2019-01-31,false,0.0,0.005433575963918259,0.043754757970095315,6.569873560348959e-7,-2.0145547606798687e-7,1.5483274686318631e-7,3.544113654121975e-7,3.127676148693165e-7,4.663159893022174e-7,0.30000099293500737,0.30000020567036867,0.30000033587467956,0.02724820520380362,-2.4031152822103065e-7,2.632874707815854e-8,0.02356086072267398,-4.6470144637407794e-7
2019-02-28,false,0.0,0.005433575963918259,0.043754757970095315,6.569873560348959e-7,-2.0145547606798687e-7,1.5483274686318631e-7,3.544113654121975e-7,3.127676148693165e-7,4.663159893022174e-7,0.30000099293500737,0.30000020567036867,0.30000033587467956,0.02724820520380362,-2.4031152822103065e-7,2.632874707815854e-8,0.02356086072267398,-4.6470144637407794e-7
2019-03-29,false,0.0,0.005433575963918259,0.043754757970095315,6.569873560348959e-7,-2.0145547606798687e-7,1.5483274686318631e-7,3.544113654121975e-7,3.127676148693165e-7,4.663159893022174e-7,0.30000099293500737,0.30000020567036867,0.30000033587467956,0.02724820520380362,-2.4031152822103065e-7,2.632874707815854e-8,0.02356086072267398,-4.6470144637407794e-7
2019-04-30,false,0.0,0.005433575963918259,0.043754757970095315,6.569873560348959e-7,-2.0145547606798687e-7,1.5483274686318631e-7,3.544113654121975e-7,3.127676148693165e-7,4.663159893022174e-7,0.30000099293500737,0.30000020567036867,0.30000033587467956,0.02724820520380362,-2.4031152822103065e-7,2.632874707815854e-8,0.02356086072267398,-4.6470144637407794e-7
2019-05-31,false,0.0,0.005433575963918259,0.043754757970095315,6.569873560348959e-7,-2.0145547606798687e-7,1.5483274686318631e-7,3.544113654121975e-7,3.127676148693165e-7,4.663159893022174e-7,0.30000099293500737,0.30000020567036867,0.30000033587467956,0.02724820520380362,-2.4031152822103065e-7,2.632874707815854e-8,0.02356086072267398,-4.6470144637407794e-7
2019-06-28,false,0.0,0.005433575963918259,0.043754757970095315,6.569873560348959e-7,-2.0145547606798687e-7,1.5483274686318631e-7,3.544113654121975e-7,3.127676148693165e-7,4.663159893022174e-7,0.30000099293500737,0.30000020567036867,0.30000033587467956,0.02724820520380362,-2.4031152822103065e-7,2.632874707815854e-8,0.02356086072267398,-4.6470144637407794e-7
2019-07-31,false,0.0,0.005433575963918259,0.043754757970095315,6.569873560348959e-7,-2.0145547606798687e-7,1.5483274686318631e-7,3.544113654121975e-7,3.127676148693165e-7,4.663159893022174e-7,0.30000099293500737,0.30000020567036867,0.30000033587467956,0.02724820520380362,-2.4031152822103065e-7,2.632874707815854e-8,0.02356086072267398,-4.6470144637407794e-7
2019-08-30,false,0.0,0.005433575963918259,0.043754757970095315,6.569873560348959e-7,-2.0145547606798687e-7,1.5483274686318631e-7,3.544113654121975e-7,3.127676148693165e-7,4.663159893022174e-7,0.30000099293500737,0.30000020567036867,0.30000033587467956,0.02724820520380362,-2.4031152822103065e-7,2.632874707815854e-8,0.02356086072267398,-4.6470144637407794e-7
2019-09-30,false,0.0,0.005433575963918259,0.043754757970095315,6.569873560348959e-7,-2.0145547606798687e-7,1.5483274686318631e-7,3.544113654121975e-7,3.127676148693165e-7,4.663159893022174e-7,0.30000099293500737,0.30000020567036867,0.30000033587467956,0.02724820520380362,-2.4031152822103065e-7,2.632874707815854e-8,0.02356086072267398,-4.6470144637407794e-7
2019-10-31,false,0.0,0.005433575963918259,0.043754757970095315,6.569873560348959e-7,-2.0145547606798687e-7,1.5483274686318631e-7,3.544113654121975e-7,3.127676148693165e-7,4.663159893022174e-7,0.30000099293500737,0.30000020567036867,0.30000033587467956,0.02724820520380362,-2.4031152822103065e-7,2.632874707815854e-8,0.02356086072267398,-4.6470144637407794e-7
2019-11-29,false,0.0,0.005433575963918259,0.043754757970095315,6.569873560348959e-7,-2.0145547606798687e-7,1.5483274686318631e-7,3.544113654121975e-7,3.127676148693165e-7,4.663159893022174e-7,0.30000099293500737,0.30000020567036867,0.30000033587467956,0.02724820520380362,-2.4031152822103065e-7,2.632874707815854e-8,0.02356086072267398,-4.6470144637407794e-7
2019-12-31,false,0.0,0.005433575963918259,0.043754757970095315,6.569873560348959e-7,-2.0145547606798687e-7,1.5483274686318631e-7,3.544113654121975e-7,3.127676148693165e-7,4.663159893022174e-7,0.30000099293500737,0.30000020567036867,0.30000033587467956,0.02724820520380362,-2.4031152822103065e-7,2.632874707815854e-8,0.02356086072267398,-4.6470144637407794e-7
2020-01-31,false,0.0,0.005433575963918259,0.043754757970095315,6.569873560348959e-7,-2.0145547606798687e-7,1.5483274686318631e-7,3.544113654121975e-7,3.127676148693165e-7,4.663159893022174e-7,0.30000099293500737,0.30000020567036867,0.30000033587467956,0.02724820520380362,-2.4031152822103065e-7,2.632874707815854e-8,0.02356086072267398,-4.6470144637407794e-7
2020-02-28,false,0.0,0.005433575963918259,0.043754757970095315,6.569873560348959e-7,-2.0145547606798687e-7,1.5483274686318631e-7,3.544113654121975e-7,3.127676148693165e-7,4.663159893022174e-7,0.30000099293500737,0.30000020567036867,0.30000033587467956,0.02724820520380362,-2.4031152822103065e-7,2.632874707815854e-8,0.02356086072267398,-4.6470144637407794e-7
2020-03-31,true,0.5398409842358157,0.013094345564279025,-3.0027932289333755e-7,-3.2045103887712125e-7,-3.081755867286782e-7,-2.4375629747966165e-7,-2.5644376743097634e-7,-2.4593715966507424e-7,0.10929352821893545,0.299999832026973,0.07383947865904583,0.29999973050736994,0.10833821106106085,-1.6263713398852618e-8,-2.6160795041423395e-7,0.09543699824315982,-1.7117473525353312e-7
2020-04-30,true,0.11783917662178085,0.017033818801985703,1.507497039581944e-8,-7.960071263267322e-9,5.115702360676683e-8,2.8637372784669425e-8,7.94150081818241e-8,7.258615957479168e-8,0.15258299888820043,0.29999982044639495,0.016808128901849125,0.2999999385358429,0.10644998405172564,5.8145616246416545e-9,8.047405079166691e-8,0.10712499218457502,-6.890836768817587e-9
2020-05-29,false,0.0,0.017033818801985703,1.507497039581944e-8,-7.960071263267322e-9,5.115702360676683e-8,2.8637372784669425e-8,7.94150081818241e-8,7.258615957479168e-8,0.15258299888820043,0.29999982044639495,0.016808128901849125,0.2999999385358429,0.10644998405172564,5.8145616246416545e-9,8.047405079166691e-8,0.10712499218457502,-6.890836768817587e-9
2020-06-30,false,0.0,0.017033818801985703,1.507497039581944e-8,-7.960071263267322e-9,5.115702360676683e-8,2.8637372784669425e-8,7.94150081818241e-8,7.258615957479168e-8,0.15258299888820043,0.29999982044639495,0.016808128901849125,0.2999999385358429,0.10644998405172564,5.8145616246416545e-9,8.047405079166691e-8,0.10712499218457502,-6.890836768817587e-9
2020-07-31,false,0.0,0.017033818801985703,1.507497039581944e-8,-7.960071263267322e-9,5.115702360676683e-8,2.8637372784669425e-8,7.94150081818241e-8,7.258615957479168e-8,0.15258299888820043,0.29999982044639495,0.016808128901849125,0.2999999385358429,0.10644998405172564,5.8145616246416545e-9,8.047405079166691e-8,0.10712499218457502,-6.890836768817587e-9
2020-08-31,false,0.0,0.017033818801985703,1.507497039581944e-8,-7.960071263267322e-9,5.115702360676683e-8,2.8637372784669425e-8,7.94150081818241e-8,7.258615957479168e-8,0.15258299888820043,0.29999982044639495,0.016808128901849125,0.2999999385358429,0.10644998405172564,5.8145616246416545e-9,8.047405079166691e-8,0.10712499218457502,-6.890836768817587e-9
2020-09-30,false,0.0,0.017033818801985703,1.507497039581944e-8,-7.960071263267322e-9,5.115702360676683e-8,2.8637372784669425e-8,7.94150081818241e-8,7.258615957479168e-8,0.15258299888820043,0.29999982044639495,0.016808128901849125,0.2999999385358429,0.10644998405172564,5.8145616246416545e-9,8.047405079166691e-8,0.10712499218457502,-6.890836768817587e-9
2020-10-30,false,0.0,0.017033818801985703,1.507497039581944e-8,-7.960071263267322e-9,5.115702360676683e-8,2.8637372784669425e-8,7.94150081818241e-8,7.258615957479168e-8,0.15258299888820043,0.29999982044639495,0.016808128901849125,0.2999999385358429,0.10644998405172564,5.8145616246416545e-9,8.047405079166691e-8,0.10712499218457502,-6.890836768817587e-9
2020-11-30,false,0.0,0.017033818801985703,1.507497039581944e-8,-7.960071263267322e-9,5.115702360676683e-8,2.8637372784669425e-8,7.94150081818241e-8,7.258615957479168e-8,0.15258299888820043,0.29999982044639495,0.016808128901849125,0.2999999385358429,0.10644998405172564,5.8145616246416545e-9,8.047405079166691e-8,0.10712499218457502,-6.890836768817587e-9
2020-12-31,false,0.0,0.017033818801985703,1.507497039581944e-8,-7.960071263267322e-9,5.115702360676683e-8,2.8637372784669425e-8,7.94150081818241e-8,7.258615957479168e-8,0.15258299888820043,0.29999982044639495,0.016808128901849125,0.2999999385358429,0.10644998405172564,5.8145616246416545e-9,8.047405079166691e-8,0.10712499218457502,-6.890836768817587e-9
2021-01-29,false,0.0,0.017033818801985703,1.507497039581944e-8,-7.960071263267322e-9,5.115702360676683e-8,2.8637372784669425e-8,7.94150081818241e-8,7.258615957479168e-8,0.15258299888820043,0.29999982044639495,0.016808128901849125,0.2999999385358429,0.10644998405172564,5.8145616246416545e-9,8.047405079166691e-8,0.10712499218457502,-6.890836768817587e-9
2021-02-26,false,0.0,0.017033818801985703,1.507497039581944e-8,-7.960071263267322e-9,5.115702360676683e-8,2.8637372784669425e-8,7.94150081818241e-8,7.258615957479168e-8,0.15258299888820043,0.29999982044639495,0.016808128901849125,0.2999999385358429,0.10644998405172564,5.8145616246416545e-9,8.047405079166691e-8,0.10712499218457502,-6.890836768817587e-9
2021-03-31,false,0.0,0.017033818801985703,1.507497039581944e-8,-7.960071263267322e-9,5.115702360676683e-8,2.8637372784669425e-8,7.94150081818241e-8,7.258615957479168e-8,0.15258299888820043,0.29999982044639495,0.016808128901849125,0.2999999385358429,0.10644998405172564,5.8145616246416545e-9,8.047405079166691e-8,0.10712499218457502,-6.890836768817587e-9
2021-04-30,false,0.0,0.017033818801985703,1.507497039581944e-8,-7.960071263267322e-9,5.115702360676683e-8,2.8637372784669425e-8,7.94150081818241e-8,7.258615957479168e-8,0.15258299888820043,0.29999982044639495,0.016808128901849125,0.2999999385358429,0.10644998405172564,5.8145616246416545e-9,8.047405079166691e-8,0.10712499218457502,-6.890836768817587e-9
2021-05-28,false,0.0,0.017033818801985703,1.507497039581944e-8,-7.960071263267322e-9,5.115702360676683e-8,2.8637372784669425e-8,7.94150081818241e-8,7.258615957479168e-8,0.15258299888820043,0.29999982044639495,0.016808128901849125,0.2999999385358429,0.10644998405172564,5.8145616246416545e-9,8.047405079166691e-8,0.10712499218457502,-6.890836768817587e-9
2021-06-30,false,0.0,0.017033818801985703,1.507497039581944e-8,-7.960071263267322e-9,5.115702360676683e-8,2.8637372784669425e-8,7.94150081818241e-8,7.258615957479168e-8,0.15258299888820043,0.29999982044639495,0.016808128901849125,0.2999999385358429,0.10644998405172564,5.8145616246416545e-9,8.047405079166691e-8,0.10712499218457502,-6.890836768817587e-9
2021-07-30,false,0.0,0.017033818801985703,1.507497039581944e-8,-7.960071263267322e-9,5.115702360676683e-8,2.8637372784669425e-8,7.94150081818241e-8,7.258615957479168e-8,0.15258299888820043,0.29999982044639495,0.016808128901849125,0.2999999385358429,0.10644998405172564,5.8145616246416545e-9,8.047405079166691e-8,0.10712499218457502,-6.890836768817587e-9
2021-08-31,false,0.0,0.017033818801985703,1.507497039581944e-8,-7.960071263267322e-9,5.115702360676683e-8,2.8637372784669425e-8,7.94150081818241e-8,7.258615957479168e-8,0.15258299888820043,0.29999982044639495,0.016808128901849125,0.2999999385358429,0.10644998405172564,5.8145616246416545e-9,8.047405079166691e-8,0.10712499218457502,-6.890836768817587e-9
2021-09-30,false,0.0,0.017033818801985703,1.507497039581944e-8,-7.960071263267322e-9,5.115702360676683e-8,2.8637372784669425e-8,7.94150081818241e-8,7.258615957479168e-8,0.15258299888820043,0.29999982044639495,0.016808128901849125,0.2999999385358429,0.10644998405172564,5.8145616246416545e-9,8.047405079166691e-8,0.10712499218457502,-6.890836768817587e-9
2021-10-29,false,0.0,0.017033818801985703,1.507497039581944e-8,-7.960071263267322e-9,5.115702360676683e-8,2.8637372784669425e-8,7.94150081818241e-8,7.258615957479168e-8,0.15258299888820043,0.29999982044639495,0.016808128901849125,0.2999999385358429,0.10644998405172564,5.8145616246416545e-9,8.047405079166691e-8,0.10712499218457502,-6.890836768817587e-9
2021-11-30,false,0.0,0.017033818801985703,1.507497039581944e-8,-7.960071263267322e-9,5.115702360676683e-8,2.8637372784669425e-8,7.94150081818241e-8,7.258615957479168e-8,0.15258299888820043,0.29999982044639495,0.016808128901849125,0.2999999385358429,0.10644998405172564,5.8145616246416545e-9,8.047405079166691e-8,0.10712499218457502,-6.890836768817587e-9
2021-12-31,false,0.0,0.017033818801985703,1.507497039581944e-8,-7.960071263267322e-9,5.115702360676683e-8,2.8637372784669425e-8,7.94150081818241e-8,7.258615957479168e-8,0.15258299888820043,0.29999982044639495,0.016808128901849125,0.2999999385358429,0.10644998405172564,5.8145616246416545e-9,8.047405079166691e-8,0.10712499218457502,-6.890836768817587e-9
2022-01-31,false,0.0,0.017033818801985703,1.507497039581944e-8,-7.960071263267322e-9,5.115702360676683e-8,2.8637372784669425e-8,7.94150081818241e-8,7.258615957479168e-8,0.15258299888820043,0.29999982044639495,0.016808128901849125,0.2999999385358429,0.10644998405172564,5.8145616246416545e-9,8.047405079166691e-8,0.10712499218457502,-6.890836768817587e-9
2022-02-28,false,0.0,0.017033818801985703,1.507497039581944e-8,-7.960071263267322e-9,5.115702360676683e-8,2.8637372784669425e-8,7.94150081818241e-8,7.258615957479168e-8,0.15258299888820043,0.29999982044639495,0.016808128901849125,0.2999999385358429,0.10644998405172564,5.8145616246416545e-9,8.047405079166691e-8,0.10712499218457502,-6.890836768817587e-9
2022-03-31,false,0.0,0.017033818801985703,1.507497039581944e-8,-7.960071263267322e-9,5.115702360676683e-8,2.8637372784669425e-8,7.94150081818241e-8,7.258615957479168e-8,0.15258299888820043,0.29999982044639495,0.016808128901849125,0.2999999385358429,0.10644998405172564,5.8145616246416545e-9,8.047405079166691e-8,0.10712499218457502,-6.890836768817587e-9
2022-04-29,false,0.0,0.017033818801985703,1.507497039581944e-8,-7.960071263267322e-9,5.115702360676683e-8,2.8637372784669425e-8,7.94150081818241e-8,7.258615957479168e-8,0.15258299888820043,0.29999982044639495,0.016808128901849125,0.2999999385358429,0.10644998405172564,5.8145616246416545e-9,8.047405079166691e-8,0.10712499218457502,-6.890836768817587e-9
2022-05-31,false,0.0,0.017033818801985703,1.507497039581944e-8,-7.960071263267322e-9,5.115702360676683e-8,2.8637372784669425e-8,7.94150081818241e-8,7.258615957479168e-8,0.15258299888820043,0.29999982044639495,0.016808128901849125,0.2999999385358429,0.10644998405172564,5.8145616246416545e-9,8.047405079166691e-8,0.10712499218457502,-6.890836768817587e-9
2022-06-30,true,0.1448240555279737,-4.0719447961287877e-10,-8.089594397444776e-10,7.471715244980927e-11,1.3990535076707493e-10,0.013830556134788778,-4.404797500380601e-10,-4.743544582044845e-10,0.1100728063599489,0.29999999972514535,0.0753893753755599,0.29999999821438267,0.10449948774961335,-1.7190799536056983e-10,-1.678710235209635e-10,0.09620777884748524,-1.4814368878310546e-10
2022-07-29,false,0.0,-4.0719447961287877e-10,-8.089594397444776e-10,7.471715244980927e-11,1.3990535076707493e-10,0.013830556134788778,-4.404797500380601e-10,-4.743544582044845e-10,0.1100728063599489,0.29999999972514535,0.0753893753755599,0.29999999821438267,0.10449948774961335,-1.7190799536056983e-10,-1.678710235209635e-10,0.09620777884748524,-1.4814368878310546e-10
2022-08-31,false,0.0,-4.0719447961287877e-10,-8.089594397444776e-10,7.471715244980927e-11,1.3990535076707493e-10,0.013830556134788778,-4.404797500380601e-10,-4.743544582044845e-10,0.1100728063599489,0.29999999972514535,0.0753893753755599,0.29999999821438267,0.10449948774961335,-1.7190799536056983e-10,-1.678710235209635e-10,0.09620777884748524,-1.4814368878310546e-10
2022-09-30,false,0.0,-4.0719447961287877e-10,-8.089594397444776e-10,7.471715244980927e-11,1.3990535076707493e-10,0.013830556134788778,-4.404797500380601e-10,-4.743544582044845e-10,0.1100728063599489,0.29999999972514535,0.0753893753755599,0.29999999821438267,0.10449948774961335,-1.7190799536056983e-10,-1.678710235209635e-10,0.09620777884748524,-1.4814368878310546e-10
2022-10-31,false,0.0,-4.0719447961287877e-10,-8.089594397444776e-10,7.471715244980927e-11,1.3990535076707493e-10,0.013830556134788778,-4.404797500380601e-10,-4.743544582044845e-10,0.1100728063599489,0.29999999972514535,0.0753893753755599,0.29999999821438267,0.10449948774961335,-1.7190799536056983e-10,-1.678710235209635e-10,0.09620777884748524,-1.4814368878310546e-10
2022-11-30,false,0.0,-4.0719447961287877e-10,-8.089594397444776e-10,7.471715244980927e-11,1.3990535076707493e-10,0.013830556134788778,-4.404797500380601e-10,-4.743544582044845e-10,0.1100728063599489,0.29999999972514535,0.0753893753755599,0.29999999821438267,0.10449948774961335,-1.7190799536056983e-10,-1.678710235209635e-10,0.09620777884748524,-1.4814368878310546e-10
2022-12-30,false,0.0,-4.0719447961287877e-10,-8.089594397444776e-10,7.471715244980927e-11,1.3990535076707493e-10,0.013830556134788778,-4.404797500380601e-10,-4.743544582044845e-10,0.1100728063599489,0.29999999972514535,0.0753893753755599,0.29999999821438267,0.10449948774961335,-1.7190799536056983e-10,-1.678710235209635e-10,0.09620777884748524,-1.4814368878310546e-10
2023-01-31,false,0.0,-4.0719447961287877e-10,-8.089594397444776e-10,7.471715244980927e-11,1.3990535076707493e-10,0.013830556134788778,-4.404797500380601e-10,-4.743544582044845e-10,0.1100728063599489,0.29999999972514535,0.0753893753755599,0.29999999821438267,0.10449948774961335,-1.7190799536056983e-10,-1.678710235209635e-10,0.09620777884748524,-1.4814368878310546e-10
2023-02-28,false,0.0,-4.0719447961287877e-10,-8.089594397444776e-10,7.471715244980927e-11,1.3990535076707493e-10,0.013830556134788778,-4.404797500380601e-10,-4.743544582044845e-10,0.1100728063599489,0.29999999972514535,0.0753893753755599,0.29999999821438267,0.10449948774961335,-1.7190799536056983e-10,-1.678710235209635e-10,0.09620777884748524,-1.4814368878310546e-10
2023-03-31,true,0.3320621951067172,3.5956924965302218e-9,4.481709045508567e-9,2.785888917419317e-9,4.7020134080214126e-9,3.6181011304995555e-9,1.2918840142351721e-9,1.3433863422512536e-9,-3.668045412377554e-9,0.30000004194722774,0.24142040176808433,0.29999995531533075,0.07497240457504575,1.2539967495156595e-9,4.092322770541625e-9,0.08360716990911413,2.9842557051218826e-9
2023-04-28,false,0.0,3.5956924965302218e-9,4.481709045508567e-9,2.785888917419317e-9,4.7020134080214126e-9,3.6181011304995555e-9,1.2918840142351721e-9,1.3433863422512536e-9,-3.668045412377554e-9,0.30000004194722774,0.24142040176808433,0.29999995531533075,0.07497240457504575,1.2539967495156595e-9,4.092322770541625e-9,0.08360716990911413,2.9842557051218826e-9
2023-05-31,false,0.0,3.5956924965302218e-9,4.481709045508567e-9,2.785888917419317e-9,4.7020134080214126e-9,3.6181011304995555e-9,1.2918840142351721e-9,1.3433863422512536e-9,-3.668045412377554e-9,0.30000004194722774,0.24142040176808433,0.29999995531533075,0.07497240457504575,1.2539967495156595e-9,4.092322770541625e-9,0.08360716990911413,2.9842557051218826e-9
2023-06-30,false,0.0,3.5956924965302218e-9,4.481709045508567e-9,2.785888917419317e-9,4.7020134080214126e-9,3.6181011304995555e-9,1.2918840142351721e-9,1.3433863422512536e-9,-3.668045412377554e-9,0.30000004194722774,0.24142040176808433,0.29999995531533075,0.07497240457504575,1.2539967495156595e-9,4.092322770541625e-9,0.08360716990911413,2.9842557051218826e-9
2023-07-31,false,0.0,3.5956924965302218e-9,4.481709045508567e-9,2.785888917419317e-9,4.7020134080214126e-9,3.6181011304995555e-9,1.2918840142351721e-9,1.3433863422512536e-9,-3.668045412377554e-9,0.30000004194722774,0.24142040176808433,0.29999995531533075,0.07497240457504575,1.2539967495156595e-9,4.092322770541625e-9,0.08360716990911413,2.9842557051218826e-9
2023-08-31,false,0.0,3.5956924965302218e-9,4.481709045508567e-9,2.785888917419317e-9,4.7020134080214126e-9,3.6181011304995555e-9,1.2918840142351721e-9,1.3433863422512536e-9,-3.668045412377554e-9,0.30000004194722774,0.24142040176808433,0.29999995531533075,0.07497240457504575,1.2539967495156595e-9,4.092322770541625e-9,0.08360716990911413,2.9842557051218826e-9
2023-09-29,false,0.0,3.5956924965302218e-9,4.481709045508567e-9,2.785888917419317e-9,4.7020134080214126e-9,3.6181011304995555e-9,1.2918840142351721e-9,1.3433863422512536e-9,-3.668045412377554e-9,0.30000004194722774,0.24142040176808433,0.29999995531533075,0.07497240457504575,1.2539967495156595e-9,4.092322770541625e-9,0.08360716990911413,2.9842557051218826e-9
2023-10-31,false,0.0,3.5956924965302218e-9,4.481709045508567e-9,2.785888917419317e-9,4.7020134080214126e-9,3.6181011304995555e-9,1.2918840142351721e-9,1.3433863422512536e-9,-3.668045412377554e-9,0.30000004194722774,0.24142040176808433,0.29999995531533075,0.07497240457504575,1.2539967495156595e-9,4.092322770541625e-9,0.08360716990911413,2.9842557051218826e-9
2023-11-30,true,0.11203031015942982,5.035976868210431e-7,0.039005527850270824,4.713570739878188e-7,5.064432099570186e-7,5.213109320105008e-7,4.899660548643301e-7,0.004924020153934944,4.911975323076288e-7,0.30000156015961654,0.1854052461863141,0.30000151081867127,0.0822964299261918,6.183728351801816e-7,5.116978848499868e-7,0.08836098884627216,6.01107415614056e-7
2023-12-29,false,0.0,5.035976868210431e-7,0.039005527850270824,4.713570739878188e-7,5.064432099570186e-7,5.213109320105008e-7,4.899660548643301e-7,0.004924020153934944,4.911975323076288e-7,0.30000156015961654,0.1854052461863141,0.30000151081867127,0.0822964299261918,6.183728351801816e-7,5.116978848499868e-7,0.08836098884627216,6.01107415614056e-7
2024-01-31,false,0.0,5.035976868210431e-7,0.039005527850270824,4.713570739878188e-7,5.064432099570186e-7,5.213109320105008e-7,4.899660548643301e-7,0.004924020153934944,4.911975323076288e-7,0.30000156015961654,0.1854052461863141,0.30000151081867127,0.0822964299261918,6.183728351801816e-7,5.116978848499868e-7,0.08836098884627216,6.01107415614056e-7
2024-02-29,false,0.0,5.035976868210431e-7,0.039005527850270824,4.713570739878188e-7,5.064432099570186e-7,5.213109320105008e-7,4.899660548643301e-7,0.004924020153934944,4.911975323076288e-7,0.30000156015961654,0.1854052461863141,0.30000151081867127,0.0822964299261918,6.183728351801816e-7,5.116978848499868e-7,0.08836098884627216,6.01107415614056e-7
2024-03-28,false,0.0,5.035976868210431e-7,0.039005527850270824,4.713570739878188e-7,5.064432099570186e-7,5.213109320105008e-7,4.899660548643301e-7,0.004924020153934944,4.911975323076288e-7,0.30000156015961654,0.1854052461863141,0.30000151081867127,0.0822964299261918,6.183728351801816e-7,5.116978848499868e-7,0.08836098884627216,6.01107415614056e-7
2024-04-30,false,0.0,5.035976868210431e-7,0.039005527850270824,4.713570739878188e-7,5.064432099570186e-7,5.213109320105008e-7,4.899660548643301e-7,0.004924020153934944,4.911975323076288e-7,0.30000156015961654,0.1854052461863141,0.30000151081867127,0.0822964299261918,6.183728351801816e-7,5.116978848499868e-7,0.08836098884627216,6.01107415614056e-7
2024-05-31,false,0.0,5.035976868210431e-7,0.039005527850270824,4.713570739878188e-7,5.064432099570186e-7,5.213109320105008e-7,4.899660548643301e-7,0.004924020153934944,4.911975323076288e-7,0.30000156015961654,0.1854052461863141,0.30000151081867127,0.0822964299261918,6.183728351801816e-7,5.116978848499868e-7,0.08836098884627216,6.01107415614056e-7
2024-06-28,false,0.0,5.035976868210431e-7,0.039005527850270824,4.713570739878188e-7,5.064432099570186e-7,5.213109320105008e-7,4.899660548643301e-7,0.004924020153934944,4.911975323076288e-7,0.30000156015961654,0.1854052461863141,0.30000151081867127,0.0822964299261918,6.183728351801816e-7,5.116978848499868e-7,0.08836098884627216,6.01107415614056e-7
2024-07-31,false,0.0,5.035976868210431e-7,0.039005527850270824,4.713570739878188e-7,5.064432099570186e-7,5.213109320105008e-7,4.899660548643301e-7,0.004924020153934944,4.911975323076288e-7,0.30000156015961654,0.1854052461863141,0.30000151081867127,0.0822964299261918,6.183728351801816e-7,5.116978848499868e-7,0.08836098884627216,6.01107415614056e-7
2024-08-30,false,0.0,5.035976868210431e-7,0.039005527850270824,4.713570739878188e-7,5.064432099570186e-7,5.213109320105008e-7,4.899660548643301e-7,0.004924020153934944,4.911975323076288e-7,0.30000156015961654,0.1854052461863141,0.30000151081867127,0.0822964299261918,6.183728351801816e-7,5.116978848499868e-7,0.08836098884627216,6.01107415614056e-7
2024-09-30,false,0.0,5.035976868210431e-7,0.039005527850270824,4.713570739878188e-7,5.064432099570186e-7,5.213109320105008e-7,4.899660548643301e-7,0.004924020153934944,4.911975323076288e-7,0.30000156015961654,0.1854052461863141,0.30000151081867127,0.0822964299261918,6.183728351801816e-7,5.116978848499868e-7,0.08836098884627216,6.01107415614056e-7
2024-10-31,false,0.0,5.035976868210431e-7,0.039005527850270824,4.713570739878188e-7,5.064432099570186e-7,5.213109320105008e-7,4.899660548643301e-7,0.004924020153934944,4.911975323076288e-7,0.30000156015961654,0.1854052461863141,0.30000151081867127,0.0822964299261918,6.183728351801816e-7,5.116978848499868e-7,0.08836098884627216,6.01107415614056e-7
2024-11-29,false,0.0,5.035976868210431e-7,0.039005527850270824,4.713570739878188e-7,5.064432099570186e-7,5.213109320105008e-7,4.899660548643301e-7,0.004924020153934944,4.911975323076288e-7,0.30000156015961654,0.1854052461863141,0.30000151081867127,0.0822964299261918,6.183728351801816e-7,5.116978848499868e-7,0.08836098884627216,6.01107415614056e-7
2024-12-31,false,0.0,5.035976868210431e-7,0.039005527850270824,4.713570739878188e-7,5.064432099570186e-7,5.213109320105008e-7,4.899660548643301e-7,0.004924020153934944,4.911975323076288e-7,0.30000156015961654,0.1854052461863141,0.30000151081867127,0.0822964299261918,6.183728351801816e-7,5.116978848499868e-7,0.08836098884627216,6.01107415614056e-7
2025-01-31,false,0.0,5.035976868210431e-7,0.039005527850270824,4.713570739878188e-7,5.064432099570186e-7,5.213109320105008e-7,4.899660548643301e-7,0.004924020153934944,4.911975323076288e-7,0.30000156015961654,0.1854052461863141,0.30000151081867127,0.0822964299261918,6.183728351801816e-7,5.116978848499868e-7,0.08836098884627216,6.01107415614056e-7
2025-02-28,false,0.0,5.035976868210431e-7,0.039005527850270824,4.713570739878188e-7,5.064432099570186e-7,5.213109320105008e-7,4.899660548643301e-7,0.004924020153934944,4.911975323076288e-7,0.30000156015961654,0.1854052461863141,0.30000151081867127,0.0822964299261918,6.183728351801816e-7,5.116978848499868e-7,0.08836098884627216,6.01107415614056e-7
2025-03-31,true,0.12579031209004224,9.384449442835652e-8,0.010899550019228217,8.160474588371637e-8,9.017002497738413e-8,1.0131925618721246e-7,9.394818314503133e-8,0.0029255910382450633,1.2163107561371793e-7,0.3000002237699232,0.19121776764831475,0.3000005151635011,0.049511767289634856,1.1775053237130116e-7,9.44430248095883e-8,0.1454436238154095,1.6630853684515218e-7
2025-04-30,false,0.0,9.384449442835652e-8,0.010899550019228217,8.160474588371637e-8,9.017002497738413e-8,1.0131925618721246e-7,9.394818314503133e-8,0.0029255910382450633,1.2163107561371793e-7,0.3000002237699232,0.19121776764831475,0.3000005151635011,0.049511767289634856,1.1775053237130116e-7,9.44430248095883e-8,0.1454436238154095,1.6630853684515218e-7
2025-05-30,false,0.0,9.384449442835652e-8,0.010899550019228217,8.160474588371637e-8,9.017002497738413e-8,1.0131925618721246e-7,9.394818314503133e-8,0.0029255910382450633,1.2163107561371793e-7,0.3000002237699232,0.19121776764831475,0.3000005151635011,0.049511767289634856,1.1775053237130116e-7,9.44430248095883e-8,0.1454436238154095,1.6630853684515218e-7
2025-06-30,false,0.0,9.384449442835652e-8,0.010899550019228217,8.160474588371637e-8,9.017002497738413e-8,1.0131925618721246e-7,9.394818314503133e-8,0.0029255910382450633,1.2163107561371793e-7,0.3000002237699232,0.19121776764831475,0.3000005151635011,0.049511767289634856,1.1775053237130116e-7,9.44430248095883e-8,0.1454436238154095,1.6630853684515218e-7
2025-07-31,false,0.0,9.384449442835652e-8,0.010899550019228217,8.160474588371637e-8,9.017002497738413e-8,1.0131925618721246e-7,9.394818314503133e-8,0.0029255910382450633,1.2163107561371793e-7,0.3000002237699232,0.19121776764831475,0.3000005151635011,0.049511767289634856,1.1775053237130116e-7,9.44430248095883e-8,0.1454436238154095,1.6630853684515218e-7
2025-08-29,false,0.0,9.384449442835652e-8,0.010899550019228217,8.160474588371637e-8,9.017002497738413e-8,1.0131925618721246e-7,9.394818314503133e-8,0.0029255910382450633,1.2163107561371793e-7,0.3000002237699232,0.19121776764831475,0.3000005151635011,0.049511767289634856,1.1775053237130116e-7,9.44430248095883e-8,0.1454436238154095,1.6630853684515218e-7
2025-09-30,false,0.0,9.384449442835652e-8,0.010899550019228217,8.160474588371637e-8,9.017002497738413e-8,1.0131925618721246e-7,9.394818314503133e-8,0.0029255910382450633,1.2163107561371793e-7,0.3000002237699232,0.19121776764831475,0.3000005151635011,0.049511767289634856,1.1775053237130116e-7,9.44430248095883e-8,0.1454436238154095,1.6630853684515218e-7
2025-10-03,false,0.0,9.384449442835652e-8,0.010899550019228217,8.160474588371637e-8,9.017002497738413e-8,1.0131925618721246e-7,9.394818314503133e-8,0.0029255910382450633,1.2163107561371793e-7,0.3000002237699232,0.19121776764831475,0.3000005151635011,0.049511767289634856,1.1775053237130116e-7,9.44430248095883e-8,0.1454436238154095,1.6630853684515218e-7
