date,rebalanced,turnover,SPY,IWD,IWF,IWM,EFA,EEM,VWO,TLT,IEF,LQD,HYG,GLD,SLV,VNQ,DBC,USO
2010-04-30,true,1.172127052101356,2.328535376935239e-9,2.760651230916118e-9,0.09554593966945535,0.013715368292124967,-2.4241394751443663e-9,-8.45060228969426e-9,-6.386234402921869e-9,0.214159805658759,0.2999999990272081,0.15816978830399103,0.10039831054749515,0.09278968283697388,-3.174003850099173e-9,8.127435960900665e-10,0.0252211234271185,-3.243667285274467e-9
2010-05-28,false,0.0,2.328535376935239e-9,2.760651230916118e-9,0.09554593966945535,0.013715368292124967,-2.4241394751443663e-9,-8.45060228969426e-9,-6.386234402921869e-9,0.214159805658759,0.2999999990272081,0.15816978830399103,0.10039831054749515,0.09278968283697388,-3.174003850099173e-9,8.127435960900665e-10,0.0252211234271185,-3.243667285274467e-9
2010-06-30,false,0.0,2.328535376935239e-9,2.760651230916118e-9,0.09554593966945535,0.013715368292124967,-2.4241394751443663e-9,-8.45060228969426e-9,-6.386234402921869e-9,0.214159805658759,0.2999999990272081,0.15816978830399103,0.10039831054749515,0.09278968283697388,-3.174003850099173e-9,8.127435960900665e-10,0.0252211234271185,-3.243667285274467e-9
2010-07-30,false,0.0,2.328535376935239e-9,2.760651230916118e-9,0.09554593966945535,0.013715368292124967,-2.4241394751443663e-9,-8.45060228969426e-9,-6.386234402921869e-9,0.214159805658759,0.2999999990272081,0.15816978830399103,0.10039831054749515,0.09278968283697388,-3.174003850099173e-9,8.127435960900665e-10,0.0252211234271185,-3.243667285274467e-9
2010-08-31,false,0.0,2.328535376935239e-9,2.760651230916118e-9,0.09554593966945535,0.013715368292124967,-2.4241394751443663e-9,-8.45060228969426e-9,-6.386234402921869e-9,0.214159805658759,0.2999999990272081,0.15816978830399103,0.10039831054749515,0.09278968283697388,-3.174003850099173e-9,8.127435960900665e-10,0.0252211234271185,-3.243667285274467e-9
2010-09-30,false,0.0,2.328535376935239e-9,2.760651230916118e-9,0.09554593966945535,0.013715368292124967,-2.4241394751443663e-9,-8.45060228969426e-9,-6.386234402921869e-9,0.214159805658759,0.2999999990272081,0.15816978830399103,0.10039831054749515,0.09278968283697388,-3.174003850099173e-9,8.127435960900665e-10,0.0252211234271185,-3.243667285274467e-9
2010-10-29,false,0.0,2.328535376935239e-9,2.760651230916118e-9,0.09554593966945535,0.013715368292124967,-2.4241394751443663e-9,-8.45060228969426e-9,-6.386234402921869e-9,0.214159805658759,0.2999999990272081,0.15816978830399103,0.10039831054749515,0.09278968283697388,-3.174003850099173e-9,8.127435960900665e-10,0.0252211234271185,-3.243667285274467e-9
2010-11-30,false,0.0,2.328535376935239e-9,2.760651230916118e-9,0.09554593966945535,0.013715368292124967,-2.4241394751443663e-9,-8.45060228969426e-9,-6.386234402921869e-9,0.214159805658759,0.2999999990272081,0.15816978830399103,0.10039831054749515,0.09278968283697388,-3.174003850099173e-9,8.127435960900665e-10,0.0252211234271185,-3.243667285274467e-9
2010-12-31,false,0.0,2.328535376935239e-9,2.760651230916118e-9,0.09554593966945535,0.013715368292124967,-2.4241394751443663e-9,-8.45060228969426e-9,-6.386234402921869e-9,0.214159805658759,0.2999999990272081,0.15816978830399103,0.10039831054749515,0.09278968283697388,-3.174003850099173e-9,8.127435960900665e-10,0.0252211234271185,-3.243667285274467e-9
2011-01-31,false,0.0,2.328535376935239e-9,2.760651230916118e-9,0.09554593966945535,0.013715368292124967,-2.4241394751443663e-9,-8.45060228969426e-9,-6.386234402921869e-9,0.214159805658759,0.2999999990272081,0.15816978830399103,0.10039831054749515,0.09278968283697388,-3.174003850099173e-9,8.127435960900665e-10,0.0252211234271185,-3.243667285274467e-9
2011-02-28,false,0.0,2.328535376935239e-9,2.760651230916118e-9,0.09554593966945535,0.013715368292124967,-2.4241394751443663e-9,-8.45060228969426e-9,-6.386234402921869e-9,0.214159805658759,0.2999999990272081,0.15816978830399103,0.10039831054749515,0.09278968283697388,-3.174003850099173e-9,8.127435960900665e-10,0.0252211234271185,-3.243667285274467e-9
2011-03-31,false,0.0,2.328535376935239e-9,2.760651230916118e-9,0.09554593966945535,0.013715368292124967,-2.4241394751443663e-9,-8.45060228969426e-9,-6.386234402921869e-9,0.214159805658759,0.2999999990272081,0.15816978830399103,0.10039831054749515,0.09278968283697388,-3.174003850099173e-9,8.127435960900665e-10,0.0252211234271185,-3.243667285274467e-9
2011-04-29,false,0.0,2.328535376935239e-9,2.760651230916118e-9,0.09554593966945535,0.013715368292124967,-2.4241394751443663e-9,-8.45060228969426e-9,-6.386234402921869e-9,0.214159805658759,0.2999999990272081,0.15816978830399103,0.10039831054749515,0.09278968283697388,-3.174003850099173e-9,8.127435960900665e-10,0.0252211234271185,-3.243667285274467e-9
2011-05-31,false,0.0,2.328535376935239e-9,2.760651230916118e-9,0.09554593966945535,0.013715368292124967,-2.4241394751443663e-9,-8.45060228969426e-9,-6.386234402921869e-9,0.214159805658759,0.2999999990272081,0.15816978830399103,0.10039831054749515,0.09278968283697388,-3.174003850099173e-9,8.127435960900665e-10,0.0252211234271185,-3.243667285274467e-9
2011-06-30,false,0.0,2.328535376935239e-9,2.760651230916118e-9,0.09554593966945535,0.013715368292124967,-2.4241394751443663e-9,-8.45060228969426e-9,-6.386234402921869e-9,0.214159805658759,0.2999999990272081,0.15816978830399103,0.10039831054749515,0.09278968283697388,-3.174003850099173e-9,8.127435960900665e-10,0.0252211234271185,-3.243667285274467e-9
2011-07-29,false,0.0,2.328535376935239e-9,2.760651230916118e-9,0.09554593966945535,0.013715368292124967,-2.4241394751443663e-9,-8.45060228969426e-9,-6.386234402921869e-9,0.214159805658759,0.2999999990272081,0.15816978830399103,0.10039831054749515,0.09278968283697388,-3.174003850099173e-9,8.127435960900665e-10,0.0252211234271185,-3.243667285274467e-9
2011-08-31,false,0.0,2.328535376935239e-9,2.760651230916118e-9,0.09554593966945535,0.013715368292124967,-2.4241394751443663e-9,-8.45060228969426e-9,-6.386234402921869e-9,0.214159805658759,0.2999999990272081,0.15816978830399103,0.10039831054749515,0.09278968283697388,-3.174003850099173e-9,8.127435960900665e-10,0.0252211234271185,-3.243667285274467e-9
2011-09-30,true,0.3874288139412948,-6.105342516690544e-8,-4.274430751218857e-8,0.026636833477024675,0.019523859151524214,-4.447590906259846e-8,-2.6266492775557577e-9,-1.109165698172155e-8,0.10476067336662123,0.29999969435240836,0.2999996298282097,0.12880113768102106,0.0773839863192711,-1.1471843969081208e-9,-1.0712686391518703e-8,0.02750127170909997,0.015393088201117316
2011-10-31,false,0.0,-6.105342516690544e-8,-4.274430751218857e-8,0.026636833477024675,0.019523859151524214,-4.447590906259846e-8,-2.6266492775557577e-9,-1.109165698172155e-8,0.10476067336662123,0.29999969435240836,0.2999996298282097,0.12880113768102106,0.0773839863192711,-1.1471843969081208e-9,-1.0712686391518703e-8,0.02750127170909997,0.015393088201117316
2011-11-30,false,0.0,-6.105342516690544e-8,-4.274430751218857e-8,0.026636833477024675,0.019523859151524214,-4.447590906259846e-8,-2.6266492775557577e-9,-1.109165698172155e-8,0.10476067336662123,0.29999969435240836,0.2999996298282097,0.12880113768102106,0.0773839863192711,-1.1471843969081208e-9,-1.0712686391518703e-8,0.02750127170909997,0.015393088201117316
2011-12-30,false,0.0,-6.105342516690544e-8,-4.274430751218857e-8,0.026636833477024675,0.019523859151524214,-4.447590906259846e-8,-2.6266492775557577e-9,-1.109165698172155e-8,0.10476067336662123,0.29999969435240836,0.2999996298282097,0.12880113768102106,0.0773839863192711,-1.1471843969081208e-9,-1.0712686391518703e-8,0.02750127170909997,0.015393088201117316
2012-01-31,true,0.29119897282783924,0.024990540374982755,-2.361916521197062e-8,-7.667490696753532e-8,-1.8254971701020793e-8,-9.147665067085624e-9,-1.1352617333609382e-8,-8.352246926188899e-9,0.03780391844113354,0.30000035976814166,0.3000005665969534,0.24817749725660213,0.060295050623351304,1.398447370063656e-7,-1.0273682079791838e-8,0.02873199610521644,8.848738570574286e-8
2012-02-29,false,0.0,0.024990540374982755,-2.361916521197062e-8,-7.667490696753532e-8,-1.8254971701020793e-8,-9.147665067085624e-9,-1.1352617333609382e-8,-8.352246926188899e-9,0.03780391844113354,0.30000035976814166,0.3000005665969534,0.24817749725660213,0.060295050623351304,1.398447370063656e-7,-1.0273682079791838e-8,0.02873199610521644,8.848738570574286e-8
2012-03-30,false,0.0,0.024990540374982755,-2.361916521197062e-8,-7.667490696753532e-8,-1.8254971701020793e-8,-9.147665067085624e-9,-1.1352617333609382e-8,-8.352246926188899e-9,0.03780391844113354,0.30000035976814166,0.3000005665969534,0.24817749725660213,0.060295050623351304,1.398447370063656e-7,-1.0273682079791838e-8,0.02873199610521644,8.848738570574286e-8
2012-04-30,false,0.0,0.024990540374982755,-2.361916521197062e-8,-7.667490696753532e-8,-1.8254971701020793e-8,-9.147665067085624e-9,-1.1352617333609382e-8,-8.352246926188899e-9,0.03780391844113354,0.30000035976814166,0.3000005665969534,0.24817749725660213,0.060295050623351304,1.398447370063656e-7,-1.0273682079791838e-8,0.02873199610521644,8.848738570574286e-8
2012-05-31,false,0.0,0.024990540374982755,-2.361916521197062e-8,-7.667490696753532e-8,-1.8254971701020793e-8,-9.147665067085624e-9,-1.1352617333609382e-8,-8.352246926188899e-9,0.03780391844113354,0.30000035976814166,0.3000005665969534,0.24817749725660213,0.060295050623351304,1.398447370063656e-7,-1.0273682079791838e-8,0.02873199610521644,8.848738570574286e-8
2012-06-29,false,0.0,0.024990540374982755,-2.361916521197062e-8,-7.667490696753532e-8,-1.8254971701020793e-8,-9.147665067085624e-9,-1.1352617333609382e-8,-8.352246926188899e-9,0.03780391844113354,0.30000035976814166,0.3000005665969534,0.24817749725660213,0.060295050623351304,1.398447370063656e-7,-1.0273682079791838e-8,0.02873199610521644,8.848738570574286e-8
2012-07-31,false,0.0,0.024990540374982755,-2.361916521197062e-8,-7.667490696753532e-8,-1.8254971701020793e-8,-9.147665067085624e-9,-1.1352617333609382e-8,-8.352246926188899e-9,0.03780391844113354,0.30000035976814166,0.3000005665969534,0.24817749725660213,0.060295050623351304,1.398447370063656e-7,-1.0273682079791838e-8,0.02873199610521644,8.848738570574286e-8
2012-08-31,false,0.0,0.024990540374982755,-2.361916521197062e-8,-7.667490696753532e-8,-1.8254971701020793e-8,-9.147665067085624e-9,-1.1352617333609382e-8,-8.352246926188899e-9,0.03780391844113354,0.30000035976814166,0.3000005665969534,0.24817749725660213,0.060295050623351304,1.398447370063656e-7,-1.0273682079791838e-8,0.02873199610521644,8.848738570574286e-8
2012-09-28,false,0.0,0.024990540374982755,-2.361916521197062e-8,-7.667490696753532e-8,-1.8254971701020793e-8,-9.147665067085624e-9,-1.1352617333609382e-8,-8.352246926188899e-9,0.03780391844113354,0.30000035976814166,0.3000005665969534,0.24817749725660213,0.060295050623351304,1.398447370063656e-7,-1.0273682079791838e-8,0.02873199610521644,8.848738570574286e-8
2012-10-31,false,0.0,0.024990540374982755,-2.361916521197062e-8,-7.667490696753532e-8,-1.8254971701020793e-8,-9.147665067085624e-9,-1.1352617333609382e-8,-8.352246926188899e-9,0.03780391844113354,0.30000035976814166,0.3000005665969534,0.24817749725660213,0.060295050623351304,1.398447370063656e-7,-1.0273682079791838e-8,0.02873199610521644,8.848738570574286e-8
2012-11-30,false,0.0,0.024990540374982755,-2.361916521197062e-8,-7.667490696753532e-8,-1.8254971701020793e-8,-9.147665067085624e-9,-1.1352617333609382e-8,-8.352246926188899e-9,0.03780391844113354,0.30000035976814166,0.3000005665969534,0.24817749725660213,0.060295050623351304,1.398447370063656e-7,-1.0273682079791838e-8,0.02873199610521644,8.848738570574286e-8
2012-12-31,false,0.0,0.024990540374982755,-2.361916521197062e-8,-7.667490696753532e-8,-1.8254971701020793e-8,-9.147665067085624e-9,-1.1352617333609382e-8,-8.352246926188899e-9,0.03780391844113354,0.30000035976814166,0.3000005665969534,0.24817749725660213,0.060295050623351304,1.398447370063656e-7,-1.0273682079791838e-8,0.02873199610521644,8.848738570574286e-8
2013-01-31,false,0.0,0.024990540374982755,-2.361916521197062e-8,-7.667490696753532e-8,-1.8254971701020793e-8,-9.147665067085624e-9,-1.1352617333609382e-8,-8.352246926188899e-9,0.03780391844113354,0.30000035976814166,0.3000005665969534,0.24817749725660213,0.060295050623351304,1.398447370063656e-7,-1.0273682079791838e-8,0.02873199610521644,8.848738570574286e-8
2013-02-28,false,0.0,0.024990540374982755,-2.361916521197062e-8,-7.667490696753532e-8,-1.8254971701020793e-8,-9.147665067085624e-9,-1.1352617333609382e-8,-8.352246926188899e-9,0.03780391844113354,0.30000035976814166,0.3000005665969534,0.24817749725660213,0.060295050623351304,1.398447370063656e-7,-1.0273682079791838e-8,0.02873199610521644,8.848738570574286e-8
2013-03-28,false,0.0,0.024990540374982755,-2.361916521197062e-8,-7.667490696753532e-8,-1.8254971701020793e-8,-9.147665067085624e-9,-1.1352617333609382e-8,-8.352246926188899e-9,0.03780391844113354,0.30000035976814166,0.3000005665969534,0.24817749725660213,0.060295050623351304,1.398447370063656e-7,-1.0273682079791838e-8,0.02873199610521644,8.848738570574286e-8
2013-04-30,false,0.0,0.024990540374982755,-2.361916521197062e-8,-7.667490696753532e-8,-1.8254971701020793e-8,-9.147665067085624e-9,-1.1352617333609382e-8,-8.352246926188899e-9,0.03780391844113354,0.30000035976814166,0.3000005665969534,0.24817749725660213,0.060295050623351304,1.398447370063656e-7,-1.0273682079791838e-8,0.02873199610521644,8.848738570574286e-8
2013-05-31,false,0.0,0.024990540374982755,-2.361916521197062e-8,-7.667490696753532e-8,-1.8254971701020793e-8,-9.147665067085624e-9,-1.1352617333609382e-8,-8.352246926188899e-9,0.03780391844113354,0.30000035976814166,0.3000005665969534,0.24817749725660213,0.060295050623351304,1.398447370063656e-7,-1.0273682079791838e-8,0.02873199610521644,8.848738570574286e-8
2013-06-28,false,0.0,0.024990540374982755,-2.361916521197062e-8,-7.667490696753532e-8,-1.8254971701020793e-8,-9.147665067085624e-9,-1.1352617333609382e-8,-8.352246926188899e-9,0.03780391844113354,0.30000035976814166,0.3000005665969534,0.24817749725660213,0.060295050623351304,1.398447370063656e-7,-1.0273682079791838e-8,0.02873199610521644,8.848738570574286e-8
2013-07-31,false,0.0,0.024990540374982755,-2.361916521197062e-8,-7.667490696753532e-8,-1.8254971701020793e-8,-9.147665067085624e-9,-1.1352617333609382e-8,-8.352246926188899e-9,0.03780391844113354,0.30000035976814166,0.3000005665969534,0.24817749725660213,0.060295050623351304,1.398447370063656e-7,-1.0273682079791838e-8,0.02873199610521644,8.848738570574286e-8
2013-08-30,false,0.0,0.024990540374982755,-2.361916521197062e-8,-7.667490696753532e-8,-1.8254971701020793e-8,-9.147665067085624e-9,-1.1352617333609382e-8,-8.352246926188899e-9,0.03780391844113354,0.30000035976814166,0.3000005665969534,0.24817749725660213,0.060295050623351304,1.398447370063656e-7,-1.0273682079791838e-8,0.02873199610521644,8.848738570574286e-8
2013-09-30,false,0.0,0.024990540374982755,-2.361916521197062e-8,-7.667490696753532e-8,-1.8254971701020793e-8,-9.147665067085624e-9,-1.1352617333609382e-8,-8.352246926188899e-9,0.03780391844113354,0.30000035976814166,0.3000005665969534,0.24817749725660213,0.060295050623351304,1.398447370063656e-7,-1.0273682079791838e-8,0.02873199610521644,8.848738570574286e-8
2013-10-31,false,0.0,0.024990540374982755,-2.361916521197062e-8,-7.667490696753532e-8,-1.8254971701020793e-8,-9.147665067085624e-9,-1.1352617333609382e-8,-8.352246926188899e-9,0.03780391844113354,0.30000035976814166,0.3000005665969534,0.24817749725660213,0.060295050623351304,1.398447370063656e-7,-1.0273682079791838e-8,0.02873199610521644,8.848738570574286e-8
2013-11-29,false,0.0,0.024990540374982755,-2.361916521197062e-8,-7.667490696753532e-8,-1.8254971701020793e-8,-9.147665067085624e-9,-1.1352617333609382e-8,-8.352246926188899e-9,0.03780391844113354,0.30000035976814166,0.3000005665969534,0.24817749725660213,0.060295050623351304,1.398447370063656e-7,-1.0273682079791838e-8,0.02873199610521644,8.848738570574286e-8
2013-12-31,false,0.0,0.024990540374982755,-2.361916521197062e-8,-7.667490696753532e-8,-1.8254971701020793e-8,-9.147665067085624e-9,-1.1352617333609382e-8,-8.352246926188899e-9,0.03780391844113354,0.30000035976814166,0.3000005665969534,0.24817749725660213,0.060295050623351304,1.398447370063656e-7,-1.0273682079791838e-8,0.02873199610521644,8.848738570574286e-8
2014-01-31,false,0.0,0.024990540374982755,-2.361916521197062e-8,-7.667490696753532e-8,-1.8254971701020793e-8,-9.147665067085624e-9,-1.1352617333609382e-8,-8.352246926188899e-9,0.03780391844113354,0.30000035976814166,0.3000005665969534,0.24817749725660213,0.060295050623351304,1.398447370063656e-7,-1.0273682079791838e-8,0.02873199610521644,8.848738570574286e-8
2014-02-28,false,0.0,0.024990540374982755,-2.361916521197062e-8,-7.667490696753532e-8,-1.8254971701020793e-8,-9.147665067085624e-9,-1.1352617333609382e-8,-8.352246926188899e-9,0.03780391844113354,0.30000035976814166,0.3000005665969534,0.24817749725660213,0.060295050623351304,1.398447370063656e-7,-1.0273682079791838e-8,0.02873199610521644,8.848738570574286e-8
2014-03-31,false,0.0,0.024990540374982755,-2.361916521197062e-8,-7.667490696753532e-8,-1.8254971701020793e-8,-9.147665067085624e-9,-1.1352617333609382e-8,-8.352246926188899e-9,0.03780391844113354,0.30000035976814166,0.3000005665969534,0.24817749725660213,0.060295050623351304,1.398447370063656e-7,-1.0273682079791838e-8,0.02873199610521644,8.848738570574286e-8
2014-04-30,false,0.0,0.024990540374982755,-2.361916521197062e-8,-7.667490696753532e-8,-1.8254971701020793e-8,-9.147665067085624e-9,-1.1352617333609382e-8,-8.352246926188899e-9,0.03780391844113354,0.30000035976814166,0.3000005665969534,0.24817749725660213,0.060295050623351304,1.398447370063656e-7,-1.0273682079791838e-8,0.02873199610521644,8.848738570574286e-8
2014-05-30,false,0.0,0.024990540374982755,-2.361916521197062e-8,-7.667490696753532e-8,-1.8254971701020793e-8,-9.147665067085624e-9,-1.1352617333609382e-8,-8.352246926188899e-9,0.03780391844113354,0.30000035976814166,0.3000005665969534,0.24817749725660213,0.060295050623351304,1.398447370063656e-7,-1.0273682079791838e-8,0.02873199610521644,8.848738570574286e-8
2014-06-30,false,0.0,0.024990540374982755,-2.361916521197062e-8,-7.667490696753532e-8,-1.8254971701020793e-8,-9.147665067085624e-9,-1.1352617333609382e-8,-8.352246926188899e-9,0.03780391844113354,0.30000035976814166,0.3000005665969534,0.24817749725660213,0.060295050623351304,1.398447370063656e-7,-1.0273682079791838e-8,0.02873199610521644,8.848738570574286e-8
2014-07-31,false,0.0,0.024990540374982755,-2.361916521197062e-8,-7.667490696753532e-8,-1.8254971701020793e-8,-9.147665067085624e-9,-1.1352617333609382e-8,-8.352246926188899e-9,0.03780391844113354,0.30000035976814166,0.3000005665969534,0.24817749725660213,0.060295050623351304,1.398447370063656e-7,-1.0273682079791838e-8,0.02873199610521644,8.848738570574286e-8
2014-08-29,false,0.0,0.024990540374982755,-2.361916521197062e-8,-7.667490696753532e-8,-1.8254971701020793e-8,-9.147665067085624e-9,-1.1352617333609382e-8,-8.352246926188899e-9,0.03780391844113354,0.30000035976814166,0.3000005665969534,0.24817749725660213,0.060295050623351304,1.398447370063656e-7,-1.0273682079791838e-8,0.02873199610521644,8.848738570574286e-8
2014-09-30,false,0.0,0.024990540374982755,-2.361916521197062e-8,-7.667490696753532e-8,-1.8254971701020793e-8,-9.147665067085624e-9,-1.1352617333609382e-8,-8.352246926188899e-9,0.03780391844113354,0.30000035976814166,0.3000005665969534,0.24817749725660213,0.060295050623351304,1.398447370063656e-7,-1.0273682079791838e-8,0.02873199610521644,8.848738570574286e-8
2014-10-31,false,0.0,0.024990540374982755,-2.361916521197062e-8,-7.667490696753532e-8,-1.8254971701020793e-8,-9.147665067085624e-9,-1.1352617333609382e-8,-8.352246926188899e-9,0.03780391844113354,0.30000035976814166,0.3000005665969534,0.24817749725660213,0.060295050623351304,1.398447370063656e-7,-1.0273682079791838e-8,0.02873199610521644,8.848738570574286e-8
2014-11-28,false,0.0,0.024990540374982755,-2.361916521197062e-8,-7.667490696753532e-8,-1.8254971701020793e-8,-9.147665067085624e-9,-1.1352617333609382e-8,-8.352246926188899e-9,0.03780391844113354,0.30000035976814166,0.3000005665969534,0.24817749725660213,0.060295050623351304,1.398447370063656e-7,-1.0273682079791838e-8,0.02873199610521644,8.848738570574286e-8
2014-12-31,false,0.0,0.024990540374982755,-2.361916521197062e-8,-7.667490696753532e-8,-1.8254971701020793e-8,-9.147665067085624e-9,-1.1352617333609382e-8,-8.352246926188899e-9,0.03780391844113354,0.30000035976814166,0.3000005665969534,0.24817749725660213,0.060295050623351304,1.398447370063656e-7,-1.0273682079791838e-8,0.02873199610521644,8.848738570574286e-8
2015-01-30,false,0.0,0.024990540374982755,-2.361916521197062e-8,-7.667490696753532e-8,-1.8254971701020793e-8,-9.147665067085624e-9,-1.1352617333609382e-8,-8.352246926188899e-9,0.03780391844113354,0.30000035976814166,0.3000005665969534,0.24817749725660213,0.060295050623351304,1.398447370063656e-7,-1.0273682079791838e-8,0.02873199610521644,8.848738570574286e-8
2015-02-27,false,0.0,0.024990540374982755,-2.361916521197062e-8,-7.667490696753532e-8,-1.8254971701020793e-8,-9.147665067085624e-9,-1.1352617333609382e-8,-8.352246926188899e-9,0.03780391844113354,0.30000035976814166,0.3000005665969534,0.24817749725660213,0.060295050623351304,1.398447370063656e-7,-1.0273682079791838e-8,0.02873199610521644,8.848738570574286e-8
2015-03-31,false,0.0,0.024990540374982755,-2.361916521197062e-8,-7.667490696753532e-8,-1.8254971701020793e-8,-9.147665067085624e-9,-1.1352617333609382e-8,-8.352246926188899e-9,0.03780391844113354,0.30000035976814166,0.3000005665969534,0.24817749725660213,0.060295050623351304,1.398447370063656e-7,-1.0273682079791838e-8,0.02873199610521644,8.848738570574286e-8
2015-04-30,false,0.0,0.024990540374982755,-2.361916521197062e-8,-7.667490696753532e-8,-1.8254971701020793e-8,-9.147665067085624e-9,-1.1352617333609382e-8,-8.352246926188899e-9,0.03780391844113354,0.30000035976814166,0.3000005665969534,0.24817749725660213,0.060295050623351304,1.398447370063656e-7,-1.0273682079791838e-8,0.02873199610521644,8.848738570574286e-8
2015-05-29,false,0.0,0.024990540374982755,-2.361916521197062e-8,-7.667490696753532e-8,-1.8254971701020793e-8,-9.147665067085624e-9,-1.1352617333609382e-8,-8.352246926188899e-9,0.03780391844113354,0.30000035976814166,0.3000005665969534,0.24817749725660213,0.060295050623351304,1.398447370063656e-7,-1.0273682079791838e-8,0.02873199610521644,8.848738570574286e-8
2015-06-30,false,0.0,0.024990540374982755,-2.361916521197062e-8,-7.667490696753532e-8,-1.8254971701020793e-8,-9.147665067085624e-9,-1.1352617333609382e-8,-8.352246926188899e-9,0.03780391844113354,0.30000035976814166,0.3000005665969534,0.24817749725660213,0.060295050623351304,1.398447370063656e-7,-1.0273682079791838e-8,0.02873199610521644,8.848738570574286e-8
2015-07-31,false,0.0,0.024990540374982755,-2.361916521197062e-8,-7.667490696753532e-8,-1.8254971701020793e-8,-9.147665067085624e-9,-1.1352617333609382e-8,-8.352246926188899e-9,0.03780391844113354,0.30000035976814166,0.3000005665969534,0.24817749725660213,0.060295050623351304,1.398447370063656e-7,-1.0273682079791838e-8,0.02873199610521644,8.848738570574286e-8
2015-08-31,false,0.0,0.024990540374982755,-2.361916521197062e-8,-7.667490696753532e-8,-1.8254971701020793e-8,-9.147665067085624e-9,-1.1352617333609382e-8,-8.352246926188899e-9,0.03780391844113354,0.30000035976814166,0.3000005665969534,0.24817749725660213,0.060295050623351304,1.398447370063656e-7,-1.0273682079791838e-8,0.02873199610521644,8.848738570574286e-8
2015-09-30,false,0.0,0.024990540374982755,-2.361916521197062e-8,-7.667490696753532e-8,-1.8254971701020793e-8,-9.147665067085624e-9,-1.1352617333609382e-8,-8.352246926188899e-9,0.03780391844113354,0.30000035976814166,0.3000005665969534,0.24817749725660213,0.060295050623351304,1.398447370063656e-7,-1.0273682079791838e-8,0.02873199610521644,8.848738570574286e-8
2015-10-30,false,0.0,0.024990540374982755,-2.361916521197062e-8,-7.667490696753532e-8,-1.8254971701020793e-8,-9.147665067085624e-9,-1.1352617333609382e-8,-8.352246926188899e-9,0.03780391844113354,0.30000035976814166,0.3000005665969534,0.24817749725660213,0.060295050623351304,1.398447370063656e-7,-1.0273682079791838e-8,0.02873199610521644,8.848738570574286e-8
2015-11-30,false,0.0,0.024990540374982755,-2.361916521197062e-8,-7.667490696753532e-8,-1.8254971701020793e-8,-9.147665067085624e-9,-1.1352617333609382e-8,-8.352246926188899e-9,0.03780391844113354,0.30000035976814166,0.3000005665969534,0.24817749725660213,0.060295050623351304,1.398447370063656e-7,-1.0273682079791838e-8,0.02873199610521644,8.848738570574286e-8
2015-12-31,false,0.0,0.024990540374982755,-2.361916521197062e-8,-7.667490696753532e-8,-1.8254971701020793e-8,-9.147665067085624e-9,-1.1352617333609382e-8,-8.352246926188899e-9,0.03780391844113354,0.30000035976814166,0.3000005665969534,0.24817749725660213,0.060295050623351304,1.398447370063656e-7,-1.0273682079791838e-8,0.02873199610521644,8.848738570574286e-8
2016-01-29,false,0.0,0.024990540374982755,-2.361916521197062e-8,-7.667490696753532e-8,-1.8254971701020793e-8,-9.147665067085624e-9,-1.1352617333609382e-8,-8.352246926188899e-9,0.03780391844113354,0.30000035976814166,0.3000005665969534,0.24817749725660213,0.060295050623351304,1.398447370063656e-7,-1.0273682079791838e-8,0.02873199610521644,8.848738570574286e-8
2016-02-29,false,0.0,0.024990540374982755,-2.361916521197062e-8,-7.667490696753532e-8,-1.8254971701020793e-8,-9.147665067085624e-9,-1.1352617333609382e-8,-8.352246926188899e-9,0.03780391844113354,0.30000035976814166,0.3000005665969534,0.24817749725660213,0.060295050623351304,1.398447370063656e-7,-1.0273682079791838e-8,0.02873199610521644,8.848738570574286e-8
2016-03-31,false,0.0,0.024990540374982755,-2.361916521197062e-8,-7.667490696753532e-8,-1.8254971701020793e-8,-9.147665067085624e-9,-1.1352617333609382e-8,-8.352246926188899e-9,0.03780391844113354,0.30000035976814166,0.3000005665969534,0.24817749725660213,0.060295050623351304,1.398447370063656e-7,-1.0273682079791838e-8,0.02873199610521644,8.848738570574286e-8
2016-04-29,false,0.0,0.024990540374982755,-2.361916521197062e-8,-7.667490696753532e-8,-1.8254971701020793e-8,-9.147665067085624e-9,-1.1352617333609382e-8,-8.352246926188899e-9,0.03780391844113354,0.30000035976814166,0.3000005665969534,0.24817749725660213,0.060295050623351304,1.398447370063656e-7,-1.0273682079791838e-8,0.02873199610521644,8.848738570574286e-8
2016-05-31,false,0.0,0.024990540374982755,-2.361916521197062e-8,-7.667490696753532e-8,-1.8254971701020793e-8,-9.147665067085624e-9,-1.1352617333609382e-8,-8.352246926188899e-9,0.03780391844113354,0.30000035976814166,0.3000005665969534,0.24817749725660213,0.060295050623351304,1.398447370063656e-7,-1.0273682079791838e-8,0.02873199610521644,8.848738570574286e-8
2016-06-30,false,0.0,0.024990540374982755,-2.361916521197062e-8,-7.667490696753532e-8,-1.8254971701020793e-8,-9.147665067085624e-9,-1.1352617333609382e-8,-8.352246926188899e-9,0.03780391844113354,0.30000035976814166,0.3000005665969534,0.24817749725660213,0.060295050623351304,1.398447370063656e-7,-1.0273682079791838e-8,0.02873199610521644,8.848738570574286e-8
2016-07-29,false,0.0,0.024990540374982755,-2.361916521197062e-8,-7.667490696753532e-8,-1.8254971701020793e-8,-9.147665067085624e-9,-1.1352617333609382e-8,-8.352246926188899e-9,0.03780391844113354,0.30000035976814166,0.3000005665969534,0.24817749725660213,0.060295050623351304,1.398447370063656e-7,-1.0273682079791838e-8,0.02873199610521644,8.848738570574286e-8
2016-08-31,false,0.0,0.024990540374982755,-2.361916521197062e-8,-7.667490696753532e-8,-1.8254971701020793e-8,-9.147665067085624e-9,-1.1352617333609382e-8,-8.352246926188899e-9,0.03780391844113354,0.30000035976814166,0.3000005665969534,0.24817749725660213,0.060295050623351304,1.398447370063656e-7,-1.0273682079791838e-8,0.02873199610521644,8.848738570574286e-8
2016-09-30,false,0.0,0.024990540374982755,-2.361916521197062e-8,-7.667490696753532e-8,-1.8254971701020793e-8,-9.147665067085624e-9,-1.1352617333609382e-8,-8.352246926188899e-9,0.03780391844113354,0.30000035976814166,0.3000005665969534,0.24817749725660213,0.060295050623351304,1.398447370063656e-7,-1.0273682079791838e-8,0.02873199610521644,8.848738570574286e-8
2016-10-31,false,0.0,0.024990540374982755,-2.361916521197062e-8,-7.667490696753532e-8,-1.8254971701020793e-8,-9.147665067085624e-9,-1.1352617333609382e-8,-8.352246926188899e-9,0.03780391844113354,0.30000035976814166,0.3000005665969534,0.24817749725660213,0.060295050623351304,1.398447370063656e-7,-1.0273682079791838e-8,0.02873199610521644,8.848738570574286e-8
2016-11-30,false,0.0,0.024990540374982755,-2.361916521197062e-8,-7.667490696753532e-8,-1.8254971701020793e-8,-9.147665067085624e-9,-1.1352617333609382e-8,-8.352246926188899e-9,0.03780391844113354,0.30000035976814166,0.3000005665969534,0.24817749725660213,0.060295050623351304,1.398447370063656e-7,-1.0273682079791838e-8,0.02873199610521644,8.848738570574286e-8
2016-12-30,false,0.0,0.024990540374982755,-2.361916521197062e-8,-7.667490696753532e-8,-1.8254971701020793e-8,-9.147665067085624e-9,-1.1352617333609382e-8,-8.352246926188899e-9,0.03780391844113354,0.30000035976814166,0.3000005665969534,0.24817749725660213,0.060295050623351304,1.398447370063656e-7,-1.0273682079791838e-8,0.02873199610521644,8.848738570574286e-8
2017-01-31,false,0.0,0.024990540374982755,-2.361916521197062e-8,-7.667490696753532e-8,-1.8254971701020793e-8,-9.147665067085624e-9,-1.1352617333609382e-8,-8.352246926188899e-9,0.03780391844113354,0.30000035976814166,0.3000005665969534,0.24817749725660213,0.060295050623351304,1.398447370063656e-7,-1.0273682079791838e-8,0.02873199610521644,8.848738570574286e-8
2017-02-28,false,0.0,0.024990540374982755,-2.361916521197062e-8,-7.667490696753532e-8,-1.8254971701020793e-8,-9.147665067085624e-9,-1.1352617333609382e-8,-8.352246926188899e-9,0.03780391844113354,0.30000035976814166,0.3000005665969534,0.24817749725660213,0.060295050623351304,1.398447370063656e-7,-1.0273682079791838e-8,0.02873199610521644,8.848738570574286e-8
2017-03-31,false,0.0,0.024990540374982755,-2.361916521197062e-8,-7.667490696753532e-8,-1.8254971701020793e-8,-9.147665067085624e-9,-1.1352617333609382e-8,-8.352246926188899e-9,0.03780391844113354,0.30000035976814166,0.3000005665969534,0.24817749725660213,0.060295050623351304,1.398447370063656e-7,-1.0273682079791838e-8,0.02873199610521644,8.848738570574286e-8
2017-04-28,false,0.0,0.024990540374982755,-2.361916521197062e-8,-7.667490696753532e-8,-1.8254971701020793e-8,-9.147665067085624e-9,-1.1352617333609382e-8,-8.352246926188899e-9,0.03780391844113354,0.30000035976814166,0.3000005665969534,0.24817749725660213,0.060295050623351304,1.398447370063656e-7,-1.0273682079791838e-8,0.02873199610521644,8.848738570574286e-8
2017-05-31,false,0.0,0.024990540374982755,-2.361916521197062e-8,-7.667490696753532e-8,-1.8254971701020793e-8,-9.147665067085624e-9,-1.1352617333609382e-8,-8.352246926188899e-9,0.03780391844113354,0.30000035976814166,0.3000005665969534,0.24817749725660213,0.060295050623351304,1.398447370063656e-7,-1.0273682079791838e-8,0.02873199610521644,8.848738570574286e-8
2017-06-30,false,0.0,0.024990540374982755,-2.361916521197062e-8,-7.667490696753532e-8,-1.8254971701020793e-8,-9.147665067085624e-9,-1.1352617333609382e-8,-8.352246926188899e-9,0.03780391844113354,0.30000035976814166,0.3000005665969534,0.24817749725660213,0.060295050623351304,1.398447370063656e-7,-1.0273682079791838e-8,0.02873199610521644,8.848738570574286e-8
2017-07-31,false,0.0,0.024990540374982755,-2.361916521197062e-8,-7.667490696753532e-8,-1.8254971701020793e-8,-9.147665067085624e-9,-1.1352617333609382e-8,-8.352246926188899e-9,0.03780391844113354,0.30000035976814166,0.3000005665969534,0.24817749725660213,0.060295050623351304,1.398447370063656e-7,-1.0273682079791838e-8,0.02873199610521644,8.848738570574286e-8
2017-08-31,false,0.0,0.024990540374982755,-2.361916521197062e-8,-7.667490696753532e-8,-1.8254971701020793e-8,-9.147665067085624e-9,-1.1352617333609382e-8,-8.352246926188899e-9,0.03780391844113354,0.30000035976814166,0.3000005665969534,0.24817749725660213,0.060295050623351304,1.398447370063656e-7,-1.0273682079791838e-8,0.02873199610521644,8.848738570574286e-8
2017-09-29,false,0.0,0.024990540374982755,-2.361916521197062e-8,-7.667490696753532e-8,-1.8254971701020793e-8,-9.147665067085624e-9,-1.1352617333609382e-8,-8.352246926188899e-9,0.03780391844113354,0.30000035976814166,0.3000005665969534,0.24817749725660213,0.060295050623351304,1.398447370063656e-7,-1.0273682079791838e-8,0.02873199610521644,8.848738570574286e-8
2017-10-31,false,0.0,0.024990540374982755,-2.361916521197062e-8,-7.667490696753532e-8,-1.8254971701020793e-8,-9.147665067085624e-9,-1.1352617333609382e-8,-8.352246926188899e-9,0.03780391844113354,0.30000035976814166,0.3000005665969534,0.24817749725660213,0.060295050623351304,1.398447370063656e-7,-1.0273682079791838e-8,0.02873199610521644,8.848738570574286e-8
2017-11-30,false,0.0,0.024990540374982755,-2.361916521197062e-8,-7.667490696753532e-8,-1.8254971701020793e-8,-9.147665067085624e-9,-1.1352617333609382e-8,-8.352246926188899e-9,0.03780391844113354,0.30000035976814166,0.3000005665969534,0.24817749725660213,0.060295050623351304,1.398447370063656e-7,-1.0273682079791838e-8,0.02873199610521644,8.848738570574286e-8
2017-12-29,false,0.0,0.024990540374982755,-2.361916521197062e-8,-7.667490696753532e-8,-1.8254971701020793e-8,-9.147665067085624e-9,-1.1352617333609382e-8,-8.352246926188899e-9,0.03780391844113354,0.30000035976814166,0.3000005665969534,0.24817749725660213,0.060295050623351304,1.398447370063656e-7,-1.0273682079791838e-8,0.02873199610521644,8.848738570574286e-8
2018-01-31,false,0.0,0.024990540374982755,-2.361916521197062e-8,-7.667490696753532e-8,-1.8254971701020793e-8,-9.147665067085624e-9,-1.1352617333609382e-8,-8.352246926188899e-9,0.03780391844113354,0.30000035976814166,0.3000005665969534,0.24817749725660213,0.060295050623351304,1.398447370063656e-7,-1.0273682079791838e-8,0.02873199610521644,8.848738570574286e-8
2018-02-28,false,0.0,0.024990540374982755,-2.361916521197062e-8,-7.667490696753532e-8,-1.8254971701020793e-8,-9.147665067085624e-9,-1.1352617333609382e-8,-8.352246926188899e-9,0.03780391844113354,0.30000035976814166,0.3000005665969534,0.24817749725660213,0.060295050623351304,1.398447370063656e-7,-1.0273682079791838e-8,0.02873199610521644,8.848738570574286e-8
2018-03-29,false,0.0,0.024990540374982755,-2.361916521197062e-8,-7.667490696753532e-8,-1.8254971701020793e-8,-9.147665067085624e-9,-1.1352617333609382e-8,-8.352246926188899e-9,0.03780391844113354,0.30000035976814166,0.3000005665969534,0.24817749725660213,0.060295050623351304,1.398447370063656e-7,-1.0273682079791838e-8,0.02873199610521644,8.848738570574286e-8
2018-04-30,false,0.0,0.024990540374982755,-2.361916521197062e-8,-7.667490696753532e-8,-1.8254971701020793e-8,-9.147665067085624e-9,-1.1352617333609382e-8,-8.352246926188899e-9,0.03780391844113354,0.30000035976814166,0.3000005665969534,0.24817749725660213,0.060295050623351304,1.398447370063656e-7,-1.0273682079791838e-8,0.02873199610521644,8.848738570574286e-8
2018-05-31,false,0.0,0.024990540374982755,-2.361916521197062e-8,-7.667490696753532e-8,-1.8254971701020793e-8,-9.147665067085624e-9,-1.1352617333609382e-8,-8.352246926188899e-9,0.03780391844113354,0.30000035976814166,0.3000005665969534,0.24817749725660213,0.060295050623351304,1.398447370063656e-7,-1.0273682079791838e-8,0.02873199610521644,8.848738570574286e-8
2018-06-29,false,0.0,0.024990540374982755,-2.361916521197062e-8,-7.667490696753532e-8,-1.8254971701020793e-8,-9.147665067085624e-9,-1.1352617333609382e-8,-8.352246926188899e-9,0.03780391844113354,0.30000035976814166,0.3000005665969534,0.24817749725660213,0.060295050623351304,1.398447370063656e-7,-1.0273682079791838e-8,0.02873199610521644,8.848738570574286e-8
2018-07-31,false,0.0,0.024990540374982755,-2.361916521197062e-8,-7.667490696753532e-8,-1.8254971701020793e-8,-9.147665067085624e-9,-1.1352617333609382e-8,-8.352246926188899e-9,0.03780391844113354,0.30000035976814166,0.3000005665969534,0.24817749725660213,0.060295050623351304,1.398447370063656e-7,-1.0273682079791838e-8,0.02873199610521644,8.848738570574286e-8
2018-08-31,false,0.0,0.024990540374982755,-2.361916521197062e-8,-7.667490696753532e-8,-1.8254971701020793e-8,-9.147665067085624e-9,-1.1352617333609382e-8,-8.352246926188899e-9,0.03780391844113354,0.30000035976814166,0.3000005665969534,0.24817749725660213,0.060295050623351304,1.398447370063656e-7,-1.0273682079791838e-8,0.02873199610521644,8.848738570574286e-8
2018-09-28,false,0.0,0.024990540374982755,-2.361916521197062e-8,-7.667490696753532e-8,-1.8254971701020793e-8,-9.147665067085624e-9,-1.1352617333609382e-8,-8.352246926188899e-9,0.03780391844113354,0.30000035976814166,0.3000005665969534,0.24817749725660213,0.060295050623351304,1.398447370063656e-7,-1.0273682079791838e-8,0.02873199610521644,8.848738570574286e-8
2018-10-31,false,0.0,0.024990540374982755,-2.361916521197062e-8,-7.667490696753532e-8,-1.8254971701020793e-8,-9.147665067085624e-9,-1.1352617333609382e-8,-8.352246926188899e-9,0.03780391844113354,0.30000035976814166,0.3000005665969534,0.24817749725660213,0.060295050623351304,1.398447370063656e-7,-1.0273682079791838e-8,0.02873199610521644,8.848738570574286e-8
2018-11-30,false,0.0,0.024990540374982755,-2.361916521197062e-8,-7.667490696753532e-8,-1.8254971701020793e-8,-9.147665067085624e-9,-1.1352617333609382e-8,-8.352246926188899e-9,0.03780391844113354,0.30000035976814166,0.3000005665969534,0.24817749725660213,0.060295050623351304,1.398447370063656e-7,-1.0273682079791838e-8,0.02873199610521644,8.848738570574286e-8
2018-12-31,false,0.0,0.024990540374982755,-2.361916521197062e-8,-7.667490696753532e-8,-1.8254971701020793e-8,-9.147665067085624e-9,-1.1352617333609382e-8,-8.352246926188899e-9,0.03780391844113354,0.30000035976814166,0.3000005665969534,0.24817749725660213,0.060295050623351304,1.398447370063656e-7,-1.0273682079791838e-8,0.02873199610521644,8.848738570574286e-8
2019-01-31,false,0.0,0.024990540374982755,-2.361916521197062e-8,-7.667490696753532e-8,-1.8254971701020793e-8,-9.147665067085624e-9,-1.1352617333609382e-8,-8.352246926188899e-9,0.03780391844113354,0.30000035976814166,0.3000005665969534,0.24817749725660213,0.060295050623351304,1.398447370063656e-7,-1.0273682079791838e-8,0.02873199610521644,8.848738570574286e-8
2019-02-28,false,0.0,0.024990540374982755,-2.361916521197062e-8,-7.667490696753532e-8,-1.8254971701020793e-8,-9.147665067085624e-9,-1.1352617333609382e-8,-8.352246926188899e-9,0.03780391844113354,0.30000035976814166,0.3000005665969534,0.24817749725660213,0.060295050623351304,1.398447370063656e-7,-1.0273682079791838e-8,0.02873199610521644,8.848738570574286e-8
2019-03-29,false,0.0,0.024990540374982755,-2.361916521197062e-8,-7.667490696753532e-8,-1.8254971701020793e-8,-9.147665067085624e-9,-1.1352617333609382e-8,-8.352246926188899e-9,0.03780391844113354,0.30000035976814166,0.3000005665969534,0.24817749725660213,0.060295050623351304,1.398447370063656e-7,-1.0273682079791838e-8,0.02873199610521644,8.848738570574286e-8
2019-04-30,false,0.0,0.024990540374982755,-2.361916521197062e-8,-7.667490696753532e-8,-1.8254971701020793e-8,-9.147665067085624e-9,-1.1352617333609382e-8,-8.352246926188899e-9,0.03780391844113354,0.30000035976814166,0.3000005665969534,0.24817749725660213,0.060295050623351304,1.398447370063656e-7,-1.0273682079791838e-8,0.02873199610521644,8.848738570574286e-8
2019-05-31,false,0.0,0.024990540374982755,-2.361916521197062e-8,-7.667490696753532e-8,-1.8254971701020793e-8,-9.147665067085624e-9,-1.1352617333609382e-8,-8.352246926188899e-9,0.03780391844113354,0.30000035976814166,0.3000005665969534,0.24817749725660213,0.060295050623351304,1.398447370063656e-7,-1.0273682079791838e-8,0.02873199610521644,8.848738570574286e-8
2019-06-28,false,0.0,0.024990540374982755,-2.361916521197062e-8,-7.667490696753532e-8,-1.8254971701020793e-8,-9.147665067085624e-9,-1.1352617333609382e-8,-8.352246926188899e-9,0.03780391844113354,0.30000035976814166,0.3000005665969534,0.24817749725660213,0.060295050623351304,1.398447370063656e-7,-1.0273682079791838e-8,0.02873199610521644,8.848738570574286e-8
2019-07-31,false,0.0,0.024990540374982755,-2.361916521197062e-8,-7.667490696753532e-8,-1.8254971701020793e-8,-9.147665067085624e-9,-1.1352617333609382e-8,-8.352246926188899e-9,0.03780391844113354,0.30000035976814166,0.3000005665969534,0.24817749725660213,0.060295050623351304,1.398447370063656e-7,-1.0273682079791838e-8,0.02873199610521644,8.848738570574286e-8
2019-08-30,false,0.0,0.024990540374982755,-2.361916521197062e-8,-7.667490696753532e-8,-1.8254971701020793e-8,-9.147665067085624e-9,-1.1352617333609382e-8,-8.352246926188899e-9,0.03780391844113354,0.30000035976814166,0.3000005665969534,0.24817749725660213,0.060295050623351304,1.398447370063656e-7,-1.0273682079791838e-8,0.02873199610521644,8.848738570574286e-8
2019-09-30,false,0.0,0.024990540374982755,-2.361916521197062e-8,-7.667490696753532e-8,-1.8254971701020793e-8,-9.147665067085624e-9,-1.1352617333609382e-8,-8.352246926188899e-9,0.03780391844113354,0.30000035976814166,0.3000005665969534,0.24817749725660213,0.060295050623351304,1.398447370063656e-7,-1.0273682079791838e-8,0.02873199610521644,8.848738570574286e-8
2019-10-31,false,0.0,0.024990540374982755,-2.361916521197062e-8,-7.667490696753532e-8,-1.8254971701020793e-8,-9.147665067085624e-9,-1.1352617333609382e-8,-8.352246926188899e-9,0.03780391844113354,0.30000035976814166,0.3000005665969534,0.24817749725660213,0.060295050623351304,1.398447370063656e-7,-1.0273682079791838e-8,0.02873199610521644,8.848738570574286e-8
2019-11-29,false,0.0,0.024990540374982755,-2.361916521197062e-8,-7.667490696753532e-8,-1.8254971701020793e-8,-9.147665067085624e-9,-1.1352617333609382e-8,-8.352246926188899e-9,0.03780391844113354,0.30000035976814166,0.3000005665969534,0.24817749725660213,0.060295050623351304,1.398447370063656e-7,-1.0273682079791838e-8,0.02873199610521644,8.848738570574286e-8
2019-12-31,false,0.0,0.024990540374982755,-2.361916521197062e-8,-7.667490696753532e-8,-1.8254971701020793e-8,-9.147665067085624e-9,-1.1352617333609382e-8,-8.352246926188899e-9,0.03780391844113354,0.30000035976814166,0.3000005665969534,0.24817749725660213,0.060295050623351304,1.398447370063656e-7,-1.0273682079791838e-8,0.02873199610521644,8.848738570574286e-8
2020-01-31,false,0.0,0.024990540374982755,-2.361916521197062e-8,-7.667490696753532e-8,-1.8254971701020793e-8,-9.147665067085624e-9,-1.1352617333609382e-8,-8.352246926188899e-9,0.03780391844113354,0.30000035976814166,0.3000005665969534,0.24817749725660213,0.060295050623351304,1.398447370063656e-7,-1.0273682079791838e-8,0.02873199610521644,8.848738570574286e-8
2020-02-28,false,0.0,0.024990540374982755,-2.361916521197062e-8,-7.667490696753532e-8,-1.8254971701020793e-8,-9.147665067085624e-9,-1.1352617333609382e-8,-8.352246926188899e-9,0.03780391844113354,0.30000035976814166,0.3000005665969534,0.24817749725660213,0.060295050623351304,1.398447370063656e-7,-1.0273682079791838e-8,0.02873199610521644,8.848738570574286e-8
2020-03-31,true,0.47586310084235145,0.012664237266852252,-2.973313908406342e-7,-3.177075592508118e-7,-3.0454243417123394e-7,-2.41475645510333e-7,-2.5337371843441343e-7,-2.431343961192963e-7,0.10904433831680772,0.29999982091114935,0.07439803922797525,0.2999997330931371,0.1086011920877149,-2.0257716532863008e-8,-2.572273942900606e-7,0.09529474953527144,-1.7519450021466334e-7
2020-04-30,false,0.0,0.012664237266852252,-2.973313908406342e-7,-3.177075592508118e-7,-3.0454243417123394e-7,-2.41475645510333e-7,-2.5337371843441343e-7,-2.431343961192963e-7,0.10904433831680772,0.29999982091114935,0.07439803922797525,0.2999997330931371,0.1086011920877149,-2.0257716532863008e-8,-2.572273942900606e-7,0.09529474953527144,-1.7519450021466334e-7
2020-05-29,false,0.0,0.012664237266852252,-2.973313908406342e-7,-3.177075592508118e-7,-3.0454243417123394e-7,-2.41475645510333e-7,-2.5337371843441343e-7,-2.431343961192963e-7,0.10904433831680772,0.29999982091114935,0.07439803922797525,0.2999997330931371,0.1086011920877149,-2.0257716532863008e-8,-2.572273942900606e-7,0.09529474953527144,-1.7519450021466334e-7
2020-06-30,false,0.0,0.012664237266852252,-2.973313908406342e-7,-3.177075592508118e-7,-3.0454243417123394e-7,-2.41475645510333e-7,-2.5337371843441343e-7,-2.431343961192963e-7,0.10904433831680772,0.29999982091114935,0.07439803922797525,0.2999997330931371,0.1086011920877149,-2.0257716532863008e-8,-2.572273942900606e-7,0.09529474953527144,-1.7519450021466334e-7
2020-07-31,false,0.0,0.012664237266852252,-2.973313908406342e-7,-3.177075592508118e-7,-3.0454243417123394e-7,-2.41475645510333e-7,-2.5337371843441343e-7,-2.431343961192963e-7,0.10904433831680772,0.29999982091114935,0.07439803922797525,0.2999997330931371,0.1086011920877149,-2.0257716532863008e-8,-2.572273942900606e-7,0.09529474953527144,-1.7519450021466334e-7
2020-08-31,false,0.0,0.012664237266852252,-2.973313908406342e-7,-3.177075592508118e-7,-3.0454243417123394e-7,-2.41475645510333e-7,-2.5337371843441343e-7,-2.431343961192963e-7,0.10904433831680772,0.29999982091114935,0.07439803922797525,0.2999997330931371,0.1086011920877149,-2.0257716532863008e-8,-2.572273942900606e-7,0.09529474953527144,-1.7519450021466334e-7
2020-09-30,false,0.0,0.012664237266852252,-2.973313908406342e-7,-3.177075592508118e-7,-3.0454243417123394e-7,-2.41475645510333e-7,-2.5337371843441343e-7,-2.431343961192963e-7,0.10904433831680772,0.29999982091114935,0.07439803922797525,0.2999997330931371,0.1086011920877149,-2.0257716532863008e-8,-2.572273942900606e-7,0.09529474953527144,-1.7519450021466334e-7
2020-10-30,false,0.0,0.012664237266852252,-2.973313908406342e-7,-3.177075592508118e-7,-3.0454243417123394e-7,-2.41475645510333e-7,-2.5337371843441343e-7,-2.431343961192963e-7,0.10904433831680772,0.29999982091114935,0.07439803922797525,0.2999997330931371,0.1086011920877149,-2.0257716532863008e-8,-2.572273942900606e-7,0.09529474953527144,-1.7519450021466334e-7
2020-11-30,false,0.0,0.012664237266852252,-2.973313908406342e-7,-3.177075592508118e-7,-3.0454243417123394e-7,-2.41475645510333e-7,-2.5337371843441343e-7,-2.431343961192963e-7,0.10904433831680772,0.29999982091114935,0.07439803922797525,0.2999997330931371,0.1086011920877149,-2.0257716532863008e-8,-2.572273942900606e-7,0.09529474953527144,-1.7519450021466334e-7
2020-12-31,false,0.0,0.012664237266852252,-2.973313908406342e-7,-3.177075592508118e-7,-3.0454243417123394e-7,-2.41475645510333e-7,-2.5337371843441343e-7,-2.431343961192963e-7,0.10904433831680772,0.29999982091114935,0.07439803922797525,0.2999997330931371,0.1086011920877149,-2.0257716532863008e-8,-2.572273942900606e-7,0.09529474953527144,-1.7519450021466334e-7
2021-01-29,false,0.0,0.012664237266852252,-2.973313908406342e-7,-3.177075592508118e-7,-3.0454243417123394e-7,-2.41475645510333e-7,-2.5337371843441343e-7,-2.431343961192963e-7,0.10904433831680772,0.29999982091114935,0.07439803922797525,0.2999997330931371,0.1086011920877149,-2.0257716532863008e-8,-2.572273942900606e-7,0.09529474953527144,-1.7519450021466334e-7
2021-02-26,false,0.0,0.012664237266852252,-2.973313908406342e-7,-3.177075592508118e-7,-3.0454243417123394e-7,-2.41475645510333e-7,-2.5337371843441343e-7,-2.431343961192963e-7,0.10904433831680772,0.29999982091114935,0.07439803922797525,0.2999997330931371,0.1086011920877149,-2.0257716532863008e-8,-2.572273942900606e-7,0.09529474953527144,-1.7519450021466334e-7
2021-03-31,false,0.0,0.012664237266852252,-2.973313908406342e-7,-3.177075592508118e-7,-3.0454243417123394e-7,-2.41475645510333e-7,-2.5337371843441343e-7,-2.431343961192963e-7,0.10904433831680772,0.29999982091114935,0.07439803922797525,0.2999997330931371,0.1086011920877149,-2.0257716532863008e-8,-2.572273942900606e-7,0.09529474953527144,-1.7519450021466334e-7
2021-04-30,false,0.0,0.012664237266852252,-2.973313908406342e-7,-3.177075592508118e-7,-3.0454243417123394e-7,-2.41475645510333e-7,-2.5337371843441343e-7,-2.431343961192963e-7,0.10904433831680772,0.29999982091114935,0.07439803922797525,0.2999997330931371,0.1086011920877149,-2.0257716532863008e-8,-2.572273942900606e-7,0.09529474953527144,-1.7519450021466334e-7
2021-05-28,false,0.0,0.012664237266852252,-2.973313908406342e-7,-3.177075592508118e-7,-3.0454243417123394e-7,-2.41475645510333e-7,-2.5337371843441343e-7,-2.431343961192963e-7,0.10904433831680772,0.29999982091114935,0.07439803922797525,0.2999997330931371,0.1086011920877149,-2.0257716532863008e-8,-2.572273942900606e-7,0.09529474953527144,-1.7519450021466334e-7
2021-06-30,false,0.0,0.012664237266852252,-2.973313908406342e-7,-3.177075592508118e-7,-3.0454243417123394e-7,-2.41475645510333e-7,-2.5337371843441343e-7,-2.431343961192963e-7,0.10904433831680772,0.29999982091114935,0.07439803922797525,0.2999997330931371,0.1086011920877149,-2.0257716532863008e-8,-2.572273942900606e-7,0.09529474953527144,-1.7519450021466334e-7
2021-07-30,false,0.0,0.012664237266852252,-2.973313908406342e-7,-3.177075592508118e-7,-3.0454243417123394e-7,-2.41475645510333e-7,-2.5337371843441343e-7,-2.431343961192963e-7,0.10904433831680772,0.29999982091114935,0.07439803922797525,0.2999997330931371,0.1086011920877149,-2.0257716532863008e-8,-2.572273942900606e-7,0.09529474953527144,-1.7519450021466334e-7
2021-08-31,false,0.0,0.012664237266852252,-2.973313908406342e-7,-3.177075592508118e-7,-3.0454243417123394e-7,-2.41475645510333e-7,-2.5337371843441343e-7,-2.431343961192963e-7,0.10904433831680772,0.29999982091114935,0.07439803922797525,0.2999997330931371,0.1086011920877149,-2.0257716532863008e-8,-2.572273942900606e-7,0.09529474953527144,-1.7519450021466334e-7
2021-09-30,false,0.0,0.012664237266852252,-2.973313908406342e-7,-3.177075592508118e-7,-3.0454243417123394e-7,-2.41475645510333e-7,-2.5337371843441343e-7,-2.431343961192963e-7,0.10904433831680772,0.29999982091114935,0.07439803922797525,0.2999997330931371,0.1086011920877149,-2.0257716532863008e-8,-2.572273942900606e-7,0.09529474953527144,-1.7519450021466334e-7
2021-10-29,false,0.0,0.012664237266852252,-2.973313908406342e-7,-3.177075592508118e-7,-3.0454243417123394e-7,-2.41475645510333e-7,-2.5337371843441343e-7,-2.431343961192963e-7,0.10904433831680772,0.29999982091114935,0.07439803922797525,0.2999997330931371,0.1086011920877149,-2.0257716532863008e-8,-2.572273942900606e-7,0.09529474953527144,-1.7519450021466334e-7
2021-11-30,false,0.0,0.012664237266852252,-2.973313908406342e-7,-3.177075592508118e-7,-3.0454243417123394e-7,-2.41475645510333e-7,-2.5337371843441343e-7,-2.431343961192963e-7,0.10904433831680772,0.29999982091114935,0.07439803922797525,0.2999997330931371,0.1086011920877149,-2.0257716532863008e-8,-2.572273942900606e-7,0.09529474953527144,-1.7519450021466334e-7
2021-12-31,false,0.0,0.012664237266852252,-2.973313908406342e-7,-3.177075592508118e-7,-3.0454243417123394e-7,-2.41475645510333e-7,-2.5337371843441343e-7,-2.431343961192963e-7,0.10904433831680772,0.29999982091114935,0.07439803922797525,0.2999997330931371,0.1086011920877149,-2.0257716532863008e-8,-2.572273942900606e-7,0.09529474953527144,-1.7519450021466334e-7
2022-01-31,false,0.0,0.012664237266852252,-2.973313908406342e-7,-3.177075592508118e-7,-3.0454243417123394e-7,-2.41475645510333e-7,-2.5337371843441343e-7,-2.431343961192963e-7,0.10904433831680772,0.29999982091114935,0.07439803922797525,0.2999997330931371,0.1086011920877149,-2.0257716532863008e-8,-2.572273942900606e-7,0.09529474953527144,-1.7519450021466334e-7
2022-02-28,false,0.0,0.012664237266852252,-2.973313908406342e-7,-3.177075592508118e-7,-3.0454243417123394e-7,-2.41475645510333e-7,-2.5337371843441343e-7,-2.431343961192963e-7,0.10904433831680772,0.29999982091114935,0.07439803922797525,0.2999997330931371,0.1086011920877149,-2.0257716532863008e-8,-2.572273942900606e-7,0.09529474953527144,-1.7519450021466334e-7
2022-03-31,false,0.0,0.012664237266852252,-2.973313908406342e-7,-3.177075592508118e-7,-3.0454243417123394e-7,-2.41475645510333e-7,-2.5337371843441343e-7,-2.431343961192963e-7,0.10904433831680772,0.29999982091114935,0.07439803922797525,0.2999997330931371,0.1086011920877149,-2.0257716532863008e-8,-2.572273942900606e-7,0.09529474953527144,-1.7519450021466334e-7
2022-04-29,false,0.0,0.012664237266852252,-2.973313908406342e-7,-3.177075592508118e-7,-3.0454243417123394e-7,-2.41475645510333e-7,-2.5337371843441343e-7,-2.431343961192963e-7,0.10904433831680772,0.29999982091114935,0.07439803922797525,0.2999997330931371,0.1086011920877149,-2.0257716532863008e-8,-2.572273942900606e-7,0.09529474953527144,-1.7519450021466334e-7
2022-05-31,false,0.0,0.012664237266852252,-2.973313908406342e-7,-3.177075592508118e-7,-3.0454243417123394e-7,-2.41475645510333e-7,-2.5337371843441343e-7,-2.431343961192963e-7,0.10904433831680772,0.29999982091114935,0.07439803922797525,0.2999997330931371,0.1086011920877149,-2.0257716532863008e-8,-2.572273942900606e-7,0.09529474953527144,-1.7519450021466334e-7
2022-06-30,false,0.0,0.012664237266852252,-2.973313908406342e-7,-3.177075592508118e-7,-3.0454243417123394e-7,-2.41475645510333e-7,-2.5337371843441343e-7,-2.431343961192963e-7,0.10904433831680772,0.29999982091114935,0.07439803922797525,0.2999997330931371,0.1086011920877149,-2.0257716532863008e-8,-2.572273942900606e-7,0.09529474953527144,-1.7519450021466334e-7
2022-07-29,false,0.0,0.012664237266852252,-2.973313908406342e-7,-3.177075592508118e-7,-3.0454243417123394e-7,-2.41475645510333e-7,-2.5337371843441343e-7,-2.431343961192963e-7,0.10904433831680772,0.29999982091114935,0.07439803922797525,0.2999997330931371,0.1086011920877149,-2.0257716532863008e-8,-2.572273942900606e-7,0.09529474953527144,-1.7519450021466334e-7
2022-08-31,false,0.0,0.012664237266852252,-2.973313908406342e-7,-3.177075592508118e-7,-3.0454243417123394e-7,-2.41475645510333e-7,-2.5337371843441343e-7,-2.431343961192963e-7,0.10904433831680772,0.29999982091114935,0.07439803922797525,0.2999997330931371,0.1086011920877149,-2.0257716532863008e-8,-2.572273942900606e-7,0.09529474953527144,-1.7519450021466334e-7
2022-09-30,false,0.0,0.012664237266852252,-2.973313908406342e-7,-3.177075592508118e-7,-3.0454243417123394e-7,-2.41475645510333e-7,-2.5337371843441343e-7,-2.431343961192963e-7,0.10904433831680772,0.29999982091114935,0.07439803922797525,0.2999997330931371,0.1086011920877149,-2.0257716532863008e-8,-2.572273942900606e-7,0.09529474953527144,-1.7519450021466334e-7
2022-10-31,false,0.0,0.012664237266852252,-2.973313908406342e-7,-3.177075592508118e-7,-3.0454243417123394e-7,-2.41475645510333e-7,-2.5337371843441343e-7,-2.431343961192963e-7,0.10904433831680772,0.29999982091114935,0.07439803922797525,0.2999997330931371,0.1086011920877149,-2.0257716532863008e-8,-2.572273942900606e-7,0.09529474953527144,-1.7519450021466334e-7
2022-11-30,false,0.0,0.012664237266852252,-2.973313908406342e-7,-3.177075592508118e-7,-3.0454243417123394e-7,-2.41475645510333e-7,-2.5337371843441343e-7,-2.431343961192963e-7,0.10904433831680772,0.29999982091114935,0.07439803922797525,0.2999997330931371,0.1086011920877149,-2.0257716532863008e-8,-2.572273942900606e-7,0.09529474953527144,-1.7519450021466334e-7
2022-12-30,false,0.0,0.012664237266852252,-2.973313908406342e-7,-3.177075592508118e-7,-3.0454243417123394e-7,-2.41475645510333e-7,-2.5337371843441343e-7,-2.431343961192963e-7,0.10904433831680772,0.29999982091114935,0.07439803922797525,0.2999997330931371,0.1086011920877149,-2.0257716532863008e-8,-2.572273942900606e-7,0.09529474953527144,-1.7519450021466334e-7
2023-01-31,false,0.0,0.012664237266852252,-2.973313908406342e-7,-3.177075592508118e-7,-3.0454243417123394e-7,-2.41475645510333e-7,-2.5337371843441343e-7,-2.431343961192963e-7,0.10904433831680772,0.29999982091114935,0.07439803922797525,0.2999997330931371,0.1086011920877149,-2.0257716532863008e-8,-2.572273942900606e-7,0.09529474953527144,-1.7519450021466334e-7
2023-02-28,false,0.0,0.012664237266852252,-2.973313908406342e-7,-3.177075592508118e-7,-3.0454243417123394e-7,-2.41475645510333e-7,-2.5337371843441343e-7,-2.431343961192963e-7,0.10904433831680772,0.29999982091114935,0.07439803922797525,0.2999997330931371,0.1086011920877149,-2.0257716532863008e-8,-2.572273942900606e-7,0.09529474953527144,-1.7519450021466334e-7
2023-03-31,true,0.3344638238221583,3.733238659159993e-9,4.598980947110208e-9,2.9552020046012415e-9,4.915824450886892e-9,3.7244783447321344e-9,1.469237125532158e-9,1.5038638293471584e-9,-3.62783387250074e-9,0.3000000452525001,0.24162737231858789,0.29999994956042303,0.07492345167306474,1.2707322967077764e-9,4.23412346986281e-9,0.08344915341807199,2.9956063151106114e-9
2023-04-28,false,0.0,3.733238659159993e-9,4.598980947110208e-9,2.9552020046012415e-9,4.915824450886892e-9,3.7244783447321344e-9,1.469237125532158e-9,1.5038638293471584e-9,-3.62783387250074e-9,0.3000000452525001,0.24162737231858789,0.29999994956042303,0.07492345167306474,1.2707322967077764e-9,4.23412346986281e-9,0.08344915341807199,2.9956063151106114e-9
2023-05-31,false,0.0,3.733238659159993e-9,4.598980947110208e-9,2.9552020046012415e-9,4.915824450886892e-9,3.7244783447321344e-9,1.469237125532158e-9,1.5038638293471584e-9,-3.62783387250074e-9,0.3000000452525001,0.24162737231858789,0.29999994956042303,0.07492345167306474,1.2707322967077764e-9,4.23412346986281e-9,0.08344915341807199,2.9956063151106114e-9
2023-06-30,false,0.0,3.733238659159993e-9,4.598980947110208e-9,2.9552020046012415e-9,4.915824450886892e-9,3.7244783447321344e-9,1.469237125532158e-9,1.5038638293471584e-9,-3.62783387250074e-9,0.3000000452525001,0.24162737231858789,0.29999994956042303,0.07492345167306474,1.2707322967077764e-9,4.23412346986281e-9,0.08344915341807199,2.9956063151106114e-9
2023-07-31,false,0.0,3.733238659159993e-9,4.598980947110208e-9,2.9552020046012415e-9,4.915824450886892e-9,3.7244783447321344e-9,1.469237125532158e-9,1.5038638293471584e-9,-3.62783387250074e-9,0.3000000452525001,0.24162737231858789,0.29999994956042303,0.07492345167306474,1.2707322967077764e-9,4.23412346986281e-9,0.08344915341807199,2.9956063151106114e-9
2023-08-31,false,0.0,3.733238659159993e-9,4.598980947110208e-9,2.9552020046012415e-9,4.915824450886892e-9,3.7244783447321344e-9,1.469237125532158e-9,1.5038638293471584e-9,-3.62783387250074e-9,0.3000000452525001,0.24162737231858789,0.29999994956042303,0.07492345167306474,1.2707322967077764e-9,4.23412346986281e-9,0.08344915341807199,2.9956063151106114e-9
2023-09-29,false,0.0,3.733238659159993e-9,4.598980947110208e-9,2.9552020046012415e-9,4.915824450886892e-9,3.7244783447321344e-9,1.469237125532158e-9,1.5038638293471584e-9,-3.62783387250074e-9,0.3000000452525001,0.24162737231858789,0.29999994956042303,0.07492345167306474,1.2707322967077764e-9,4.23412346986281e-9,0.08344915341807199,2.9956063151106114e-9
2023-10-31,false,0.0,3.733238659159993e-9,4.598980947110208e-9,2.9552020046012415e-9,4.915824450886892e-9,3.7244783447321344e-9,1.469237125532158e-9,1.5038638293471584e-9,-3.62783387250074e-9,0.3000000452525001,0.24162737231858789,0.29999994956042303,0.07492345167306474,1.2707322967077764e-9,4.23412346986281e-9,0.08344915341807199,2.9956063151106114e-9
2023-11-30,false,0.0,3.733238659159993e-9,4.598980947110208e-9,2.9552020046012415e-9,4.915824450886892e-9,3.7244783447321344e-9,1.469237125532158e-9,1.5038638293471584e-9,-3.62783387250074e-9,0.3000000452525001,0.24162737231858789,0.29999994956042303,0.07492345167306474,1.2707322967077764e-9,4.23412346986281e-9,0.08344915341807199,2.9956063151106114e-9
2023-12-29,false,0.0,3.733238659159993e-9,4.598980947110208e-9,2.9552020046012415e-9,4.915824450886892e-9,3.7244783447321344e-9,1.469237125532158e-9,1.5038638293471584e-9,-3.62783387250074e-9,0.3000000452525001,0.24162737231858789,0.29999994956042303,0.07492345167306474,1.2707322967077764e-9,4.23412346986281e-9,0.08344915341807199,2.9956063151106114e-9
2024-01-31,false,0.0,3.733238659159993e-9,4.598980947110208e-9,2.9552020046012415e-9,4.915824450886892e-9,3.7244783447321344e-9,1.469237125532158e-9,1.5038638293471584e-9,-3.62783387250074e-9,0.3000000452525001,0.24162737231858789,0.29999994956042303,0.07492345167306474,1.2707322967077764e-9,4.23412346986281e-9,0.08344915341807199,2.9956063151106114e-9
2024-02-29,false,0.0,3.733238659159993e-9,4.598980947110208e-9,2.9552020046012415e-9,4.915824450886892e-9,3.7244783447321344e-9,1.469237125532158e-9,1.5038638293471584e-9,-3.62783387250074e-9,0.3000000452525001,0.24162737231858789,0.29999994956042303,0.07492345167306474,1.2707322967077764e-9,4.23412346986281e-9,0.08344915341807199,2.9956063151106114e-9
2024-03-28,false,0.0,3.733238659159993e-9,4.598980947110208e-9,2.9552020046012415e-9,4.915824450886892e-9,3.7244783447321344e-9,1.469237125532158e-9,1.5038638293471584e-9,-3.62783387250074e-9,0.3000000452525001,0.24162737231858789,0.29999994956042303,0.07492345167306474,1.2707322967077764e-9,4.23412346986281e-9,0.08344915341807199,2.9956063151106114e-9
2024-04-30,false,0.0,3.733238659159993e-9,4.598980947110208e-9,2.9552020046012415e-9,4.915824450886892e-9,3.7244783447321344e-9,1.469237125532158e-9,1.5038638293471584e-9,-3.62783387250074e-9,0.3000000452525001,0.24162737231858789,0.29999994956042303,0.07492345167306474,1.2707322967077764e-9,4.23412346986281e-9,0.08344915341807199,2.9956063151106114e-9
2024-05-31,false,0.0,3.733238659159993e-9,4.598980947110208e-9,2.9552020046012415e-9,4.915824450886892e-9,3.7244783447321344e-9,1.469237125532158e-9,1.5038638293471584e-9,-3.62783387250074e-9,0.3000000452525001,0.24162737231858789,0.29999994956042303,0.07492345167306474,1.2707322967077764e-9,4.23412346986281e-9,0.08344915341807199,2.9956063151106114e-9
2024-06-28,false,0.0,3.733238659159993e-9,4.598980947110208e-9,2.9552020046012415e-9,4.915824450886892e-9,3.7244783447321344e-9,1.469237125532158e-9,1.5038638293471584e-9,-3.62783387250074e-9,0.3000000452525001,0.24162737231858789,0.29999994956042303,0.07492345167306474,1.2707322967077764e-9,4.23412346986281e-9,0.08344915341807199,2.9956063151106114e-9
2024-07-31,false,0.0,3.733238659159993e-9,4.598980947110208e-9,2.9552020046012415e-9,4.915824450886892e-9,3.7244783447321344e-9,1.469237125532158e-9,1.5038638293471584e-9,-3.62783387250074e-9,0.3000000452525001,0.24162737231858789,0.29999994956042303,0.07492345167306474,1.2707322967077764e-9,4.23412346986281e-9,0.08344915341807199,2.9956063151106114e-9
2024-08-30,false,0.0,3.733238659159993e-9,4.598980947110208e-9,2.9552020046012415e-9,4.915824450886892e-9,3.7244783447321344e-9,1.469237125532158e-9,1.5038638293471584e-9,-3.62783387250074e-9,0.3000000452525001,0.24162737231858789,0.29999994956042303,0.07492345167306474,1.2707322967077764e-9,4.23412346986281e-9,0.08344915341807199,2.9956063151106114e-9
2024-09-30,false,0.0,3.733238659159993e-9,4.598980947110208e-9,2.9552020046012415e-9,4.915824450886892e-9,3.7244783447321344e-9,1.469237125532158e-9,1.5038638293471584e-9,-3.62783387250074e-9,0.3000000452525001,0.24162737231858789,0.29999994956042303,0.07492345167306474,1.2707322967077764e-9,4.23412346986281e-9,0.08344915341807199,2.9956063151106114e-9
2024-10-31,false,0.0,3.733238659159993e-9,4.598980947110208e-9,2.9552020046012415e-9,4.915824450886892e-9,3.7244783447321344e-9,1.469237125532158e-9,1.5038638293471584e-9,-3.62783387250074e-9,0.3000000452525001,0.24162737231858789,0.29999994956042303,0.07492345167306474,1.2707322967077764e-9,4.23412346986281e-9,0.08344915341807199,2.9956063151106114e-9
2024-11-29,false,0.0,3.733238659159993e-9,4.598980947110208e-9,2.9552020046012415e-9,4.915824450886892e-9,3.7244783447321344e-9,1.469237125532158e-9,1.5038638293471584e-9,-3.62783387250074e-9,0.3000000452525001,0.24162737231858789,0.29999994956042303,0.07492345167306474,1.2707322967077764e-9,4.23412346986281e-9,0.08344915341807199,2.9956063151106114e-9
2024-12-31,false,0.0,3.733238659159993e-9,4.598980947110208e-9,2.9552020046012415e-9,4.915824450886892e-9,3.7244783447321344e-9,1.469237125532158e-9,1.5038638293471584e-9,-3.62783387250074e-9,0.3000000452525001,0.24162737231858789,0.29999994956042303,0.07492345167306474,1.2707322967077764e-9,4.23412346986281e-9,0.08344915341807199,2.9956063151106114e-9
2025-01-31,false,0.0,3.733238659159993e-9,4.598980947110208e-9,2.9552020046012415e-9,4.915824450886892e-9,3.7244783447321344e-9,1.469237125532158e-9,1.5038638293471584e-9,-3.62783387250074e-9,0.3000000452525001,0.24162737231858789,0.29999994956042303,0.07492345167306474,1.2707322967077764e-9,4.23412346986281e-9,0.08344915341807199,2.9956063151106114e-9
2025-02-28,false,0.0,3.733238659159993e-9,4.598980947110208e-9,2.9552020046012415e-9,4.915824450886892e-9,3.7244783447321344e-9,1.469237125532158e-9,1.5038638293471584e-9,-3.62783387250074e-9,0.3000000452525001,0.24162737231858789,0.29999994956042303,0.07492345167306474,1.2707322967077764e-9,4.23412346986281e-9,0.08344915341807199,2.9956063151106114e-9
2025-03-31,false,0.0,3.733238659159993e-9,4.598980947110208e-9,2.9552020046012415e-9,4.915824450886892e-9,3.7244783447321344e-9,1.469237125532158e-9,1.5038638293471584e-9,-3.62783387250074e-9,0.3000000452525001,0.24162737231858789,0.29999994956042303,0.07492345167306474,1.2707322967077764e-9,4.23412346986281e-9,0.08344915341807199,2.9956063151106114e-9
2025-04-30,false,0.0,3.733238659159993e-9,4.598980947110208e-9,2.9552020046012415e-9,4.915824450886892e-9,3.7244783447321344e-9,1.469237125532158e-9,1.5038638293471584e-9,-3.62783387250074e-9,0.3000000452525001,0.24162737231858789,0.29999994956042303,0.07492345167306474,1.2707322967077764e-9,4.23412346986281e-9,0.08344915341807199,2.9956063151106114e-9
2025-05-30,false,0.0,3.733238659159993e-9,4.598980947110208e-9,2.9552020046012415e-9,4.915824450886892e-9,3.7244783447321344e-9,1.469237125532158e-9,1.5038638293471584e-9,-3.62783387250074e-9,0.3000000452525001,0.24162737231858789,0.29999994956042303,0.07492345167306474,1.2707322967077764e-9,4.23412346986281e-9,0.08344915341807199,2.9956063151106114e-9
2025-06-30,false,0.0,3.733238659159993e-9,4.598980947110208e-9,2.9552020046012415e-9,4.915824450886892e-9,3.7244783447321344e-9,1.469237125532158e-9,1.5038638293471584e-9,-3.62783387250074e-9,0.3000000452525001,0.24162737231858789,0.29999994956042303,0.07492345167306474,1.2707322967077764e-9,4.23412346986281e-9,0.08344915341807199,2.9956063151106114e-9
2025-07-31,false,0.0,3.733238659159993e-9,4.598980947110208e-9,2.9552020046012415e-9,4.915824450886892e-9,3.7244783447321344e-9,1.469237125532158e-9,1.5038638293471584e-9,-3.62783387250074e-9,0.3000000452525001,0.24162737231858789,0.29999994956042303,0.07492345167306474,1.2707322967077764e-9,4.23412346986281e-9,0.08344915341807199,2.9956063151106114e-9
2025-08-29,false,0.0,3.733238659159993e-9,4.598980947110208e-9,2.9552020046012415e-9,4.915824450886892e-9,3.7244783447321344e-9,1.469237125532158e-9,1.5038638293471584e-9,-3.62783387250074e-9,0.3000000452525001,0.24162737231858789,0.29999994956042303,0.07492345167306474,1.2707322967077764e-9,4.23412346986281e-9,0.08344915341807199,2.9956063151106114e-9
2025-09-30,false,0.0,3.733238659159993e-9,4.598980947110208e-9,2.9552020046012415e-9,4.915824450886892e-9,3.7244783447321344e-9,1.469237125532158e-9,1.5038638293471584e-9,-3.62783387250074e-9,0.3000000452525001,0.24162737231858789,0.29999994956042303,0.07492345167306474,1.2707322967077764e-9,4.23412346986281e-9,0.08344915341807199,2.9956063151106114e-9
2025-10-03,false,0.0,3.733238659159993e-9,4.598980947110208e-9,2.9552020046012415e-9,4.915824450886892e-9,3.7244783447321344e-9,1.469237125532158e-9,1.5038638293471584e-9,-3.62783387250074e-9,0.3000000452525001,0.24162737231858789,0.29999994956042303,0.07492345167306474,1.2707322967077764e-9,4.23412346986281e-9,0.08344915341807199,2.9956063151106114e-9
