date,rebalanced,turnover,SPY,IWD,IWF,IWM,EFA,EEM,VWO,TLT,IEF,LQD,HYG,GLD,SLV,VNQ,DBC,USO
2010-04-30,true,1.1739489664111868,-1.9663056934313686e-9,-1.8056714888675429e-9,0.09675945143120113,0.012928440632008084,-1.0046637184834769e-8,-2.4192589771426606e-8,-2.2388695637939395e-8,0.21402586893679434,0.30000000535269855,0.15790022711383442,0.10040474026056616,0.09288419010600776,-4.092318481533596e-9,-8.707771763120208e-10,0.02509714572081375,-4.199910754767846e-9
2010-05-28,true,1.199010062331542e-6,3.847181154153991e-9,1.0036521496914286e-8,0.09675986802189254,0.012927961475691174,5.405914366592144e-9,2.8399771206283114e-9,3.165945016978906e-9,0.21402584423969206,0.3000000045219481,0.15790025736165772,0.10040475788256908,0.09288422872446832,6.1453713024952315e-9,-3.54666541150874e-9,0.025097053582296344,-3.7005306367031635e-9
2010-06-30,true,1.1543037398446297e-6,1.0096979848945595e-8,1.5600748902934807e-8,0.09676030414348193,0.012927481580471792,1.1821222448382707e-8,8.500936609765862e-9,9.072811706629987e-9,0.21402582522605526,0.3000000068987164,0.15790028906279063,0.10040478475662402,0.09288427032898942,8.167816239180078e-9,2.0914920364088954e-10,0.025096975332159644,-8.092702722424216e-10
2010-07-30,true,1.249996023744279e-6,1.4724803612363546e-8,1.929314226504452e-8,0.09676078652467782,0.01292695786053484,1.5546092422201917e-8,1.100788177750665e-8,1.1787392235384112e-8,0.21402580575908348,0.30000000974728147,0.15790032305139734,0.10040481796844768,0.09288432063048098,9.097988312760997e-9,2.4537136291769673e-9,0.0250968935179296,1.0125825426276643e-9
2010-08-31,true,9.213263500145784e-7,1.3625697454918624e-8,1.6942673260788616e-8,0.09676114552732688,0.012926574791929409,1.3572869225791754e-8,9.062404992775819e-9,9.836848566957918e-9,0.21402579519237222,0.3000000127437846,0.15790035144301498,0.10040484600723952,0.09288436208353368,8.134428693811086e-9,2.000033840964953e-9,0.025096837224817512,1.7918311561832052e-9
2010-09-30,true,7.009134754789349e-7,1.1173428144300279e-8,1.3356457517804466e-8,0.09676142037914856,0.012926285943493423,1.0702808267289705e-8,6.966541046378419e-9,7.605221419121997e-9,0.21402578933948577,0.3000000138294604,0.15790037253610245,0.10040486732161559,0.0928843941966744,6.532618085407073e-9,1.6887869126717617e-9,0.025096796751382475,1.6603095022784604e-9
2010-10-29,true,7.278559756401615e-7,1.0009633112312916e-8,1.223908168300589e-8,0.09676170916148716,0.012925980412168143,9.806577907377661e-9,6.6130011440455095e-9,7.223035725620052e-9,0.21402578189275576,0.3000000139255051,0.1579003932597403,0.10040488744141025,0.09288442840392505,6.2738552989496715e-9,1.2133823703154503e-9,0.025096750634757903,1.4753743822668658e-9
2010-11-30,true,7.208167860436849e-7,8.28667929300552e-9,1.1227595067019849e-8,0.09676199231636008,0.012925682033406435,8.764172490327984e-9,5.883417006591334e-9,6.514295889773456e-9,0.21402577597214367,0.3000000148501818,0.15790041588385823,0.10040490607605629,0.09288446298074357,6.766854685041056e-9,-2.868389311651526e-10,0.025096701684232326,1.0320102807006448e-9
2010-12-31,true,6.590317522242947e-7,6.153317644223546e-9,9.70619455760271e-9,0.09676225263748268,0.012925413107458851,7.247647781707526e-9,4.758503606024846e-9,5.326496766684742e-9,0.2140257722445209,0.3000000158862727,0.15790043833312545,0.10040492097786302,0.0928844936583268,6.897279200004358e-9,-1.6668023941634965e-9,0.02509665463067847,8.764029199324033e-11
2011-01-31,true,5.437435860637769e-7,4.031919266722041e-9,7.946288565006253e-9,0.09676246755570422,0.012925191211024126,5.423730411002391e-9,3.4811539217801806e-9,3.979675151194565e-9,0.21402577091338254,0.3000000161498686,0.15790045841461303,0.10040493200378141,0.09288451924207126,6.42162206556177e-9,-2.523473584479702e-9,0.0250966161097611,-3.7276604380780294e-10
2011-02-28,true,6.489968385995363e-7,2.5240272703989083e-9,7.77036661753179e-9,0.09676273103242841,0.012924919559930246,4.736234405300929e-9,3.1338112383739347e-9,3.608984355401099e-9,0.21402577030618225,0.300000017343273,0.15790048202411,0.10040494148193282,0.09288454518667633,7.217502015077682e-9,-4.109332308348816e-9,0.025096569846468686,-1.6745539455037853e-9
2011-03-31,true,6.495612733567911e-7,-1.5355698486450404e-9,6.152514123113377e-9,0.09676299855281009,0.012924657917707083,2.0586100165567295e-9,8.939727061123843e-10,1.3628993196020879e-9,0.21402577891911376,0.3000000217897815,0.1579005103232678,0.1004049419212461,0.09288455926711614,8.597999398874048e-9,-8.292517362992689e-9,0.02509652800481542,-5.94853823646805e-9
2011-04-29,true,6.400003881809944e-7,-3.941761758819864e-9,5.137192877574486e-9,0.09676326781349684,0.012924392717794718,6.657074020144959e-10,-8.178656439863571e-11,3.4008757540212916e-10,0.21402578732815386,0.3000000245776132,0.15790053878496232,0.10040494007151418,0.09288457010520021,8.841877365380352e-9,-9.860728141707688e-9,0.025096485153538774,-7.665592817439588e-9
2011-05-31,true,8.014362879546094e-7,-5.74709572298599e-9,5.224493721656289e-9,0.0967636048798222,0.012924057002296294,2.2068173288378848e-10,-2.946841621816692e-10,2.387627622927056e-10,0.21402579644486983,0.3000000275813276,0.15790057221470144,0.10040494014478688,0.09288458782898605,9.058453051093452e-9,-1.2220028320722215e-8,0.025096425816554736,-8.408086187981348e-9
2011-06-30,true,7.793893562625665e-7,-8.037080189100688e-9,4.090976100472401e-9,0.0967639448554106,0.012923734362150921,-1.4940625587949988e-9,-1.6185459312187475e-9,-1.1834830564135077e-9,0.21402580762153367,0.30000002958893957,0.15790060377407605,0.10040493244659902,0.09288459280561835,8.187130427739966e-9,-1.346289640457409e-8,0.02509637875576896,-1.0703907663148695e-8
2011-07-29,true,7.617194926003934e-7,-1.2849050573866872e-8,1.125335349667524e-9,0.09676427495190719,0.012923451873640086,-5.462924672205156e-9,-4.7084061665916825e-9,-4.64295095560107e-9,0.21402582539266599,0.30000003276763704,0.15790063358751633,0.10040491134746095,0.09288458630352589,7.553839538949683e-9,-1.673053042875609e-8,0.02509633429353376,-1.4814930740736688e-8
2011-08-31,true,6.044462208913652e-7,-3.414315429786562e-9,4.202604635013952e-9,0.09676451740280394,0.01292320663531312,-2.2777594537015953e-11,3.914642933690209e-10,3.130729985149933e-10,0.2140258154585873,0.30000002295881767,0.1579006438482356,0.100404907600847,0.09288457865223856,2.7712648633528992e-9,-3.408338767658449e-9,0.025096313238693588,-6.627104611825683e-9
2011-09-30,true,3.8167942839415043e-7,1.2642520240568413e-8,1.2631049688820522e-8,0.09676445227060233,0.012923217061255772,1.0072648282704342e-8,9.11882275361399e-9,1.0074929289871307e-8,0.21402577845603118,0.2999999966927387,0.15790062150231787,0.10040492019014909,0.09288454477827189,-2.6247345128057676e-9,9.282261495733645e-9,0.025096415285501602,-7.467238173798243e-9
2011-10-31,true,1.5599227193561185e-6,2.630606844171685e-8,-4.99044392515256e-9,0.09676493929498817,0.012922659938945787,1.150531065856709e-7,2.4829612336434697e-8,2.3658732490270053e-8,0.21402575139170635,0.29999998760655033,0.1579005354974326,0.1004048372195408,0.09288454877052442,3.9057744047206896e-9,5.6145482692208294e-8,0.02509648508554488,1.043665979301835e-8
2011-11-30,true,3.3527152447940446e-6,2.4633857949829876e-8,1.6909096527703763e-8,0.0967663937628516,0.012921172088855242,7.767455777277016e-8,-2.6953548619576327e-8,5.400538457513963e-8,0.21402571312993113,0.2999999638072337,0.15790055948314644,0.10040484805134317,0.0928845612549188,1.3374592114193296e-8,2.0541645336983133e-8,0.025096585423973118,2.2979752081322153e-8
2011-12-30,true,1.435378402502962e-6,-8.444907706639594e-8,1.5673396933813155e-7,0.0967665529659332,0.012921201531417842,1.2749770897078303e-7,1.7261112616371672e-7,-1.920328335147005e-7,0.21402570589021958,0.2999999020135935,0.15790052989775216,0.10040481227964411,0.09288459302826228,-1.9813252306896782e-9,-4.529947764898862e-8,0.025096438459485892,1.310533423477156e-7
2012-01-31,true,1.0180441828230261e-6,-3.737051993316772e-8,5.0613140426262676e-8,0.0967665948275844,0.012921241094885114,2.862073554838424e-8,6.42988027507546e-8,-7.529983036987646e-8,0.21402578403345898,0.2999998909176738,0.1579005813079154,0.10040472858558835,0.0928844919623468,-1.56180645655126e-9,-1.7370484413834098e-8,0.025096488950630977,1.863017700126579e-7
2012-02-29,true,6.969368170557423e-7,-2.5184492085315902e-8,-1.2433270471783446e-8,0.09676660492085526,0.012921285449041316,-7.080865557599277e-9,-5.231125701323788e-9,-1.986480912325878e-8,0.21402587926088684,0.29999987723969723,0.15790063539299265,0.10040464245728328,0.09288442301714364,-1.1486964365293863e-8,-1.6459875931175774e-8,0.025096565146064318,1.8480655922380885e-7
2012-03-30,true,7.271562385456718e-7,-1.0512362331148093e-8,-4.66556445285867e-9,0.09676649119683252,0.012921265683512631,-3.3003158611071264e-9,-1.5997918314111887e-8,6.3160881703407345e-9,0.21402594105330897,0.29999984444273875,0.15790067313832468,0.1004045435300511,0.09288433574534412,-1.1734548812079081e-8,-4.66419475153955e-9,0.025096739787580175,2.1008664514630342e-7
2012-04-30,true,4.834197829599715e-7,-1.3796816112073163e-8,1.4731389105933338e-9,0.09676639951403576,0.012921287350696803,6.126812102364162e-10,-1.3281999073244432e-8,-5.256567619532278e-9,0.21402599446732945,0.2999998330646969,0.15790071300965375,0.10040449992173656,0.09288429277331009,-1.451550154157607e-8,-4.263259328393113e-9,0.025096853372520884,1.756521411938069e-7
2012-05-31,true,5.256481844288246e-7,-4.169956678962031e-9,8.645283355664087e-9,0.0967663109866917,0.012921325239616923,6.0768024495578235e-9,7.761767066773606e-9,-1.4251458795238767e-8,0.21402602991770897,0.29999983136156094,0.1579007510582876,0.10040448884325173,0.09288426800339715,-7.420359584035224e-9,9.490896354520286e-10,0.025096949173694205,4.788121473145845e-8
2012-06-29,true,4.340821238750233e-7,-2.7446830245576083e-9,6.50257105078435e-9,0.09676619726155838,0.01292137368455069,6.7892641131621064e-9,1.142512460115477e-8,-1.7394736762805976e-8,0.21402605707629013,0.29999982466671393,0.15790078708184777,0.10040447707004324,0.09288422789360111,-7.638326147509077e-9,4.255298696711778e-9,0.025097045478471004,8.645186349284541e-9
2012-07-31,true,4.940108462133136e-7,-1.1712681295504286e-8,1.0710319548724158e-8,0.09676613981015332,0.012921282685011337,9.25365093307439e-9,1.533295732360901e-8,-1.4800643929594476e-9,0.21402611048346487,0.2999998183241913,0.1579008032613613,0.1004044361221425,0.09288419496630139,-9.122557554915465e-9,7.550655249005584e-9,0.02509719309283509,7.462866284226709e-10
2012-08-31,true,3.500439533981671e-7,-3.0387148760585506e-8,2.401953651886301e-8,0.09676613729219849,0.012921292948170295,4.747452900531378e-8,2.2832988091319393e-8,-1.2553311281842318e-8,0.21402609757859978,0.299999827447704,0.15790079899738924,0.10040438840584308,0.09288414749613351,-6.086674657247853e-9,2.37939748824617e-8,0.02509727039329332,-2.968023492632702e-8
2012-09-28,true,3.6056697485272134e-7,-4.793177402681517e-8,2.338116672078905e-8,0.09676612593438307,0.012921314129884374,2.3176419455308826e-8,6.98158930603808e-8,-3.945932601362536e-8,0.21402609163032224,0.2999998435246721,0.15790080868022488,0.10040435573176011,0.09288410335728027,-9.204720332094504e-9,1.0094294715149296e-8,0.025097328746813807,-1.7150777553154998e-9
2012-10-31,true,4.4440731855663004e-7,-2.2541686833943013e-8,2.148079209122825e-8,0.09676605312643903,0.01292124438265018,1.6226702738106272e-8,3.149359762017099e-8,-1.1847255159365949e-8,0.2140261078100403,0.29999983895964677,0.1579008379362734,0.10040436357111843,0.09288407552889692,-7.845651488181368e-9,1.248590381536954e-8,0.025097440556671544,-1.2665515560469974e-9
2012-11-30,true,5.123829758094482e-7,-1.792150259079821e-8,3.0350548376430494e-8,0.09676598771540024,0.012921113193300852,2.4201738715881687e-8,1.5576185986329834e-8,4.644329220107769e-9,0.2140261256007448,0.2999998297120586,0.15790087646837864,0.10040438472900362,0.09288404210454482,-8.841452699007266e-9,1.4753710102403838e-8,0.02509757774595951,3.653293324639868e-11
2012-12-31,true,3.68063973491075e-7,-1.2215212271063223e-9,1.921516822299413e-8,0.09676593383393238,0.01292102866586633,1.830709237420632e-8,2.269714338491244e-8,-7.517085488004708e-9,0.214026144573157,0.2999998380664807,0.15790089352255604,0.10040438410234931,0.09288402838202515,-6.972405735279292e-9,1.265061776696008e-8,0.025097690154159743,1.5686988733600313e-9
2013-01-31,true,3.226155419114512e-7,4.4739700585083645e-9,1.5777701613347964e-8,0.0967658854685323,0.012920935381328902,1.768015397915767e-8,2.4061844064347677e-8,-1.1394753016063116e-8,0.21402616243335348,0.29999984343721287,0.15790091022997607,0.10040438674185045,0.09288401798083092,-6.552529245438779e-9,1.1338108732902476e-8,0.025097800670274024,2.3044948842984474e-9
2013-02-28,true,4.4592498290538815e-7,3.171810285508795e-9,2.2407983242142294e-8,0.09676583104686608,0.012920796363512047,2.4450506743055722e-8,2.259119639911378e-8,1.4155788910037072e-9,0.21402616726887908,0.29999983507950406,0.1579009441510652,0.10040442177726747,0.09288400059454142,-7.558597882495681e-9,1.4697834672004948e-8,0.025097919500826328,3.0738440574879394e-9
2013-03-28,true,5.04691312241914e-7,-5.095196133225566e-9,3.3163853536835044e-8,0.09676578459958055,0.012920633361564245,3.106880284183976e-8,1.4223496000788904e-8,1.705842344466206e-8,0.214026173122659,0.299999824934549,0.15790098537976982,0.10040446412166715,0.09288398515176856,-8.222844568629816e-9,1.672248171282439e-8,0.02509804675478147,3.706744193897118e-9
2013-04-30,true,4.887505451812549e-7,4.384732483720977e-10,3.5757277175708024e-8,0.09676572398323337,0.012920472201253624,3.826171256616086e-8,1.3517355903018267e-8,2.007328111831699e-8,0.21402618177757224,0.2999998238942768,0.15790102586754368,0.10040450414516555,0.09288396564340058,-7.849798906941297e-9,1.5365915077775518e-8,0.025098182278946436,4.671028127737309e-9
2013-05-31,true,7.980689170726174e-7,5.1326545137337445e-9,3.287525395382853e-8,0.09676587758343484,0.012920157708155668,3.241950984604525e-8,1.8356035844915282e-8,2.5473200706082552e-8,0.21402613361713427,0.2999998141918543,0.15790107435393275,0.10040459375501212,0.09288394807818279,-5.425758913170947e-9,2.1321297802242746e-8,0.02509826629673602,4.273943462646099e-9
2013-06-28,true,6.738196303354753e-7,7.303685621020433e-9,3.16288926474885e-8,0.09676599558935951,0.012919878209650305,2.784456622461139e-8,1.516093321305572e-8,2.6512564943662476e-8,0.21402608966741285,0.2999998235955771,0.15790111967071985,0.10040467831856001,0.09288394701201537,-4.154788826125863e-9,2.0037356479818694e-8,0.02509834144399821,2.1876662886454193e-9
2013-07-31,true,4.751654672191456e-7,2.4656137691358065e-9,2.2755451282669055e-8,0.09676603974439757,0.012919707273643126,1.9591882891688656e-8,1.0638150765490223e-8,1.8924291280133735e-8,0.2140260668878209,0.29999983471164654,0.15790116299315413,0.10040474470330829,0.09288395622346758,-3.63850524491693e-9,1.225305342825758e-8,0.025098404317143466,1.7652504354067115e-10
2013-08-30,true,3.2611837912393273e-7,-3.469986665507574e-9,1.502929341705864e-8,0.09676605136474645,0.012919599165077286,1.3337142448665298e-8,9.823055823803e-9,6.609559246477193e-9,0.21402605480899686,0.29999984487584275,0.15790119898233396,0.10040479162899346,0.09288396623532853,-3.574188826421492e-9,4.681113604180255e-9,0.02509845260311983,-2.0746348534246905e-9
2013-09-30,true,2.3393772405940297e-7,-6.856441109537454e-9,5.594746441213738e-9,0.09676603803043979,0.012919540176215213,6.051180189935293e-9,9.837844136862884e-9,-3.374667136542308e-9,0.21402604867983774,0.29999985626595893,0.15790122490248168,0.10040482337764071,0.09288397994253512,-3.832705514144923e-9,-9.71078184374974e-10,0.025098486787787762,-4.592558521343814e-9
2013-10-31,true,1.9429971776406522e-7,-1.387992889949727e-8,3.182322420108048e-9,0.09676601801244036,0.012919491317769293,4.740790756654824e-9,7.640085460375671e-9,-8.71928828234364e-9,0.214026045349731,0.29999986007421775,0.15790125040330577,0.10040484797410831,0.09288398828228656,-4.040848355641214e-9,-6.010350231862002e-9,0.0250985216995187,-5.9925953625858e-9
2013-11-29,true,1.84794652884712e-7,-1.3661841762766664e-8,-1.8554285995091172e-9,0.09676600512128436,0.012919429186060165,3.448141361863258e-9,5.397618896711908e-9,-8.54198751442545e-9,0.2140260391127723,0.2999998645088041,0.1579012721472121,0.10040487392022016,0.09288399216502602,-4.22386881791432e-9,-7.607170542512062e-9,0.02509855769043752,-6.781065925885954e-9
2013-12-31,true,2.1878379045562894e-7,-6.129231112204974e-9,-1.184362742334931e-8,0.09676598937119445,0.012919360522235095,-1.1084595857222824e-9,6.375261775106668e-9,-6.894733150229178e-9,0.21402602886803176,0.2999998746507141,0.15790129141373496,0.10040490092504335,0.0928839956620512,-4.354239363962559e-9,-5.711556528227754e-9,0.02509859510609263,-6.8519723283169006e-9
2014-01-31,true,2.2359241897232642e-7,4.2708783803822686e-9,-2.9017941018872913e-8,0.09676593879150738,0.012919328454055306,-2.8044775902370737e-9,2.4252303979335593e-9,-3.348690024254461e-9,0.21402602252231714,0.29999989157988416,0.15790130902666738,0.10040491993349311,0.09288399605849053,-3.6896654119061068e-9,-4.328971589381499e-9,0.025098635776839413,-5.684547668110718e-9
2014-02-28,true,1.9337451878864413e-7,1.036987301063673e-8,-3.90068828196116e-8,0.09676588856250368,0.012919299589485884,-3.4439598406868377e-9,8.478437618152227e-10,-1.949097747319948e-9,0.21402601713207917,0.299999902884778,0.15790132665769085,0.1004049378522831,0.09288399702514705,-3.485609379113027e-9,-3.927344660334708e-9,0.025098676259303877,-5.407748847500038e-9
2014-03-31,true,1.6101365657984234e-7,1.1745511291267336e-8,-4.321950050390825e-8,0.09676583546342779,0.012919280834463144,-3.3282581202182807e-9,-4.105338696068359e-10,-1.4779085133384173e-9,0.21402601395217777,0.2999999105546166,0.1579013439920004,0.10040495255065544,0.09288399838765561,-3.4237486090421283e-9,-3.887072414688304e-9,0.02509871362529511,-5.394770133483725e-9
2014-04-30,true,1.957253296729062e-7,-2.7641755042719946e-9,-2.2797127931694803e-8,0.09676581011638398,0.012919243944879748,-2.6664648938910266e-9,3.075034191799547e-9,-7.1820422699039545e-9,0.21402601354442363,0.29999990071236515,0.15790136423011475,0.100404971142074,0.0928839987571128,-3.832193771475368e-9,-7.65903331859378e-9,0.025098747752849336,-6.342962203397966e-9
2014-05-30,true,1.802444226745402e-7,-8.693566225959392e-9,-1.360297166938587e-8,0.09676578860917001,0.012919197037356835,-2.888553449286649e-9,3.800419989418315e-9,-8.040164488212707e-9,0.21402601165473276,0.29999989480032274,0.15790138455256442,0.10040499030376593,0.09288399370541205,-4.116837682317008e-9,-9.219256558885716e-9,0.025098788364114284,-6.236127698843837e-9
2014-06-30,true,1.4984505517566586e-7,-8.852892262494303e-9,-1.165631347641977e-8,0.09676576722489813,0.012919154677202461,-4.240756085163335e-9,2.8571737168470646e-9,-6.452757448129923e-9,0.21402600951697134,0.2999998939906619,0.15790140152596072,0.10040500718282469,0.09288398868443945,-4.119858569504057e-9,-9.412455988367869e-9,0.025098825895398975,-6.7995615256864186e-9
2014-07-31,true,1.2558070965570384e-7,-1.1400845116347163e-8,-9.76921255603126e-9,0.096765735142752,0.012919135532650354,-5.919658881859286e-9,2.0417634464470658e-9,-7.070774712712073e-9,0.21402601225026974,0.299999893875602,0.15790141721927453,0.10040501699448015,0.09288398448449708,-4.28042496015325e-9,-1.0684463054310373e-8,0.025098858562941535,-6.952802877216185e-9
2014-08-29,true,5.657516433974293e-8,-9.402636629407023e-9,-8.526038342640552e-9,0.09676572785377258,0.012919133078404622,-7.0499605045590614e-9,-2.12382238553664e-9,-6.075740576575167e-9,0.21402601049586342,0.2999999155604588,0.1579014145947304,0.10040501295393633,0.09288398005246189,-3.2407948106531357e-9,-9.483652408040835e-9,0.025098858161487846,-6.831448730874649e-9
2014-09-30,true,5.679563280547682e-8,-7.58913440333933e-9,-7.141251058038381e-9,0.09676572369614284,0.012919128730400572,-6.4984288070949985e-9,-3.6676627248033123e-9,-5.389517745166438e-9,0.21402600700656876,0.2999999362208039,0.15790141121214551,0.10040500895193324,0.0928839758408177,-2.770037446846184e-9,-7.66461949661971e-9,0.02509885489695975,-5.821524381477182e-9
2014-10-31,true,4.8213304930776376e-8,-5.974854090248555e-9,-5.749033568491956e-9,0.09676572030324246,0.01291912492847888,-5.519794116061368e-9,-3.88579292986807e-9,-4.899605636245524e-9,0.214026003702827,0.2999999527423046,0.15790140813747847,0.10040500544484511,0.09288397229201233,-2.321699940741848e-9,-6.064370335299272e-9,0.025098851635686266,-4.7618795119638535e-9
2014-11-28,true,4.070175854521078e-8,-4.65087820551736e-9,-4.5376148779377385e-9,0.09676571736664198,0.01291912185826968,-4.456517371454902e-9,-3.5773783965068947e-9,-4.104910457794685e-9,0.21402600079408327,0.29999996545361574,0.15790140547947107,0.10040500243911825,0.09288396933035278,-1.8587035111551233e-9,-4.714132488175701e-9,0.02509884882437681,-3.6387040702696993e-9
2014-12-31,true,3.225173777334071e-8,-3.5957966566407636e-9,-3.5396887677443756e-9,0.09676571499193304,0.012919119498858121,-3.507241299181694e-9,-3.0141512524923787e-9,-3.336977525187337e-9,0.21402599837993402,0.29999997481936314,0.1579014035575308,0.10040499993456448,0.09288396700182844,-1.4643332470458554e-9,-3.6311790131098507e-9,0.02509884660086497,-2.6902812192024275e-9
2015-01-30,true,2.1954556362393985e-8,-2.8415199056204514e-9,-2.8139925655212353e-9,0.09676571341981458,0.01291911769372066,-2.8476813368360213e-9,-2.5314811803357364e-9,-2.7066108920819657e-9,0.21402599678543494,0.2999999808407905,0.15790140229325988,0.10040499823038028,0.09288396534673192,-1.2203333373960708e-9,-2.8832268219592866e-9,0.025098845218584385,-1.979261158106623e-9
2015-02-27,true,1.576380219379546e-8,-2.2858569606841316e-9,-2.2708612152383383e-9,0.09676571231272924,0.012919116321903939,-2.3382408307457374e-9,-2.086747554968996e-9,-2.2250490318597567e-9,0.21402599565574693,0.29999998494261615,0.15790140143996073,0.10040499698600341,0.09288396416496493,-1.0274533223256186e-9,-2.3321815982105587e-9,0.02509884422437047,-1.4779871426692478e-9
2015-03-31,true,1.2285887047793717e-8,-1.8441138651534673e-9,-1.835303469482996e-9,0.0967657115015199,0.01291911523108535,-1.910878136160704e-9,-1.7612328627581217e-9,-1.7664804722951562e-9,0.21402599476469714,0.29999998804506606,0.15790140072287612,0.10040499607755789,0.0928839633356145,-8.858730730997531e-10,-1.886858848331071e-9,0.025098843329004902,-1.113523646281917e-9
2015-04-30,true,9.905828612715651e-9,-1.4877866565117044e-9,-1.4836953486460901e-9,0.09676571084424006,0.012919114369585809,-1.551916373997502e-9,-1.392658121222338e-9,-1.4641258602477499e-9,0.21402599397342348,0.29999999048434245,0.15790140026020083,0.10040499531932462,0.09288396271543163,-7.434242615031749e-10,-1.5177525140440607e-9,0.02509884252691113,-8.495912494293482e-10
2015-05-29,true,7.92602186951218e-9,-1.1973086169679996e-9,-1.196461665405451e-9,0.09676571031109567,0.012919113675848047,-1.2492418201454762e-9,-1.12526647858044e-9,-1.1729010643279385e-9,0.21402599331424146,0.29999999241046627,0.15790139989589758,0.10040499473367787,0.09288396225265695,-6.184638435675902e-10,-1.21850756117651e-9,0.025098841862423185,-6.76178078942281e-10
2015-06-30,true,7.141351978563439e-9,-9.426833043175219e-10,-9.453071759154183e-10,0.09676570975154135,0.012919113141636629,-9.685126434447204e-10,-9.050402335436988e-10,-8.970560169890715e-10,0.21402599259341362,0.2999999941692124,0.15790139974708697,0.10040499413059241,0.09288396185574586,-4.960207319106981e-10,-9.494563813344447e-10,0.02509884125483751,-5.386332142239045e-10
2015-07-31,true,5.268068143646903e-9,-7.483872384055811e-10,-7.530561323482431e-10,0.09676570932166723,0.012919112739693532,-7.629309240037652e-10,-6.842055205883336e-10,-7.368178114052702e-10,0.2140259919896246,0.29999999543379735,0.1579013997614332,0.10040499366597219,0.09288396159094789,-4.0975641376611354e-10,-7.448073785078316e-10,0.025098840785689212,-4.4778402159868804e-10
2015-08-31,true,2.207442754646147e-9,-6.557350028128939e-10,-6.662243158081367e-10,0.09676570937514006,0.012919112364826693,-6.894987747135928e-10,-5.642960227384134e-10,-6.704134547857376e-10,0.21402599174536946,0.2999999957555687,0.1579013997219536,0.10040499372449135,0.09288396171603322,-4.172100071427978e-10,-6.610177263783037e-10,0.025098840348142894,-4.2581111787833775e-10
2015-09-30,true,4.612398255422055e-9,-8.057506476402084e-10,-6.48509998977324e-10,0.096765710149907,0.012919111938585557,-6.922433414267278e-10,-5.594445112837776e-10,-6.569575376506441e-10,0.2140259914511932,0.29999999542244654,0.15790140013411874,0.10040499410220469,0.09288396239621981,-5.069481283527679e-10,-6.596830043149602e-10,0.025098839338049815,-4.017322720777512e-10
2015-10-30,true,5.5338423465530874e-9,-6.997410755925506e-10,-7.678552999980596e-10,0.09676571111391323,0.012919111261855305,-7.057308533860627e-10,-5.744117594780807e-10,-6.005665957076412e-10,0.2140259911182284,0.29999999504082864,0.15790140060286223,0.10040499451147747,0.0928839631589786,-5.592143834970636e-10,-6.813290869887632e-10,0.025098838210353316,-4.2767096326370187e-10
2015-11-30,true,5.505010198804573e-9,-6.573675439855235e-10,-7.353139238064359e-10,0.09676571167756604,0.012919110692468748,-6.387520797980668e-10,-5.482015318682653e-10,-5.525947602430585e-10,0.21402599038581097,0.29999999516209064,0.1579014012072079,0.10040499494549976,0.09288396389554417,-5.540533658243024e-10,-6.239406525969801e-10,0.025098836759506048,-4.137855439891219e-10
2015-12-31,true,9.686520979986256e-9,-6.985995203389556e-10,-7.784409621580982e-10,0.0967657129814985,0.012919109872618358,-6.323851278036269e-10,-5.205286231984147e-10,-6.134218212975031e-10,0.21402598926214553,0.2999999947121522,0.15790140264267177,0.10040499563131197,0.09288396527158276,-6.442619914704868e-10,-6.26818161996418e-10,0.02509883454830462,-4.0547946117939743e-10
2016-01-29,true,2.4637207242867273e-8,-1.1441046718809596e-9,-7.766527987057747e-10,0.09676571654226693,0.01291910819236692,-7.041147134379301e-10,-6.705291374914341e-10,-7.143877737261055e-10,0.21402598668480896,0.29999999310216163,0.15790140642443734,0.10040499738215188,0.09288396841463806,-9.423385826422396e-10,-8.237161899317912e-10,0.02509882936123699,-3.243116272519383e-10
2016-02-29,true,4.458964877164317e-8,-1.795631566830421e-9,-8.346454226440281e-10,0.09676572254555277,0.0129191055525966,-9.176719657271317e-10,-8.628161736959983e-10,-9.022537389386197e-10,0.2140259822367109,0.29999999062574967,0.15790141383035994,0.10040500025783597,0.09288397361514726,-1.3668166396373017e-9,-1.3635335396222e-9,0.025098818898969432,4.858623304134738e-10
2016-03-31,true,5.2405811246895866e-8,-2.1676560812362097e-9,-1.1595831380548767e-9,0.09676573034218593,0.012919101622586774,-1.3503182180286362e-9,-8.370372638867729e-10,-1.234252197293348e-9,0.2140259768682509,0.29999998838455166,0.1579014234027502,0.10040500269882971,0.09288397911795075,-1.6633712206613947e-9,-1.9349430034042156e-9,0.025098806565221184,1.350086933746467e-9
2016-04-29,true,5.7860435479584105e-8,-2.22054585191079e-9,-1.6573071162616496e-9,0.09676573920234066,0.01291909695265769,-1.947636900766976e-9,-8.081755187045611e-10,-1.468426191864391e-9,0.2140259703155222,0.2999999864749939,0.157901433768864,0.10040500493937049,0.092883985909231,-1.8312869510456449e-9,-2.421064859748029e-9,0.02509879280308689,1.9930772324924893e-9
2016-05-31,true,4.955465640679515e-8,-1.9952832030775283e-9,-1.6434434627684577e-9,0.09676574664861226,0.012919092316885695,-2.441673977299701e-9,-6.969055218506161e-10,-1.5569309081363357e-9,0.21402596414728364,0.299999985738185,0.1579014429518958,0.10040500661465787,0.09288399190344002,-1.8477433394752429e-9,-2.621063642246928e-9,0.025098780365626173,2.1212604350295193e-9
2016-06-30,true,6.544372128164325e-8,-1.765963099917674e-9,-3.05949058751405e-9,0.09676575721380101,0.012919086482181532,-2.846300930381904e-9,-1.0329583128602219e-9,-1.3480905179526784e-9,0.214025957858564,0.299999982442209,0.1579014552903894,0.10040500736244165,0.0928839995984082,-2.3757553068498767e-9,-3.3788173220234072e-9,0.025098766505723517,3.0585919033115982e-9
2016-07-29,true,6.277391780597872e-8,-1.5438503791051223e-9,-4.095136803209076e-9,0.09676576825092889,0.012919079588986023,-3.3508953488145628e-9,-1.1723861518320795e-9,-1.4083627065271624e-9,0.21402595210234565,0.2999999797650911,0.1579014684888769,0.10040500491799795,0.0928840058520436,-2.7504336601139513e-9,-4.057575368376247e-9,0.02509875568338374,3.734453922636082e-9
2016-08-31,true,6.132852146541501e-8,-1.067152245124563e-9,-5.181357467218023e-9,0.09676578026764909,0.012919071380766325,-3.774214928776801e-9,-1.3053305258804716e-9,-1.5110537440385257e-9,0.21402594747033876,0.29999997803476425,0.15790148186383188,0.10040499835903177,0.09288401018377579,-3.0426358087093334e-9,-4.565211075290273e-9,0.02509874869348319,4.198436232634257e-9
2016-09-30,true,5.778439944834102e-8,-4.149290632777233e-10,-6.097741337151428e-9,0.09676579197051495,0.012919061880281486,-4.123596740118932e-9,-1.3188765246322273e-9,-1.602911317722755e-9,0.21402594321326793,0.29999997716429583,0.15790149544108056,0.10040498898204356,0.09288401280797223,-3.322668933412221e-9,-4.8055768090986386e-9,0.02509874569773096,4.533968859160957e-9
2016-10-31,true,5.984949278132996e-8,-1.6937814063722557e-9,-3.6751821888931684e-9,0.09676580366511284,0.01291905183619256,-4.419517567224159e-9,-1.4605056627788474e-9,-1.7546332213561885e-9,0.21402593884740193,0.29999997732196965,0.15790150865186894,0.10040497801727435,0.09288401498840954,-3.48934551784451e-9,-5.3175688912911504e-9,0.02509874369716865,4.795325784564552e-9
2016-11-30,true,8.768114424490276e-8,4.675659749444563e-10,-6.7017950866281955e-9,0.09676581844866321,0.012919039136166648,-4.914850948706227e-9,-2.056689656400884e-9,-1.4639203924077488e-9,0.21402593781426457,0.29999997637552844,0.15790152444137273,0.1004049560261818,0.09288401272032785,-3.956783119718717e-9,-5.6370497995814446e-9,0.025098753887081056,5.417615763145468e-9
2016-12-30,true,9.613792529375131e-8,-1.4997102082059047e-9,-3.6796544814268046e-9,0.09676583386779242,0.012919024961094226,-5.143493762971401e-9,-2.19266465049084e-9,-1.356002656491046e-9,0.2140259367515689,0.2999999766378413,0.15790154064216633,0.10040493045006443,0.09288400883226006,-4.2761576063488655e-9,-6.169757578074988e-9,0.025098766947857832,5.23869075042462e-9
2017-01-31,true,9.377052340968988e-8,-2.4841912135009825e-9,-2.1648563007583666e-9,0.09676584872099113,0.012919011584825942,-5.12985695911953e-9,-1.877903301143797e-9,-1.844867037296388e-9,0.21402593645377554,0.29999997741908224,0.15790155550682963,0.10040490378354619,0.09288400416991084,-4.4021062684492e-9,-6.2245357664371926e-9,0.02509878149043442,5.010044565941858e-9
2017-02-28,true,9.388061155347961e-8,-3.0187485778429868e-9,-1.4069364318256717e-9,0.09676586382824698,0.012918998130445152,-5.053126259198203e-9,-1.7174765323335224e-9,-2.046091035376605e-9,0.21402593642544554,0.29999997810944556,0.15790157061426902,0.10040487630718481,0.09288399909709681,-4.479759723651302e-9,-6.300025607640094e-9,0.02509879653059137,4.990536718199002e-9
2017-03-31,true,1.005620135769299e-7,-3.29531019307977e-9,-1.036604717453837e-9,0.09676587888698943,0.012918984399761236,-5.189214833688678e-9,-1.777635033738956e-9,-2.0790150880326477e-9,0.21402593693761374,0.29999997920798893,0.1579015857537764,0.10040484688746354,0.09288399260085575,-4.439714983715162e-9,-6.244370811626035e-9,0.02509881453645077,4.861754190852641e-9
2017-04-28,true,1.0602517923720665e-7,-3.4349625504366847e-9,-8.062874683114173e-10,0.09676589438595247,0.01291897007956487,-5.431158523032084e-9,-1.7583727344423236e-9,-2.212542235046061e-9,0.2140259376269972,0.2999999801195262,0.1579016013894256,0.10040481625009316,0.09288398511222966,-4.461961844452737e-9,-6.238405727735981e-9,0.025098834558025578,4.832790277412083e-9
2017-05-31,true,1.3496130793400623e-7,-3.5664320155241137e-9,-5.832016077136829e-10,0.09676591148261342,0.012918954432667001,-5.75061077269366e-9,-1.7718396618062116e-9,-2.315595110584727e-9,0.21402594143982262,0.299999981542786,0.15790161716503162,0.10040477791340875,0.09288397304338397,-4.655972093949118e-9,-6.0957343190900614e-9,0.025098863564251558,4.16569749471507e-9
2017-06-30,true,1.6104182147493813e-7,-3.732286502593119e-9,-2.951798678368539e-10,0.09676593026518797,0.01291893736810636,-5.997302253674351e-9,-1.741945273283884e-9,-2.5771372664498865e-9,0.2140259480226887,0.2999999830703777,0.15790163372610078,0.1004047325087635,0.09288395668116542,-4.972319772102835e-9,-5.92248618617691e-9,0.02509890013989984,3.4666502655725865e-9
2017-07-31,true,1.8622664948396311e-7,-3.825722942477194e-9,1.1099716093867659e-10,0.09676595117434686,0.012918918990827805,-6.749498929316014e-9,-1.7458808201448372e-9,-2.7046680279908143e-9,0.21402595735539467,0.29999998469947053,0.15790165112320212,0.10040467956530177,0.09288393671430265,-5.220255229516846e-9,-5.817534762566583e-9,0.025098943473847894,2.8657742881446686e-9
2017-08-31,true,2.0881291007052295e-7,-4.0635473685819355e-9,3.439486304690289e-10,0.09676597436777204,0.012918899837169411,-7.046881657572135e-9,-1.6822363602897114e-9,-3.139728617267811e-9,0.21402597023499342,0.2999999859723854,0.15790166834245462,0.10040461919291771,0.09288391374617577,-5.641617773370302e-9,-5.815648526728817e-9,0.02509899301683776,2.345327177473625e-9
2017-09-29,true,2.1388919099462782e-7,-4.264793722248383e-9,4.212631265795291e-10,0.09676599882364129,0.012918880381226664,-7.064859264475448e-9,-1.7927714616893308e-9,-3.3562957005565775e-9,0.21402598409053403,0.29999998676394224,0.1579016851559882,0.1004045561261366,0.09288389040326571,-5.8800016531903075e-9,-5.903096223793866e-9,0.025099043967903925,2.1388087568658758e-9
2017-10-31,true,1.8982464831548485e-7,-4.277330520787825e-9,2.405747602334492e-10,0.09676601931141102,0.012918862426743574,-6.906806441190999e-9,-1.9615978740702396e-9,-3.415634644310373e-9,0.2140259951355375,0.2999999873256872,0.1579017018262429,0.1004045001726071,0.09288386986208999,-5.917773647397608e-9,-5.9067386068964395e-9,0.02509908965489552,2.4416465696819304e-9
2017-11-30,true,1.4404754204234537e-7,-3.965041076897384e-9,8.368042315222781e-11,0.09676603563837209,0.012918848620512246,-7.146372018682464e-9,-1.6513642075829054e-9,-3.0973746431533854e-9,0.2140260008072478,0.2999999871084924,0.15790171768999395,0.10040445539477488,0.09288385703489183,-5.525103660872637e-9,-5.87408834994677e-9,0.025099121443005544,3.4476363833970123e-9
2017-12-29,true,1.0239683582922242e-7,-3.5029090638408674e-9,-3.870318030537314e-11,0.09676604897320762,0.01291883811959456,-7.4242819575062535e-9,-1.1585207525115396e-9,-3.03370612887579e-9,0.2140260047833428,0.299999986344212,0.15790172875599767,0.10040442187269014,0.0928838510237871,-5.235542404853141e-9,-5.742585227902601e-9,0.025099142076169638,4.1959843806902205e-9
2018-01-31,true,5.276022671695591e-8,-2.8869209737950143e-9,-4.0255809413453974e-10,0.09676605734104943,0.012918831301264307,-7.077135171126226e-9,-1.5356479861238466e-9,-1.473181596950246e-9,0.21402600269432862,0.299999986051271,0.1579017383034832,0.10040440581291435,0.09288385147217544,-4.46872723950555e-9,-4.966307027580294e-9,0.02509914602424261,3.815342459489312e-9
2018-02-28,true,3.935060107715764e-8,-2.304762591077682e-9,-6.740958091665546e-10,0.09676606092418483,0.012918827905250615,-5.882345372325159e-9,-1.2926159857164935e-9,-6.393643421003789e-10,0.2140259984238352,0.29999998710455356,0.15790174633313178,0.1004043972802319,0.09288385379087778,-3.6216906352513605e-9,-3.97808814238076e-9,0.02509914358867285,3.044860226614636e-9
2018-03-29,true,4.1390662620965956e-8,-2.1282876405004767e-9,-1.0512030857809621e-9,0.09676606389676573,0.012918825052001455,-3.66728741886061e-9,-1.5269592680612172e-9,4.791627060536314e-11,0.21402599237533296,0.2999999886786885,0.15790175372286536,0.10040439244755953,0.09288385795859214,-2.9882549076736964e-9,-3.0989119329368565e-9,0.02509913747393257,2.8104014523781664e-9
2018-04-30,true,3.8122309766676524e-8,-1.9354581937926056e-9,-1.2203281629993643e-9,0.0967660664356082,0.012918823145085745,-2.5001615000740904e-9,-1.7410709730198685e-9,7.487269925363038e-10,0.21402598602364872,0.2999999895761798,0.15790176101665843,0.1004043896378144,0.09288386329769868,-2.61040018384897e-9,-2.545844765819656e-9,0.025099129952537085,2.7219903957571782e-9
2018-05-31,true,3.6471964362914495e-8,-1.819653449614822e-9,-1.2985629416034474e-9,0.09676606907653165,0.012918821785846964,-1.9016962776750556e-9,-1.8396373617901637e-9,1.1446966184620078e-9,0.21402597946845567,0.29999999013673445,0.15790176855554366,0.10040438790867265,0.09288386908162773,-2.3717206604142217e-9,-2.2141273046642937e-9,0.025099121536784362,2.7528983162459924e-9
2018-06-29,true,3.160202007519532e-8,-1.6135260118411234e-9,-1.1960349816032023e-9,0.09676607128266568,0.012918820687943085,-1.437247796635608e-9,-1.6739511876753662e-9,1.1378083605907531e-9,0.21402597404582083,0.2999999910963419,0.15790177449540105,0.10040438601663458,0.09288387423803043,-2.0970752059960363e-9,-1.8887664293729747e-9,0.025099114362245704,2.5456798929864074e-9
2018-07-31,true,3.028041648952726e-8,-1.239726006674399e-9,-1.0248428325563855e-9,0.0967660721708983,0.012918820689202123,-1.0005869798920551e-9,-9.72605135622833e-10,4.488272415391997e-10,0.21402596895121276,0.29999999301756974,0.15790177992198612,0.1004043840380621,0.09288387860608915,-1.640858964928354e-9,-1.4934025139168636e-9,0.02509910734966797,2.1799452892797573e-9
2018-08-31,true,2.3706642329823423e-8,-8.458300052259692e-10,-8.746537729434572e-10,0.09676607269252506,0.012918821380005177,-7.038720116032926e-10,-6.677947074033218e-10,2.376527445689555e-11,0.21402596486978628,0.299999994479139,0.15790178318178433,0.10040438411266331,0.09288388243765722,-1.2311628664230174e-9,-1.0356156466911517e-9,0.025099101034986925,1.1475324197352328e-9
2018-09-28,true,1.881572643650864e-8,-6.028607739134587e-10,-7.610529332332393e-10,0.09676607307293086,0.012918822189125365,-5.338393475908492e-10,-5.163570143579531e-10,-1.9271479963976662e-10,0.2140259613590633,0.2999999955299685,0.15790178584775422,0.10040438404936436,0.09288388573167235,-9.84525371913486e-10,-7.528399897491041e-10,0.025099095931919207,6.331697847433818e-10
2018-10-31,true,1.6416841336674e-8,-4.4435103978676463e-10,-6.757938726709364e-10,0.09676607348775967,0.012918823063459199,-4.302862623450698e-10,-4.254155311372441e-10,-2.909213454292603e-10,0.21402595826107468,0.29999999629657725,0.1579017881408656,0.10040438381391603,0.09288388883072055,-8.416311094602173e-10,-5.735477959393831e-10,0.025099091332222132,4.560498460152979e-10
2018-11-30,true,1.6601392445811423e-8,-3.46036633774433e-10,-5.870869560679933e-10,0.09676607377001464,0.012918823860787434,-3.4755604782242266e-10,-3.4086837994704297e-10,-2.9477877532556393e-10,0.21402595497598217,0.29999999691256235,0.15790179075866886,0.10040438362932398,0.09288389214210814,-7.515110349933334e-10,-4.6420361045854236e-10,0.025099086505021656,5.78177736968279e-10
2018-12-31,true,1.4279558780822439e-8,-2.775271742121566e-10,-4.74427746837561e-10,0.09676607362339246,0.012918824569027557,-2.633103487238858e-10,-2.6630084290591493e-10,-2.552557765553489e-10,0.21402595210821543,0.29999999745678896,0.15790179324891096,0.10040438373787645,0.09288389480384696,-6.319242343905849e-10,-3.872589962665976e-10,0.02509908237948486,6.287743538624512e-10
2019-01-31,true,9.903897040472984e-9,-1.99561545960203e-10,-3.8187585548270783e-10,0.09676607345132268,0.01291882509410381,-2.108067247659245e-10,-2.4715333715844053e-10,-2.5860988218771145e-10,0.21402595024628568,0.29999999791474746,0.1579017945706384,0.10040438420719293,0.09288389653880436,-5.250065727706324e-10,-2.9351621364509556e-10,0.02509907983154374,2.620372374603189e-10
2019-02-28,true,4.53906648593879e-9,-1.7195367089975966e-10,-3.039933841792274e-10,0.0967660733993653,0.012918825252499697,-1.9438864603886944e-10,-2.7433188640326537e-10,-2.8448939441742653e-10,0.2140259493134081,0.299999998280483,0.15790179501478974,0.10040438449787666,0.09288389731541624,-4.526959450289005e-10,-2.537692116025932e-10,0.02509907889919139,-3.723943750838745e-11
2019-03-29,true,2.943274535131417e-9,-1.605594672229696e-10,-2.508649988345598e-10,0.0967660733239408,0.012918825327512862,-1.908313571974726e-10,-3.01798492774241e-10,-3.0571592194964007e-10,0.21402594852277643,0.2999999986186645,0.15790179538410332,0.1004043845579747,0.0928838978176967,-4.1535597138573105e-10,-2.3246475854475508e-10,0.025099078460182042,-1.551442973621159e-10
2019-04-30,true,2.5199095336178026e-9,-1.519759957131183e-10,-2.0930710181778798e-10,0.09676607325456132,0.012918825360706288,-1.7775092372162637e-10,-3.1636836312264807e-10,-3.1401297718767574e-10,0.21402594776342698,0.2999999989025304,0.15790179584260045,0.10040438449547104,0.09288389820450127,-3.9319990219861e-10,-2.2027636025358031e-10,0.025099078148977213,-1.898222284706293e-10
2019-05-31,true,2.339526572242771e-9,-1.6657573788058815e-10,-2.1357962565670395e-10,0.09676607326339859,0.012918825505385782,-1.8789132629814297e-10,-3.189045485808996e-10,-3.1603973169924633e-10,0.21402594719355003,0.2999999988883557,0.15790179605902838,0.10040438476539748,0.09288389873447025,-3.9450045928647236e-10,-2.2523277284700211e-10,0.025099077636424653,-2.2307193328985172e-10
2019-06-28,true,4.7586130302060036e-7,-3.961588946016807e-9,-2.377302803826243e-9,0.09676606175008176,0.012918821738668245,-4.283435827050106e-9,-1.2749003820990244e-9,-1.4490956030411776e-9,0.2140258903357008,0.2999999716791364,0.15790176490779423,0.10040436078059092,0.09288385990347005,-1.6015538580722607e-8,-1.704613708091831e-8,0.02509913652784804,1.7884738884545656e-7
2019-07-31,true,3.0585461917573485e-7,-6.094218770650158e-9,-4.239954967123691e-9,0.09676605110301537,0.012918815862001248,-6.905026591565339e-9,-3.5881387041856948e-9,-3.807346885245191e-9,0.21402585070837424,0.299999961743041,0.15790174410075203,0.10040434099781176,0.09288383237174341,-1.9464299042366653e-8,-2.1036281335224086e-8,0.025099172961882257,2.953320033901585e-7
2019-08-30,true,5.8686379004835015e-8,-4.931928552604231e-9,-4.010203350037002e-9,0.09676604756584833,0.012918812648930484,-5.314834576940676e-9,-3.723332523119373e-9,-3.827331675425629e-9,0.21402584649704773,0.2999999717483911,0.15790174099870918,0.10040433813633323,0.09288382972266458,-1.1667844468448136e-8,-1.2496149022303058e-8,0.025099167312250897,2.913487697029889e-7
2019-09-30,true,4.177696758660619e-8,-3.8034552017398476e-9,-3.35261192825525e-9,0.09676604485655504,0.01291881004198996,-3.998131391997298e-9,-3.2507348358115913e-9,-3.2988134671761204e-9,0.21402584371802844,0.29999997919387467,0.15790173841522778,0.10040433598505756,0.09288382756983238,-7.2432063889156974e-9,-7.582714623927232e-9,0.02509916315447408,2.8959986121117487e-7
2019-10-31,true,2.989138500863409e-8,-2.851294090202883e-9,-2.671546572839294e-9,0.09676604300987955,0.012918808263281942,-2.9602825925123115e-9,-2.6281121223204917e-9,-2.652666543115482e-9,0.21402584191869162,0.29999998474314815,0.1579017367303619,0.10040433464591945,0.09288382640335391,-4.652540782725199e-9,-4.717559468287356e-9,0.025099158131001845,2.892920903791633e-7
2019-11-29,true,2.114331579466891e-8,-2.118700720003e-9,-2.0477095870456134e-9,0.09676604154131566,0.012918806892113523,-2.1819790931970095e-9,-2.0189126080034406e-9,-2.0256466751476233e-9,0.2140258408208839,0.29999998871093103,0.15790173450885459,0.10040433438350194,0.09288382556937094,-3.1031295846501877e-9,-3.0345542644134147e-9,0.025099155174831734,2.8893154503031724e-7
2019-12-31,true,1.5380036699478356e-8,-1.57201805590612e-9,-1.5409020133571082e-9,0.09676604067081819,0.01291880616780724,-1.5840997254489114e-9,-1.586851923551485e-9,-1.475178821926573e-9,0.2140258400895649,0.2999999915661772,0.1579017329910661,0.10040433466453544,0.09288382544951765,-2.1544224286659193e-9,-2.063776223463962e-9,0.025099151960436543,2.884193310412944e-7
2020-01-31,true,1.2522869000766208e-8,-1.1627873857090023e-9,-1.1553173929962027e-9,0.09676604015409723,0.012918805767083645,-1.1436910671599926e-9,-1.1605855125594044e-9,-1.137870640350121e-9,0.21402583952071913,0.29999999360782825,0.15790173206255337,0.1004043353001611,0.09288382579487602,-1.5320027905641753e-9,-1.4464710298923537e-9,0.025099148253547882,2.8827931224235034e-7
2020-02-28,true,8.709206153670549e-9,-9.51759406302719e-10,-9.461917188152212e-10,0.09676603965260017,0.012918805540400712,-9.335644815301662e-10,-7.865231520767875e-10,-8.978931048718482e-10,0.21402583885746887,0.29999999472046224,0.15790173095926424,0.10040433632855184,0.09288382608202553,-1.2010479523040742e-9,-1.095433909699622e-9,0.025099147515266054,2.8715759362740365e-7
2020-03-31,true,4.748827615828852e-7,8.223508868504857e-9,8.402300865206469e-9,0.09676609663811217,0.012918797807951764,8.840606993104445e-9,7.44221095164426e-9,7.827250706610604e-9,0.21402586927403244,0.3000000062775344,0.15790174966328346,0.10040433319864916,0.09288384961998386,7.751827711085711e-9,7.438615090786539e-9,0.025099180997483053,6.05592608947838e-8
2020-04-30,true,1.9317513768158192e-7,5.491729528133871e-9,6.2444269358415126e-9,0.09676611402723213,0.01291881245367677,6.8763166887253064e-9,4.684444387479399e-9,5.006618237994737e-9,0.2140258891707525,0.30000000407679805,0.15790175668929948,0.10040430866890626,0.09288385097902474,5.203906083326308e-9,6.1086930089801375e-9,0.025099217282954077,7.0268817454003995e-9
2020-05-29,true,1.8263774765178246e-7,5.668042524132143e-10,2.1355383512712618e-9,0.09676610501111234,0.012918855991223652,2.476372380429404e-9,3.8124249302862674e-10,4.721383652218062e-10,0.21402590883645542,0.29999999910302294,0.15790175838892295,0.10040427330054716,0.09288384707130501,1.7221557882499425e-9,3.2607781250848425e-9,0.025099243704520664,-2.419347182439097e-9
2020-06-30,true,2.703832915729637e-7,-5.260237724231081e-9,-2.628220669482771e-9,0.0967660301826883,0.012918962453031842,-2.5150208639596693e-9,-3.938699957337756e-9,-3.919752107198936e-9,0.21402592543989474,0.2999999962930298,0.15790176077043372,0.10040424567847626,0.09288385061711013,-5.776794563157503e-11,-5.957247079283956e-10,0.02509924973630877,-2.2513489063830506e-9
2020-07-31,true,2.5895289558274246e-7,-8.01256643005746e-9,-5.056086988877223e-9,0.09676594454271026,0.01291906764215341,-5.311911404891688e-9,-5.772948793114519e-9,-5.928967561032128e-9,0.21402593932714617,0.29999999386491394,0.15790176226495967,0.10040421972678973,0.09288385320141695,-1.541929158008543e-9,-2.5657426777692777e-9,0.025099256058565788,-2.4322722127756137e-9
2020-08-31,true,2.8274036120320875e-7,-9.97153063893633e-9,-6.551750788498933e-9,0.09676584507333941,0.012919183449924668,-7.274807712530282e-9,-7.014256706207739e-9,-7.309930030810598e-9,0.2140259539160991,0.29999999137686406,0.1579017637829614,0.10040419076248966,0.09288385469301638,-2.456509505113574e-9,-3.574524176790926e-9,0.02509926402332768,-2.916668837005245e-9
2020-09-30,true,2.011132163534942e-7,-8.115100529622551e-9,-5.7408196309911185e-9,0.09676576210834645,0.012919262067528374,-6.567308569261106e-9,-5.470459553036608e-9,-5.832831291618663e-9,0.2140259607490441,0.2999999904612394,0.15790176533677752,0.10040417420432474,0.09288385541390956,-2.5749877959718564e-9,-3.1744435370486565e-9,0.02509926958985882,-2.4483394280938735e-9
2020-10-30,true,1.781098283806054e-7,-6.067407113323741e-9,-4.678816842527425e-9,0.09676568488208542,0.012919329338360748,-5.40918014248056e-9,-3.941965296934702e-9,-4.2704150340415745e-9,0.21402596589388395,0.2999999904555789,0.15790176775990572,0.1004041623804918,0.09288385675938418,-2.3234031067277836e-9,-2.564925699462987e-9,0.02509927398273943,-2.1912588201213704e-9
2020-11-30,true,2.125348161082563e-7,-5.622544765651928e-9,-5.360763039181844e-9,0.09676561590133834,0.012919408690478263,-5.932548637494776e-9,-4.003951821855611e-9,-4.350289560141275e-9,0.21402598310145482,0.29999998973908293,0.15790176883166662,0.10040413204124882,0.09288385519051688,-2.63622956703615e-9,-2.7712549907875616e-9,0.025099282174513644,-4.986304247103416e-9
2020-12-31,true,2.0267504013503253e-7,-5.378683422188579e-9,-5.687539314635588e-9,0.09676554483346303,0.012919485858220737,-6.1351604379334986e-9,-3.95484039009292e-9,-4.324854996385872e-9,0.2140259984496463,0.29999998924753074,0.15790176962267152,0.10040410406688174,0.09288385414644766,-2.6463221589076804e-9,-2.9236690070837446e-9,0.025099289886816967,-5.053936405850353e-9
2021-01-29,true,2.015811329803289e-7,-5.370813679941875e-9,-6.394171370732074e-9,0.09676548267497069,0.012919561783275956,-6.7630596792861665e-9,-4.121166151389654e-9,-4.463704414392726e-9,0.21402601870102536,0.29999998883585877,0.1579017705799165,0.10040406978951219,0.09288385331587104,-2.6720483904632693e-9,-3.3599456948918463e-9,0.025099293535901533,-6.06461592313647e-9
2021-02-26,true,2.932783892254862e-7,-7.944130381008496e-9,-9.556082257755015e-9,0.09676541908790803,0.012919667216050148,-9.8631859638041e-9,-6.3672437151840234e-9,-6.6539406621304685e-9,0.21402605647924622,0.2999999878379145,0.157901769861154,0.10040400993846635,0.09288385086816381,-3.244037891257321e-9,-5.529853310520338e-9,0.0250992969651691,-9.08665522469745e-9
2021-03-31,true,2.5062674815583455e-7,-8.786268188907875e-9,-1.1143807117196124e-8,0.09676536436265372,0.012919752374765907,-1.1256540323771527e-8,-6.744861034793928e-9,-6.930538018313725e-9,0.21402609233484568,0.2999999876448567,0.1579017726067225,0.1004039569930642,0.09288385179364499,-3.415551494422398e-9,-6.741992268225656e-9,0.02509928537577925,-8.459460329458545e-9
2021-04-30,true,2.52030931318211e-7,-9.476963905408978e-9,-1.2044930454175565e-8,0.09676530778884103,0.012919838468434761,-1.2155495967449485e-8,-7.179554157083223e-9,-7.342644595074012e-9,0.21402612840186996,0.2999999874929386,0.15790177522448953,0.10040390431964602,0.09288385289979287,-3.5503673166261843e-9,-7.318545059640909e-9,0.025099272808339543,-8.328668740181231e-9
2021-05-28,true,2.067632349069442e-7,-9.324073472859435e-9,-1.1875494040172788e-8,0.09676526531166177,0.012919905651721733,-1.2090648958197822e-8,-7.070638705382369e-9,-7.214788627281686e-9,0.21402616013692843,0.2999999877027677,0.15790177722542809,0.1004038566195442,0.09288385341647898,-3.442143962389204e-9,-7.2851733613768984e-9,0.025099259603749022,-7.3586449742422385e-9
2021-06-30,true,2.4115821644740043e-7,-9.990170481485073e-9,-1.2962556936720522e-8,0.09676522063836594,0.012919984398587058,-1.3037862834337528e-8,-7.68434134440467e-9,-7.806791657662208e-9,0.21402619926002348,0.29999998779597314,0.15790177984138926,0.10040379875987065,0.09288385304164817,-3.6863473240016573e-9,-8.01857674706056e-9,0.02509924782122351,-8.363722562586823e-9
2021-07-30,true,3.306181951343614e-7,-1.192023449484645e-8,-1.6131191986416687e-8,0.0967651698896751,0.012920085151224777,-1.5800116465706877e-8,-9.30622092117006e-9,-9.29060402611464e-9,0.21402625622920987,0.2999999878121782,0.15790178522301823,0.10040372103401224,0.0928838552306093,-4.352769729613159e-9,-1.0124940175798075e-8,0.025099226810079277,-1.0448174474176022e-8
2021-08-31,true,3.5601504366252895e-7,-1.3318493188799386e-8,-1.8441222535643682e-8,0.09676511460161345,0.012920189085223627,-1.795598242189866e-8,-1.0403181592500654e-8,-1.0290509010971456e-8,0.21402631870533836,0.29999998785238446,0.15790179284425526,0.10040364006556599,0.09288385916636491,-4.80724237157816e-9,-1.1677420849207596e-8,0.02509919533892544,-1.0760255967671023e-8
2021-09-30,true,3.6331163133561216e-7,-1.3911250736009341e-8,-2.0059430064616166e-8,0.0967650585149482,0.012920290598306895,-1.9428535778023878e-8,-1.0981711245415524e-8,-1.0810057540085205e-8,0.21402638417096387,0.29999998781299186,0.15790180143211258,0.10040355622612354,0.09288386525524361,-5.091812601160476e-9,-1.2512541171416137e-8,0.02509915984000161,-1.1050731212165576e-8
2021-10-29,true,4.734668768420151e-7,-1.757621905486537e-8,-2.3603875563183555e-8,0.09676498080587569,0.012920435758521243,-2.2744650860102676e-8,-1.3822342724895436e-8,-1.3629813162201579e-8,0.21402646324700453,0.29999998784339144,0.15790180867641385,0.10040345625879878,0.09288387047832886,-5.5284085189489735e-9,-1.512289793468024e-8,0.025099121576361894,-1.2610661289003316e-8
2021-11-30,true,6.460105451930644e-7,-2.3238191967088013e-8,-2.9726469122512068e-8,0.09676488183765967,0.012920630326843964,-2.8544412776014816e-8,-1.8054076545668142e-8,-1.776816236288807e-8,0.21402656869590644,0.2999999881940706,0.15790182078738565,0.1004033285503236,0.09288388100464591,-5.910306970171305e-9,-1.9763536771317478e-8,0.02509905840714768,-1.4793159738550741e-8
2021-12-31,true,6.473377118629862e-7,-2.9425010836002044e-8,-3.5079252728792746e-8,0.09676479684867673,0.012920838758821173,-3.52319003713766e-8,-1.620023501828055e-8,-2.781772123309518e-8,0.214026677962535,0.2999999859052615,0.15790182367277072,0.10040319039571874,0.09288388224012384,-6.634592001473729e-9,-2.3637758459199164e-8,0.025098995031038338,-1.6773899410760077e-8
2022-01-31,true,6.363335033046772e-7,-3.2826325724314715e-8,-3.869823968088617e-8,0.0967647152789521,0.012921037148455735,-3.8753139705199554e-8,-2.031404524057567e-8,-2.9208582829278514e-8,0.21402679623242996,0.29999998191314414,0.1579018251820794,0.10040303301405494,0.092883880687835,-7.283032241088082e-9,-2.6011831726356157e-8,0.0250989421057697,-1.844877475426176e-8
2022-02-28,true,5.637869636858946e-7,-3.255242710845957e-8,-3.955238223713977e-8,0.09676463584888488,0.012921199952298183,-4.01629631755714e-8,-1.44611402012562e-8,-3.275659439219754e-8,0.21402690543673256,0.2999999783676759,0.15790182876775943,0.10040288801164998,0.09288387885751319,-7.50084367439231e-9,-2.6075655520552228e-8,0.025098896112359048,-1.8277725511441675e-8
2022-03-31,true,5.704987454585222e-7,-2.387551240036291e-8,-3.128770520355888e-8,0.09676451455611396,0.012921294821877736,-3.023205252543404e-8,-1.1267294676414851e-8,-1.8126577126669458e-8,0.21402698868346345,0.29999997729619976,0.15790185378533822,0.1004028034292043,0.09288389859168783,-3.256256262761478e-9,-2.1420340101369467e-8,0.02509881779761113,-9.504752604713146e-9
2022-04-29,true,4.140599380964301e-7,-1.230192653627174e-8,-2.1593409935705748e-8,0.096764432731782,0.012921319007554798,-1.8955417873136154e-8,-4.007400661414464e-9,-6.189696336838023e-9,0.2140270512205523,0.2999999783154152,0.15790188474439315,0.10040274703890638,0.09288392229087138,-9.92865145639545e-10,-1.4481416920132029e-8,0.02509874897826864,-5.822611578107053e-9
2022-05-31,true,3.607591852408004e-7,-1.3436343144495658e-9,-1.4141619124287663e-8,0.09676445154355048,0.012921240458634214,-8.225655935646654e-9,-7.786025119801752e-9,9.98237669951212e-9,0.21402709962530336,0.2999999740843764,0.15790191683849336,0.10040270799767895,0.09288394811617626,1.0194504778252358e-9,-9.567789425435947e-9,0.025098694202017786,-2.81327423741559e-9
2022-06-30,true,4.527177225778294e-7,8.540432768086253e-9,-6.3966068099814e-9,0.09676449156571756,0.012921105190964639,7.303651568228449e-10,7.306228934090657e-9,1.499466750593103e-8,0.21402715352986598,0.29999997736961215,0.15790195801393614,0.10040267240844143,0.0928839798965069,4.700938968669701e-9,-3.852087711614877e-9,0.02509863868596109,-2.7230898733337984e-9
2022-07-29,true,5.238326767589208e-7,1.9152303531388865e-8,3.160643105165888e-9,0.0967645709829985,0.01292089478442569,1.1483016469032662e-8,1.8443632988124378e-8,2.2478630884912896e-8,0.21402718552582373,0.2999999797616606,0.1579020044733962,0.10040266567584871,0.09288401838533943,7.654835710610158e-9,3.2503622464347298e-9,0.02509859390621441,8.376427101353749e-10
2022-08-31,true,3.9772846391607274e-7,2.1024657600148004e-8,6.4319622267863355e-9,0.09676460267293979,0.012920749935800795,1.47355851841511e-8,2.170004437731361e-8,2.511669392930667e-8,0.21402722998473273,0.29999998728519456,0.157902052542213,0.10040265808755207,0.09288406733810049,1.0664625566027298e-8,4.110945509395843e-9,0.02509854898084961,-6.734832698498255e-10
2022-09-30,true,3.7152839041288963e-7,2.058603223246001e-8,8.468404171413738e-9,0.0967646371370509,0.012920608810110396,1.569072228754039e-8,2.2381058814867383e-8,2.5926329915170344e-8,0.21402727440679725,0.2999999936006854,0.15790209867233013,0.10040265258704281,0.09288411520545448,1.2521983777484153e-8,4.331975779479464e-9,0.025098511890082515,-2.286526025310599e-9
2022-10-31,true,4.006822828640663e-7,2.084835322918571e-8,1.1257129111871934e-8,0.0967646810183617,0.01292044580007831,1.6773645948459516e-8,2.345457246625732e-8,2.7434063251552678e-8,0.21402730779742377,0.3000000003047437,0.1579021428731205,0.10040265748420824,0.0928841738131167,1.428912183188327e-8,4.502568203993288e-9,0.025098475181030866,-2.9151644528448642e-9
2022-11-30,true,4.641170024585518e-7,2.217652902982458e-8,1.3616913992098527e-8,0.09676474650650616,0.012920246732304418,1.821021958071392e-8,2.565552498904738e-8,3.020404736728018e-8,0.214027338514073,0.3000000077667946,0.15790218556867816,0.1004026648839879,0.09288424012887284,1.602914118402134e-8,4.6408456974081855e-9,0.025098444373376196,-5.105032539696509e-9
2022-12-30,true,5.448936139933266e-7,2.4991782370049914e-8,1.6417728222342643e-8,0.09676484121793755,0.012920003038789702,2.0832884733097687e-8,2.8411757778904015e-8,3.320808274076429e-8,0.21402735853321758,0.30000001454151115,0.1579022294373697,0.10040267994969981,0.0928843154791359,1.6929952211958594e-8,6.220030727863865e-9,0.025098415616605887,-4.930659591251584e-9
2023-01-31,true,6.293568347092039e-7,2.8092807291305794e-8,1.787506658160788e-8,0.09676496896762111,0.01291971474277897,2.3617161665761882e-8,3.089046438742656e-8,3.553392023583117e-8,0.21402737048406673,0.3000000205425231,0.15790227410165694,0.10040270232061876,0.09288439966779923,1.778069552367295e-8,8.286286645715324e-9,0.02509838923516314,-2.2408760914850865e-9
2023-02-28,true,5.411932908337394e-7,2.8023413079117008e-8,1.6546514591061764e-8,0.09676504428689363,0.012919485248868623,2.365233845715039e-8,3.119740850789865e-8,3.593752019924901e-8,0.2140273893969468,0.3000000284269214,0.15790232008448385,0.10040272280257923,0.09288449923747678,1.92829095890326e-8,7.228086810801346e-9,0.02509835058365863,-2.0480969031373933e-9
2023-03-31,true,1.0333569887932317e-6,-4.934393948815285e-9,-1.4039696180838634e-8,0.09676501605351345,0.012919694571746148,-1.0208578497109147e-9,4.65175718633605e-9,6.919385882421793e-9,0.21402761525446523,0.300000008375064,0.15790230276527328,0.10040254498394735,0.09288440746697744,1.2288109326510792e-8,-8.65138284025923e-9,0.02509843216852279,-1.6790976564975625e-8
2023-04-28,true,3.7490329464621746e-7,-1.2096453354157381e-8,-1.1992366524519194e-8,0.09676506849841399,0.012919706606103235,-9.9377809530956e-9,-6.282596959977997e-9,-4.78739769278904e-9,0.2140276675256316,0.3000000075019653,0.1579022753639805,0.1004024836584348,0.09288436260514908,-7.978251541180254e-10,-9.865898505198969e-9,0.025098493932936165,-9.932151729642373e-9
2023-05-31,true,2.513325463701941e-7,-1.3923993428487269e-8,-1.0754105478800766e-8,0.09676511416783018,0.012919699647701679,-1.3237438872322696e-8,-1.0716033464886488e-8,-9.920374788130771e-9,0.21402769575367664,0.30000000599939103,0.15790225621863016,0.10040244360344622,0.09288432285124996,-4.2890227132848624e-9,-9.928786533403954e-9,0.02509854064205225,-6.107354774677731e-9
2023-06-30,true,2.127545231803296e-7,-1.3483196402515437e-8,-9.143893917569065e-9,0.09676515629907084,0.012919684170562752,-1.3790811675399778e-8,-1.2172648466066402e-8,-1.1528087337749309e-8,0.2140277130472742,0.3000000070046922,0.15790224285736826,0.1004024102110975,0.09288428331725444,-5.285343428605595e-9,-9.364940851273674e-9,0.02509858183504269,-3.969581834181704e-9
2023-07-31,true,2.0732517736524131e-7,-1.2914968297451938e-8,-8.198944344322786e-9,0.0967651979386263,0.012919668943885299,-1.3896902046129236e-8,-1.2627921454480943e-8,-1.1963789519495536e-8,0.214027730814247,0.3000000081910699,0.15790222869774417,0.10040237525933246,0.09288424533509887,-5.630891723308837e-9,-9.06299601859077e-9,0.025098622482501526,-3.3627277854351814e-9
2023-08-31,true,2.0989382352817052e-7,-1.2543151578981712e-8,-7.570394156299277e-9,0.09676524163811674,0.012919651578818726,-1.4111038447384322e-8,-1.2945835802166123e-8,-1.2261287255859572e-8,0.21402774721418408,0.3000000096232137,0.1579022158277137,0.10040234125952384,0.0928842063540602,-6.532466972233083e-9,-8.862794986581551e-9,0.02509866430182892,-2.967438987722266e-9
2023-09-29,true,1.7704506929914606e-7,-1.0790203544090912e-8,-6.568356829347492e-9,0.096765274450696,0.012919636870932987,-1.3063057587257725e-8,-1.1940948503930097e-8,-1.131457343808848e-8,0.21402775912633057,0.3000000114672925,0.15790220316000247,0.10040231434168913,0.09288417239738697,-6.805566110934819e-9,-8.109850433568265e-9,0.02509869842720704,-1.6472682605672661e-9
2023-10-31,true,1.7453892606085283e-7,-9.25486481116156e-9,-5.468280099165866e-9,0.09676530171010862,0.012919625771614204,-1.2094021681541358e-8,-1.0943204598307018e-8,-1.0361701995378571e-8,0.21402777242544413,0.3000000141933148,0.15790219152357732,0.1004022902600053,0.09288413194386405,-6.429546131080209e-9,-7.008160440812136e-9,0.02509873501081405,-1.280225062816239e-9
2023-11-30,true,1.6597028602689663e-7,-7.492701111050523e-9,-4.109952835928059e-9,0.0967653170603004,0.012919622989857828,-1.092185457900839e-8,-9.96576665268705e-9,-9.415351555372155e-9,0.21402778755955484,0.3000000184910473,0.15790218276982393,0.10040227029826042,0.0928840807774449,-6.254805560647504e-9,-5.571978418021954e-9,0.025098775384410604,-1.6038367002982258e-9
2023-12-29,true,1.8084805677796442e-7,-6.8036928575972666e-9,-3.449502350652219e-9,0.09676533286512007,0.012919623404881876,-1.0690226646115757e-8,-9.784020999576052e-9,-9.232441145130027e-9,0.21402780791211684,0.30000002234663875,0.15790217710277804,0.10040224544583956,0.09288402176484847,-6.271980279324151e-9,-5.005563451448771e-9,0.025098822867609696,-2.479301623162245e-9
2024-01-31,true,1.8957792273886087e-7,-6.272073132099663e-9,-2.5999746680378622e-9,0.09676534100170042,0.012919631816831959,-1.0415827485200078e-8,-9.848183279256193e-9,-9.138051643256982e-9,0.21402782968632744,0.30000002669797776,0.15790217384227023,0.10040221981129542,0.09288395653148379,-6.49546234545322e-9,-5.153515826769788e-9,0.025098873230984198,-2.7058203881680737e-9
2024-02-29,true,1.789833675364816e-7,-5.45825904057568e-9,-1.8309658609909852e-9,0.09676534362725975,0.012919643847927317,-9.810031986016815e-9,-9.5916517842048e-9,-8.82324814216894e-9,0.21402784976054426,0.3000000305014794,0.15790217200811008,0.10040219637815516,0.09288389262353053,-6.813126572032531e-9,-4.742156433650868e-9,0.025098920369010146,-2.059082619176625e-9
2024-03-28,true,1.2480283814708105e-7,-3.273609019500172e-9,-1.8305960283897057e-10,0.09676533708160893,0.012919653882612795,-7.382897254511189e-9,-7.683590617669345e-9,-6.929660493238414e-9,0.2140278558773338,0.3000000318128835,0.1579021676739522,0.10040218776960913,0.09288384971221772,-6.013879360606682e-9,-2.7296955224149626e-9,0.025098949464454307,9.12716779108586e-10
2024-04-30,true,1.1227966572286136e-7,-1.3794604005315949e-9,1.223377499992078e-9,0.09676532960239748,0.012919664463770117,-5.445031259744008e-9,-6.070277999127184e-9,-5.3513150235573666e-9,0.21402785933837404,0.30000003366509975,0.15790216451168743,0.1004021832043403,0.09288380877841365,-5.085264169038276e-9,-1.1003319845959073e-9,0.02509897737585527,2.2579300431346374e-9
2024-05-31,true,1.0714230901825527e-7,-7.73497380986894e-12,2.3491128598798043e-9,0.0967653193420675,0.012919677488230669,-3.860272885420882e-9,-4.755856650061858e-9,-4.117579937850545e-9,0.21402786250244338,0.300000034850438,0.15790216073835325,0.10040218103280933,0.09288377141242264,-4.4299860270719525e-9,2.743573400534221e-10,0.025099004049413287,3.121283690871626e-9
2024-06-28,true,1.1471342124404838e-7,9.364465176387027e-10,3.4048574762227832e-9,0.09676530848073292,0.012919691962155224,-2.9574058450000422e-9,-4.107284036164189e-9,-3.4931967874070132e-9,0.21402786742314953,0.3000000366244102,0.15790215868098273,0.10040217890630623,0.09288372910043047,-4.0628997314403195e-9,1.3062355966105878e-9,0.025099034616892016,3.1667094683900456e-9
2024-07-31,true,1.0449145192905726e-7,2.2794994383421165e-9,4.081277882622631e-9,0.09676529653598671,0.012919705040342455,-1.7729878384932971e-9,-2.8710041054590365e-9,-2.3498504045244793e-9,0.21402786599314083,0.30000003757486804,0.15790215606296187,0.10040218503515042,0.09288369284734715,-3.3187298048325952e-9,1.973979370614823e-9,0.02509905857166906,4.304604699305596e-9
2024-08-30,true,1.0062185317632103e-7,3.513848626207008e-9,4.4475844825565015e-9,0.09676528736929835,0.012919716830860501,-9.824883132768372e-10,-2.209067684037982e-9,-1.7575755192850256e-9,0.2140278607423707,0.300000038820993,0.15790215530840812,0.10040219443887413,0.09288365770718479,-2.8936339191937125e-9,2.0923284868143157e-9,0.025099081194389843,5.362384119942269e-9
2024-09-30,true,1.0219651497861604e-7,4.167660839817794e-9,4.6673629469594e-9,0.09676528098279555,0.012919728435360989,-6.802566534240782e-10,-1.9595457531440157e-9,-1.4927642032145209e-9,0.2140278586530926,0.300000040443738,0.15790215295110877,0.1004022024124821,0.09288361754688317,-2.720775267358555e-9,2.0349705220968213e-9,0.025099109227931245,5.314018085762954e-9
2024-10-31,true,1.4397109087367102e-7,3.899253535935323e-9,4.86433618611036e-9,0.09676527335241793,0.012919748669307732,-1.416808380434384e-9,-2.6427442164830035e-9,-1.956672608844851e-9,0.21402786526299408,0.30000004369210576,0.15790214831827132,0.10040220086883023,0.09288356374192576,-3.3644135764551384e-9,1.507911237881685e-9,0.02509915092080515,4.259578171291468e-9
2024-11-29,true,1.2380913068422545e-7,5.149926018909822e-9,5.208121223485293e-9,0.09676525848160919,0.012919764866579581,-3.2273033449655733e-10,-1.3052760077177016e-9,-6.365791000924321e-10,0.21402785870328447,0.3000000441600779,0.15790214561891808,0.10040221302422314,0.09288352596873115,-2.437049691245163e-9,1.995763094421693e-9,0.02509917581300562,5.691492237761419e-9
2024-12-31,true,1.3141492018789935e-7,6.268141818468353e-9,6.048769811156772e-9,0.09676523827291922,0.01291978560863458,1.0181120937862306e-9,1.0755048292351537e-10,7.253408849646207e-10,0.21402784777276637,0.3000000448903015,0.1579021430189239,0.10040222944505525,0.0928834939994144,-1.7527540781730508e-9,2.892068541087471e-9,0.02509919449967421,7.1630597832526526e-9
2025-01-31,true,1.3254968942938852e-7,7.070004844393726e-9,7.033656783703346e-9,0.09676521832810026,0.012919807062670288,2.0171867321995695e-9,1.1640401883047552e-9,1.7353412320956104e-9,0.21402783749934198,0.30000004582440243,0.1579021405419852,0.10040224652688112,0.09288346041881894,-1.2338284538483407e-9,3.7857126089160766e-9,0.025099214610714318,7.591084718830243e-9
2025-02-28,true,1.2042877268096268e-7,6.983153434971727e-9,7.624431664091735e-9,0.09676519611960958,0.012919832649183472,2.591705036872022e-9,1.788349875921917e-9,2.3873885639882552e-9,0.21402783097339606,0.30000004608039277,0.15790213830519423,0.10040225701570188,0.0928834312631356,-1.025860298512553e-9,4.543132832033411e-9,0.02509923505836017,7.62008636736961e-9
2025-03-31,true,1.0808753385642054e-7,6.978898362458254e-9,6.8491077900587865e-9,0.09676518148273915,0.012919843106830618,4.328938836394999e-9,3.867105165357784e-9,4.0487917126055776e-9,0.21402781291551434,0.3000000385394178,0.15790214195425878,0.10040228044611423,0.0928834399073881,3.7113550318506297e-10,5.323604851284721e-9,0.025099222038483658,7.83620106013102e-9
2025-04-30,true,8.561516387787e-8,7.190622105961556e-9,5.8592303335220745e-9,0.09676517577295202,0.01291984675924254,4.855879033935251e-9,4.640375913902102e-9,4.5372446454710494e-9,0.2140277956292203,0.3000000321268774,0.15790214602886998,0.1004023084289445,0.09288344407177386,1.3052157588202135e-9,4.806181338474452e-9,0.02509921067359337,7.3105570400368795e-9
2025-05-30,true,9.105495713612539e-8,6.7820002832024566e-9,5.1535653803947125e-9,0.09676516563160059,0.012919854618503297,4.9687922306054325e-9,4.987503265179915e-9,4.768531227159831e-9,0.21402778016228383,0.30000002679506454,0.15790215092646925,0.10040233339136548,0.09288345090726365,1.5868165883780535e-9,4.6912126179704066e-9,0.025099198069260528,6.556987777265253e-9
2025-06-30,true,8.273528840237188e-8,6.060090074171966e-9,4.88525701259939e-9,0.0967651554045874,0.012919862127508954,4.798249162016767e-9,5.032789037043256e-9,4.80083013067101e-9,0.21402776509594237,0.30000002313295604,0.15790215742376645,0.10040235522689256,0.09288345608464789,1.4619980395953415e-9,4.827486961859061e-9,0.025099186942331427,6.691230532107056e-9
2025-07-31,true,8.316135316774424e-8,5.13161850299115e-9,4.328701269827501e-9,0.09676514878219873,0.012919868087898237,4.501451820414555e-9,4.808825650500163e-9,4.560864123123124e-9,0.21402775209071123,0.3000000188336098,0.1579021641078041,0.10040237573781616,0.0928834645110059,1.406916979735035e-9,4.705824905062074e-9,0.025099172979394003,5.423986526700811e-9
2025-08-29,true,7.066854005329954e-8,4.247418744309578e-9,3.6999945466388343e-9,0.09676514391284145,0.012919873276407265,4.029018640540478e-9,4.338268564008047e-9,4.090401031807499e-9,0.21402774195430152,0.3000000150166072,0.15790216865451384,0.10040239346560895,0.09288347238272818,1.27620750133009e-9,4.3562021489710255e-9,0.025099161032489034,4.266546932120001e-9
2025-09-30,true,5.8741305805720746e-8,3.378761632074057e-9,3.0332761983089435e-9,0.09676514210941192,0.012919875968811136,3.509647409359062e-9,3.7286762833184885e-9,3.487141546391741e-9,0.21402773367982283,0.30000001141247506,0.1579021717600081,0.10040240944799889,0.09288347997370539,1.0930715811293392e-9,4.054073900613498e-9,0.025099150316883468,3.047014963412344e-9
2025-10-03,true,5.538834508034801e-8,2.742971800288472e-9,2.4961984570415355e-9,0.09676514036544735,0.012919878012840821,3.068934634987102e-9,3.232385830565786e-9,2.9883674719727213e-9,0.21402772509516665,0.30000000860563447,0.15790217459919886,0.10040242490009463,0.09288348733306925,9.016826087209436e-10,3.724670843430659e-9,0.02509913951737076,2.417760905203973e-9
