date,rebalanced,turnover,SPY,IWD,IWF,IWM,EFA,EEM,VWO,TLT,IEF,LQD,HYG,GLD,SLV,VNQ,DBC,USO
2010-04-30,true,1.173949013094349,2.162098460627553e-9,3.0598130125690054e-9,0.09675947960498393,0.012928411809190049,-1.055234690746598e-8,-3.0571584584487876e-8,-2.6675814495385655e-8,0.21402584935294713,0.3000000142663233,0.15790022962397643,0.10040473977727621,0.0928841939083051,-6.226516520803758e-9,7.533733251562374e-9,0.025097150157693614,-7.256802648244498e-9
2010-05-28,false,0.0,2.162098460627553e-9,3.0598130125690054e-9,0.09675947960498393,0.012928411809190049,-1.055234690746598e-8,-3.0571584584487876e-8,-2.6675814495385655e-8,0.21402584935294713,0.3000000142663233,0.15790022962397643,0.10040473977727621,0.0928841939083051,-6.226516520803758e-9,7.533733251562374e-9,0.025097150157693614,-7.256802648244498e-9
2010-06-30,false,0.0,2.162098460627553e-9,3.0598130125690054e-9,0.09675947960498393,0.012928411809190049,-1.055234690746598e-8,-3.0571584584487876e-8,-2.6675814495385655e-8,0.21402584935294713,0.3000000142663233,0.15790022962397643,0.10040473977727621,0.0928841939083051,-6.226516520803758e-9,7.533733251562374e-9,0.025097150157693614,-7.256802648244498e-9
2010-07-30,false,0.0,2.162098460627553e-9,3.0598130125690054e-9,0.09675947960498393,0.012928411809190049,-1.055234690746598e-8,-3.0571584584487876e-8,-2.6675814495385655e-8,0.21402584935294713,0.3000000142663233,0.15790022962397643,0.10040473977727621,0.0928841939083051,-6.226516520803758e-9,7.533733251562374e-9,0.025097150157693614,-7.256802648244498e-9
2010-08-31,false,0.0,2.162098460627553e-9,3.0598130125690054e-9,0.09675947960498393,0.012928411809190049,-1.055234690746598e-8,-3.0571584584487876e-8,-2.6675814495385655e-8,0.21402584935294713,0.3000000142663233,0.15790022962397643,0.10040473977727621,0.0928841939083051,-6.226516520803758e-9,7.533733251562374e-9,0.025097150157693614,-7.256802648244498e-9
2010-09-30,false,0.0,2.162098460627553e-9,3.0598130125690054e-9,0.09675947960498393,0.012928411809190049,-1.055234690746598e-8,-3.0571584584487876e-8,-2.6675814495385655e-8,0.21402584935294713,0.3000000142663233,0.15790022962397643,0.10040473977727621,0.0928841939083051,-6.226516520803758e-9,7.533733251562374e-9,0.025097150157693614,-7.256802648244498e-9
2010-10-29,false,0.0,2.162098460627553e-9,3.0598130125690054e-9,0.09675947960498393,0.012928411809190049,-1.055234690746598e-8,-3.0571584584487876e-8,-2.6675814495385655e-8,0.21402584935294713,0.3000000142663233,0.15790022962397643,0.10040473977727621,0.0928841939083051,-6.226516520803758e-9,7.533733251562374e-9,0.025097150157693614,-7.256802648244498e-9
2010-11-30,false,0.0,2.162098460627553e-9,3.0598130125690054e-9,0.09675947960498393,0.012928411809190049,-1.055234690746598e-8,-3.0571584584487876e-8,-2.6675814495385655e-8,0.21402584935294713,0.3000000142663233,0.15790022962397643,0.10040473977727621,0.0928841939083051,-6.226516520803758e-9,7.533733251562374e-9,0.025097150157693614,-7.256802648244498e-9
2010-12-31,false,0.0,2.162098460627553e-9,3.0598130125690054e-9,0.09675947960498393,0.012928411809190049,-1.055234690746598e-8,-3.0571584584487876e-8,-2.6675814495385655e-8,0.21402584935294713,0.3000000142663233,0.15790022962397643,0.10040473977727621,0.0928841939083051,-6.226516520803758e-9,7.533733251562374e-9,0.025097150157693614,-7.256802648244498e-9
2011-01-31,false,0.0,2.162098460627553e-9,3.0598130125690054e-9,0.09675947960498393,0.012928411809190049,-1.055234690746598e-8,-3.0571584584487876e-8,-2.6675814495385655e-8,0.21402584935294713,0.3000000142663233,0.15790022962397643,0.10040473977727621,0.0928841939083051,-6.226516520803758e-9,7.533733251562374e-9,0.025097150157693614,-7.256802648244498e-9
2011-02-28,false,0.0,2.162098460627553e-9,3.0598130125690054e-9,0.09675947960498393,0.012928411809190049,-1.055234690746598e-8,-3.0571584584487876e-8,-2.6675814495385655e-8,0.21402584935294713,0.3000000142663233,0.15790022962397643,0.10040473977727621,0.0928841939083051,-6.226516520803758e-9,7.533733251562374e-9,0.025097150157693614,-7.256802648244498e-9
2011-03-31,false,0.0,2.162098460627553e-9,3.0598130125690054e-9,0.09675947960498393,0.012928411809190049,-1.055234690746598e-8,-3.0571584584487876e-8,-2.6675814495385655e-8,0.21402584935294713,0.3000000142663233,0.15790022962397643,0.10040473977727621,0.0928841939083051,-6.226516520803758e-9,7.533733251562374e-9,0.025097150157693614,-7.256802648244498e-9
2011-04-29,false,0.0,2.162098460627553e-9,3.0598130125690054e-9,0.09675947960498393,0.012928411809190049,-1.055234690746598e-8,-3.0571584584487876e-8,-2.6675814495385655e-8,0.21402584935294713,0.3000000142663233,0.15790022962397643,0.10040473977727621,0.0928841939083051,-6.226516520803758e-9,7.533733251562374e-9,0.025097150157693614,-7.256802648244498e-9
2011-05-31,false,0.0,2.162098460627553e-9,3.0598130125690054e-9,0.09675947960498393,0.012928411809190049,-1.055234690746598e-8,-3.0571584584487876e-8,-2.6675814495385655e-8,0.21402584935294713,0.3000000142663233,0.15790022962397643,0.10040473977727621,0.0928841939083051,-6.226516520803758e-9,7.533733251562374e-9,0.025097150157693614,-7.256802648244498e-9
2011-06-30,false,0.0,2.162098460627553e-9,3.0598130125690054e-9,0.09675947960498393,0.012928411809190049,-1.055234690746598e-8,-3.0571584584487876e-8,-2.6675814495385655e-8,0.21402584935294713,0.3000000142663233,0.15790022962397643,0.10040473977727621,0.0928841939083051,-6.226516520803758e-9,7.533733251562374e-9,0.025097150157693614,-7.256802648244498e-9
2011-07-29,false,0.0,2.162098460627553e-9,3.0598130125690054e-9,0.09675947960498393,0.012928411809190049,-1.055234690746598e-8,-3.0571584584487876e-8,-2.6675814495385655e-8,0.21402584935294713,0.3000000142663233,0.15790022962397643,0.10040473977727621,0.0928841939083051,-6.226516520803758e-9,7.533733251562374e-9,0.025097150157693614,-7.256802648244498e-9
2011-08-31,false,0.0,2.162098460627553e-9,3.0598130125690054e-9,0.09675947960498393,0.012928411809190049,-1.055234690746598e-8,-3.0571584584487876e-8,-2.6675814495385655e-8,0.21402584935294713,0.3000000142663233,0.15790022962397643,0.10040473977727621,0.0928841939083051,-6.226516520803758e-9,7.533733251562374e-9,0.025097150157693614,-7.256802648244498e-9
2011-09-30,false,0.0,2.162098460627553e-9,3.0598130125690054e-9,0.09675947960498393,0.012928411809190049,-1.055234690746598e-8,-3.0571584584487876e-8,-2.6675814495385655e-8,0.21402584935294713,0.3000000142663233,0.15790022962397643,0.10040473977727621,0.0928841939083051,-6.226516520803758e-9,7.533733251562374e-9,0.025097150157693614,-7.256802648244498e-9
2011-10-31,false,0.0,2.162098460627553e-9,3.0598130125690054e-9,0.09675947960498393,0.012928411809190049,-1.055234690746598e-8,-3.0571584584487876e-8,-2.6675814495385655e-8,0.21402584935294713,0.3000000142663233,0.15790022962397643,0.10040473977727621,0.0928841939083051,-6.226516520803758e-9,7.533733251562374e-9,0.025097150157693614,-7.256802648244498e-9
2011-11-30,false,0.0,2.162098460627553e-9,3.0598130125690054e-9,0.09675947960498393,0.012928411809190049,-1.055234690746598e-8,-3.0571584584487876e-8,-2.6675814495385655e-8,0.21402584935294713,0.3000000142663233,0.15790022962397643,0.10040473977727621,0.0928841939083051,-6.226516520803758e-9,7.533733251562374e-9,0.025097150157693614,-7.256802648244498e-9
2011-12-30,false,0.0,2.162098460627553e-9,3.0598130125690054e-9,0.09675947960498393,0.012928411809190049,-1.055234690746598e-8,-3.0571584584487876e-8,-2.6675814495385655e-8,0.21402584935294713,0.3000000142663233,0.15790022962397643,0.10040473977727621,0.0928841939083051,-6.226516520803758e-9,7.533733251562374e-9,0.025097150157693614,-7.256802648244498e-9
2012-01-31,false,0.0,2.162098460627553e-9,3.0598130125690054e-9,0.09675947960498393,0.012928411809190049,-1.055234690746598e-8,-3.0571584584487876e-8,-2.6675814495385655e-8,0.21402584935294713,0.3000000142663233,0.15790022962397643,0.10040473977727621,0.0928841939083051,-6.226516520803758e-9,7.533733251562374e-9,0.025097150157693614,-7.256802648244498e-9
2012-02-29,false,0.0,2.162098460627553e-9,3.0598130125690054e-9,0.09675947960498393,0.012928411809190049,-1.055234690746598e-8,-3.0571584584487876e-8,-2.6675814495385655e-8,0.21402584935294713,0.3000000142663233,0.15790022962397643,0.10040473977727621,0.0928841939083051,-6.226516520803758e-9,7.533733251562374e-9,0.025097150157693614,-7.256802648244498e-9
2012-03-30,false,0.0,2.162098460627553e-9,3.0598130125690054e-9,0.09675947960498393,0.012928411809190049,-1.055234690746598e-8,-3.0571584584487876e-8,-2.6675814495385655e-8,0.21402584935294713,0.3000000142663233,0.15790022962397643,0.10040473977727621,0.0928841939083051,-6.226516520803758e-9,7.533733251562374e-9,0.025097150157693614,-7.256802648244498e-9
2012-04-30,false,0.0,2.162098460627553e-9,3.0598130125690054e-9,0.09675947960498393,0.012928411809190049,-1.055234690746598e-8,-3.0571584584487876e-8,-2.6675814495385655e-8,0.21402584935294713,0.3000000142663233,0.15790022962397643,0.10040473977727621,0.0928841939083051,-6.226516520803758e-9,7.533733251562374e-9,0.025097150157693614,-7.256802648244498e-9
2012-05-31,false,0.0,2.162098460627553e-9,3.0598130125690054e-9,0.09675947960498393,0.012928411809190049,-1.055234690746598e-8,-3.0571584584487876e-8,-2.6675814495385655e-8,0.21402584935294713,0.3000000142663233,0.15790022962397643,0.10040473977727621,0.0928841939083051,-6.226516520803758e-9,7.533733251562374e-9,0.025097150157693614,-7.256802648244498e-9
2012-06-29,false,0.0,2.162098460627553e-9,3.0598130125690054e-9,0.09675947960498393,0.012928411809190049,-1.055234690746598e-8,-3.0571584584487876e-8,-2.6675814495385655e-8,0.21402584935294713,0.3000000142663233,0.15790022962397643,0.10040473977727621,0.0928841939083051,-6.226516520803758e-9,7.533733251562374e-9,0.025097150157693614,-7.256802648244498e-9
2012-07-31,false,0.0,2.162098460627553e-9,3.0598130125690054e-9,0.09675947960498393,0.012928411809190049,-1.055234690746598e-8,-3.0571584584487876e-8,-2.6675814495385655e-8,0.21402584935294713,0.3000000142663233,0.15790022962397643,0.10040473977727621,0.0928841939083051,-6.226516520803758e-9,7.533733251562374e-9,0.025097150157693614,-7.256802648244498e-9
2012-08-31,false,0.0,2.162098460627553e-9,3.0598130125690054e-9,0.09675947960498393,0.012928411809190049,-1.055234690746598e-8,-3.0571584584487876e-8,-2.6675814495385655e-8,0.21402584935294713,0.3000000142663233,0.15790022962397643,0.10040473977727621,0.0928841939083051,-6.226516520803758e-9,7.533733251562374e-9,0.025097150157693614,-7.256802648244498e-9
2012-09-28,false,0.0,2.162098460627553e-9,3.0598130125690054e-9,0.09675947960498393,0.012928411809190049,-1.055234690746598e-8,-3.0571584584487876e-8,-2.6675814495385655e-8,0.21402584935294713,0.3000000142663233,0.15790022962397643,0.10040473977727621,0.0928841939083051,-6.226516520803758e-9,7.533733251562374e-9,0.025097150157693614,-7.256802648244498e-9
2012-10-31,false,0.0,2.162098460627553e-9,3.0598130125690054e-9,0.09675947960498393,0.012928411809190049,-1.055234690746598e-8,-3.0571584584487876e-8,-2.6675814495385655e-8,0.21402584935294713,0.3000000142663233,0.15790022962397643,0.10040473977727621,0.0928841939083051,-6.226516520803758e-9,7.533733251562374e-9,0.025097150157693614,-7.256802648244498e-9
2012-11-30,false,0.0,2.162098460627553e-9,3.0598130125690054e-9,0.09675947960498393,0.012928411809190049,-1.055234690746598e-8,-3.0571584584487876e-8,-2.6675814495385655e-8,0.21402584935294713,0.3000000142663233,0.15790022962397643,0.10040473977727621,0.0928841939083051,-6.226516520803758e-9,7.533733251562374e-9,0.025097150157693614,-7.256802648244498e-9
2012-12-31,false,0.0,2.162098460627553e-9,3.0598130125690054e-9,0.09675947960498393,0.012928411809190049,-1.055234690746598e-8,-3.0571584584487876e-8,-2.6675814495385655e-8,0.21402584935294713,0.3000000142663233,0.15790022962397643,0.10040473977727621,0.0928841939083051,-6.226516520803758e-9,7.533733251562374e-9,0.025097150157693614,-7.256802648244498e-9
2013-01-31,false,0.0,2.162098460627553e-9,3.0598130125690054e-9,0.09675947960498393,0.012928411809190049,-1.055234690746598e-8,-3.0571584584487876e-8,-2.6675814495385655e-8,0.21402584935294713,0.3000000142663233,0.15790022962397643,0.10040473977727621,0.0928841939083051,-6.226516520803758e-9,7.533733251562374e-9,0.025097150157693614,-7.256802648244498e-9
2013-02-28,false,0.0,2.162098460627553e-9,3.0598130125690054e-9,0.09675947960498393,0.012928411809190049,-1.055234690746598e-8,-3.0571584584487876e-8,-2.6675814495385655e-8,0.21402584935294713,0.3000000142663233,0.15790022962397643,0.10040473977727621,0.0928841939083051,-6.226516520803758e-9,7.533733251562374e-9,0.025097150157693614,-7.256802648244498e-9
2013-03-28,false,0.0,2.162098460627553e-9,3.0598130125690054e-9,0.09675947960498393,0.012928411809190049,-1.055234690746598e-8,-3.0571584584487876e-8,-2.6675814495385655e-8,0.21402584935294713,0.3000000142663233,0.15790022962397643,0.10040473977727621,0.0928841939083051,-6.226516520803758e-9,7.533733251562374e-9,0.025097150157693614,-7.256802648244498e-9
2013-04-30,false,0.0,2.162098460627553e-9,3.0598130125690054e-9,0.09675947960498393,0.012928411809190049,-1.055234690746598e-8,-3.0571584584487876e-8,-2.6675814495385655e-8,0.21402584935294713,0.3000000142663233,0.15790022962397643,0.10040473977727621,0.0928841939083051,-6.226516520803758e-9,7.533733251562374e-9,0.025097150157693614,-7.256802648244498e-9
2013-05-31,false,0.0,2.162098460627553e-9,3.0598130125690054e-9,0.09675947960498393,0.012928411809190049,-1.055234690746598e-8,-3.0571584584487876e-8,-2.6675814495385655e-8,0.21402584935294713,0.3000000142663233,0.15790022962397643,0.10040473977727621,0.0928841939083051,-6.226516520803758e-9,7.533733251562374e-9,0.025097150157693614,-7.256802648244498e-9
2013-06-28,false,0.0,2.162098460627553e-9,3.0598130125690054e-9,0.09675947960498393,0.012928411809190049,-1.055234690746598e-8,-3.0571584584487876e-8,-2.6675814495385655e-8,0.21402584935294713,0.3000000142663233,0.15790022962397643,0.10040473977727621,0.0928841939083051,-6.226516520803758e-9,7.533733251562374e-9,0.025097150157693614,-7.256802648244498e-9
2013-07-31,false,0.0,2.162098460627553e-9,3.0598130125690054e-9,0.09675947960498393,0.012928411809190049,-1.055234690746598e-8,-3.0571584584487876e-8,-2.6675814495385655e-8,0.21402584935294713,0.3000000142663233,0.15790022962397643,0.10040473977727621,0.0928841939083051,-6.226516520803758e-9,7.533733251562374e-9,0.025097150157693614,-7.256802648244498e-9
2013-08-30,false,0.0,2.162098460627553e-9,3.0598130125690054e-9,0.09675947960498393,0.012928411809190049,-1.055234690746598e-8,-3.0571584584487876e-8,-2.6675814495385655e-8,0.21402584935294713,0.3000000142663233,0.15790022962397643,0.10040473977727621,0.0928841939083051,-6.226516520803758e-9,7.533733251562374e-9,0.025097150157693614,-7.256802648244498e-9
2013-09-30,false,0.0,2.162098460627553e-9,3.0598130125690054e-9,0.09675947960498393,0.012928411809190049,-1.055234690746598e-8,-3.0571584584487876e-8,-2.6675814495385655e-8,0.21402584935294713,0.3000000142663233,0.15790022962397643,0.10040473977727621,0.0928841939083051,-6.226516520803758e-9,7.533733251562374e-9,0.025097150157693614,-7.256802648244498e-9
2013-10-31,false,0.0,2.162098460627553e-9,3.0598130125690054e-9,0.09675947960498393,0.012928411809190049,-1.055234690746598e-8,-3.0571584584487876e-8,-2.6675814495385655e-8,0.21402584935294713,0.3000000142663233,0.15790022962397643,0.10040473977727621,0.0928841939083051,-6.226516520803758e-9,7.533733251562374e-9,0.025097150157693614,-7.256802648244498e-9
2013-11-29,false,0.0,2.162098460627553e-9,3.0598130125690054e-9,0.09675947960498393,0.012928411809190049,-1.055234690746598e-8,-3.0571584584487876e-8,-2.6675814495385655e-8,0.21402584935294713,0.3000000142663233,0.15790022962397643,0.10040473977727621,0.0928841939083051,-6.226516520803758e-9,7.533733251562374e-9,0.025097150157693614,-7.256802648244498e-9
2013-12-31,false,0.0,2.162098460627553e-9,3.0598130125690054e-9,0.09675947960498393,0.012928411809190049,-1.055234690746598e-8,-3.0571584584487876e-8,-2.6675814495385655e-8,0.21402584935294713,0.3000000142663233,0.15790022962397643,0.10040473977727621,0.0928841939083051,-6.226516520803758e-9,7.533733251562374e-9,0.025097150157693614,-7.256802648244498e-9
2014-01-31,false,0.0,2.162098460627553e-9,3.0598130125690054e-9,0.09675947960498393,0.012928411809190049,-1.055234690746598e-8,-3.0571584584487876e-8,-2.6675814495385655e-8,0.21402584935294713,0.3000000142663233,0.15790022962397643,0.10040473977727621,0.0928841939083051,-6.226516520803758e-9,7.533733251562374e-9,0.025097150157693614,-7.256802648244498e-9
2014-02-28,false,0.0,2.162098460627553e-9,3.0598130125690054e-9,0.09675947960498393,0.012928411809190049,-1.055234690746598e-8,-3.0571584584487876e-8,-2.6675814495385655e-8,0.21402584935294713,0.3000000142663233,0.15790022962397643,0.10040473977727621,0.0928841939083051,-6.226516520803758e-9,7.533733251562374e-9,0.025097150157693614,-7.256802648244498e-9
2014-03-31,false,0.0,2.162098460627553e-9,3.0598130125690054e-9,0.09675947960498393,0.012928411809190049,-1.055234690746598e-8,-3.0571584584487876e-8,-2.6675814495385655e-8,0.21402584935294713,0.3000000142663233,0.15790022962397643,0.10040473977727621,0.0928841939083051,-6.226516520803758e-9,7.533733251562374e-9,0.025097150157693614,-7.256802648244498e-9
2014-04-30,false,0.0,2.162098460627553e-9,3.0598130125690054e-9,0.09675947960498393,0.012928411809190049,-1.055234690746598e-8,-3.0571584584487876e-8,-2.6675814495385655e-8,0.21402584935294713,0.3000000142663233,0.15790022962397643,0.10040473977727621,0.0928841939083051,-6.226516520803758e-9,7.533733251562374e-9,0.025097150157693614,-7.256802648244498e-9
2014-05-30,false,0.0,2.162098460627553e-9,3.0598130125690054e-9,0.09675947960498393,0.012928411809190049,-1.055234690746598e-8,-3.0571584584487876e-8,-2.6675814495385655e-8,0.21402584935294713,0.3000000142663233,0.15790022962397643,0.10040473977727621,0.0928841939083051,-6.226516520803758e-9,7.533733251562374e-9,0.025097150157693614,-7.256802648244498e-9
2014-06-30,false,0.0,2.162098460627553e-9,3.0598130125690054e-9,0.09675947960498393,0.012928411809190049,-1.055234690746598e-8,-3.0571584584487876e-8,-2.6675814495385655e-8,0.21402584935294713,0.3000000142663233,0.15790022962397643,0.10040473977727621,0.0928841939083051,-6.226516520803758e-9,7.533733251562374e-9,0.025097150157693614,-7.256802648244498e-9
2014-07-31,false,0.0,2.162098460627553e-9,3.0598130125690054e-9,0.09675947960498393,0.012928411809190049,-1.055234690746598e-8,-3.0571584584487876e-8,-2.6675814495385655e-8,0.21402584935294713,0.3000000142663233,0.15790022962397643,0.10040473977727621,0.0928841939083051,-6.226516520803758e-9,7.533733251562374e-9,0.025097150157693614,-7.256802648244498e-9
2014-08-29,false,0.0,2.162098460627553e-9,3.0598130125690054e-9,0.09675947960498393,0.012928411809190049,-1.055234690746598e-8,-3.0571584584487876e-8,-2.6675814495385655e-8,0.21402584935294713,0.3000000142663233,0.15790022962397643,0.10040473977727621,0.0928841939083051,-6.226516520803758e-9,7.533733251562374e-9,0.025097150157693614,-7.256802648244498e-9
2014-09-30,false,0.0,2.162098460627553e-9,3.0598130125690054e-9,0.09675947960498393,0.012928411809190049,-1.055234690746598e-8,-3.0571584584487876e-8,-2.6675814495385655e-8,0.21402584935294713,0.3000000142663233,0.15790022962397643,0.10040473977727621,0.0928841939083051,-6.226516520803758e-9,7.533733251562374e-9,0.025097150157693614,-7.256802648244498e-9
2014-10-31,false,0.0,2.162098460627553e-9,3.0598130125690054e-9,0.09675947960498393,0.012928411809190049,-1.055234690746598e-8,-3.0571584584487876e-8,-2.6675814495385655e-8,0.21402584935294713,0.3000000142663233,0.15790022962397643,0.10040473977727621,0.0928841939083051,-6.226516520803758e-9,7.533733251562374e-9,0.025097150157693614,-7.256802648244498e-9
2014-11-28,false,0.0,2.162098460627553e-9,3.0598130125690054e-9,0.09675947960498393,0.012928411809190049,-1.055234690746598e-8,-3.0571584584487876e-8,-2.6675814495385655e-8,0.21402584935294713,0.3000000142663233,0.15790022962397643,0.10040473977727621,0.0928841939083051,-6.226516520803758e-9,7.533733251562374e-9,0.025097150157693614,-7.256802648244498e-9
2014-12-31,false,0.0,2.162098460627553e-9,3.0598130125690054e-9,0.09675947960498393,0.012928411809190049,-1.055234690746598e-8,-3.0571584584487876e-8,-2.6675814495385655e-8,0.21402584935294713,0.3000000142663233,0.15790022962397643,0.10040473977727621,0.0928841939083051,-6.226516520803758e-9,7.533733251562374e-9,0.025097150157693614,-7.256802648244498e-9
2015-01-30,false,0.0,2.162098460627553e-9,3.0598130125690054e-9,0.09675947960498393,0.012928411809190049,-1.055234690746598e-8,-3.0571584584487876e-8,-2.6675814495385655e-8,0.21402584935294713,0.3000000142663233,0.15790022962397643,0.10040473977727621,0.0928841939083051,-6.226516520803758e-9,7.533733251562374e-9,0.025097150157693614,-7.256802648244498e-9
2015-02-27,false,0.0,2.162098460627553e-9,3.0598130125690054e-9,0.09675947960498393,0.012928411809190049,-1.055234690746598e-8,-3.0571584584487876e-8,-2.6675814495385655e-8,0.21402584935294713,0.3000000142663233,0.15790022962397643,0.10040473977727621,0.0928841939083051,-6.226516520803758e-9,7.533733251562374e-9,0.025097150157693614,-7.256802648244498e-9
2015-03-31,false,0.0,2.162098460627553e-9,3.0598130125690054e-9,0.09675947960498393,0.012928411809190049,-1.055234690746598e-8,-3.0571584584487876e-8,-2.6675814495385655e-8,0.21402584935294713,0.3000000142663233,0.15790022962397643,0.10040473977727621,0.0928841939083051,-6.226516520803758e-9,7.533733251562374e-9,0.025097150157693614,-7.256802648244498e-9
2015-04-30,false,0.0,2.162098460627553e-9,3.0598130125690054e-9,0.09675947960498393,0.012928411809190049,-1.055234690746598e-8,-3.0571584584487876e-8,-2.6675814495385655e-8,0.21402584935294713,0.3000000142663233,0.15790022962397643,0.10040473977727621,0.0928841939083051,-6.226516520803758e-9,7.533733251562374e-9,0.025097150157693614,-7.256802648244498e-9
2015-05-29,false,0.0,2.162098460627553e-9,3.0598130125690054e-9,0.09675947960498393,0.012928411809190049,-1.055234690746598e-8,-3.0571584584487876e-8,-2.6675814495385655e-8,0.21402584935294713,0.3000000142663233,0.15790022962397643,0.10040473977727621,0.0928841939083051,-6.226516520803758e-9,7.533733251562374e-9,0.025097150157693614,-7.256802648244498e-9
2015-06-30,false,0.0,2.162098460627553e-9,3.0598130125690054e-9,0.09675947960498393,0.012928411809190049,-1.055234690746598e-8,-3.0571584584487876e-8,-2.6675814495385655e-8,0.21402584935294713,0.3000000142663233,0.15790022962397643,0.10040473977727621,0.0928841939083051,-6.226516520803758e-9,7.533733251562374e-9,0.025097150157693614,-7.256802648244498e-9
2015-07-31,false,0.0,2.162098460627553e-9,3.0598130125690054e-9,0.09675947960498393,0.012928411809190049,-1.055234690746598e-8,-3.0571584584487876e-8,-2.6675814495385655e-8,0.21402584935294713,0.3000000142663233,0.15790022962397643,0.10040473977727621,0.0928841939083051,-6.226516520803758e-9,7.533733251562374e-9,0.025097150157693614,-7.256802648244498e-9
2015-08-31,false,0.0,2.162098460627553e-9,3.0598130125690054e-9,0.09675947960498393,0.012928411809190049,-1.055234690746598e-8,-3.0571584584487876e-8,-2.6675814495385655e-8,0.21402584935294713,0.3000000142663233,0.15790022962397643,0.10040473977727621,0.0928841939083051,-6.226516520803758e-9,7.533733251562374e-9,0.025097150157693614,-7.256802648244498e-9
2015-09-30,false,0.0,2.162098460627553e-9,3.0598130125690054e-9,0.09675947960498393,0.012928411809190049,-1.055234690746598e-8,-3.0571584584487876e-8,-2.6675814495385655e-8,0.21402584935294713,0.3000000142663233,0.15790022962397643,0.10040473977727621,0.0928841939083051,-6.226516520803758e-9,7.533733251562374e-9,0.025097150157693614,-7.256802648244498e-9
2015-10-30,false,0.0,2.162098460627553e-9,3.0598130125690054e-9,0.09675947960498393,0.012928411809190049,-1.055234690746598e-8,-3.0571584584487876e-8,-2.6675814495385655e-8,0.21402584935294713,0.3000000142663233,0.15790022962397643,0.10040473977727621,0.0928841939083051,-6.226516520803758e-9,7.533733251562374e-9,0.025097150157693614,-7.256802648244498e-9
2015-11-30,false,0.0,2.162098460627553e-9,3.0598130125690054e-9,0.09675947960498393,0.012928411809190049,-1.055234690746598e-8,-3.0571584584487876e-8,-2.6675814495385655e-8,0.21402584935294713,0.3000000142663233,0.15790022962397643,0.10040473977727621,0.0928841939083051,-6.226516520803758e-9,7.533733251562374e-9,0.025097150157693614,-7.256802648244498e-9
2015-12-31,false,0.0,2.162098460627553e-9,3.0598130125690054e-9,0.09675947960498393,0.012928411809190049,-1.055234690746598e-8,-3.0571584584487876e-8,-2.6675814495385655e-8,0.21402584935294713,0.3000000142663233,0.15790022962397643,0.10040473977727621,0.0928841939083051,-6.226516520803758e-9,7.533733251562374e-9,0.025097150157693614,-7.256802648244498e-9
2016-01-29,false,0.0,2.162098460627553e-9,3.0598130125690054e-9,0.09675947960498393,0.012928411809190049,-1.055234690746598e-8,-3.0571584584487876e-8,-2.6675814495385655e-8,0.21402584935294713,0.3000000142663233,0.15790022962397643,0.10040473977727621,0.0928841939083051,-6.226516520803758e-9,7.533733251562374e-9,0.025097150157693614,-7.256802648244498e-9
2016-02-29,false,0.0,2.162098460627553e-9,3.0598130125690054e-9,0.09675947960498393,0.012928411809190049,-1.055234690746598e-8,-3.0571584584487876e-8,-2.6675814495385655e-8,0.21402584935294713,0.3000000142663233,0.15790022962397643,0.10040473977727621,0.0928841939083051,-6.226516520803758e-9,7.533733251562374e-9,0.025097150157693614,-7.256802648244498e-9
2016-03-31,false,0.0,2.162098460627553e-9,3.0598130125690054e-9,0.09675947960498393,0.012928411809190049,-1.055234690746598e-8,-3.0571584584487876e-8,-2.6675814495385655e-8,0.21402584935294713,0.3000000142663233,0.15790022962397643,0.10040473977727621,0.0928841939083051,-6.226516520803758e-9,7.533733251562374e-9,0.025097150157693614,-7.256802648244498e-9
2016-04-29,false,0.0,2.162098460627553e-9,3.0598130125690054e-9,0.09675947960498393,0.012928411809190049,-1.055234690746598e-8,-3.0571584584487876e-8,-2.6675814495385655e-8,0.21402584935294713,0.3000000142663233,0.15790022962397643,0.10040473977727621,0.0928841939083051,-6.226516520803758e-9,7.533733251562374e-9,0.025097150157693614,-7.256802648244498e-9
2016-05-31,false,0.0,2.162098460627553e-9,3.0598130125690054e-9,0.09675947960498393,0.012928411809190049,-1.055234690746598e-8,-3.0571584584487876e-8,-2.6675814495385655e-8,0.21402584935294713,0.3000000142663233,0.15790022962397643,0.10040473977727621,0.0928841939083051,-6.226516520803758e-9,7.533733251562374e-9,0.025097150157693614,-7.256802648244498e-9
2016-06-30,false,0.0,2.162098460627553e-9,3.0598130125690054e-9,0.09675947960498393,0.012928411809190049,-1.055234690746598e-8,-3.0571584584487876e-8,-2.6675814495385655e-8,0.21402584935294713,0.3000000142663233,0.15790022962397643,0.10040473977727621,0.0928841939083051,-6.226516520803758e-9,7.533733251562374e-9,0.025097150157693614,-7.256802648244498e-9
2016-07-29,false,0.0,2.162098460627553e-9,3.0598130125690054e-9,0.09675947960498393,0.012928411809190049,-1.055234690746598e-8,-3.0571584584487876e-8,-2.6675814495385655e-8,0.21402584935294713,0.3000000142663233,0.15790022962397643,0.10040473977727621,0.0928841939083051,-6.226516520803758e-9,7.533733251562374e-9,0.025097150157693614,-7.256802648244498e-9
2016-08-31,false,0.0,2.162098460627553e-9,3.0598130125690054e-9,0.09675947960498393,0.012928411809190049,-1.055234690746598e-8,-3.0571584584487876e-8,-2.6675814495385655e-8,0.21402584935294713,0.3000000142663233,0.15790022962397643,0.10040473977727621,0.0928841939083051,-6.226516520803758e-9,7.533733251562374e-9,0.025097150157693614,-7.256802648244498e-9
2016-09-30,false,0.0,2.162098460627553e-9,3.0598130125690054e-9,0.09675947960498393,0.012928411809190049,-1.055234690746598e-8,-3.0571584584487876e-8,-2.6675814495385655e-8,0.21402584935294713,0.3000000142663233,0.15790022962397643,0.10040473977727621,0.0928841939083051,-6.226516520803758e-9,7.533733251562374e-9,0.025097150157693614,-7.256802648244498e-9
2016-10-31,false,0.0,2.162098460627553e-9,3.0598130125690054e-9,0.09675947960498393,0.012928411809190049,-1.055234690746598e-8,-3.0571584584487876e-8,-2.6675814495385655e-8,0.21402584935294713,0.3000000142663233,0.15790022962397643,0.10040473977727621,0.0928841939083051,-6.226516520803758e-9,7.533733251562374e-9,0.025097150157693614,-7.256802648244498e-9
2016-11-30,false,0.0,2.162098460627553e-9,3.0598130125690054e-9,0.09675947960498393,0.012928411809190049,-1.055234690746598e-8,-3.0571584584487876e-8,-2.6675814495385655e-8,0.21402584935294713,0.3000000142663233,0.15790022962397643,0.10040473977727621,0.0928841939083051,-6.226516520803758e-9,7.533733251562374e-9,0.025097150157693614,-7.256802648244498e-9
2016-12-30,false,0.0,2.162098460627553e-9,3.0598130125690054e-9,0.09675947960498393,0.012928411809190049,-1.055234690746598e-8,-3.0571584584487876e-8,-2.6675814495385655e-8,0.21402584935294713,0.3000000142663233,0.15790022962397643,0.10040473977727621,0.0928841939083051,-6.226516520803758e-9,7.533733251562374e-9,0.025097150157693614,-7.256802648244498e-9
2017-01-31,false,0.0,2.162098460627553e-9,3.0598130125690054e-9,0.09675947960498393,0.012928411809190049,-1.055234690746598e-8,-3.0571584584487876e-8,-2.6675814495385655e-8,0.21402584935294713,0.3000000142663233,0.15790022962397643,0.10040473977727621,0.0928841939083051,-6.226516520803758e-9,7.533733251562374e-9,0.025097150157693614,-7.256802648244498e-9
2017-02-28,false,0.0,2.162098460627553e-9,3.0598130125690054e-9,0.09675947960498393,0.012928411809190049,-1.055234690746598e-8,-3.0571584584487876e-8,-2.6675814495385655e-8,0.21402584935294713,0.3000000142663233,0.15790022962397643,0.10040473977727621,0.0928841939083051,-6.226516520803758e-9,7.533733251562374e-9,0.025097150157693614,-7.256802648244498e-9
2017-03-31,false,0.0,2.162098460627553e-9,3.0598130125690054e-9,0.09675947960498393,0.012928411809190049,-1.055234690746598e-8,-3.0571584584487876e-8,-2.6675814495385655e-8,0.21402584935294713,0.3000000142663233,0.15790022962397643,0.10040473977727621,0.0928841939083051,-6.226516520803758e-9,7.533733251562374e-9,0.025097150157693614,-7.256802648244498e-9
2017-04-28,false,0.0,2.162098460627553e-9,3.0598130125690054e-9,0.09675947960498393,0.012928411809190049,-1.055234690746598e-8,-3.0571584584487876e-8,-2.6675814495385655e-8,0.21402584935294713,0.3000000142663233,0.15790022962397643,0.10040473977727621,0.0928841939083051,-6.226516520803758e-9,7.533733251562374e-9,0.025097150157693614,-7.256802648244498e-9
2017-05-31,false,0.0,2.162098460627553e-9,3.0598130125690054e-9,0.09675947960498393,0.012928411809190049,-1.055234690746598e-8,-3.0571584584487876e-8,-2.6675814495385655e-8,0.21402584935294713,0.3000000142663233,0.15790022962397643,0.10040473977727621,0.0928841939083051,-6.226516520803758e-9,7.533733251562374e-9,0.025097150157693614,-7.256802648244498e-9
2017-06-30,false,0.0,2.162098460627553e-9,3.0598130125690054e-9,0.09675947960498393,0.012928411809190049,-1.055234690746598e-8,-3.0571584584487876e-8,-2.6675814495385655e-8,0.21402584935294713,0.3000000142663233,0.15790022962397643,0.10040473977727621,0.0928841939083051,-6.226516520803758e-9,7.533733251562374e-9,0.025097150157693614,-7.256802648244498e-9
2017-07-31,false,0.0,2.162098460627553e-9,3.0598130125690054e-9,0.09675947960498393,0.012928411809190049,-1.055234690746598e-8,-3.0571584584487876e-8,-2.6675814495385655e-8,0.21402584935294713,0.3000000142663233,0.15790022962397643,0.10040473977727621,0.0928841939083051,-6.226516520803758e-9,7.533733251562374e-9,0.025097150157693614,-7.256802648244498e-9
2017-08-31,false,0.0,2.162098460627553e-9,3.0598130125690054e-9,0.09675947960498393,0.012928411809190049,-1.055234690746598e-8,-3.0571584584487876e-8,-2.6675814495385655e-8,0.21402584935294713,0.3000000142663233,0.15790022962397643,0.10040473977727621,0.0928841939083051,-6.226516520803758e-9,7.533733251562374e-9,0.025097150157693614,-7.256802648244498e-9
2017-09-29,false,0.0,2.162098460627553e-9,3.0598130125690054e-9,0.09675947960498393,0.012928411809190049,-1.055234690746598e-8,-3.0571584584487876e-8,-2.6675814495385655e-8,0.21402584935294713,0.3000000142663233,0.15790022962397643,0.10040473977727621,0.0928841939083051,-6.226516520803758e-9,7.533733251562374e-9,0.025097150157693614,-7.256802648244498e-9
2017-10-31,false,0.0,2.162098460627553e-9,3.0598130125690054e-9,0.09675947960498393,0.012928411809190049,-1.055234690746598e-8,-3.0571584584487876e-8,-2.6675814495385655e-8,0.21402584935294713,0.3000000142663233,0.15790022962397643,0.10040473977727621,0.0928841939083051,-6.226516520803758e-9,7.533733251562374e-9,0.025097150157693614,-7.256802648244498e-9
2017-11-30,false,0.0,2.162098460627553e-9,3.0598130125690054e-9,0.09675947960498393,0.012928411809190049,-1.055234690746598e-8,-3.0571584584487876e-8,-2.6675814495385655e-8,0.21402584935294713,0.3000000142663233,0.15790022962397643,0.10040473977727621,0.0928841939083051,-6.226516520803758e-9,7.533733251562374e-9,0.025097150157693614,-7.256802648244498e-9
2017-12-29,false,0.0,2.162098460627553e-9,3.0598130125690054e-9,0.09675947960498393,0.012928411809190049,-1.055234690746598e-8,-3.0571584584487876e-8,-2.6675814495385655e-8,0.21402584935294713,0.3000000142663233,0.15790022962397643,0.10040473977727621,0.0928841939083051,-6.226516520803758e-9,7.533733251562374e-9,0.025097150157693614,-7.256802648244498e-9
2018-01-31,false,0.0,2.162098460627553e-9,3.0598130125690054e-9,0.09675947960498393,0.012928411809190049,-1.055234690746598e-8,-3.0571584584487876e-8,-2.6675814495385655e-8,0.21402584935294713,0.3000000142663233,0.15790022962397643,0.10040473977727621,0.0928841939083051,-6.226516520803758e-9,7.533733251562374e-9,0.025097150157693614,-7.256802648244498e-9
2018-02-28,false,0.0,2.162098460627553e-9,3.0598130125690054e-9,0.09675947960498393,0.012928411809190049,-1.055234690746598e-8,-3.0571584584487876e-8,-2.6675814495385655e-8,0.21402584935294713,0.3000000142663233,0.15790022962397643,0.10040473977727621,0.0928841939083051,-6.226516520803758e-9,7.533733251562374e-9,0.025097150157693614,-7.256802648244498e-9
2018-03-29,false,0.0,2.162098460627553e-9,3.0598130125690054e-9,0.09675947960498393,0.012928411809190049,-1.055234690746598e-8,-3.0571584584487876e-8,-2.6675814495385655e-8,0.21402584935294713,0.3000000142663233,0.15790022962397643,0.10040473977727621,0.0928841939083051,-6.226516520803758e-9,7.533733251562374e-9,0.025097150157693614,-7.256802648244498e-9
2018-04-30,false,0.0,2.162098460627553e-9,3.0598130125690054e-9,0.09675947960498393,0.012928411809190049,-1.055234690746598e-8,-3.0571584584487876e-8,-2.6675814495385655e-8,0.21402584935294713,0.3000000142663233,0.15790022962397643,0.10040473977727621,0.0928841939083051,-6.226516520803758e-9,7.533733251562374e-9,0.025097150157693614,-7.256802648244498e-9
2018-05-31,false,0.0,2.162098460627553e-9,3.0598130125690054e-9,0.09675947960498393,0.012928411809190049,-1.055234690746598e-8,-3.0571584584487876e-8,-2.6675814495385655e-8,0.21402584935294713,0.3000000142663233,0.15790022962397643,0.10040473977727621,0.0928841939083051,-6.226516520803758e-9,7.533733251562374e-9,0.025097150157693614,-7.256802648244498e-9
2018-06-29,false,0.0,2.162098460627553e-9,3.0598130125690054e-9,0.09675947960498393,0.012928411809190049,-1.055234690746598e-8,-3.0571584584487876e-8,-2.6675814495385655e-8,0.21402584935294713,0.3000000142663233,0.15790022962397643,0.10040473977727621,0.0928841939083051,-6.226516520803758e-9,7.533733251562374e-9,0.025097150157693614,-7.256802648244498e-9
2018-07-31,false,0.0,2.162098460627553e-9,3.0598130125690054e-9,0.09675947960498393,0.012928411809190049,-1.055234690746598e-8,-3.0571584584487876e-8,-2.6675814495385655e-8,0.21402584935294713,0.3000000142663233,0.15790022962397643,0.10040473977727621,0.0928841939083051,-6.226516520803758e-9,7.533733251562374e-9,0.025097150157693614,-7.256802648244498e-9
2018-08-31,false,0.0,2.162098460627553e-9,3.0598130125690054e-9,0.09675947960498393,0.012928411809190049,-1.055234690746598e-8,-3.0571584584487876e-8,-2.6675814495385655e-8,0.21402584935294713,0.3000000142663233,0.15790022962397643,0.10040473977727621,0.0928841939083051,-6.226516520803758e-9,7.533733251562374e-9,0.025097150157693614,-7.256802648244498e-9
2018-09-28,false,0.0,2.162098460627553e-9,3.0598130125690054e-9,0.09675947960498393,0.012928411809190049,-1.055234690746598e-8,-3.0571584584487876e-8,-2.6675814495385655e-8,0.21402584935294713,0.3000000142663233,0.15790022962397643,0.10040473977727621,0.0928841939083051,-6.226516520803758e-9,7.533733251562374e-9,0.025097150157693614,-7.256802648244498e-9
2018-10-31,false,0.0,2.162098460627553e-9,3.0598130125690054e-9,0.09675947960498393,0.012928411809190049,-1.055234690746598e-8,-3.0571584584487876e-8,-2.6675814495385655e-8,0.21402584935294713,0.3000000142663233,0.15790022962397643,0.10040473977727621,0.0928841939083051,-6.226516520803758e-9,7.533733251562374e-9,0.025097150157693614,-7.256802648244498e-9
2018-11-30,false,0.0,2.162098460627553e-9,3.0598130125690054e-9,0.09675947960498393,0.012928411809190049,-1.055234690746598e-8,-3.0571584584487876e-8,-2.6675814495385655e-8,0.21402584935294713,0.3000000142663233,0.15790022962397643,0.10040473977727621,0.0928841939083051,-6.226516520803758e-9,7.533733251562374e-9,0.025097150157693614,-7.256802648244498e-9
2018-12-31,false,0.0,2.162098460627553e-9,3.0598130125690054e-9,0.09675947960498393,0.012928411809190049,-1.055234690746598e-8,-3.0571584584487876e-8,-2.6675814495385655e-8,0.21402584935294713,0.3000000142663233,0.15790022962397643,0.10040473977727621,0.0928841939083051,-6.226516520803758e-9,7.533733251562374e-9,0.025097150157693614,-7.256802648244498e-9
2019-01-31,false,0.0,2.162098460627553e-9,3.0598130125690054e-9,0.09675947960498393,0.012928411809190049,-1.055234690746598e-8,-3.0571584584487876e-8,-2.6675814495385655e-8,0.21402584935294713,0.3000000142663233,0.15790022962397643,0.10040473977727621,0.0928841939083051,-6.226516520803758e-9,7.533733251562374e-9,0.025097150157693614,-7.256802648244498e-9
2019-02-28,false,0.0,2.162098460627553e-9,3.0598130125690054e-9,0.09675947960498393,0.012928411809190049,-1.055234690746598e-8,-3.0571584584487876e-8,-2.6675814495385655e-8,0.21402584935294713,0.3000000142663233,0.15790022962397643,0.10040473977727621,0.0928841939083051,-6.226516520803758e-9,7.533733251562374e-9,0.025097150157693614,-7.256802648244498e-9
2019-03-29,false,0.0,2.162098460627553e-9,3.0598130125690054e-9,0.09675947960498393,0.012928411809190049,-1.055234690746598e-8,-3.0571584584487876e-8,-2.6675814495385655e-8,0.21402584935294713,0.3000000142663233,0.15790022962397643,0.10040473977727621,0.0928841939083051,-6.226516520803758e-9,7.533733251562374e-9,0.025097150157693614,-7.256802648244498e-9
2019-04-30,false,0.0,2.162098460627553e-9,3.0598130125690054e-9,0.09675947960498393,0.012928411809190049,-1.055234690746598e-8,-3.0571584584487876e-8,-2.6675814495385655e-8,0.21402584935294713,0.3000000142663233,0.15790022962397643,0.10040473977727621,0.0928841939083051,-6.226516520803758e-9,7.533733251562374e-9,0.025097150157693614,-7.256802648244498e-9
2019-05-31,false,0.0,2.162098460627553e-9,3.0598130125690054e-9,0.09675947960498393,0.012928411809190049,-1.055234690746598e-8,-3.0571584584487876e-8,-2.6675814495385655e-8,0.21402584935294713,0.3000000142663233,0.15790022962397643,0.10040473977727621,0.0928841939083051,-6.226516520803758e-9,7.533733251562374e-9,0.025097150157693614,-7.256802648244498e-9
2019-06-28,false,0.0,2.162098460627553e-9,3.0598130125690054e-9,0.09675947960498393,0.012928411809190049,-1.055234690746598e-8,-3.0571584584487876e-8,-2.6675814495385655e-8,0.21402584935294713,0.3000000142663233,0.15790022962397643,0.10040473977727621,0.0928841939083051,-6.226516520803758e-9,7.533733251562374e-9,0.025097150157693614,-7.256802648244498e-9
2019-07-31,false,0.0,2.162098460627553e-9,3.0598130125690054e-9,0.09675947960498393,0.012928411809190049,-1.055234690746598e-8,-3.0571584584487876e-8,-2.6675814495385655e-8,0.21402584935294713,0.3000000142663233,0.15790022962397643,0.10040473977727621,0.0928841939083051,-6.226516520803758e-9,7.533733251562374e-9,0.025097150157693614,-7.256802648244498e-9
2019-08-30,false,0.0,2.162098460627553e-9,3.0598130125690054e-9,0.09675947960498393,0.012928411809190049,-1.055234690746598e-8,-3.0571584584487876e-8,-2.6675814495385655e-8,0.21402584935294713,0.3000000142663233,0.15790022962397643,0.10040473977727621,0.0928841939083051,-6.226516520803758e-9,7.533733251562374e-9,0.025097150157693614,-7.256802648244498e-9
2019-09-30,false,0.0,2.162098460627553e-9,3.0598130125690054e-9,0.09675947960498393,0.012928411809190049,-1.055234690746598e-8,-3.0571584584487876e-8,-2.6675814495385655e-8,0.21402584935294713,0.3000000142663233,0.15790022962397643,0.10040473977727621,0.0928841939083051,-6.226516520803758e-9,7.533733251562374e-9,0.025097150157693614,-7.256802648244498e-9
2019-10-31,false,0.0,2.162098460627553e-9,3.0598130125690054e-9,0.09675947960498393,0.012928411809190049,-1.055234690746598e-8,-3.0571584584487876e-8,-2.6675814495385655e-8,0.21402584935294713,0.3000000142663233,0.15790022962397643,0.10040473977727621,0.0928841939083051,-6.226516520803758e-9,7.533733251562374e-9,0.025097150157693614,-7.256802648244498e-9
2019-11-29,false,0.0,2.162098460627553e-9,3.0598130125690054e-9,0.09675947960498393,0.012928411809190049,-1.055234690746598e-8,-3.0571584584487876e-8,-2.6675814495385655e-8,0.21402584935294713,0.3000000142663233,0.15790022962397643,0.10040473977727621,0.0928841939083051,-6.226516520803758e-9,7.533733251562374e-9,0.025097150157693614,-7.256802648244498e-9
2019-12-31,false,0.0,2.162098460627553e-9,3.0598130125690054e-9,0.09675947960498393,0.012928411809190049,-1.055234690746598e-8,-3.0571584584487876e-8,-2.6675814495385655e-8,0.21402584935294713,0.3000000142663233,0.15790022962397643,0.10040473977727621,0.0928841939083051,-6.226516520803758e-9,7.533733251562374e-9,0.025097150157693614,-7.256802648244498e-9
2020-01-31,false,0.0,2.162098460627553e-9,3.0598130125690054e-9,0.09675947960498393,0.012928411809190049,-1.055234690746598e-8,-3.0571584584487876e-8,-2.6675814495385655e-8,0.21402584935294713,0.3000000142663233,0.15790022962397643,0.10040473977727621,0.0928841939083051,-6.226516520803758e-9,7.533733251562374e-9,0.025097150157693614,-7.256802648244498e-9
2020-02-28,false,0.0,2.162098460627553e-9,3.0598130125690054e-9,0.09675947960498393,0.012928411809190049,-1.055234690746598e-8,-3.0571584584487876e-8,-2.6675814495385655e-8,0.21402584935294713,0.3000000142663233,0.15790022962397643,0.10040473977727621,0.0928841939083051,-6.226516520803758e-9,7.533733251562374e-9,0.025097150157693614,-7.256802648244498e-9
2020-03-31,false,0.0,2.162098460627553e-9,3.0598130125690054e-9,0.09675947960498393,0.012928411809190049,-1.055234690746598e-8,-3.0571584584487876e-8,-2.6675814495385655e-8,0.21402584935294713,0.3000000142663233,0.15790022962397643,0.10040473977727621,0.0928841939083051,-6.226516520803758e-9,7.533733251562374e-9,0.025097150157693614,-7.256802648244498e-9
2020-04-30,false,0.0,2.162098460627553e-9,3.0598130125690054e-9,0.09675947960498393,0.012928411809190049,-1.055234690746598e-8,-3.0571584584487876e-8,-2.6675814495385655e-8,0.21402584935294713,0.3000000142663233,0.15790022962397643,0.10040473977727621,0.0928841939083051,-6.226516520803758e-9,7.533733251562374e-9,0.025097150157693614,-7.256802648244498e-9
2020-05-29,false,0.0,2.162098460627553e-9,3.0598130125690054e-9,0.09675947960498393,0.012928411809190049,-1.055234690746598e-8,-3.0571584584487876e-8,-2.6675814495385655e-8,0.21402584935294713,0.3000000142663233,0.15790022962397643,0.10040473977727621,0.0928841939083051,-6.226516520803758e-9,7.533733251562374e-9,0.025097150157693614,-7.256802648244498e-9
2020-06-30,false,0.0,2.162098460627553e-9,3.0598130125690054e-9,0.09675947960498393,0.012928411809190049,-1.055234690746598e-8,-3.0571584584487876e-8,-2.6675814495385655e-8,0.21402584935294713,0.3000000142663233,0.15790022962397643,0.10040473977727621,0.0928841939083051,-6.226516520803758e-9,7.533733251562374e-9,0.025097150157693614,-7.256802648244498e-9
2020-07-31,false,0.0,2.162098460627553e-9,3.0598130125690054e-9,0.09675947960498393,0.012928411809190049,-1.055234690746598e-8,-3.0571584584487876e-8,-2.6675814495385655e-8,0.21402584935294713,0.3000000142663233,0.15790022962397643,0.10040473977727621,0.0928841939083051,-6.226516520803758e-9,7.533733251562374e-9,0.025097150157693614,-7.256802648244498e-9
2020-08-31,false,0.0,2.162098460627553e-9,3.0598130125690054e-9,0.09675947960498393,0.012928411809190049,-1.055234690746598e-8,-3.0571584584487876e-8,-2.6675814495385655e-8,0.21402584935294713,0.3000000142663233,0.15790022962397643,0.10040473977727621,0.0928841939083051,-6.226516520803758e-9,7.533733251562374e-9,0.025097150157693614,-7.256802648244498e-9
2020-09-30,false,0.0,2.162098460627553e-9,3.0598130125690054e-9,0.09675947960498393,0.012928411809190049,-1.055234690746598e-8,-3.0571584584487876e-8,-2.6675814495385655e-8,0.21402584935294713,0.3000000142663233,0.15790022962397643,0.10040473977727621,0.0928841939083051,-6.226516520803758e-9,7.533733251562374e-9,0.025097150157693614,-7.256802648244498e-9
2020-10-30,false,0.0,2.162098460627553e-9,3.0598130125690054e-9,0.09675947960498393,0.012928411809190049,-1.055234690746598e-8,-3.0571584584487876e-8,-2.6675814495385655e-8,0.21402584935294713,0.3000000142663233,0.15790022962397643,0.10040473977727621,0.0928841939083051,-6.226516520803758e-9,7.533733251562374e-9,0.025097150157693614,-7.256802648244498e-9
2020-11-30,false,0.0,2.162098460627553e-9,3.0598130125690054e-9,0.09675947960498393,0.012928411809190049,-1.055234690746598e-8,-3.0571584584487876e-8,-2.6675814495385655e-8,0.21402584935294713,0.3000000142663233,0.15790022962397643,0.10040473977727621,0.0928841939083051,-6.226516520803758e-9,7.533733251562374e-9,0.025097150157693614,-7.256802648244498e-9
2020-12-31,false,0.0,2.162098460627553e-9,3.0598130125690054e-9,0.09675947960498393,0.012928411809190049,-1.055234690746598e-8,-3.0571584584487876e-8,-2.6675814495385655e-8,0.21402584935294713,0.3000000142663233,0.15790022962397643,0.10040473977727621,0.0928841939083051,-6.226516520803758e-9,7.533733251562374e-9,0.025097150157693614,-7.256802648244498e-9
2021-01-29,false,0.0,2.162098460627553e-9,3.0598130125690054e-9,0.09675947960498393,0.012928411809190049,-1.055234690746598e-8,-3.0571584584487876e-8,-2.6675814495385655e-8,0.21402584935294713,0.3000000142663233,0.15790022962397643,0.10040473977727621,0.0928841939083051,-6.226516520803758e-9,7.533733251562374e-9,0.025097150157693614,-7.256802648244498e-9
2021-02-26,false,0.0,2.162098460627553e-9,3.0598130125690054e-9,0.09675947960498393,0.012928411809190049,-1.055234690746598e-8,-3.0571584584487876e-8,-2.6675814495385655e-8,0.21402584935294713,0.3000000142663233,0.15790022962397643,0.10040473977727621,0.0928841939083051,-6.226516520803758e-9,7.533733251562374e-9,0.025097150157693614,-7.256802648244498e-9
2021-03-31,false,0.0,2.162098460627553e-9,3.0598130125690054e-9,0.09675947960498393,0.012928411809190049,-1.055234690746598e-8,-3.0571584584487876e-8,-2.6675814495385655e-8,0.21402584935294713,0.3000000142663233,0.15790022962397643,0.10040473977727621,0.0928841939083051,-6.226516520803758e-9,7.533733251562374e-9,0.025097150157693614,-7.256802648244498e-9
2021-04-30,false,0.0,2.162098460627553e-9,3.0598130125690054e-9,0.09675947960498393,0.012928411809190049,-1.055234690746598e-8,-3.0571584584487876e-8,-2.6675814495385655e-8,0.21402584935294713,0.3000000142663233,0.15790022962397643,0.10040473977727621,0.0928841939083051,-6.226516520803758e-9,7.533733251562374e-9,0.025097150157693614,-7.256802648244498e-9
2021-05-28,false,0.0,2.162098460627553e-9,3.0598130125690054e-9,0.09675947960498393,0.012928411809190049,-1.055234690746598e-8,-3.0571584584487876e-8,-2.6675814495385655e-8,0.21402584935294713,0.3000000142663233,0.15790022962397643,0.10040473977727621,0.0928841939083051,-6.226516520803758e-9,7.533733251562374e-9,0.025097150157693614,-7.256802648244498e-9
2021-06-30,false,0.0,2.162098460627553e-9,3.0598130125690054e-9,0.09675947960498393,0.012928411809190049,-1.055234690746598e-8,-3.0571584584487876e-8,-2.6675814495385655e-8,0.21402584935294713,0.3000000142663233,0.15790022962397643,0.10040473977727621,0.0928841939083051,-6.226516520803758e-9,7.533733251562374e-9,0.025097150157693614,-7.256802648244498e-9
2021-07-30,false,0.0,2.162098460627553e-9,3.0598130125690054e-9,0.09675947960498393,0.012928411809190049,-1.055234690746598e-8,-3.0571584584487876e-8,-2.6675814495385655e-8,0.21402584935294713,0.3000000142663233,0.15790022962397643,0.10040473977727621,0.0928841939083051,-6.226516520803758e-9,7.533733251562374e-9,0.025097150157693614,-7.256802648244498e-9
2021-08-31,false,0.0,2.162098460627553e-9,3.0598130125690054e-9,0.09675947960498393,0.012928411809190049,-1.055234690746598e-8,-3.0571584584487876e-8,-2.6675814495385655e-8,0.21402584935294713,0.3000000142663233,0.15790022962397643,0.10040473977727621,0.0928841939083051,-6.226516520803758e-9,7.533733251562374e-9,0.025097150157693614,-7.256802648244498e-9
2021-09-30,false,0.0,2.162098460627553e-9,3.0598130125690054e-9,0.09675947960498393,0.012928411809190049,-1.055234690746598e-8,-3.0571584584487876e-8,-2.6675814495385655e-8,0.21402584935294713,0.3000000142663233,0.15790022962397643,0.10040473977727621,0.0928841939083051,-6.226516520803758e-9,7.533733251562374e-9,0.025097150157693614,-7.256802648244498e-9
2021-10-29,false,0.0,2.162098460627553e-9,3.0598130125690054e-9,0.09675947960498393,0.012928411809190049,-1.055234690746598e-8,-3.0571584584487876e-8,-2.6675814495385655e-8,0.21402584935294713,0.3000000142663233,0.15790022962397643,0.10040473977727621,0.0928841939083051,-6.226516520803758e-9,7.533733251562374e-9,0.025097150157693614,-7.256802648244498e-9
2021-11-30,false,0.0,2.162098460627553e-9,3.0598130125690054e-9,0.09675947960498393,0.012928411809190049,-1.055234690746598e-8,-3.0571584584487876e-8,-2.6675814495385655e-8,0.21402584935294713,0.3000000142663233,0.15790022962397643,0.10040473977727621,0.0928841939083051,-6.226516520803758e-9,7.533733251562374e-9,0.025097150157693614,-7.256802648244498e-9
2021-12-31,false,0.0,2.162098460627553e-9,3.0598130125690054e-9,0.09675947960498393,0.012928411809190049,-1.055234690746598e-8,-3.0571584584487876e-8,-2.6675814495385655e-8,0.21402584935294713,0.3000000142663233,0.15790022962397643,0.10040473977727621,0.0928841939083051,-6.226516520803758e-9,7.533733251562374e-9,0.025097150157693614,-7.256802648244498e-9
2022-01-31,false,0.0,2.162098460627553e-9,3.0598130125690054e-9,0.09675947960498393,0.012928411809190049,-1.055234690746598e-8,-3.0571584584487876e-8,-2.6675814495385655e-8,0.21402584935294713,0.3000000142663233,0.15790022962397643,0.10040473977727621,0.0928841939083051,-6.226516520803758e-9,7.533733251562374e-9,0.025097150157693614,-7.256802648244498e-9
2022-02-28,false,0.0,2.162098460627553e-9,3.0598130125690054e-9,0.09675947960498393,0.012928411809190049,-1.055234690746598e-8,-3.0571584584487876e-8,-2.6675814495385655e-8,0.21402584935294713,0.3000000142663233,0.15790022962397643,0.10040473977727621,0.0928841939083051,-6.226516520803758e-9,7.533733251562374e-9,0.025097150157693614,-7.256802648244498e-9
2022-03-31,false,0.0,2.162098460627553e-9,3.0598130125690054e-9,0.09675947960498393,0.012928411809190049,-1.055234690746598e-8,-3.0571584584487876e-8,-2.6675814495385655e-8,0.21402584935294713,0.3000000142663233,0.15790022962397643,0.10040473977727621,0.0928841939083051,-6.226516520803758e-9,7.533733251562374e-9,0.025097150157693614,-7.256802648244498e-9
2022-04-29,false,0.0,2.162098460627553e-9,3.0598130125690054e-9,0.09675947960498393,0.012928411809190049,-1.055234690746598e-8,-3.0571584584487876e-8,-2.6675814495385655e-8,0.21402584935294713,0.3000000142663233,0.15790022962397643,0.10040473977727621,0.0928841939083051,-6.226516520803758e-9,7.533733251562374e-9,0.025097150157693614,-7.256802648244498e-9
2022-05-31,false,0.0,2.162098460627553e-9,3.0598130125690054e-9,0.09675947960498393,0.012928411809190049,-1.055234690746598e-8,-3.0571584584487876e-8,-2.6675814495385655e-8,0.21402584935294713,0.3000000142663233,0.15790022962397643,0.10040473977727621,0.0928841939083051,-6.226516520803758e-9,7.533733251562374e-9,0.025097150157693614,-7.256802648244498e-9
2022-06-30,false,0.0,2.162098460627553e-9,3.0598130125690054e-9,0.09675947960498393,0.012928411809190049,-1.055234690746598e-8,-3.0571584584487876e-8,-2.6675814495385655e-8,0.21402584935294713,0.3000000142663233,0.15790022962397643,0.10040473977727621,0.0928841939083051,-6.226516520803758e-9,7.533733251562374e-9,0.025097150157693614,-7.256802648244498e-9
2022-07-29,false,0.0,2.162098460627553e-9,3.0598130125690054e-9,0.09675947960498393,0.012928411809190049,-1.055234690746598e-8,-3.0571584584487876e-8,-2.6675814495385655e-8,0.21402584935294713,0.3000000142663233,0.15790022962397643,0.10040473977727621,0.0928841939083051,-6.226516520803758e-9,7.533733251562374e-9,0.025097150157693614,-7.256802648244498e-9
2022-08-31,false,0.0,2.162098460627553e-9,3.0598130125690054e-9,0.09675947960498393,0.012928411809190049,-1.055234690746598e-8,-3.0571584584487876e-8,-2.6675814495385655e-8,0.21402584935294713,0.3000000142663233,0.15790022962397643,0.10040473977727621,0.0928841939083051,-6.226516520803758e-9,7.533733251562374e-9,0.025097150157693614,-7.256802648244498e-9
2022-09-30,false,0.0,2.162098460627553e-9,3.0598130125690054e-9,0.09675947960498393,0.012928411809190049,-1.055234690746598e-8,-3.0571584584487876e-8,-2.6675814495385655e-8,0.21402584935294713,0.3000000142663233,0.15790022962397643,0.10040473977727621,0.0928841939083051,-6.226516520803758e-9,7.533733251562374e-9,0.025097150157693614,-7.256802648244498e-9
2022-10-31,false,0.0,2.162098460627553e-9,3.0598130125690054e-9,0.09675947960498393,0.012928411809190049,-1.055234690746598e-8,-3.0571584584487876e-8,-2.6675814495385655e-8,0.21402584935294713,0.3000000142663233,0.15790022962397643,0.10040473977727621,0.0928841939083051,-6.226516520803758e-9,7.533733251562374e-9,0.025097150157693614,-7.256802648244498e-9
2022-11-30,false,0.0,2.162098460627553e-9,3.0598130125690054e-9,0.09675947960498393,0.012928411809190049,-1.055234690746598e-8,-3.0571584584487876e-8,-2.6675814495385655e-8,0.21402584935294713,0.3000000142663233,0.15790022962397643,0.10040473977727621,0.0928841939083051,-6.226516520803758e-9,7.533733251562374e-9,0.025097150157693614,-7.256802648244498e-9
2022-12-30,false,0.0,2.162098460627553e-9,3.0598130125690054e-9,0.09675947960498393,0.012928411809190049,-1.055234690746598e-8,-3.0571584584487876e-8,-2.6675814495385655e-8,0.21402584935294713,0.3000000142663233,0.15790022962397643,0.10040473977727621,0.0928841939083051,-6.226516520803758e-9,7.533733251562374e-9,0.025097150157693614,-7.256802648244498e-9
2023-01-31,false,0.0,2.162098460627553e-9,3.0598130125690054e-9,0.09675947960498393,0.012928411809190049,-1.055234690746598e-8,-3.0571584584487876e-8,-2.6675814495385655e-8,0.21402584935294713,0.3000000142663233,0.15790022962397643,0.10040473977727621,0.0928841939083051,-6.226516520803758e-9,7.533733251562374e-9,0.025097150157693614,-7.256802648244498e-9
2023-02-28,false,0.0,2.162098460627553e-9,3.0598130125690054e-9,0.09675947960498393,0.012928411809190049,-1.055234690746598e-8,-3.0571584584487876e-8,-2.6675814495385655e-8,0.21402584935294713,0.3000000142663233,0.15790022962397643,0.10040473977727621,0.0928841939083051,-6.226516520803758e-9,7.533733251562374e-9,0.025097150157693614,-7.256802648244498e-9
2023-03-31,false,0.0,2.162098460627553e-9,3.0598130125690054e-9,0.09675947960498393,0.012928411809190049,-1.055234690746598e-8,-3.0571584584487876e-8,-2.6675814495385655e-8,0.21402584935294713,0.3000000142663233,0.15790022962397643,0.10040473977727621,0.0928841939083051,-6.226516520803758e-9,7.533733251562374e-9,0.025097150157693614,-7.256802648244498e-9
2023-04-28,false,0.0,2.162098460627553e-9,3.0598130125690054e-9,0.09675947960498393,0.012928411809190049,-1.055234690746598e-8,-3.0571584584487876e-8,-2.6675814495385655e-8,0.21402584935294713,0.3000000142663233,0.15790022962397643,0.10040473977727621,0.0928841939083051,-6.226516520803758e-9,7.533733251562374e-9,0.025097150157693614,-7.256802648244498e-9
2023-05-31,false,0.0,2.162098460627553e-9,3.0598130125690054e-9,0.09675947960498393,0.012928411809190049,-1.055234690746598e-8,-3.0571584584487876e-8,-2.6675814495385655e-8,0.21402584935294713,0.3000000142663233,0.15790022962397643,0.10040473977727621,0.0928841939083051,-6.226516520803758e-9,7.533733251562374e-9,0.025097150157693614,-7.256802648244498e-9
2023-06-30,false,0.0,2.162098460627553e-9,3.0598130125690054e-9,0.09675947960498393,0.012928411809190049,-1.055234690746598e-8,-3.0571584584487876e-8,-2.6675814495385655e-8,0.21402584935294713,0.3000000142663233,0.15790022962397643,0.10040473977727621,0.0928841939083051,-6.226516520803758e-9,7.533733251562374e-9,0.025097150157693614,-7.256802648244498e-9
2023-07-31,false,0.0,2.162098460627553e-9,3.0598130125690054e-9,0.09675947960498393,0.012928411809190049,-1.055234690746598e-8,-3.0571584584487876e-8,-2.6675814495385655e-8,0.21402584935294713,0.3000000142663233,0.15790022962397643,0.10040473977727621,0.0928841939083051,-6.226516520803758e-9,7.533733251562374e-9,0.025097150157693614,-7.256802648244498e-9
2023-08-31,false,0.0,2.162098460627553e-9,3.0598130125690054e-9,0.09675947960498393,0.012928411809190049,-1.055234690746598e-8,-3.0571584584487876e-8,-2.6675814495385655e-8,0.21402584935294713,0.3000000142663233,0.15790022962397643,0.10040473977727621,0.0928841939083051,-6.226516520803758e-9,7.533733251562374e-9,0.025097150157693614,-7.256802648244498e-9
2023-09-29,false,0.0,2.162098460627553e-9,3.0598130125690054e-9,0.09675947960498393,0.012928411809190049,-1.055234690746598e-8,-3.0571584584487876e-8,-2.6675814495385655e-8,0.21402584935294713,0.3000000142663233,0.15790022962397643,0.10040473977727621,0.0928841939083051,-6.226516520803758e-9,7.533733251562374e-9,0.025097150157693614,-7.256802648244498e-9
2023-10-31,false,0.0,2.162098460627553e-9,3.0598130125690054e-9,0.09675947960498393,0.012928411809190049,-1.055234690746598e-8,-3.0571584584487876e-8,-2.6675814495385655e-8,0.21402584935294713,0.3000000142663233,0.15790022962397643,0.10040473977727621,0.0928841939083051,-6.226516520803758e-9,7.533733251562374e-9,0.025097150157693614,-7.256802648244498e-9
2023-11-30,false,0.0,2.162098460627553e-9,3.0598130125690054e-9,0.09675947960498393,0.012928411809190049,-1.055234690746598e-8,-3.0571584584487876e-8,-2.6675814495385655e-8,0.21402584935294713,0.3000000142663233,0.15790022962397643,0.10040473977727621,0.0928841939083051,-6.226516520803758e-9,7.533733251562374e-9,0.025097150157693614,-7.256802648244498e-9
2023-12-29,false,0.0,2.162098460627553e-9,3.0598130125690054e-9,0.09675947960498393,0.012928411809190049,-1.055234690746598e-8,-3.0571584584487876e-8,-2.6675814495385655e-8,0.21402584935294713,0.3000000142663233,0.15790022962397643,0.10040473977727621,0.0928841939083051,-6.226516520803758e-9,7.533733251562374e-9,0.025097150157693614,-7.256802648244498e-9
2024-01-31,false,0.0,2.162098460627553e-9,3.0598130125690054e-9,0.09675947960498393,0.012928411809190049,-1.055234690746598e-8,-3.0571584584487876e-8,-2.6675814495385655e-8,0.21402584935294713,0.3000000142663233,0.15790022962397643,0.10040473977727621,0.0928841939083051,-6.226516520803758e-9,7.533733251562374e-9,0.025097150157693614,-7.256802648244498e-9
2024-02-29,false,0.0,2.162098460627553e-9,3.0598130125690054e-9,0.09675947960498393,0.012928411809190049,-1.055234690746598e-8,-3.0571584584487876e-8,-2.6675814495385655e-8,0.21402584935294713,0.3000000142663233,0.15790022962397643,0.10040473977727621,0.0928841939083051,-6.226516520803758e-9,7.533733251562374e-9,0.025097150157693614,-7.256802648244498e-9
2024-03-28,false,0.0,2.162098460627553e-9,3.0598130125690054e-9,0.09675947960498393,0.012928411809190049,-1.055234690746598e-8,-3.0571584584487876e-8,-2.6675814495385655e-8,0.21402584935294713,0.3000000142663233,0.15790022962397643,0.10040473977727621,0.0928841939083051,-6.226516520803758e-9,7.533733251562374e-9,0.025097150157693614,-7.256802648244498e-9
2024-04-30,false,0.0,2.162098460627553e-9,3.0598130125690054e-9,0.09675947960498393,0.012928411809190049,-1.055234690746598e-8,-3.0571584584487876e-8,-2.6675814495385655e-8,0.21402584935294713,0.3000000142663233,0.15790022962397643,0.10040473977727621,0.0928841939083051,-6.226516520803758e-9,7.533733251562374e-9,0.025097150157693614,-7.256802648244498e-9
2024-05-31,false,0.0,2.162098460627553e-9,3.0598130125690054e-9,0.09675947960498393,0.012928411809190049,-1.055234690746598e-8,-3.0571584584487876e-8,-2.6675814495385655e-8,0.21402584935294713,0.3000000142663233,0.15790022962397643,0.10040473977727621,0.0928841939083051,-6.226516520803758e-9,7.533733251562374e-9,0.025097150157693614,-7.256802648244498e-9
2024-06-28,false,0.0,2.162098460627553e-9,3.0598130125690054e-9,0.09675947960498393,0.012928411809190049,-1.055234690746598e-8,-3.0571584584487876e-8,-2.6675814495385655e-8,0.21402584935294713,0.3000000142663233,0.15790022962397643,0.10040473977727621,0.0928841939083051,-6.226516520803758e-9,7.533733251562374e-9,0.025097150157693614,-7.256802648244498e-9
2024-07-31,false,0.0,2.162098460627553e-9,3.0598130125690054e-9,0.09675947960498393,0.012928411809190049,-1.055234690746598e-8,-3.0571584584487876e-8,-2.6675814495385655e-8,0.21402584935294713,0.3000000142663233,0.15790022962397643,0.10040473977727621,0.0928841939083051,-6.226516520803758e-9,7.533733251562374e-9,0.025097150157693614,-7.256802648244498e-9
2024-08-30,false,0.0,2.162098460627553e-9,3.0598130125690054e-9,0.09675947960498393,0.012928411809190049,-1.055234690746598e-8,-3.0571584584487876e-8,-2.6675814495385655e-8,0.21402584935294713,0.3000000142663233,0.15790022962397643,0.10040473977727621,0.0928841939083051,-6.226516520803758e-9,7.533733251562374e-9,0.025097150157693614,-7.256802648244498e-9
2024-09-30,false,0.0,2.162098460627553e-9,3.0598130125690054e-9,0.09675947960498393,0.012928411809190049,-1.055234690746598e-8,-3.0571584584487876e-8,-2.6675814495385655e-8,0.21402584935294713,0.3000000142663233,0.15790022962397643,0.10040473977727621,0.0928841939083051,-6.226516520803758e-9,7.533733251562374e-9,0.025097150157693614,-7.256802648244498e-9
2024-10-31,false,0.0,2.162098460627553e-9,3.0598130125690054e-9,0.09675947960498393,0.012928411809190049,-1.055234690746598e-8,-3.0571584584487876e-8,-2.6675814495385655e-8,0.21402584935294713,0.3000000142663233,0.15790022962397643,0.10040473977727621,0.0928841939083051,-6.226516520803758e-9,7.533733251562374e-9,0.025097150157693614,-7.256802648244498e-9
2024-11-29,false,0.0,2.162098460627553e-9,3.0598130125690054e-9,0.09675947960498393,0.012928411809190049,-1.055234690746598e-8,-3.0571584584487876e-8,-2.6675814495385655e-8,0.21402584935294713,0.3000000142663233,0.15790022962397643,0.10040473977727621,0.0928841939083051,-6.226516520803758e-9,7.533733251562374e-9,0.025097150157693614,-7.256802648244498e-9
2024-12-31,false,0.0,2.162098460627553e-9,3.0598130125690054e-9,0.09675947960498393,0.012928411809190049,-1.055234690746598e-8,-3.0571584584487876e-8,-2.6675814495385655e-8,0.21402584935294713,0.3000000142663233,0.15790022962397643,0.10040473977727621,0.0928841939083051,-6.226516520803758e-9,7.533733251562374e-9,0.025097150157693614,-7.256802648244498e-9
2025-01-31,false,0.0,2.162098460627553e-9,3.0598130125690054e-9,0.09675947960498393,0.012928411809190049,-1.055234690746598e-8,-3.0571584584487876e-8,-2.6675814495385655e-8,0.21402584935294713,0.3000000142663233,0.15790022962397643,0.10040473977727621,0.0928841939083051,-6.226516520803758e-9,7.533733251562374e-9,0.025097150157693614,-7.256802648244498e-9
2025-02-28,false,0.0,2.162098460627553e-9,3.0598130125690054e-9,0.09675947960498393,0.012928411809190049,-1.055234690746598e-8,-3.0571584584487876e-8,-2.6675814495385655e-8,0.21402584935294713,0.3000000142663233,0.15790022962397643,0.10040473977727621,0.0928841939083051,-6.226516520803758e-9,7.533733251562374e-9,0.025097150157693614,-7.256802648244498e-9
2025-03-31,false,0.0,2.162098460627553e-9,3.0598130125690054e-9,0.09675947960498393,0.012928411809190049,-1.055234690746598e-8,-3.0571584584487876e-8,-2.6675814495385655e-8,0.21402584935294713,0.3000000142663233,0.15790022962397643,0.10040473977727621,0.0928841939083051,-6.226516520803758e-9,7.533733251562374e-9,0.025097150157693614,-7.256802648244498e-9
2025-04-30,false,0.0,2.162098460627553e-9,3.0598130125690054e-9,0.09675947960498393,0.012928411809190049,-1.055234690746598e-8,-3.0571584584487876e-8,-2.6675814495385655e-8,0.21402584935294713,0.3000000142663233,0.15790022962397643,0.10040473977727621,0.0928841939083051,-6.226516520803758e-9,7.533733251562374e-9,0.025097150157693614,-7.256802648244498e-9
2025-05-30,false,0.0,2.162098460627553e-9,3.0598130125690054e-9,0.09675947960498393,0.012928411809190049,-1.055234690746598e-8,-3.0571584584487876e-8,-2.6675814495385655e-8,0.21402584935294713,0.3000000142663233,0.15790022962397643,0.10040473977727621,0.0928841939083051,-6.226516520803758e-9,7.533733251562374e-9,0.025097150157693614,-7.256802648244498e-9
2025-06-30,false,0.0,2.162098460627553e-9,3.0598130125690054e-9,0.09675947960498393,0.012928411809190049,-1.055234690746598e-8,-3.0571584584487876e-8,-2.6675814495385655e-8,0.21402584935294713,0.3000000142663233,0.15790022962397643,0.10040473977727621,0.0928841939083051,-6.226516520803758e-9,7.533733251562374e-9,0.025097150157693614,-7.256802648244498e-9
2025-07-31,false,0.0,2.162098460627553e-9,3.0598130125690054e-9,0.09675947960498393,0.012928411809190049,-1.055234690746598e-8,-3.0571584584487876e-8,-2.6675814495385655e-8,0.21402584935294713,0.3000000142663233,0.15790022962397643,0.10040473977727621,0.0928841939083051,-6.226516520803758e-9,7.533733251562374e-9,0.025097150157693614,-7.256802648244498e-9
2025-08-29,false,0.0,2.162098460627553e-9,3.0598130125690054e-9,0.09675947960498393,0.012928411809190049,-1.055234690746598e-8,-3.0571584584487876e-8,-2.6675814495385655e-8,0.21402584935294713,0.3000000142663233,0.15790022962397643,0.10040473977727621,0.0928841939083051,-6.226516520803758e-9,7.533733251562374e-9,0.025097150157693614,-7.256802648244498e-9
2025-09-30,false,0.0,2.162098460627553e-9,3.0598130125690054e-9,0.09675947960498393,0.012928411809190049,-1.055234690746598e-8,-3.0571584584487876e-8,-2.6675814495385655e-8,0.21402584935294713,0.3000000142663233,0.15790022962397643,0.10040473977727621,0.0928841939083051,-6.226516520803758e-9,7.533733251562374e-9,0.025097150157693614,-7.256802648244498e-9
2025-10-03,false,0.0,2.162098460627553e-9,3.0598130125690054e-9,0.09675947960498393,0.012928411809190049,-1.055234690746598e-8,-3.0571584584487876e-8,-2.6675814495385655e-8,0.21402584935294713,0.3000000142663233,0.15790022962397643,0.10040473977727621,0.0928841939083051,-6.226516520803758e-9,7.533733251562374e-9,0.025097150157693614,-7.256802648244498e-9
