date,rebalanced,turnover,SPY,IWD,IWF,IWM,EFA,EEM,VWO,TLT,IEF,LQD,HYG,GLD,SLV,VNQ,DBC,USO
2010-04-30,true,1.1699304269559487,-1.9663055898878343e-9,-1.805671639165966e-9,0.09675945143724143,0.012928440629237141,-1.0046637252123646e-8,-2.4192589784215748e-8,-2.2388695509857627e-8,0.21402586893543704,0.30000000535269844,0.1579002271157196,0.10040474025863354,0.09288419010663038,-4.092318471436408e-9,-8.707771850610486e-10,0.025097145718326698,-4.199910744837441e-9
2010-05-28,false,0.0,-1.7902342030735635e-9,-1.6282959589108081e-9,0.08373891515637175,0.011639871755006114,-8.891548864618289e-9,-2.1769502636590456e-8,-2.0174934857418934e-8,0.22554913955481296,0.3084352352445577,0.15625959017985502,0.09547517878556716,0.09609674641670848,-4.056353784932941e-9,-7.995942079160703e-10,0.022805385497186487,-3.4796012774532596e-9
2010-06-30,false,0.0,-1.6487766626668458e-9,-1.490806653580881e-9,0.07698527491559454,0.010424445214748963,-8.366349317145145e-9,-2.0669951895148568e-8,-1.9392626898120797e-8,0.2323960339792988,0.31139100124986424,0.156819839746477,0.09458980905049431,0.09581775864965092,-3.952899741853904e-9,-7.350524448388245e-10,0.02157589682079502,-3.370460201377751e-9
2010-07-30,false,0.0,-1.7321749326160315e-9,-1.5624405550190174e-9,0.0810793439653413,0.01088689586094727,-9.22728517028695e-9,-2.2492822588858388e-8,-2.0968883649925975e-8,0.22674270304200847,0.3110392081454198,0.15910549211040806,0.09897525285770163,0.08964523590796294,-3.728820539047271e-9,-7.845276902560646e-10,0.022525932035090793,-3.427925185973961e-9
2010-08-31,false,0.0,-1.59662247238435e-9,-1.4410623877152352e-9,0.07480183116984343,0.009737228341584154,-8.508549335197328e-9,-2.097851582814565e-8,-1.9690479809524204e-8,0.23821354356010177,0.3110875660937705,0.15836003912087998,0.09449131527316872,0.09164720268239161,-3.887777526329792e-9,-7.458106928183177e-10,0.021661333718452507,-3.1113746048025126e-9
2010-09-30,false,0.0,-1.7126198685587373e-9,-1.5304982457214756e-9,0.08135843125990196,0.010737745602530262,-9.275991630406958e-9,-2.3008297682542963e-8,-2.1532109498888822e-8,0.23053921400463398,0.30734062177630334,0.15638562572981582,0.09571942522192722,0.09526041319559182,-4.383284140822857e-9,-7.672064335019365e-10,0.0226585885532114,-3.133908151891865e-9
2010-10-29,false,0.0,-1.7800046817022298e-9,-1.581411615344319e-9,0.08522947378532102,0.011167317765252238,-9.599528442331137e-9,-2.3864849095612964e-8,-2.2339215226843333e-8,0.21905698899397338,0.30715672726016124,0.1569175534775224,0.098436997419286,0.0980931737467039,-4.8007725624627115e-9,-8.094375581589584e-10,0.023941835600124264,-3.2731249231324113e-9
2010-11-30,false,0.0,-1.7992283505183433e-9,-1.5891099951719597e-9,0.08717224110005695,0.011727615367498155,-9.267190977079756e-9,-2.3488551276141e-8,-2.1974175242577446e-8,0.21700872595713838,0.3067143015654114,0.15569217719021375,0.09746938992774898,0.10014353441132501,-5.42332719092245e-9,-8.004081315751937e-10,0.02407208223052794,-3.407929367670836e-9
2010-12-31,true,0.14296496735466133,-3.8774387967681175e-9,-3.491753340377422e-9,0.04156971988554682,0.042175829008369525,-5.4341783776623026e-9,-3.5531218891555857e-9,-3.479774521765159e-9,0.19430474188797087,0.29999993218386245,0.170394701639501,0.12168393421875733,0.09874417201172063,-1.1312548177875413e-8,2.5015322747434814e-9,0.031127005189407364,-7.36152974814977e-9
2011-01-31,false,0.0,-3.943568900050852e-9,-3.5490521913913504e-9,0.04226013035812436,0.04145935601590678,-5.537339495309849e-9,-3.405122643262599e-9,-3.347312538384514e-9,0.1919916934632946,0.3030169262702304,0.17159461684684693,0.12342728521440945,0.09390329415843536,-1.0348432697863518e-8,2.545424502073768e-9,0.03234673250268153,-7.244525549797112e-9
2011-02-28,false,0.0,-4.030642014439313e-9,-3.629687477006748e-9,0.04321109575889272,0.043384982873830476,-5.651933100977719e-9,-3.370054720109214e-9,-3.299423668506792e-9,0.19080194248696364,0.2973585064085448,0.17025220736083235,0.12360211810120668,0.09769888072875407,-1.2127000420046913e-8,2.5995995321960154e-9,0.03369030331218436,-7.522067240339828e-9
2011-03-31,false,0.0,-4.041665282287381e-9,-3.6591535091111513e-9,0.04322042556993545,0.044131700339018115,-5.557793305966571e-9,-3.5517808633239016e-9,-3.4634076943454515e-9,0.19063926157139516,0.29636864650128697,0.16968081748623784,0.12385765201740624,0.09817576142063865,-1.3502677079306869e-8,2.5857107270606483e-9,0.0339257741289045,-7.844055830374756e-9
2011-04-29,false,0.0,-4.0438462577970825e-9,-3.649044089219832e-9,0.04347023267036307,0.04418220550644378,-5.725536836091639e-9,-3.5669564925554307e-9,-3.4933813827575775e-9,0.18939696101630377,0.2932813957683324,0.1689218638797305,0.12248653105926305,0.10349127081083326,-1.6955956061156658e-8,2.705027809817742e-9,0.03476958223635674,-8.217933401397485e-9
2011-05-31,false,0.0,-3.916080909808483e-9,-3.5354348254609914e-9,0.04212982018651407,0.04234690249791206,-5.385739262634131e-9,-3.3789361452001136e-9,-3.311756008012516e-9,0.193541543237836,0.29703310703394825,0.1692844635422516,0.12108980582104772,0.10201107555353169,-1.2767495313282188e-8,2.6488609632254022e-9,0.03256331889911353,-7.125573516611164e-9
2011-06-30,false,0.0,-3.891836583082505e-9,-3.5032655241302294e-9,0.04192177261106279,0.04199607787188717,-5.400924145694029e-9,-3.398117816247667e-9,-3.3283720773010837e-9,0.19172079876545312,0.30025691243415953,0.16953063486317024,0.12120887069056445,0.10136938879876826,-1.1791630834875493e-8,2.6193523799009827e-9,0.03199557938993019,-6.730201248770858e-9
2011-07-29,false,0.0,-3.797227158049196e-9,-3.3696771163330367e-9,0.0412971648298484,0.040040764408060515,-5.2210522480782735e-9,-3.313904150286275e-9,-3.2615208888674096e-9,0.1919836303394263,0.2989704066171243,0.168953140469867,0.11990579151137985,0.1061553330073618,-1.3094352868142085e-8,2.6113064713015178e-9,0.032693804969533606,-6.706173861081821e-9
2011-08-31,false,0.0,-3.3585419990263593e-9,-2.943226553049312e-9,0.036642189794018704,0.03430493447880891,-4.417025229661145e-9,-2.788924397322584e-9,-2.7494601004959814e-9,0.20724033362826466,0.30345924018902737,0.16284293657260474,0.10985001293846139,0.11493166980632635,-1.2892711311941754e-8,2.295089043478033e-9,0.03072871520916309,-5.761874415997924e-9
2011-09-30,true,0.34557515438832787,-6.251034972600869e-8,-4.3970116733590413e-8,0.0268696299760628,0.019422077742088,-4.555457758420562e-8,-2.998443616277072e-9,-1.1576562502564703e-8,0.10452160086848994,0.2999996842811856,0.2999996184412302,0.12868967041370702,0.07756146909721232,-2.6744853278234297e-9,-1.1430429370857631e-8,0.027577051560790454,0.015359378574474458
2011-10-31,true,0.23426272934426443,0.034038176234337976,1.3685803537913268e-7,0.007877670316886146,1.092295977757196e-7,1.227000133695721e-7,8.473642107102999e-8,8.957410095068044e-8,0.054145934227411964,0.30000101434680326,0.3000011524041616,0.19696316174331402,0.06908446587126443,2.2355008785968583e-7,2.5156786578568e-8,0.03788746402219477,1.6848332110696127e-7
2011-11-30,false,0.0,0.03211903599371319,1.2790186613227186e-7,0.007486318940505346,1.0090716223640766e-7,1.0909721616393283e-7,7.579797379392122e-8,8.02604555924399e-8,0.05900183995079804,0.31181117395246843,0.2939147512314083,0.189628249126316,0.06880246785001072,2.0368526373322262e-7,2.309344178714068e-8,0.03723525983284952,1.8237855081189045e-7
2011-12-30,false,0.0,0.033203858864888226,1.3396431736820631e-7,0.007609451849695009,1.053119402038469e-7,1.0892935172750901e-7,7.50590840240307e-8,7.955487090331347e-8,0.05858874719376707,0.3086723954984658,0.2980970053219091,0.19738949336612094,0.06058926791386504,1.7275275070909665e-7,2.4870333739470616e-8,0.03584890210248442,1.7744615561435026e-7
2012-01-31,true,0.10735741460268773,0.02525174188375324,-2.2652790374880057e-8,-7.52874043589455e-8,-1.7534150851692725e-8,-8.37947026593086e-9,-1.0786805236013412e-8,-7.7722719204017e-9,0.03762856913466146,0.30000036163044785,0.30000056568431177,0.2479059187112849,0.060583447827641836,1.3883798722708768e-7,-9.834876209589889e-9,0.028629320132904222,8.822638432719959e-8
2012-02-29,false,0.0,0.026062233833611247,-2.3318027178863854e-8,-7.799419088002312e-8,-1.796377802516914e-8,-8.813790643845416e-9,-1.1286908997672791e-8,-8.150510965234971e-9,0.03674701120585979,0.2947722333399583,0.3011908010539625,0.24984244645091094,0.06162219434971369,1.503722695265798e-7,-9.664910295050332e-9,0.02976299337022957,9.321560151826718e-8
2012-03-30,false,0.0,0.027089164980954237,-2.4116002093917173e-8,-8.123280538746545e-8,-1.845496696846736e-8,-8.780138228888842e-9,-1.0995060609238413e-8,-7.948588788494757e-9,0.03610081480644648,0.29486618141437715,0.30255753880200986,0.252120143655575,0.0580340884180127,1.3285842355395223e-7,-1.0193642371177777e-8,0.029232005756372463,9.102903278347615e-8
2012-04-30,false,0.0,0.026804650387750584,-2.3793578125883445e-8,-8.070329036204401e-8,-1.8074727333911757e-8,-8.614909891407715e-9,-1.0775508213442794e-8,-7.788887665017511e-9,0.036753323475633176,0.2972106728456968,0.30193258137939355,0.2511828837000121,0.05740289043237074,1.2698487777024e-7,-1.0472449023401901e-8,0.028712940321148232,9.069646769341188e-8
2012-05-31,true,0.12198727598086691,0.036174084450188215,-6.8840965057292845e-9,-3.303491920545458e-8,2.9435787658133064e-9,-5.754882577952243e-10,-3.471386709061216e-9,-1.0166330677565762e-9,0.022654246002075197,0.30000048346948294,0.2999998916257782,0.2967927810750612,0.03267339983476399,5.789839944212537e-8,-5.3695234567576005e-9,0.011705072965865562,2.9996906446293524e-8
2012-06-29,false,0.0,0.03610272403022675,-6.955995793018463e-9,-3.237178269833347e-8,2.9539869596530488e-9,-5.882887830748128e-10,-3.4526750545390963e-9,-1.011873449559776e-9,0.022497747426875637,0.2972264969567674,0.3007169937509149,0.3002672263569066,0.0320091111018535,5.3835133053068564e-8,-5.483398374352629e-9,0.011179667122649464,2.6328699861377454e-8
2012-07-31,false,0.0,0.03684353729580732,-7.069838713136625e-9,-3.304754352004958e-8,2.9504201166658276e-9,-5.989981370482983e-10,-3.531749873354594e-9,-1.0342098582523517e-9,0.022488535927121824,0.29292322324197023,0.30274746410317815,0.300202333726024,0.03260357625075186,5.609407040306116e-8,-5.614927213877501e-9,0.012191292297717952,2.9010205672008394e-8
2012-08-31,false,0.0,0.03728716735604256,-7.145458516395737e-9,-3.356985396087369e-8,3.011113755005208e-9,-6.080212092347507e-10,-3.4914989819966885e-9,-1.0231458458069779e-9,0.02189724506394639,0.2909935405088501,0.3018321017719331,0.3022009857634451,0.033209904496706494,6.02093019602021e-8,-5.583307336299219e-9,0.012579012741254824,3.0498691573151e-8
2012-09-28,false,0.0,0.038090610952333764,-7.3358318120414035e-9,-3.410795583172074e-8,3.1030035092777442e-9,-6.34066186752008e-10,-3.67882321449157e-9,-1.077739176089393e-9,0.021339012209846766,0.2881514050538573,0.3027071126822143,0.30211856270124704,0.03517521720594693,6.75798175709439e-8,-5.43336982312312e-9,0.012418031683995693,2.909552328049705e-8
2012-10-31,false,0.0,0.03723219484628035,-7.253988180491644e-9,-3.298951208147632e-8,2.9963753554818075e-9,-6.285452547400197e-10,-3.6455325086549817e-9,-1.0667982647919969e-9,0.021121144421898,0.2860038244236532,0.30670690686123914,0.3030468264774655,0.03387794540037866,6.250008824314359e-8,-5.32595904873347e-9,0.01201111596835444,2.7014602515212243e-8
2012-11-30,false,0.0,0.03711056277728673,-7.194789949306561e-9,-3.3238175933147785e-8,3.0095855268451864e-9,-6.391379256273437e-10,-3.666929343281427e-9,-1.0711096941638226e-9,0.02142027907551949,0.2877702242912959,0.3040144589990336,0.3037165173580832,0.033843878620558904,6.595171960423874e-8,-5.308179007762891e-9,0.012124033981632818,2.705360631574865e-8
2012-12-31,false,0.0,0.0367919553830347,-7.222898952377674e-9,-3.258394659854933e-8,3.043371453720664e-9,-6.574007061289301e-10,-3.853257668139074e-9,-1.127384358813698e-9,0.021174592188269323,0.2863399134190024,0.30439716468632483,0.30690675055701905,0.032469628643315665,5.77720786947097e-8,-5.454266860008568e-9,0.011919957464967284,2.7741771637380588e-8
2013-01-31,false,0.0,0.03963573911647243,-7.877249736238649e-9,-3.4827426876478686e-8,3.2969747541907442e-9,-6.984817814597305e-10,-3.91128329808529e-9,-1.1496922307094953e-9,0.020151654251262075,0.2825110846531203,0.30035641232187993,0.3120098657881127,0.03298012702056401,6.163784847000764e-8,-5.78434168240454e-9,0.012355076206277446,2.995596345277103e-8
2013-02-28,false,0.0,0.03981440115383706,-7.917164091799495e-9,-3.4948104678769213e-8,3.3202099208581905e-9,-6.820888957986517e-10,-3.818509885207914e-9,-1.1205704301227036e-9,0.02030801242516032,0.2835262025923615,0.30157323792656276,0.3118569703924373,0.03118524817717798,5.5361486342235375e-8,-5.7818503949924425e-9,0.011735894954826472,2.796422855974971e-8
2013-03-28,false,0.0,0.04088417643699589,-8.147467696575127e-9,-3.58411555069862e-8,3.4571331900994225e-9,-6.829792414927037e-10,-3.731484638813939e-9,-1.0939399035064238e-9,0.020244337617873892,0.28369184147854964,0.3000516547830941,0.31215565065916856,0.0311669037559834,5.447743276090423e-8,-5.887998415074054e-9,0.011805403976937126,2.874185647312344e-8
2013-04-30,false,0.0,0.041042049107253134,-8.152005373084503e-9,-3.601058412681732e-8,3.37260648923809e-9,-7.08186100166084e-10,-3.671187457174773e-9,-1.0848154144110798e-9,0.020743285850681397,0.28322911810367035,0.3023332936444412,0.3135739570046468,0.0279270543423571,4.4890089171377574e-8,-6.135161845095245e-9,0.011151221977306483,2.7468888243438093e-8
2013-05-31,false,0.0,0.043624028183121104,-8.680241373239178e-9,-3.81212126927891e-8,3.636885888701487e-9,-7.159676173426357e-10,-3.684271379606952e-9,-1.0850781853047338e-9,0.019809401036767333,0.28097656656557674,0.29979720662207954,0.3171880291988047,0.02734944396128639,4.26746062655839e-8,-6.0351373685357335e-9,0.011255308737321452,2.7705459110285724e-8
2013-06-28,false,0.0,0.04399851759458408,-8.786277637124214e-9,-3.829925396174199e-8,3.7052211086544897e-9,-7.063208718063364e-10,-3.5077496463721727e-9,-1.0321860591734982e-9,0.019592784921413108,0.28264813250370574,0.29846974774658147,0.32016842302051735,0.02389677802434453,3.562763798831655e-8,-6.056077582565374e-9,0.011225605707188302,2.9536672203080864e-8
2013-07-31,false,0.0,0.04551255784638626,-9.105859015993418e-9,-3.972698531278394e-8,3.900087317996749e-9,-7.318963577092927e-10,-3.54768580835555e-9,-1.0375168553158956e-9,0.018970443320800168,0.2778434182546266,0.2980385254402477,0.32227252848633037,0.026052052315888998,3.7226426137311746e-8,-6.097826542533688e-9,0.011310462314696,3.114228031427277e-8
2013-08-30,false,0.0,0.04468695227201524,-8.862102340318689e-9,-3.951529802945904e-8,3.872989056122652e-9,-7.341928689540294e-10,-3.434715059302127e-9,-9.946747723307226e-10,0.018953334496609537,0.27694151656442384,0.29761866677195803,0.32211751394899163,0.02783891792569617,4.519253285870239e-8,-5.669381501242447e-9,0.011843075165348181,3.2999799823708515e-8
2013-09-30,false,0.0,0.045744635526970924,-9.02900503837382e-9,-4.088202260790471e-8,4.017620691699647e-9,-7.791924439180565e-10,-3.710158481143359e-9,-1.0733076228066985e-9,0.01889016467499797,0.2782906274269608,0.2975263050218933,0.32210599195986794,0.026102119775172915,4.04689467641656e-8,-5.8153968247459156e-9,0.011340141149548585,3.1267103171588435e-8
2013-10-31,false,0.0,0.04689823193506688,-9.23456914743197e-9,-4.1810593609038575e-8,4.065251319715798e-9,-7.891844559344611e-10,-3.789650220396e-9,-1.0962227416986582e-9,0.0187604018338937,0.27644933640598957,0.29748626307788817,0.3234799471123522,0.025740296658006,4.143898903766282e-8,-5.939125494573544e-9,0.011185511191254516,2.8940654453831415e-8
2013-11-29,true,0.16352388933280934,0.021292215125705838,5.67135207695199e-10,1.6454644628780017e-10,2.7247735946665427e-9,6.816676539271899e-9,1.2505071897892575e-8,1.2741721033004159e-8,0.013314569760327046,0.2999999977325922,0.29999999873699684,0.2999999984515661,4.880109674021578e-8,1.0804556472960474e-7,2.469487675903723e-9,0.06539303411203873,-8.747214946965326e-9
2013-12-31,false,0.0,0.02176021583027746,5.783497430400457e-10,1.6891557571266431e-10,2.778155201239623e-9,6.961787912802768e-9,1.2489518135984775e-8,1.2720673145259403e-8,0.013173370486956921,0.2954331017396363,0.30173925957020065,0.30192302433017987,4.7148623996346926e-8,1.0718987534921033e-7,2.465485143601937e-9,0.06597084491650211,-9.375137613372038e-9
2014-01-31,false,0.0,0.020994428254236856,5.581448622089557e-10,1.6378093143724602e-10,2.697859436916596e-9,6.6669503074414095e-9,1.13437354146447e-8,1.1603217978758751e-8,0.013681468874043319,0.2989131013150944,0.3026933036893921,0.3004214326389169,4.840129241678922e-8,1.0388693693270149e-7,2.516909970582078e-9,0.06329608650807882,-9.11859068867798e-9
2014-02-28,false,0.0,0.02138249388142809,5.659264802730208e-10,1.6816743442733415e-10,2.7661000558632185e-9,6.818546331602537e-9,1.1606318821559836e-8,1.1847532926098536e-8,0.013596737752802594,0.2962961100418119,0.30200459716418065,0.30169779021778015,5.090101323359775e-8,1.1270556250033544e-7,2.588386140567255e-9,0.06502208037858584,-9.404143268208738e-9
2014-03-31,false,0.0,0.021480152804959168,5.76948023599519e-10,1.6552529490861107e-10,2.690082974468685e-9,6.773561252244842e-9,1.1905492651180247e-8,1.2216637694359897e-8,0.013761601210199719,0.29494151442167443,0.3024228703981217,0.3019988791274496,4.9517043846075446e-8,1.050664214968099e-7,2.6074463832342474e-9,0.06539479991517706,-9.39674127365334e-9
2014-04-30,false,0.0,0.021558220372531852,5.808448238949631e-10,1.6487653617085193e-10,2.59363405498735e-9,6.837467914562181e-9,1.1999157629159307e-8,1.2321974006346748e-8,0.01384508131814161,0.2941071908606786,0.3031825514035654,0.30141982664085043,4.922652505152231e-8,1.0256552104782301e-7,2.6842442463407605e-9,0.06588694977237171,-9.342384826087988e-9
2014-05-30,false,0.0,0.021752473793179728,5.818138812161558e-10,1.6762513000985036e-10,2.6007799062862316e-9,6.867754120807594e-9,1.2307271383803596e-8,1.2662094337974872e-8,0.014098348879566349,0.29598505357089294,0.3039407829372398,0.3001135997938651,4.6940372187150184e-8,9.845668051727427e-8,2.7040837263635386e-9,0.06410956723329753,-9.496516807072161e-9
2014-06-30,false,0.0,0.02217304107339285,5.948728112215277e-10,1.7044883341375787e-10,2.7044783189782923e-9,6.9025214167280465e-9,1.2419561152776724e-8,1.2869437488783318e-8,0.013971123647157935,0.2939102981278018,0.303281831775454,0.30153564382958065,4.8964641723642214e-8,1.0801413229853121e-7,2.743639224389687e-9,0.06512787589113611,-9.728256566716944e-9
2014-07-31,false,0.0,0.02249838932959905,6.016356865435531e-10,1.730114238585908e-10,2.6319242443902946e-9,6.893602584122078e-9,1.2884628938480034e-8,1.3371205107722347e-8,0.014259951125857977,0.2961754852800442,0.3055358291578265,0.2990050315076537,4.865214840501018e-8,1.0674939221072194e-7,2.805019675826548e-9,0.06252512812555525,-9.289105001190427e-9
2014-08-29,false,0.0,0.022519931568182806,6.004710061655311e-10,1.740504105834004e-10,2.640607019527976e-9,6.692363054307299e-9,1.2841405808254603e-8,1.3438630830189704e-8,0.014659379507982927,0.29726633538577435,0.30607374642391505,0.2990094764047236,4.761654933097401e-8,9.963456182122884e-8,2.790127428459706e-9,0.060470953031966056,-8.751311798604644e-9
2014-09-30,false,0.0,0.022768997624738736,6.037045936184582e-10,1.758298928510467e-10,2.584925929588263e-9,6.5602644212969564e-9,1.2046641094194936e-8,1.2668750162520067e-8,0.014721366732485749,0.30028374745803543,0.3066984518683936,0.2972067963033364,4.5815586379643554e-8,9.089644220058353e-8,2.6990564220348744e-9,0.058320474924007916,-8.96219903321881e-9
2014-10-31,false,0.0,0.022697247445031977,6.00590085072937e-10,1.7559084716125952e-10,2.639171936820042e-9,6.339055491532946e-9,1.2014268006104635e-8,1.2713055018152401e-8,0.014914460743766383,0.3017256786575535,0.30753635580361,0.29862504049506067,4.45726586793533e-8,8.458041143498263e-8,2.881806062427185e-9,0.054501057645701054,-7.307331186376045e-9
2014-11-28,false,0.0,0.023567543378766816,6.216708803374778e-10,1.8265945841942152e-10,2.712571624386e-9,6.49134369461304e-9,1.2077589681989073e-8,1.285729824769663e-8,0.015150577652665158,0.303068946788522,0.3085619451669484,0.2976464389562531,4.435827765046282e-8,8.436109743240281e-8,2.959423434018956e-9,0.05200438832296793,-6.8880554655465474e-9
2014-12-31,false,0.0,0.023889581266209357,6.336848017868548e-10,1.8390573726763569e-10,2.787198024076663e-9,6.2720199448494636e-9,1.1442418476945782e-8,1.2124699771255637e-8,0.01586670079911955,0.30704662963015816,0.31195863375976307,0.29576290035408426,4.4671904275436215e-8,8.292188817560145e-8,3.100951084129363e-9,0.04547539504362966,-4.991634342575337e-9
2015-01-30,false,0.0,0.022794292378758733,5.988522316366705e-10,1.7812964109444038e-10,2.686182352525015e-9,6.249345238518162e-9,1.1464376114654585e-8,1.2189906698239858e-8,0.0168197387409422,0.31194431015624996,0.31532341485991716,0.29236426460424697,4.590754679472037e-8,8.441169991973271e-8,3.2625182965185344e-9,0.04075381629859525,-3.987267652048626e-9
2015-02-27,false,0.0,0.023864646485008793,6.205157531293213e-10,1.8853726272428946e-10,2.7992052697830732e-9,6.5382347387288195e-9,1.1644367912692831e-8,1.2401145801858742e-8,0.01593009076556174,0.3060197365679771,0.31287450207895234,0.298239264559865,4.4120806957500635e-8,8.219999416661081e-8,3.052029915009698e-9,0.04307160023796968,-4.260172476031453e-9
2015-03-31,false,0.0,0.02361164351826897,6.148230401148374e-10,1.8719938411671006e-10,2.8419351571703505e-9,6.546178863693688e-9,1.1475843679026728e-8,1.215242334422835e-8,0.01619620382902421,0.3090630609059568,0.3137977294873533,0.2959787445178213,4.323165396254671e-8,8.282134322589553e-8,3.154049392392339e-9,0.041352458753683485,-4.0375581116776595e-9
2015-04-30,false,0.0,0.023878634365842744,6.207989434825063e-10,1.8885588060049818e-10,2.819815467003129e-9,6.750634445006791e-9,1.2416509109047543e-8,1.3211181966455398e-8,0.01564237151018382,0.3080949247923334,0.31047420651140706,0.29847407671334886,4.387803707612656e-8,8.179350188228293e-8,2.9909988667167727e-9,0.04343562612204501,-4.6854945689834815e-9
2015-05-29,false,0.0,0.024236420818350434,6.299630665124287e-10,1.9176508356683005e-10,2.85536582085917e-9,6.794963329707555e-9,1.1907163912371885e-8,1.2783726885369755e-8,0.015342029596066342,0.3084643374732921,0.3090361575995444,0.3008365040570425,4.35601950775296e-8,8.296943401752558e-8,2.9833658987259716e-9,0.042084390349624586,-4.56986338954894e-9
2015-06-30,false,0.0,0.023945619722734995,6.237778116764751e-10,1.8922781836659357e-10,2.893888164040377e-9,6.647457997166491e-9,1.1462432439603122e-8,1.2356535832672984e-8,0.01507640735248395,0.30958932103458503,0.30908191732203544,0.2992096395481474,4.392479278916919e-8,7.936372772766205e-8,2.8580409690664507e-9,0.043096939322957065,-4.622825239828855e-9
2015-07-31,true,0.15939194658254252,0.04195091365134829,-1.1014986390581596e-6,0.03459055526440981,4.5060258275582557e-7,-7.234955531326498e-7,-6.586922404989809e-7,-7.233613794466941e-7,5.502237142507204e-7,0.30000055133123543,0.2570556063431917,0.29999964978278826,1.0594035185840546e-7,2.721100111240446e-7,-5.451713119285793e-7,0.06640566802537992,-5.711137349803915e-7
2015-08-31,false,0.0,0.039906071840940374,-1.0431302462557521e-6,0.03309150409258399,4.291459269418315e-7,-6.839216463020801e-7,-6.091535775739001e-7,-6.621509084369194e-7,5.594642432846179e-7,0.3053377769347565,0.2593093905201737,0.29810590864585557,1.1140842913468434e-7,2.705769080946011e-7,-5.306183088612164e-7,0.06425203326746494,-5.269225952530279e-7
2015-09-30,false,0.0,0.03817218020462934,-9.96717401163963e-7,0.03153156587946725,4.0351336590131116e-7,-6.414377954541227e-7,-5.784774418470908e-7,-6.290528562072779e-7,5.730317091415955e-7,0.3125958303610236,0.2643341742633752,0.2897777238183838,1.1169248499613276e-7,2.7368925380861275e-7,-5.342871476639826e-7,0.06359106066587762,-5.17146928406667e-7
2015-10-30,false,0.0,0.04166107004667484,-1.0768138440127868e-6,0.03444268905562704,4.268737820455033e-7,-6.861645792660001e-7,-6.201530965485304e-7,-6.684366907652629e-7,5.549458202929071e-7,0.3049331849348104,0.26074922364018005,0.2956835322258119,1.1154170453151523e-7,2.8603976610398275e-7,-5.652612889211673e-7,0.06253304394925331,-5.064239310139892e-7
2015-11-30,false,0.0,0.04221766121300195,-1.0895097253056136e-6,0.03499747852228948,4.450050499795445e-7,-6.870840451980588e-7,-6.101564003393117e-7,-6.572251198163277e-7,5.577929639547393e-7,0.3073447555056777,0.2636828243955416,0.29185627997994057,1.0396630349218541e-7,2.613503522927753e-7,-5.659031446866357e-7,0.05990369615135744,-4.5400404297004327e-7
2015-12-31,false,0.0,0.04238201542055548,-1.0878817410943486e-6,0.03513481824627373,4.3262498756394215e-7,-6.902967965582282e-7,-5.983872781691243e-7,-6.450913094890933e-7,5.645421952261874e-7,0.3107930752980536,0.2648292541035174,0.2902581496741121,1.0576068530214197e-7,2.60091610980467e-7,-5.859688043474863e-7,0.056605316194294555,-3.84330356311978e-7
2016-01-29,false,0.0,0.03910559376541717,-1.0010417563862488e-6,0.03222019377207875,3.7967344712987823e-7,-6.34882124354537e-7,-5.504945509538004e-7,-5.893161080332305e-7,5.972458595860347e-7,0.32191569873754156,0.2659728535635441,0.2866174773029641,1.1174756394880035e-7,2.685317498833695e-7,-5.521873477345826e-7,0.05417049128301414,-3.377012927203067e-7
2016-02-29,false,0.0,0.03973558119515402,-1.020690881338475e-6,0.03269731739387864,3.8686427158358727e-7,-6.187107380445578e-7,-5.49621396909071e-7,-5.944146751729154e-7,6.093240367218671e-7,0.32344542899692147,0.2663106990314793,0.28476693394482255,1.2089959074895286e-7,2.730802229838094e-7,-5.550966299785107e-7,0.053046284813975726,-2.970100323506825e-7
2016-03-31,false,0.0,0.04112330315191286,-1.060304119265281e-6,0.033821043580701836,4.0400609487018696e-7,-6.452056306139429e-7,-6.101459486923223e-7,-6.570278886723796e-7,5.920037103802396e-7,0.3146877174761976,0.2683116721820981,0.28741312076379916,1.1776418918257997e-7,2.747097125339581e-7,-5.916136198626325e-7,0.05464563700548833,-3.1834669763553313e-7
2016-04-29,false,0.0,0.04061584707657345,-1.0656997709145722e-6,0.03297799460075234,4.075297014503918e-7,-6.427030624053671e-7,-6.023815870354975e-7,-6.507971047579833e-7,5.789651101537733e-7,0.3095129006376372,0.26812255330259926,0.29068520825838234,1.1957847452518267e-7,3.111191394196483e-7,-5.75304313725954e-7,0.0580879735896435,-3.5777217473904377e-7
2016-05-31,false,0.0,0.041093006579421755,-1.074924686391368e-6,0.03339125775900396,4.105375601210891e-7,-6.412234145078359e-7,-5.75449270780098e-7,-6.251936440994569e-7,5.827932094393898e-7,0.30833586616304404,0.2662347796310581,0.2915622703931838,1.137486109081117e-7,2.8462565016540205e-7,-5.815034182376787e-7,0.05938530639190547,-3.8032821380596354e-7
2016-06-30,false,0.0,0.03971325274953613,-1.0422680763835579e-6,0.03216543378666079,3.951407974819631e-7,-5.970103113869542e-7,-5.81723549540574e-7,-6.354298746863509e-7,6.089254734238066e-7,0.31091847558349894,0.26832444825340146,0.28829057821499493,1.2099644905420709e-7,3.1382953449006706e-7,-6.023368124431406e-7,0.06059019587155387,-3.6458327622348776e-7
2016-07-29,false,0.0,0.04132281525290928,-1.0781186101718124e-6,0.03374523386261574,4.216597015495119e-7,-6.173734406922867e-7,-6.105648944629089e-7,-6.653596703267074e-7,6.136615392153575e-7,0.30876918226529243,0.2696428538381689,0.29146196367621646,1.2169732632284618e-7,3.43050644005014e-7,-6.214312604931376e-7,0.05506033867873845,-2.947952762475484e-7
2016-08-31,false,0.0,0.04117484272196851,-1.081501097132433e-6,0.033373833842616704,4.283524486271051e-7,-6.234244998657544e-7,-6.201173384451743e-7,-6.741761780065778e-7,6.057258140585892e-7,0.30435371606344486,0.2687265717766434,0.29590579816422286,1.1804964516029822e-7,3.1211160107007307e-7,-5.991916836411859e-7,0.05646769393948274,-3.2233709097496975e-7
2016-09-30,false,0.0,0.04065381475897403,-1.0636898614290546e-6,0.03312422840809205,4.245342975124413e-7,-6.23828656813748e-7,-6.233961864927466e-7,-6.740186562988735e-7,6.015181268383323e-7,0.30495841083414366,0.2677774004589589,0.29607468086500904,1.187820079033781e-7,3.185215934293394e-7,-5.908914799583164e-7,0.05741390093005925,-3.2378642150412225e-7
2016-10-31,false,0.0,0.04070320187165663,-1.0674742842505833e-6,0.03293160599931858,4.122884391356019e-7,-6.213863809817267e-7,-6.239412632339267e-7,-6.829469071346403e-7,5.728530649063241e-7,0.3028393316543684,0.26598481222495274,0.2987121624876362,1.1577389324808945e-7,2.994237876319485e-7,-5.499005963172982e-7,0.05883136211950907,-3.3104719457151995e-7
2016-11-30,false,0.0,0.04306591926044688,-1.1438489165616057e-6,0.03457578134329026,4.6974940481359996e-7,-6.222603570782736e-7,-6.082825235300809e-7,-6.701523970857985e-7,5.468397235256494e-7,0.2975517403454559,0.26347979977892216,0.30307720054577314,1.0973488387609423e-7,2.842271990211434e-7,-5.651909214707992e-7,0.058252064027017866,-3.0611700162058157e-7
2016-12-30,false,0.0,0.04361572203776382,-1.170322884223532e-6,0.03460633147855789,4.78398513085277e-7,-6.306399757618596e-7,-6.063368455183569e-7,-6.635693694116323e-7,5.298990195700879e-7,0.2918374505251455,0.26204987465698903,0.3060772081570493,1.0589300236521811e-7,2.730643129443499e-7,-5.728494109030298e-7,0.06181602122329735,-3.5161516485054544e-7
2017-01-31,false,0.0,0.04401511647923606,-1.1690305580650911e-6,0.03536500522755557,4.7190851013114213e-7,-6.49323289863005e-7,-6.374572293084791e-7,-6.940166418652015e-7,5.284458107103077e-7,0.2908834601378609,0.2610620466780094,0.30778163186357405,1.0883853690130024e-7,2.8756521067329825e-7,-5.717149175872537e-7,0.06089540031525662,-3.3591692465083944e-7
2017-02-28,false,0.0,0.04518227794129892,-1.1967037654365207e-6,0.036391147740248944,4.844966303936536e-7,-6.492265333317645e-7,-6.462148765353265e-7,-7.054573404427364e-7,5.303987243994403e-7,0.289768036283924,0.26088334721521633,0.30779895399702756,1.1203413577218523e-7,3.012464937062409e-7,-5.91063932526186e-7,0.05997893351197703,-3.3619922891095176e-7
2017-03-31,false,0.0,0.04537262539624378,-1.1890357092234418e-6,0.036815355074102565,4.77600755725048e-7,-6.723735441939628e-7,-6.6994795666199e-7,-7.265084132774251e-7,5.290080313466832e-7,0.29030621986376814,0.2609394554817344,0.30825599939515236,1.1177482524735209e-7,2.996668262607662e-7,-5.710548458840579e-7,0.05831306563398622,-3.0997495661086623e-7
2017-04-28,false,0.0,0.04540205353248299,-1.178225826956601e-6,0.03727845437834883,4.857980242942465e-7,-6.820396294217175e-7,-6.692470503697869e-7,-7.225079058090006e-7,5.327420953199956e-7,0.29118234936909604,0.2616447191892532,0.30801382849816866,1.1254650793865029e-7,2.83312883503222e-7,-5.766078206780549e-7,0.0564813064048877,-2.971435152413705e-7
2017-05-31,false,0.0,0.045479440792346865,-1.159883589788096e-6,0.037814539691136274,4.6525270859144514e-7,-6.972308789142516e-7,-6.870799145990404e-7,-7.301633379736377e-7,5.370377978266123e-7,0.2907795044774031,0.2624526990916754,0.30796915576159045,1.1112242894691569e-7,2.818100450284144e-7,-5.601708045972058e-7,0.05550739227209941,-2.9278070611365755e-7
2017-06-30,false,0.0,0.04573316097092811,-1.1777571820236395e-6,0.037703981152307844,4.81638326964401e-7,-7.006279369450764e-7,-6.8564151006165e-7,-7.260396308056305e-7,5.445298378615584e-7,0.2905425862292991,0.26463140444165073,0.30805995290167365,1.0957459654331068e-7,2.693712468404402e-7,-5.736988672928961e-7,0.05333163567198591,-2.6271672652483394e-7
2017-07-31,false,0.0,0.04626570300725035,-1.1795271483383241e-6,0.03845882159074623,4.810248039736956e-7,-7.101561920390644e-7,-7.19660520215031e-7,-7.607334708865646e-7,5.329565471320307e-7,0.28765276482032154,0.2634873713360847,0.3084976690603484,1.1049690623309894e-7,2.674095670929102e-7,-5.732838606872378e-7,0.055640507550577284,-2.8589196096129546e-7
2017-08-31,false,0.0,0.04591887317591691,-1.157211558370182e-6,0.0385747907251364,4.668820146010794e-7,-7.03228501841525e-7,-7.331737914360064e-7,-7.789156337375784e-7,5.480631616434005e-7,0.29043368692369664,0.2638711113779056,0.3067569368698223,1.134123723702476e-7,2.7691847239240054e-7,-5.669788685455349e-7,0.054447397166401484,-2.6200654620435106e-7
2017-09-29,false,0.0,0.04679517973932336,-1.1905420423549448e-6,0.039043410468586275,4.980929424901586e-7,-7.185415777372268e-7,-7.228165872446731e-7,-7.669081432670905e-7,5.336464976500812e-7,0.28604960756555936,0.2630462655706866,0.30793038381808946,1.1100355733131256e-7,2.6664592953375424e-7,-5.663359617686463e-7,0.05713799833122031,-2.8973807987948073e-7
2017-10-31,false,0.0,0.047718533289100425,-1.1938856919226317e-6,0.04041127308040828,4.964665639546702e-7,-7.276843169468429e-7,-7.435190034505897e-7,-7.843643156497941e-7,5.313671381057358e-7,0.2837484194992284,0.26268152486688795,0.30685149002467843,1.0937895921170732e-7,2.648293781185758e-7,-5.582640367285921e-7,0.0585916646017456,-2.996867235723072e-7
2017-11-30,false,0.0,0.04875796851716791,-1.221840961993288e-6,0.04126068878452089,5.128675790521858e-7,-7.339534243072056e-7,-7.542762322762842e-7,-7.89777859530443e-7,5.364085669107099e-7,0.2832871325733281,0.26195051606333847,0.3053099989509983,1.1002485765750417e-7,2.596288114435995e-7,-5.713088483148041e-7,0.05943666261183216,-3.1527367468063987e-7
2017-12-29,false,0.0,0.04969230364121748,-1.2458420202321698e-6,0.04199993860995604,5.130227344322927e-7,-7.399865121466535e-7,-7.659777200358266e-7,-8.050538719708788e-7,5.402437047698091e-7,0.28093911771135105,0.2630532214162978,0.304030408488739,1.1012986610647798e-7,2.6197583269474187e-7,-5.678301773117581e-7,0.06028803621161195,-3.26761009788683e-7
2018-01-31,false,0.0,0.05235573181919853,-1.2920996913106937e-6,0.044708675199206946,5.252966868974099e-7,-7.80046304201046e-7,-8.272131986358728e-7,-8.738950527335057e-7,5.2128500725406e-7,0.2758078059368135,0.2601357601714531,0.3047038648496296,1.1385849657418663e-7,2.6669533429370956e-7,-5.349649281182581e-7,0.062291395540820416,-3.524334720675258e-7
2018-02-28,false,0.0,0.05158033521695981,-1.2587992935348234e-6,0.04450631269414713,5.167860537685223e-7,-7.573856955005352e-7,-8.046076937814287e-7,-8.522470566721154e-7,5.122027500436773e-7,0.27656150609698843,0.2579972187852463,0.3073275369266353,1.1391210477088162e-7,2.5892119467411147e-7,-5.090484246459453e-7,0.06203022028640242,-3.49740318557431e-7
2018-03-29,false,0.0,0.04910177929939557,-1.2080810398926875e-6,0.04230675236131257,5.104605661944625e-7,-7.388910471182778e-7,-7.81760760370401e-7,-8.255379894317961e-7,5.290600592630177e-7,0.2806789912906737,0.25952311516423615,0.30601973846397573,1.1474855866800249e-7,2.574334306820142e-7,-5.302708161682823e-7,0.062372657003693786,-3.6074424951333447e-7
2018-04-30,false,0.0,0.05024958362064047,-1.2356467894306871e-6,0.043239023838280564,5.240729193222942e-7,-7.582090837000131e-7,-7.793617851075718e-7,-8.210514347987139e-7,5.187845861231809e-7,0.27700056532985173,0.2565042244733114,0.30835123618548094,1.1435493293795901e-7,2.60311899199544e-7,-5.350159563498925e-7,0.06465845666636326,-3.783532165177549e-7
2018-05-31,false,0.0,0.050873595332233595,-1.2294918003759689e-6,0.044628921818022575,5.502959710148622e-7,-7.385980499359363e-7,-7.456979424112048e-7,-7.870592036401439e-7,5.256215543741312e-7,0.277452120835264,0.25523604680190193,0.30560808745692575,1.1130539217133539e-7,2.573147072928443e-7,-5.487576597605976e-7,0.06620420939410832,-3.7657142495904545e-7
2018-06-29,false,0.0,0.05088795894103789,-1.224324940973731e-6,0.044835240122740525,5.506630546181688e-7,-7.198616079609598e-7,-7.019543420063728e-7,-7.390544176956582e-7,5.311159157779004e-7,0.2787439505845913,0.25435365625534784,0.3070786136391598,1.0689353571422952e-7,2.4968737028818173e-7,-5.695750748873338e-7,0.06410350077890513,-4.039112751861162e-7
2018-07-31,true,0.2979440246274762,-6.009424805086892e-9,0.05137835771715224,2.654025356823925e-9,-2.531783234572206e-9,-1.1151564278459035e-8,-1.872165604958301e-8,-1.341345103506741e-8,3.373498428398717e-8,0.3000005086387546,0.299999609987302,0.3000000838449891,0.027868653377503102,-2.1421747800388623e-8,1.877968069485746e-8,0.020752827141504906,-2.273853219734483e-8
2018-08-31,false,0.0,-6.183024612314765e-9,0.05191886954245859,2.7912947697276865e-9,-2.636465786551881e-9,-1.091359994119854e-8,-1.7847965179220453e-8,-1.2702671538897284e-8,3.4176110871584604e-8,0.30109805562380226,0.2991502744264094,0.3000808763884797,0.027159845142171006,-1.9937003039206276e-8,1.9350785460720023e-8,0.020592115614179552,-2.283496154734364e-8
2018-09-28,false,0.0,-6.234320970613826e-9,0.05207201454409944,2.8179609723334563e-9,-2.5831526737574566e-9,-1.1045015964503813e-8,-1.798640509058719e-8,-1.2716886719688193e-8,3.328450680682946e-8,0.29811722933994583,0.29923392378937835,0.30258810019954613,0.026841972665617574,-1.9552231393431385e-8,1.869708786537156e-8,0.021146798429679675,-2.364980978050293e-8
2018-10-31,false,0.0,-5.81266376324181e-9,0.049790558845060506,2.5469676945711822e-9,-2.3280640348006853e-9,-1.0119053547532409e-8,-1.6301250964700473e-8,-1.166685450581842e-8,3.283972493824547e-8,0.3023749732040533,0.2979491656625228,0.3010574541058618,0.028124668524534296,-2.0111257373644196e-8,1.8848437030539553e-8,0.020703213736572777,-2.197459105464018e-8
2018-11-30,false,0.0,-5.942867648622108e-9,0.05115788290968439,2.5915772729148036e-9,-2.357891834198491e-9,-1.0285681536405477e-8,-1.7265970340674323e-8,-1.2363774981756348e-8,3.314831176529518e-8,0.30522646244586393,0.2964034511184826,0.30061109704125266,0.02812068700821875,-1.9832725728555638e-8,1.9317821959190364e-8,0.018480449347882892,-1.6880184013158758e-8
2018-12-31,false,0.0,-5.3847042168597e-9,0.046076033747393115,2.356755470176488e-9,-2.0613346063159514e-9,-9.660109229320168e-9,-1.6687430164011463e-8,-1.1934028812330155e-8,3.5050186458452916e-8,0.31302001829299686,0.3007003085355601,0.29324041505080534,0.029385530239578628,-2.1265547616308215e-8,1.7836993837430235e-8,0.017577720522876646,-1.4639991859122595e-8
2019-01-31,false,0.0,-5.636635264611394e-9,0.04821957815142196,2.482113833066231e-9,-2.2219723696507266e-9,-9.999114736219203e-9,-1.761248478256973e-8,-1.2527917475333504e-8,3.3976518283959926e-8,0.30551203221916207,0.3004066381385149,0.29808918485838615,0.029367524111473253,-2.1525700307234455e-8,1.9198203062056555e-8,0.01840507331433349,-1.692630215279294e-8
2019-02-28,false,0.0,-5.825018741172183e-9,0.049704864472296294,2.5810984784524054e-9,-2.3420140674749207e-9,-1.0172917705973956e-8,-1.7544346795622408e-8,-1.2583844136299127e-8,3.358799428778352e-8,0.3032316129956433,0.2994777787614107,0.29980798272893605,0.029085333045561143,-2.0886957898000435e-8,1.9294603377591334e-8,0.01869245933865509,-1.7451099350890016e-8
2019-03-29,false,0.0,-5.773361381004352e-9,0.04873414490598193,2.576067003349669e-9,-2.2339197581494057e-9,-1.0021238206574078e-8,-1.6999301728979102e-8,-1.2383977823817443e-8,3.472269066612563e-8,0.305357630536493,0.3025026191030315,0.2972722851013748,0.027908075015419545,-1.954015267658249e-8,1.9806522044853673e-8,0.018225272960179006,-1.7775807893039202e-8
2019-04-30,false,0.0,-6.0215720538569465e-9,0.050249230887373396,2.71433220576395e-9,-2.318240879169186e-9,-1.0313058141480652e-8,-1.7524455316266765e-8,-1.2739608193188586e-8,3.369764517558495e-8,0.30160823400901254,0.3023853266811307,0.29986847047221216,0.02756014509574236,-1.9352740166851453e-8,1.9486658028141407e-8,0.018328624161566442,-1.8935998302103966e-8
2019-05-31,false,0.0,-5.6801469399581175e-9,0.047559089576526103,2.550801916439532e-9,-2.140687244921729e-9,-9.82468002982607e-9,-1.605018467106996e-8,-1.1802910719604412e-8,3.5527355772736447e-8,0.30759582315330897,0.3050502116311375,0.2945596233880193,0.02759378979445387,-1.8693800274033003e-8,1.9463464175933166e-8,0.017641485774776075,-1.6667433989928063e-8
2019-06-28,false,0.0,-5.799387519946868e-9,0.048543434691703795,2.6036339756821135e-9,-2.168971334436987e-9,-9.97335601886853e-9,-1.6654341324603355e-8,-1.2146241938299148e-8,3.534771011417929e-8,0.30482999186350396,0.3063865003070179,0.29340614524761105,0.0292903851172381,-1.9086739844669957e-8,1.9261797129299836e-8,0.017543568230674916,-1.6841853036931982e-8
2019-07-31,false,0.0,-5.961892473441104e-9,0.04971072912045227,2.6927912184969324e-9,-2.2197214637500628e-9,-9.865265464230698e-9,-1.6333093526068e-8,-1.1998139159910654e-8,3.500494381761042e-8,0.30330239628227434,0.3066501746245437,0.29350605080332065,0.029631803080174247,-2.0622463244398208e-8,1.9658952868178224e-8,0.017198872166966757,-1.6433844528633107e-8
2019-08-30,false,0.0,-5.642341950389546e-9,0.04631067055247193,2.5724767189364414e-9,-2.0387958264404986e-9,-9.322371871330643e-9,-1.498218624868912e-8,-1.1108957545924917e-8,3.8137614265071354e-8,0.30802666868574363,0.31086906177833307,0.2878529897685028,0.03081229282808415,-2.209365300732858e-8,1.977376596818463e-8,0.016128336620145067,-1.55288313095489e-8
2019-09-30,false,0.0,-5.753869764105497e-9,0.04823973282086507,2.563662818783578e-9,-2.083807735556752e-9,-9.671772545351895e-9,-1.534593511426314e-8,-1.1305921187448102e-8,3.7200226667871657e-8,0.3058672006861883,0.30912702240451573,0.2901448562830959,0.0303009206809305,-2.115907603782871e-8,2.024119098615636e-8,0.01632028774269442,-1.5302988057097996e-8
2019-10-31,false,0.0,-5.908975977808843e-9,0.04911888059606972,2.6539303329808216e-9,-2.149386604648974e-9,-1.0035001212965906e-8,-1.6167685002107314e-8,-1.1853205853413375e-8,3.629632774325629e-8,0.3041589390602264,0.3090611553454407,0.2909074484247941,0.030222440065949752,-2.1568265786674346e-8,2.0497720525542376e-8,0.016531159733949214,-1.499188820742438e-8
2019-11-29,false,0.0,-6.091427722643062e-9,0.05030215751857597,2.7592742124073355e-9,-2.224145879022917e-9,-1.0132322497969215e-8,-1.617509058484137e-8,-1.1885806888403003e-8,3.646900159867953e-8,0.30236144856362435,0.3111184150944187,0.2904091795721529,0.02917349787447079,-2.027241061685473e-8,2.0153377284128506e-8,0.016635324511513908,-1.5735205443291107e-8
2019-12-31,false,0.0,-6.180205723712498e-9,0.05088339134401785,2.800392901127455e-9,-2.2498627689709783e-9,-1.0230878446091174e-8,-1.696737373299571e-8,-1.2439432392666386e-8,3.5276239860835995e-8,0.2980385870026183,0.31096941277483464,0.29275666203473755,0.03012794347937421,-2.123385268758604e-8,1.9902409434354154e-8,0.017224031231160744,-1.65441796739511e-8
2020-01-31,false,0.0,-6.224516219864671e-9,0.050170458336774054,2.8810505727436782e-9,-2.2001898058336114e-9,-1.0025807565663501e-8,-1.6051959907295355e-8,-1.1820235965424896e-8,3.677741185322964e-8,0.3018026055701236,0.3124001640972076,0.28911224381041234,0.03095150117197828,-2.0858133790476475e-8,2.0270995235830998e-8,0.015563048264894304,-1.4000004411027717e-8
2020-02-28,false,0.0,-5.654623860475126e-9,0.04527561439955254,2.6415646157533904e-9,-2.0019010722472982e-9,-9.15843627154343e-9,-1.5203946177564735e-8,-1.124334896641727e-8,3.880065567456152e-8,0.3098096003372996,0.31411313456819584,0.28391812063962335,0.03218941089671036,-2.062435824920397e-8,1.9090143497737746e-8,0.014694134854728102,-1.234185883157368e-8
2020-03-31,true,0.6240735777494872,0.013094345563433888,-3.0027932286321685e-7,-3.2045103884802503e-7,-3.081755866381187e-7,-2.4375629742821917e-7,-2.5644376737889053e-7,-2.4593715961769614e-7,0.10929352821759591,0.299999832026973,0.07383947866152923,0.29999973050737005,0.10833821106109041,-1.6263713412309914e-8,-2.6160795041911614e-7,0.09543699824283147,-1.7117473524833168e-7
2020-04-30,true,0.1391128719699565,0.01703381880118778,1.5074970299465102e-8,-7.96007127547668e-9,5.1157023638438183e-8,2.8637372719107738e-8,7.941500826292819e-8,7.258615949776932e-8,0.15258299888599414,0.2999998204463947,0.01680812890485895,0.2999999385358427,0.10644998405285895,5.814561516436084e-9,8.047405082161302e-8,0.10712499218343638,-6.890836792221137e-9
2020-05-29,false,0.0,0.017376800410834482,1.504635114987408e-8,-8.307701508501354e-9,5.180696293734469e-8,2.9273965846214737e-8,7.763079513145978e-8,7.14495365672542e-8,0.14535728185451882,0.2960581170643984,0.016806602192587474,0.30475806327103194,0.10520580848059433,6.502615498033096e-9,8.041843866932771e-8,0.1144370122297061,-9.324635982494832e-9
2020-06-30,false,0.0,0.017301883951227635,1.4533556606141037e-8,-8.470208259557893e-9,5.1585265685824356e-8,2.984322092415695e-8,8.332014131196479e-8,7.675631974584754e-8,0.1459773772702653,0.29465335593489345,0.017048822127574647,0.29817723131937907,0.1072183332217864,6.596282144241137e-9,7.924095622825999e-8,0.11962267309872755,-1.0329388396531297e-8
2020-07-31,false,0.0,0.017628193259400883,1.4678692032265142e-8,-8.751820545874322e-9,5.199289018951325e-8,2.9703970782272226e-8,8.655126533690444e-8,7.973839407788854e-8,0.14542099924192334,0.28418473562649577,0.01686755167001055,0.3023099596819113,0.11323093280432538,8.173608729226942e-9,7.96618875382165e-8,0.12035729607742021,-1.0110375460482482e-8
2020-08-31,false,0.0,0.019129887821449764,1.5400068325411203e-8,-9.764818313135828e-9,5.504554177878823e-8,3.0746549684138455e-8,9.064719633971463e-8,8.340194323671019e-8,0.13743549840210903,0.28208947311927723,0.016566838730181374,0.3041713138453912,0.11357774486894663,9.4065735108905e-9,8.086438096981583e-8,0.12702889822257687,-1.0757367508470789e-8
2020-09-30,false,0.0,0.018354967763998992,1.49116234549309e-8,-9.341093154306947e-9,5.2913204919715234e-8,3.030664391419793e-8,8.711728600420199e-8,8.009850581577902e-8,0.1421775020817203,0.2870395194687903,0.016739963566939627,0.3027461514206667,0.11081604102858521,8.276431638925177e-9,7.824965755012032e-8,0.12212552187595664,-9.738917738108364e-9
2020-10-30,false,0.0,0.018403656643755362,1.4993785866240894e-8,-9.40067621532432e-9,5.549436316143279e-8,2.9546983006122405e-8,9.175095572025111e-8,8.422066739269966e-8,0.13892560299721457,0.28651850498143466,0.01693345741190214,0.3080487348957922,0.11027874245153373,8.032587782802453e-9,7.741068620144499e-8,0.1208909576045463,-9.035531857073072e-9
2020-11-30,false,0.0,0.019805751427493218,1.6769113315526915e-8,-9.865580353437633e-9,6.429461938540161e-8,3.3513982031472746e-8,9.914614085778654e-8,9.058733001236785e-8,0.13676748100947902,0.2803342235390066,0.017028353910761514,0.3122203447601975,0.10295643645090925,7.578097810636148e-9,8.317299740542556e-8,0.1308870344203016,-1.0714849180605866e-8
2020-12-31,false,0.0,0.02004475768390693,1.6823020927313325e-8,-1.0149280024981518e-8,6.761932355862916e-8,3.416158900788835e-8,1.018692790722456e-7,9.24387037690642e-8,0.1327162277774742,0.2752434530293047,0.01686102813985365,0.313134860593244,0.10736887589264098,8.742932456202518e-9,8.2437976903031e-8,0.13463041405412143,-1.1114091633476695e-8
2021-01-29,false,0.0,0.0204309720991112,1.7151724086148216e-8,-1.0339200740142508e-8,7.206062621187672e-8,3.4486579728341103e-8,1.0805015200159095e-7,9.749311642702374e-8,0.12941516706907266,0.27421346562566923,0.01666006727716,0.3145358088437782,0.1047032700686901,8.713580190184726e-9,8.452937141561461e-8,0.14004084880281847,-1.1932249161957666e-8
2021-02-26,true,0.21292467677410554,-4.600575334979246e-9,0.008756082384727429,1.2845841398654912e-8,-5.149975239260048e-9,-4.0348273569733375e-10,1.922520047543743e-8,1.9042897625681325e-8,0.17082036679670487,0.29999984549473335,0.028783816210207352,0.2999999604037228,0.07801146421983617,-2.3288893164512036e-8,1.1382148316381189e-9,0.11362847121988663,-2.5455721770312958e-8
2021-03-31,false,0.0,-4.8258218261107e-9,0.009322606584129086,1.3086851519459487e-8,-5.191897050441558e-9,-4.149276102440632e-10,1.893468666947259e-8,1.8759499135321676e-8,0.17024987170255576,0.29995186117005046,0.029047290890788568,0.30539631647449167,0.07508191796735919,-2.0626694721097414e-8,1.2015628003473855e-9,0.11095013902180098,-2.473443476486576e-8
2021-04-30,false,0.0,-5.014379303180633e-9,0.009501886467682038,1.3912605647754045e-8,-5.297400060807368e-9,-4.2048812539110597e-10,1.914184698902048e-8,1.9005393671325693e-8,0.1690306940506048,0.2952477720145693,0.02868340481232594,0.30181439701492974,0.07732529680823734,-2.191221116651725e-8,1.2527676093291465e-9,0.11839655406038027,-2.589686456746221e-8
2021-05-28,false,0.0,-4.944013779064493e-9,0.009515782974220621,1.3416642481964224e-8,-5.172623366430501e-9,-4.2334297235335894e-10,1.874904101029469e-8,1.870499357901614e-8,0.16769046586530803,0.2933727409733638,0.028562828912276992,0.2984223311326992,0.0816798118403628,-2.3030054660599532e-8,1.244569238376371e-9,0.12075604601754576,-2.6260988738594524e-8
2021-06-30,false,0.0,-5.010556711115442e-9,0.009286887833503456,1.4179648587160915e-8,-5.209862340641311e-9,-4.187861387527625e-10,1.8978753995697498e-8,1.8977685367576103e-8,0.17228089492997328,0.2930615496383609,0.028906881114020386,0.2993748696595207,0.07495526185660278,-2.103523189028961e-8,1.2786397054962964e-9,0.12213366168937338,-2.846164551430018e-8
2021-07-30,false,0.0,-5.063664634521167e-9,0.009243849803324683,1.4438078356886417e-8,-4.95121240170317e-9,-4.127978791806063e-10,1.7452644606635904e-8,1.7508230332664836e-8,0.17515860771352879,0.29292911259734067,0.028777705293271286,0.2945296247910692,0.0763706553498915,-2.0462858342718445e-8,1.3005532879616487e-9,0.12299045284459682,-2.8201996432409875e-8
2021-08-31,false,0.0,-5.1966584817693335e-9,0.009399475430944878,1.4905450077793314e-8,-5.011484752188936e-9,-4.1681132094129723e-10,1.7305976769227487e-8,1.754512863872419e-8,0.17655205026652948,0.2932068620422434,0.028773046998012617,0.29593083075188326,0.07550893095107121,-1.916015595325659e-8,1.3240074960568082e-9,0.12062880908982983,-2.682596690118587e-8
2021-09-30,false,0.0,-5.06730952933922e-9,0.009311504098417417,1.4300227442630224e-8,-4.977380596455021e-9,-4.092957860566395e-10,1.6917591912744772e-8,1.7241633900475626e-8,0.17222941242792972,0.2911632195069307,0.028695438624290828,0.29888520152508585,0.07276260686132978,-1.7329602473267492e-8,1.2904959110916969e-9,0.12695262428815074,-2.929849583064056e-8
2021-10-29,false,0.0,-5.267688861929433e-9,0.009507312749380922,1.51172093762237e-8,-5.064827842758067e-9,-4.1702028098807027e-10,1.7232854512070664e-8,1.7547338358775684e-8,0.17331862079916752,0.2860242938389982,0.028380261150387092,0.2942219352725705,0.07470738124878255,-1.903970665800065e-8,1.3548610584748659e-9,0.13384020510747655,-3.1629782841044215e-8
2021-11-30,false,0.0,-5.387776000790992e-9,0.009467852300147628,1.566249276503759e-8,-4.983323252935211e-9,-4.028035932373211e-10,1.644107596798118e-8,1.6939906118189063e-8,0.17741711270608454,0.29019757623435616,0.02852947134156108,0.29395977951935265,0.07470340093788318,-1.823107285162314e-8,1.3482499897260995e-9,0.12572481317661272,-2.7602747062001155e-8
2021-12-31,false,0.0,-5.4705577360580034e-9,0.009703236515620595,1.5600614998372924e-8,-4.931955941280097e-9,-4.1215153341756345e-10,1.6552104320603415e-8,1.706514131709078e-8,0.1739744639924858,0.2873875687064245,0.028295137029112225,0.296040877316763,0.07523621162783872,-1.8152979053241017e-8,1.4279732190919468e-9,0.1293625129387317,-2.98051659720579e-8
2022-01-31,false,0.0,-5.143078414422952e-9,0.009493129451553995,1.3926817032961815e-8,-4.368589857554733e-9,-3.964216740387091e-10,1.6150239390956255e-8,1.6780337525236197e-8,0.17056199565847593,0.2849250485826836,0.027603865562116473,0.29209921580901116,0.07503385096671199,-1.7820288121100568e-8,1.3117093522437994e-9,0.1402829074519531,-3.392323118320867e-8
2022-02-28,false,0.0,-5.103680835120946e-9,0.009561147837664548,1.3705576074035344e-8,-4.535404201387499e-9,-3.968845894947438e-10,1.6203046067782304e-8,1.689873693215514e-8,0.16383360611994074,0.28189119702447984,0.026836269037067442,0.2904944974296214,0.07954413677112676,-1.9322918967583706e-8,1.303905062959108e-9,0.14783916312044035,-3.60927166238746e-8
2022-03-31,true,0.18429569077940908,-3.4925755531225243e-9,0.00366776906982062,-1.7867916874933496e-9,-2.477774629559662e-9,0.027352605400866866,-2.2257024950924527e-9,-2.2657562086718558e-9,0.14263243551704208,0.29999997798531425,0.050259476571719336,0.2999999949198636,0.08200663425836985,-3.6591303694494937e-9,-3.0954295190682566e-9,0.0940811288004059,-3.5059005378689002e-9
2022-04-29,false,0.0,-3.369563055068595e-9,0.0036355231221463485,-1.6686864795388726e-9,-2.3521546321330868e-9,0.026275878328816928,-2.121789535036219e-9,-2.1707371922589413e-9,0.1358312330939712,0.2998700117134191,0.049003470516239,0.30046169851104454,0.08323908966648849,-3.535688773318702e-9,-3.1815754957880103e-9,0.1016831170645964,-3.616527001706038e-9
2022-05-31,false,0.0,-3.2298280783916796e-9,0.003587901275826434,-1.5430601569056035e-9,-2.285975973427426e-9,0.026369116909424378,-2.0900460635440277e-9,-2.1297583849930732e-9,0.13258166806967017,0.3007924000331883,0.04931246324735901,0.301588587280643,0.08061363297047199,-3.3228191150311117e-9,-2.8925732276691194e-9,0.10515425160523718,-3.8977594297560695e-9
2022-06-30,false,0.0,-3.1164813246329882e-9,0.0034322270210037755,-1.4965668473336693e-9,-2.185014052424026e-9,0.025259569589595597,-2.121067585239083e-9,-2.1897724057840053e-9,0.13343750275248165,0.30812412674801165,0.049484664149138345,0.2923676670596831,0.08314929813150296,-3.279530015074942e-9,-2.778037873891306e-9,0.10474496567871777,-3.9636646346336574e-9
2022-07-29,false,0.0,-3.2315080915790697e-9,0.0034987799158505174,-1.5775944385588382e-9,-2.310036202728276e-9,0.025306691819959152,-2.0533890783116343e-9,-2.1111399328286633e-9,0.13432509977874482,0.3106848280036345,0.050279499546258696,0.302157575353545,0.07802112355122653,-3.0598468070445887e-9,-2.909911135031244e-9,0.0957264228290653,-3.544858827220749e-9
2022-08-31,false,0.0,-3.2627101424221097e-9,0.0035523278807852265,-1.5897507640087853e-9,-2.3601117172975466e-9,0.024981142123539055,-2.070696561750532e-9,-2.1528019103527825e-9,0.13290048399325735,0.3093590730558326,0.05017238190084914,0.3005396648719491,0.07888228569274867,-2.895233656241713e-9,-2.8452045502312527e-9,0.09961266121283849,-3.555290228895148e-9
2022-09-30,false,0.0,-3.151069183663216e-9,0.003438186378148262,-1.527868641560816e-9,-2.2519480206497915e-9,0.02386153778087546,-1.949017201641521e-9,-2.0507632618071366e-9,0.1291949059159144,0.31118699226295027,0.04947643055118438,0.3056283555343436,0.08036161765508026,-3.1235200787517323e-9,-2.574240351774338e-9,0.09685199385287033,-3.3029403030749226e-9
2022-10-31,false,0.0,-3.3492921688664404e-9,0.003732805885772538,-1.5879526317189487e-9,-2.459458217989815e-9,0.025209030013685862,-1.8929491063770342e-9,-1.980641068413432e-9,0.119911887318165,0.3054314321236574,0.04894430914924665,0.31722346152359565,0.07906209113532507,-3.151669585457623e-9,-2.6717319834147488e-9,0.10048500350934607,-3.5650995517708546e-9
2022-11-30,false,0.0,-3.3207285569255204e-9,0.0037719017845699175,-1.540087539628626e-9,-2.3875630962183686e-9,0.027084842710151748,-2.0684415541015656e-9,-2.1431916371340258e-9,0.12367746036740168,0.3053539991122549,0.05013711290713131,0.3112214608848038,0.08207104473433219,-3.382347171947337e-9,-2.6989499744206006e-9,0.09668219829576612,-3.255102334999643e-9
2022-12-30,false,0.0,-3.235664663919684e-9,0.0037067752534400648,-1.4825944789535155e-9,-2.2978834320936186e-9,0.02735751805428319,-2.1013065652148274e-9,-2.1793744738365497e-9,0.12259434627019901,0.30511711803353675,0.050324162540467406,0.3103962914396658,0.08519689661355674,-3.783841747441465e-9,-2.6404847768127914e-9,0.09530691277185503,-3.2558538375287444e-9
2023-01-31,false,0.0,-3.2706875265387516e-9,0.0037115900682794857,-1.5238702455501533e-9,-2.3764540179029728e-9,0.028399395935676357,-2.1921634562297675e-9,-2.250710011171763e-9,0.12518600432874288,0.3031678111205064,0.05054681494646289,0.3094152748635954,0.0872976207848635,-3.606396259775495e-9,-2.7396588452144223e-9,0.09227550903222911,-3.120415781661518e-9
2023-02-28,false,0.0,-3.3377133598380783e-9,0.0037443549386125246,-1.5757825692871421e-9,-2.4569678668554235e-9,0.02867568794583578,-2.0928978562984193e-9,-2.178908331198511e-9,0.12284627026177242,0.3026734358971317,0.05015069492066184,0.3151859167459563,0.08484934197950206,-3.235040654306189e-9,-2.7091802513065045e-9,0.09187431800927952,-3.112261059511666e-9
2023-03-31,true,0.3821081393002863,3.5956925042300904e-9,4.481709064885898e-9,2.7858889022397464e-9,4.702013427998151e-9,3.6181011570160654e-9,1.2918840725297907e-9,1.3433863467305923e-9,-3.6680453497339917e-9,0.3000000419472276,0.24142040176672386,0.2999999553153305,0.07497240457598284,1.2539967914872161e-9,4.092322827603959e-9,0.08360716990953725,2.9842556962740763e-9
2023-04-28,false,0.0,3.6510829003390153e-9,4.536588290580594e-9,2.8211210823028867e-9,4.630847413145241e-9,3.7227310161889043e-9,1.2652205379782232e-9,1.3181269891103492e-9,-3.6532731255594635e-9,0.30011524690353736,0.24180315079903916,0.300875782791758,0.07474409590118102,1.2992799338270305e-9,4.115085678068982e-9,0.08246169691884063,2.9788330868303382e-9
2023-05-31,false,0.0,3.766809010933143e-9,4.4820074168212644e-9,3.027693363047097e-9,4.735317347332383e-9,3.6553980982358854e-9,1.2684115054632904e-9,1.3122081974924857e-9,-3.6119313951200848e-9,0.30073209359150765,0.24168820854153047,0.30330429088580946,0.07457122031075891,1.2217808376969184e-9,4.0281067143684935e-9,0.07970415994496002,2.8396323953344027e-9
2023-06-30,false,0.0,3.944128690707316e-9,4.7158370508304e-9,3.166841061784621e-9,5.037864585610673e-9,3.73465393715614e-9,1.3016070462180706e-9,1.3532232328457322e-9,-3.6094105923045932e-9,0.297638545040763,0.24283639819730835,0.30652104457638896,0.07257702648518073,1.1865287533129812e-9,4.250776461579042e-9,0.08042695775976602,2.8585427705178284e-9
2023-07-31,false,0.0,4.0602804346269795e-9,4.843919748145688e-9,3.2726041955658265e-9,5.237516598439817e-9,3.829894310112542e-9,1.3711247196803663e-9,1.4236167944211206e-9,-3.5031527793208775e-9,0.29216165942966743,0.2409089787322857,0.3067095397099192,0.07356024197610755,1.258419317410183e-9,4.275650190544206e-9,0.08665955085709849,3.2250479604198597e-9
2023-08-31,false,0.0,4.024225550820341e-9,4.766235342247406e-9,3.255575781462829e-9,5.057830329862391e-9,3.70921547622677e-9,1.301803658964425e-9,1.3626977433161784e-9,-3.3974868463840373e-9,0.2911113279768591,0.23925766771228577,0.3096437861540881,0.07326775206496718,1.2756122783550692e-9,4.205750488716287e-9,0.08671943722423396,3.306106187403144e-9
2023-09-29,false,0.0,3.9191563922157304e-9,4.683894778232927e-9,3.1491103624093505e-9,4.876349309930061e-9,3.6466004659983194e-9,1.2709784943581063e-9,1.339737279875786e-9,-3.206301891410878e-9,0.2886215608570586,0.23666188030635082,0.31153534503488767,0.07190748379386315,1.1962982003173778e-9,3.939349019952646e-9,0.09127370145711848,3.735548962727947e-9
2023-10-31,false,0.0,3.8485152559622215e-9,4.5114117361302205e-9,3.1252175083668294e-9,4.531420031989074e-9,3.5616663227904606e-9,1.2525218420874824e-9,1.3201110667105493e-9,-3.079172553048171e-9,0.28738028214609185,0.2337386814790957,0.31106703914964623,0.07777436841943841,1.2433898277006423e-9,3.786029843364734e-9,0.09003960119668943,3.507927734426041e-9
2023-11-30,true,0.13418425534758008,5.035976870434582e-7,0.03900552785102443,4.7135707428898094e-7,5.064432101513769e-7,5.213109322109351e-7,4.899660550718072e-7,0.004924020153560051,4.911975325288445e-7,0.30000156015961754,0.18540524618547155,0.3000015108186722,0.08229642992678374,6.183728354776547e-7,5.11697885156173e-7,0.08836098884614019,6.011074157840626e-7
2023-12-29,false,0.0,5.151990598466762e-7,0.04044909071994162,4.801843291506949e-7,5.62081726370506e-7,5.326439514299061e-7,4.943063953871388e-7,0.004943866792429029,5.167893684389231e-7,0.3017821234065921,0.188626469052584,0.30146513918924905,0.08073225757605276,5.75996666513959e-7,5.538874503095344e-7,0.08199628321778446,5.389564195108993e-7
2024-01-31,false,0.0,5.328569866447577e-7,0.040971958011302725,5.028511433526877e-7,5.464476221633057e-7,5.357344428942376e-7,4.7609331934551733e-7,0.004818333624411906,4.977387066169513e-7,0.3001207894743173,0.18746409032892347,0.3028936528177588,0.0798656400748709,5.568280697798761e-7,5.265096563163798e-7,0.08386077551237144,5.850960963806073e-7
2024-02-29,false,0.0,5.544631531481795e-7,0.0422526918224478,5.263531178520357e-7,5.630207609457343e-7,5.525831806001523e-7,4.973639777927825e-7,0.005000185446951415,4.920058940065521e-7,0.29850044725736047,0.18587255710733935,0.30529167081908837,0.08050947060455485,5.44159996801986e-7,5.317272335939873e-7,0.08256811941284468,5.958520984501992e-7
2024-03-28,false,0.0,5.623295417566807e-7,0.043414491321878225,5.287861571680407e-7,5.718378034156246e-7,5.616160056077204e-7,4.982541967687177e-7,0.004980341548625262,4.889136194335695e-7,0.29513154363544286,0.18503708601058805,0.30323965043806417,0.08491593931292385,5.819770454786449e-7,5.308690510184332e-7,0.08327601001519494,6.131338619920791e-7
2024-04-30,false,0.0,5.52483665625376e-7,0.04260759793080501,5.176210560725631e-7,5.492642728777207e-7,5.534169082542033e-7,5.098870964503891e-7,0.00515268509142862,4.6435471766621064e-7,0.28930439637267036,0.18132102155140187,0.30317245581291413,0.0910202836788029,6.443829187501989e-7,5.038964844025125e-7,0.0874166309074595,6.333473975587411e-7
2024-05-31,false,0.0,5.627690497325769e-7,0.042489472412307584,5.347697622578253e-7,5.568631477917075e-7,5.652270303118238e-7,5.144555198366355e-7,0.005206659228941716,4.676833831104268e-7,0.29017089425019427,0.18248918806287343,0.3031364301167316,0.09058193530933896,7.283683381131748e-7,5.051436062059962e-7,0.08592038803390796,5.973058669961308e-7
2024-06-28,false,0.0,5.832077206254857e-7,0.0421318400522945,5.688389525730995e-7,5.460745323341838e-7,5.528144428306846e-7,5.154134070925562e-7,0.005186953808599634,4.82314497140967e-7,0.2930978690181113,0.18336087407253518,0.30279831522789813,0.0887432033015783,6.655329336034022e-7,5.137496698596723e-7,0.08467589346629616,6.23106530752345e-7
2024-07-31,false,0.0,5.707632471315018e-7,0.04364405696670155,5.325481216016192e-7,5.923743653033626e-7,5.523956536942876e-7,5.027486170742364e-7,0.005094208834519988,4.789747864599895e-7,0.29397875738331813,0.18351892422655303,0.304124329072116,0.09059060388269918,6.3953299720155e-7,5.531668960626678e-7,0.07904412484521092,5.722841963677621e-7
2024-08-30,false,0.0,5.733121398033661e-7,0.043455093759545066,5.376943773774923e-7,5.667494201155438e-7,5.631869439452005e-7,5.047114968312818e-7,0.005098939212214235,4.871853755978169e-7,0.29405135897773305,0.1841142870737383,0.302633581546252,0.09252680037185018,6.457425142354649e-7,5.603962197687717e-7,0.0781149267179991,5.733621802243785e-7
2024-09-30,false,0.0,5.774768876051381e-7,0.04346437328331839,5.45268705843787e-7,5.614215500442144e-7,5.595436597185231e-7,5.326239329236234e-7,0.005423168370532881,4.847405665234871e-7,0.29245856058088027,0.18424728021810804,0.30244138376906765,0.09548907287420307,6.791162661372599e-7,5.689805483707199e-7,0.07647113898802776,5.127437448837181e-7
2024-10-31,false,0.0,5.942383219930196e-7,0.04403117076202411,5.696458121687749e-7,5.717376475659544e-7,5.387592218997456e-7,5.178673481569009e-7,0.0053126711283341356,4.615321284970504e-7,0.2858897756787016,0.18080989500878036,0.304395278311276,0.10172533479212736,7.321297012432865e-7,5.713224380554991e-7,0.0778307927386245,5.243475121581439e-7
2024-11-29,false,0.0,6.118370657513034e-7,0.04628065318546534,5.827871132269712e-7,6.191070230893269e-7,5.253475784756667e-7,4.984039764977898e-7,0.005148437719956047,4.651301922232042e-7,0.2868210052931009,0.18213355763132785,0.30730570270605895,0.09581436604050246,6.485655675222206e-7,5.86376316927228e-7,0.07649121552767356,5.243410812903763e-7
2024-12-31,false,0.0,6.10669637501305e-7,0.043653057975769724,6.05187245708627e-7,5.75491892170281e-7,5.233702209217295e-7,4.987166267109459e-7,0.005191652472663872,4.480239278913257e-7,0.28584759756692346,0.18121003233065744,0.3096980830951762,0.09590065467901834,6.314986890170077e-7,5.366197488605139e-7,0.07849393869799882,5.536038033617206e-7
2025-01-31,false,0.0,6.155983210357756e-7,0.04515957392545434,6.005776853737899e-7,5.839313312683297e-7,5.427173106603295e-7,5.032670132659494e-7,0.005170013799256181,4.419159767776475e-7,0.2819772478841752,0.17885759285992306,0.3084321654481253,0.10079465162733493,6.717394351996901e-7,5.399617768538757e-7,0.07960369215784384,5.625890367017723e-7
2025-02-28,false,0.0,5.875526558202957e-7,0.043881714548430734,5.590807726403676e-7,5.353398525037109e-7,5.451485112491745e-7,5.034893485357247e-7,0.005156754163008795,4.5231957139296293e-7,0.28420133406122977,0.1794162421358051,0.3060831953239676,0.10211825603465077,6.552426455882859e-7,5.469011787192965e-7,0.07913758180420409,5.368541666563981e-7
2025-03-31,true,0.19021760073693197,9.384449439164291e-8,0.010899550018926393,8.160474577373253e-8,9.017002483226964e-8,1.0131925612607136e-7,9.394818313488263e-8,0.0029255910382413545,1.216310755829804e-7,0.30000022376992297,0.19121776764970697,0.3000005151635009,0.049511767288056084,1.1775053221064217e-7,9.444302468930966e-8,0.14544362381590326,1.663085367026724e-7
2025-04-30,false,0.0,9.254690430803416e-8,0.010572213015761996,8.189625337258086e-8,8.732435685464923e-8,1.0346484658419185e-7,9.30475117361761e-8,0.0028961024217626923,1.2182380715337438e-7,0.3032058414549781,0.19164148348444157,0.30176156928261894,0.053110790138386064,1.1247487661890557e-7,9.2099580910984e-8,0.1368110707824557,1.447414574291737e-7
2025-05-30,false,0.0,9.852133738778397e-8,0.010949889089254464,8.923439143800474e-8,9.172247858618317e-8,1.0821508060491385e-7,9.827430770754745e-8,0.0030514386644500445,1.1685756741799565e-7,0.2993658394967393,0.19079311512065006,0.30550701801672725,0.052944071934639375,1.14164235825799e-7,9.347602363085918e-8,0.13738766987608578,1.473360312160038e-7
2025-06-30,false,0.0,1.0122631724551095e-7,0.011091660300231057,9.26010960697452e-8,9.446145569933737e-8,1.0900194923611137e-7,1.0172809112816268e-7,0.0031236293198564575,1.1694304375419493e-7,0.2987782641931326,0.19101496042105376,0.30504619648873943,0.05126009458740753,1.204856721129289e-7,9.191568050656044e-8,0.13968420990005734,1.564262160981687e-7
2025-07-31,false,0.0,1.0371976715896145e-7,0.011223792905652367,9.597872618721204e-8,9.635854985408627e-8,1.0713144751326952e-7,1.0258106543714368e-7,0.003143712985150589,1.1582453724282027e-7,0.2958940330109453,0.19051987717651941,0.3043727562803127,0.05083093046094697,1.2263553668185403e-7,9.320119096541388e-8,0.14401388838373808,1.7136591354462808e-7
2025-08-29,false,0.0,1.0477994091536763e-7,0.011341433404517397,9.707554850186264e-8,1.0131526712474731e-7,1.1005901612096468e-7,1.0392406026343739e-7,0.003205596008952319,1.1532249184411246e-7,0.29769415141832056,0.1909669825543427,0.30486536903870637,0.05255187760139547,1.2828123151964084e-7,9.339079451863535e-8,0.13937357890703045,1.5691838375713116e-7
2025-09-30,false,0.0,1.0571647563485561e-7,0.011297760788219001,9.887473580618622e-8,1.0217966624408101e-7,1.0940343605378372e-7,1.0852520876964095e-7,0.003308242918116308,1.1699931256719033e-7,0.29470441482051596,0.1909158067725862,0.30219782603029444,0.057797585559575586,1.5064476222154773e-7,9.203230121311555e-8,0.13977732607979798,1.5265499578638554e-7
