date,rebalanced,turnover,SPY,IWD,IWF,IWM,EFA,EEM,VWO,TLT,IEF,LQD,HYG,GLD,SLV,VNQ,DBC,USO
2010-04-30,true,1.1221039700851485,0.04723984515994102,-4.473386639606495e-8,0.08576591769401301,-6.422087865148164e-8,-4.3886193110214556e-8,-8.66801534425996e-8,-8.243358599583517e-8,0.08598571182429443,0.30000003392359664,0.22298438182662944,0.17881593970381393,0.058507534069102515,-3.426692914675402e-8,-2.3582030177932715e-7,0.020701235713917188,-8.01385283438602e-9
2010-05-28,true,8.391817342085196e-7,0.047239794905841744,-2.7430298355396883e-8,0.0857658835091773,-2.7196717935741015e-8,-2.529844073423394e-8,-2.2644228976925735e-8,-2.316896017689959e-8,0.08598566846469767,0.29999998749121354,0.22298432096822446,0.17881587248777508,0.05850745575597543,-1.514458628272791e-8,-3.1442751683828666e-8,0.02070120057184402,-1.1719103727499868e-8
2010-06-30,true,2.924027556985772e-7,0.04723982489908967,-1.3267646351014342e-8,0.0857658508839347,-1.15168002004081e-8,-1.233021726110429e-8,-8.196709112725278e-9,-8.622956714684484e-9,0.08598566605448765,0.2999999809968895,0.22298429399966946,0.17881583742395654,0.05850741308096768,-6.4027113095071236e-9,-5.8991246209103e-9,0.020701206548383182,-7.613111632757202e-9
2010-07-30,true,2.3706732678278998e-7,0.04723988171710344,-7.315371339405424e-9,0.08576581701926893,-6.388263592697192e-9,-7.384291109609185e-9,-5.14171959301968e-9,-5.3745618850206925e-9,0.08598567648813153,0.2999999836318167,0.22298427602030982,0.17881580844873946,0.05850737535679733,-3.432111584942344e-9,-2.3575728900970953e-9,0.020701225675506425,-6.9451793221526665e-9
2010-08-31,true,9.188182847429373e-8,0.04723989226372915,-3.5434508945023385e-9,0.08576581183416868,-2.9097027952764865e-9,-3.6576109626366617e-9,-2.4597365801821134e-9,-2.6347282999371867e-9,0.08598568004237385,0.29999998714201526,0.22298426926646897,0.1788157958173507,0.05850735398158315,-1.6167478921524298e-9,-9.147690652878238e-10,0.020701231934410393,-4.536010968692825e-9
2010-09-30,true,4.9314048916613974e-8,0.047239879955311134,-1.3339933567046828e-9,0.08576581786503978,-7.570452106949609e-10,-1.1652374118328197e-9,-5.040220639126425e-10,-6.005425302881442e-10,0.08598567720834577,0.2999999897306908,0.2229842671043645,0.17881579418374982,0.058507350237886724,-5.642370418145302e-10,-1.88569019124885e-10,0.020701229956875025,-1.1239917937914722e-9
2010-10-29,true,3.2830449326021814e-8,0.047239868317869874,-3.1093804944201845e-10,0.08576582603994634,6.601804452118784e-11,-1.5796065952166157e-10,1.086420759135239e-10,6.302654183212219e-11,0.08598567599096388,0.2999999924041485,0.22298426630474938,0.1788157942135578,0.058507347895359094,-1.0194748127500164e-10,6.64833956811979e-11,0.020701229537122837,-4.354032865441936e-10
2010-11-30,true,2.6037782844375555e-8,0.047239857823691896,5.686649025256482e-11,0.08576583260854591,3.586442509081571e-10,1.8537900575853444e-10,2.7220104007227204e-10,2.483362362265777e-10,0.08598567639257139,0.2999999947913188,0.22298426635259969,0.1788157953981645,0.058507345369827414,7.90383768656987e-11,1.1680988605524319e-10,0.020701230323093144,-3.770861949338494e-10
2010-12-31,true,3.770516473584582e-8,0.04723984527624785,3.488166855120746e-10,0.08576582781600188,9.320737081212183e-10,7.773137810293215e-10,9.47115965377519e-10,9.33341079075178e-10,0.085985679198866,0.29999999552799306,0.22298426483965325,0.17881580321632073,0.058507348398938945,4.258611520279474e-10,2.1881050152588296e-10,0.02070123039128605,7.506568809912401e-10
2011-01-31,true,1.2515402090714317e-7,0.04723986814334327,-2.0585589300875157e-10,0.08576577871198587,8.173591964886241e-10,7.749861715012252e-10,1.2736157458848655e-9,1.3036162874139219e-9,0.08598568077887479,0.29999999390212373,0.22298425808575895,0.17881581743170527,0.058507368999183955,4.822410687609322e-10,-1.1130646260682075e-10,0.020701226300589834,3.3124816018491873e-9
2011-02-28,true,1.4049370313255411e-7,0.04723989477902175,3.80567835910529e-10,0.08576574076752105,1.5189685527226568e-9,1.3865655728652223e-9,1.5952304298000995e-9,1.5567042760072077e-9,0.08598568089456889,0.29999999571240277,0.22298425301776092,0.1788158305612947,0.05850739357125466,1.1856727357433361e-9,3.678667871892764e-10,0.020701199071201225,3.6441014821454218e-9
2011-03-31,true,2.371950492818317e-7,0.047239963685078795,1.6484217671104892e-9,0.08576567254931089,2.3983293138665697e-9,1.7817386709467772e-9,1.4985114985380603e-9,1.3958689924050348e-9,0.08598570208993137,0.29999999495336105,0.22298425272826075,0.17881585031359834,0.05850739767976541,2.277278136826829e-9,1.3707453918261898e-9,0.02070115674595306,-3.1022876340471623e-9
2011-04-29,true,2.4823274624660957e-7,0.04724003923520499,2.1108667761602283e-9,0.08576560446255772,2.390435980754989e-9,1.8450815349996606e-9,1.436952847932908e-9,1.4283012746666091e-9,0.08598571931342784,0.2999999944552513,0.2229842482961418,0.17881586952320186,0.05850740858649709,2.93899370381218e-9,1.3646991964471805e-9,0.02070110718831855,-4.575025708385331e-9
2011-05-31,true,1.898402504251456e-7,0.047240098743671244,1.7185495228571163e-9,0.08576554171418406,1.9051979279893478e-9,1.2650789477919185e-9,8.214794986400519e-10,7.619777266170925e-10,0.08598573735809972,0.29999999451917475,0.22298424842772457,0.178815885481314,0.05850740481785678,7.983627228172666e-10,1.2541147505406413e-9,0.02070108377949254,-3.3579420080094574e-9
2011-06-30,true,1.6481414873294115e-7,0.04724014725455942,2.323072623665575e-9,0.08576550188154983,2.1255611399882585e-9,1.6422214884406944e-9,1.332707806694196e-9,1.4094455815177814e-9,0.08598574592802409,0.2999999949811609,0.22298424350132648,0.17881590076987075,0.058507411139361656,1.681987695491025e-9,1.1820092036920933e-9,0.020701047191686528,-4.355936524229041e-9
2011-07-29,true,1.6162119042691547e-7,0.04724019584559413,2.9232172191787807e-9,0.08576545980359332,2.4130540022013796e-9,1.940595320266084e-9,1.5340834549048154e-9,1.665598377193373e-9,0.08598575617570849,0.29999999530425825,0.22298423778737006,0.17881591843663455,0.05850741323258379,1.4698561488181946e-9,1.4267199055404836e-9,0.020701015271779945,-5.243123095363774e-9
2011-08-31,true,2.6137701888916004e-7,0.04724024961475932,6.294435280449148e-9,0.08576544026434207,4.596988377733112e-9,4.396738143492368e-9,4.780470394025185e-9,5.1330183833457305e-9,0.085985759905502,0.29999999218873974,0.2229842290655243,0.17881595321567395,0.05850743359677268,4.3520602874284256e-9,1.847916110759774e-9,0.020700931824314463,-2.112537143007131e-8
2011-09-30,true,2.1039671679474473e-7,0.04724028326422903,4.298441730737453e-9,0.0857653809669844,3.2283358017142362e-9,2.5511936966625335e-9,1.7272797999809233e-9,1.9580764235257747e-9,0.08598577952534114,0.29999999233707286,0.22298422377446445,0.17881597971688448,0.058507409505163074,-7.030161168770555e-10,2.1106070900221114e-9,0.020700944609966083,-8.869276394314937e-9
2011-10-31,true,1.0774454121365234e-7,0.047240281676384825,-5.845350907723341e-10,0.08576537683990093,-1.1651170925025097e-9,-9.235614346971496e-10,-8.104370224557774e-10,-7.825425511516465e-10,0.08598578853804598,0.299999991137912,0.22298422181803165,0.17881596048183657,0.05850740532355023,-1.593215528540081e-9,-5.504363230038566e-10,0.02070098053668602,6.78944737189697e-11
2011-11-30,true,6.558343584371048e-8,0.047240279937278855,-4.767025691326239e-10,0.0857653912886727,-6.178050783457895e-10,-4.0972627415890873e-10,-8.083821517262423e-11,-9.408694184585812e-11,0.0859857875844713,0.299999993004037,0.22298422608245522,0.17881594533784506,0.058507412614934584,4.636344129788864e-10,-3.888333284308946e-10,0.020700965574094076,1.7587445570399318e-10
2011-12-30,true,4.6675994046959346e-8,0.04724027798791472,-4.917680294481876e-11,0.08576540172591081,-3.7508265244821727e-11,-5.30893497386454e-12,1.415799709818438e-10,1.3931388893769122e-10,0.08598578726451094,0.2999999952340395,0.22298423231301986,0.17881593434536414,0.05850741476640911,5.336647470580034e-10,-3.719990300707046e-11,0.020700956219276874,-5.444945197799246e-10
2012-01-31,true,3.345353433538568e-8,0.04724027764625964,1.5017354616795065e-10,0.08576540634974233,2.6912990406531917e-10,1.5023762407805505e-10,1.6819786819058488e-10,1.68063625765398e-10,0.08598578675538937,0.2999999970373076,0.2229842417168165,0.17881592283301684,0.05850741346912624,3.6987401721799375e-10,1.4283597019814246e-10,0.02070095368321272,-9.099322719313846e-10
2012-02-29,true,3.5562582983325106e-8,0.04724028003618745,1.4024869984032245e-11,0.08576540382605641,2.1673226476450457e-10,3.263549264832711e-11,-5.454133382705307e-12,-7.636410487174487e-12,0.08598578541247594,0.29999999810380673,0.22298425185955456,0.17881591327930385,0.058507410055215835,1.0810591836232632e-10,1.1456110282182288e-10,0.020700957566200984,-6.092687442846394e-10
2012-03-30,true,2.6572321368709155e-8,0.04724028139997643,-3.1844253744902e-10,0.08576540092212583,-4.653846540021645e-11,-1.8950149285454478e-10,-1.8309713774291814e-10,-1.9636837830513167e-10,0.08598578437700095,0.2999999981910687,0.22298425773868055,0.17881590823863847,0.058507407302042694,-1.0233798346612933e-10,-4.241310936174474e-11,0.020700962687823864,2.2634049966917764e-10
2012-04-30,true,1.4459717557733608e-8,0.04724028286476498,-5.799631817058336e-10,0.08576539938155482,-2.212326110822909e-10,-3.3266622032826385e-10,-2.8484485841477413e-10,-3.059026229413305e-10,0.08598578421446108,0.2999999978595379,0.22298426036306818,0.17881590521009177,0.05850740614009403,-2.0083047059004403e-10,-1.574732303664031e-10,0.02070096533348232,7.218723012707057e-10
2012-05-31,true,6.043255535524171e-9,0.04724028448532366,-7.428704863946527e-10,0.08576539884691758,-3.3017060571808977e-10,-4.095532601944211e-10,-3.50384149482101e-10,-3.7494544762731185e-10,0.08598578466620813,0.2999999975652803,0.22298426052887035,0.1788159037065972,0.058507406071120885,-2.493445775029446e-10,-2.4614718535385835e-10,0.020700965948268722,8.903684431427426e-10
2012-06-29,true,6.0149862959204794e-9,0.04724028606063019,-8.483794532809287e-10,0.08576539832734467,-4.1984202833026016e-10,-4.71731660717051e-10,-4.080645101366144e-10,-4.3598461652385023e-10,0.08598578503979332,0.299999997371431,0.22298426073232155,0.17881590209904025,0.05850740585247226,-2.75457539056167e-10,-3.119662526178941e-10,0.020700966731784308,9.61858124891409e-10
2012-07-31,true,4.064100344304725e-9,0.047240287205896375,-8.446084652020224e-10,0.0857653978870698,-4.248192286851547e-10,-4.626323844615268e-10,-4.0734353688184147e-10,-4.300813733048008e-10,0.08598578531834973,0.2999999973489147,0.2229842607340037,0.17881590095941785,0.05850740558504922,-2.5996575398431133e-10,-3.200928801839524e-10,0.020700967302896053,8.123010008042818e-10
2012-08-31,true,3.538422120298622e-9,0.047240288475109936,-8.488576629135574e-10,0.0857653976555382,-4.249999549068247e-10,-4.687360265292485e-10,-4.0840733315661204e-10,-4.3363067609379213e-10,0.08598578541498753,0.29999999716873504,0.2229842607722645,0.17881590026836347,0.05850740595023295,-2.67624464960167e-10,-3.373155839596856e-10,0.020700966700273472,7.885910389800785e-10
2012-09-28,true,4.614679983341012e-9,0.04724029004429216,-8.675981026259725e-10,0.08576539742288959,-4.429707079933744e-10,-4.786636510199423e-10,-4.1364024842499167e-10,-4.4157356827952645e-10,0.08598578552489658,0.2999999969357061,0.22298426076611114,0.1788158995571284,0.058507406578546146,-2.736924724848675e-10,-3.5859166573531877e-10,0.0207009657234024,7.284112768192975e-10
2012-10-31,true,4.730595225134837e-9,0.047240290264548,-8.742436361082062e-10,0.08576539785538966,-4.410648092760308e-10,-4.880447956993626e-10,-4.338134182683229e-10,-4.5979751906078105e-10,0.08598578506678639,0.2999999963489926,0.2229842612546496,0.1788158999431113,0.058507407414261636,-3.0875422322098586e-10,-4.352341051023887e-10,0.020700964621495434,6.755733707862588e-10
2012-11-30,true,5.341772787388878e-9,0.04724029020092597,-8.735132217758625e-10,0.08576539856069902,-4.493805327161609e-10,-5.002924844065505e-10,-4.5479979493245914e-10,-4.816335598960608e-10,0.08598578448510832,0.2999999959201321,0.22298426181065456,0.17881590044883977,0.058507408317157096,-3.2118456417104916e-10,-5.302630771961341e-10,0.020700963254489967,6.164804579769481e-10
2012-12-31,true,6.063025889650955e-9,0.0472402899515437,-8.879930759231504e-10,0.0857653995513838,-4.606735613388127e-10,-5.194141375428863e-10,-4.748710614079858e-10,-5.00326595916618e-10,0.0859857839221266,0.2999999955007362,0.22298426235349986,0.17881590089787527,0.058507409366095456,-3.3158437207477555e-10,-5.99391891717371e-10,0.02070096165779696,5.765988822470216e-10
2013-01-31,true,9.56857996654288e-9,0.04724028932055466,-1.0078776603447155e-9,0.08576540079331252,-5.268540548094038e-10,-4.742938828953955e-10,-5.367217567991278e-10,-5.637656299103987e-10,0.08598578318011835,0.2999999941771524,0.22298426348744596,0.17881590201660957,0.05850741061097521,-3.858108741492373e-10,-7.019320078586525e-10,0.020700960073682013,5.414455038762591e-10
2013-02-28,true,1.5440111782602622e-8,0.04724028816435967,-1.3864720062322537e-9,0.08576540170870886,-6.126390752201527e-11,-3.7248232910566254e-10,-7.311865788278553e-10,-7.574401353503684e-10,0.08598578207427238,0.2999999916251923,0.2229842655715033,0.1788159045572175,0.05850741222304968,-4.731066824386104e-10,-1.1632510063925833e-9,0.02070095874165523,2.822478024466355e-10
2013-03-28,true,2.0900404963421916e-8,0.04724028674799732,-1.6886430967870452e-9,0.08576540280063506,1.4004536878730773e-10,-8.14708856712117e-10,-9.221193712059071e-10,-9.575131894611111e-10,0.08598578035254795,0.2999999882786133,0.2229842688125912,0.1788159085320634,0.058507414130274014,-6.550466022513413e-10,-1.9052328805068757e-9,0.020700956835381416,3.159942941530807e-10
2013-04-30,true,1.901608080085773e-8,0.04724028498542221,-1.9443670001424486e-9,0.08576540337891511,1.9971486039585976e-10,-9.557756084940458e-10,-1.0418967855568962e-9,-1.0809372549427455e-9,0.08598577808294222,0.2999999860788638,0.22298427231272985,0.17881591220984389,0.05850741582252554,-7.101105226676492e-10,-2.247869114198573e-9,0.020700954660532296,2.525054503153687e-10
2013-05-31,true,1.3507699442115255e-8,0.0472402845653537,-2.0076472911414562e-9,0.08576540381954573,-4.475385346085709e-10,-1.1155378990803696e-9,-1.0352452267850932e-9,-1.0947254395216263e-9,0.08598577704070756,0.299999985068209,0.22298427416709743,0.17881591426548077,0.05850741778923353,-7.192755091407774e-10,-1.816293331590722e-9,0.020700951636634858,-1.0951904991432821e-10
2013-06-28,true,1.0461550146157317e-8,0.047240284043868624,-2.0358818938152115e-9,0.08576540393484533,-7.990916544238231e-10,-1.202490263799805e-9,-1.0088362393234382e-9,-1.0811153704166775e-9,0.08598577603797834,0.2999999848273397,0.22298427559722872,0.17881591589360601,0.058507419481897645,-6.959246414653512e-10,-1.514863437719286e-9,0.020700948865946627,-3.3753718574825784e-10
2013-07-31,true,1.0457378721737314e-8,0.04724028352959918,-1.7875050406804896e-9,0.08576540411028749,-1.088872313294038e-9,-1.3182518004553071e-9,-9.173436323081321e-10,-9.949023869795728e-10,0.0859857749455681,0.29999998548348034,0.22298427660420073,0.17881591708039957,0.05850742114512943,-6.551441216713819e-10,-1.4421250843856221e-9,0.020700945756111682,-4.4467760893728913e-10
2013-08-30,true,8.282673885181469e-9,0.04724028300603813,-1.550194189339321e-9,0.08576540405695035,-1.2123217903618799e-9,-1.342918581363087e-9,-8.236083505525777e-10,-8.968055364324585e-10,0.08598577408435146,0.2999999865405808,0.22298427717345795,0.1788159176892588,0.05850742247375653,-5.923990487705639e-10,-1.3569426065128637e-9,0.02070094331514941,-5.592435750821461e-10
2013-09-30,true,7.103515676384531e-9,0.04724028257356068,-1.3583059423411002e-9,0.08576540390587509,-1.2534782683496982e-9,-1.3127806237898882e-9,-7.396074704440391e-10,-8.025598753826048e-10,0.08598577336582966,0.29999998762667823,0.22298427752200398,0.17881591804948732,0.05850742369138881,-5.337794838096109e-10,-1.2768841317031587e-9,0.02070094115516257,-6.080863855738301e-10
2013-10-31,true,5.914347793449014e-9,0.047240282161394365,-1.2260859054607552e-9,0.08576540362382648,-1.2189987314397986e-9,-1.2732672763223405e-9,-6.833520331350176e-10,-7.387895640083043e-10,0.08598577276975002,0.2999999884649771,0.22298427789496172,0.17881591841218591,0.058507424639257656,-4.949108436732089e-10,-1.2068382987264957e-9,0.020700939546213243,-6.662130803221015e-10
2013-11-29,true,4.80408347530246e-9,0.04724028183584828,-1.1078281556115202e-9,0.08576540337054642,-1.1730068843343272e-9,-1.2405947287679696e-9,-6.282005340618609e-10,-6.813110348569341e-10,0.08598577236163253,0.2999999892542259,0.22298427815836433,0.17881591861184865,0.05850742537690556,-4.637433063013776e-10,-1.1356958070590628e-9,0.020700938140844206,-6.76159671827348e-10
2013-12-31,true,4.43542122475009e-9,0.04724028153511467,-1.0016105849419777e-9,0.08576540308670155,-1.100694683903468e-9,-1.1822273358542197e-9,-5.761827164762125e-10,-6.273402030666026e-10,0.08598577199680972,0.2999999900992305,0.22298427834085927,0.17881591870478458,0.05850742599825429,-4.247683471731386e-10,-1.0578468614318156e-9,0.02070093687233939,-6.60138490850694e-10
2014-01-31,true,4.075369748102015e-9,0.04724028125079292,-9.239017702282798e-10,0.08576540275637598,-1.0382531072334113e-9,-1.1219620880631871e-9,-5.361414945785072e-10,-5.84057877458704e-10,0.08598577164690283,0.2999999907308223,0.2229842786239228,0.17881591892120907,0.058507426521772106,-3.9282650062799123e-10,-1.001079842822145e-9,0.020700935799113633,-6.495943996418052e-10
2014-02-28,true,3.6156540809982767e-9,0.047240281020504635,-8.649634540021671e-10,0.08576540241863373,-9.911250168084756e-10,-1.0731286088864701e-9,-5.021841378348016e-10,-5.476054897567413e-10,0.08598577136695931,0.2999999912091247,0.22298427889703318,0.1788159191741317,0.05850742703413325,-3.7408425874896705e-10,-9.540714192612354e-10,0.020700934842683413,-6.530873738999477e-10
2014-03-31,true,3.2329208403579302e-9,0.04724028080530365,-8.126332967996745e-10,0.08576540208718295,-9.601088232447642e-10,-1.0498056950880886e-9,-4.731248593089786e-10,-5.155757022902695e-10,0.08598577114547937,0.29999999156321144,0.22298427918669678,0.1788159194624337,0.05850742750052018,-3.6034013231205887e-10,-9.193319283396136e-10,0.02070093399426237,-6.514005152692638e-10
2014-04-30,true,2.8200443936640057e-9,0.04724028057483963,-7.818684162648022e-10,0.08576540172534153,-9.145518775224484e-10,-1.031233394660581e-9,-4.5774609114530373e-10,-4.987151650142621e-10,0.08598577097140682,0.29999999182803805,0.2229842794831574,0.17881591979660172,0.058507427863400505,-3.5082447580925676e-10,-9.043651864727302e-10,0.020700933370053624,-6.70906753895149e-10
2014-05-30,true,2.0137775061635065e-9,0.047240280362765896,-7.450627489462693e-10,0.08576540134690867,-8.899043814437537e-10,-1.0455134965746855e-9,-4.5107267316231585e-10,-4.910135126796131e-10,0.08598577094011668,0.29999999205732775,0.2229842797436447,0.17881592007516203,0.058507428012236684,-3.5382348008428724e-10,-8.905812894448594e-10,0.020700933025450303,-6.942194864005944e-10
2014-06-30,true,1.764163944378221e-9,0.04724028020238322,-7.07660244983067e-10,0.0857654009572747,-8.929613808581472e-10,-1.0835442648095541e-9,-4.4728251315391554e-10,-4.846267929792045e-10,0.085985770989326,0.29999999217728524,0.22298428001827775,0.17881592032759236,0.05850742813658726,-3.620960655586945e-10,-8.767043116596425e-10,0.020700932766968057,-7.184870637713829e-10
2014-07-31,true,1.5515257912809744e-9,0.04724028010161449,-6.892577443110792e-10,0.0857654006027716,-9.028084605847794e-10,-1.1165082412977888e-9,-4.491976886416899e-10,-4.83946747763692e-10,0.08598577112494288,0.2999999921912343,0.2229842802870056,0.17881592053401127,0.058507428265630726,-3.7554507476634923e-10,-8.737933362320224e-10,0.020700932524750595,-7.385986495644686e-10
2014-08-29,true,4.344147785141543e-9,0.04724027984524969,-6.16317589221305e-10,0.0857654002264179,-8.70919120962169e-10,-8.531576934694263e-10,-4.6117995296542884e-10,-4.897445751706847e-10,0.08598577100287479,0.29999999371257857,0.22298427999532167,0.1788159201621265,0.05850742803311095,-3.2079447865772713e-10,-7.51301858575646e-10,0.020700932020911944,-6.337110582502511e-10
2014-09-30,true,4.48713366661901e-9,0.047240279558777104,-5.22513516993504e-10,0.08576539988159948,-7.335973193333258e-10,-6.551394615374051e-10,-4.2876181494398865e-10,-4.513047166061113e-10,0.08598577080313269,0.29999999515066955,0.22298427966553824,0.17881591977913291,0.058507427755508545,-2.706162268561033e-10,-6.161688089027088e-10,0.0207009315985558,-5.137504390366425e-10
2014-10-31,true,3.823336115105087e-9,0.04724027930194552,-4.291305865390979e-10,0.08576539959100356,-5.877151404721262e-10,-5.04493718974374e-10,-3.876860992137476e-10,-4.024135439089662e-10,0.08598577060531999,0.2999999963220948,0.22298427938333382,0.1788159194637845,0.0585074275002692,-2.306047135548142e-10,-4.940269417790207e-10,0.020700931284783536,-4.156753313426393e-10
2014-11-28,true,3.181883289963099e-9,0.047240279085867566,-3.465446349531468e-10,0.08576539935211383,-4.592960623072035e-10,-3.9027317789310236e-10,-3.311741569775734e-10,-3.3916522391460473e-10,0.08598577042594416,0.29999999723554616,0.22298427914725524,0.17881591920517537,0.058507427280838215,-1.9020693914950644e-10,-3.910946303462281e-10,0.020700931042209082,-3.265959939081159e-10
2014-12-31,true,2.5180835287920854e-9,0.04724027891274342,-2.766835565312168e-10,0.08576539916372056,-3.5705677929908275e-10,-3.031643491523514e-10,-2.732960645554469e-10,-2.776060361106126e-10,0.0859857702791102,0.2999999979226176,0.2229842789578404,0.17881591900465788,0.05850742710494026,-1.5513400336132893e-10,-3.0790740846866893e-10,0.020700930857278647,-2.516026581778916e-10
2015-01-30,true,1.7012250765976096e-9,0.04724027879770068,-2.2047089464847905e-10,0.08576539902995697,-2.9580872706951696e-10,-2.4041547247526557e-10,-2.2521990791411968e-10,-2.2780873310757367e-10,0.08598577020152512,0.2999999983584006,0.2229842788257584,0.17881591885674225,0.058507426991340684,-1.3147245431364488e-10,-2.4936052537122544e-10,0.02070093072662444,-1.9709484603037946e-10
2015-02-27,true,1.1818204999282232e-9,0.04724027871820027,-1.785992387459416e-10,0.0857653989361383,-2.530522011090583e-10,-1.956094928910121e-10,-1.8704422477778024e-10,-1.8882107777232114e-10,0.0859857701633126,0.2999999986426944,0.2229842787306109,0.1788159187434521,0.05850742691954257,-1.1314471003581613e-10,-2.0787099473141416e-10,0.02070093062745318,-1.5692154219883492e-10
2015-03-31,true,8.92930431415065e-10,0.047240278657432855,-1.4686758059145146e-10,0.08576539886411408,-2.1815848555334216e-10,-1.6201657856180665e-10,-1.5665711677057953e-10,-1.5779229679903495e-10,0.08598577013855349,0.29999999885250206,0.2229842786593829,0.178815918655779,0.058507426872207106,-1.0111067416007754e-10,-1.7511428765723804e-10,0.020700930544747115,-1.2671708592214539e-10
2015-04-30,true,4.316501637842277e-10,0.04724027863402343,-1.3175718739713774e-10,0.08576539881962843,-1.9128937471989284e-10,-1.3731084091642418e-10,-1.4214625362927806e-10,-1.4362704584538838e-10,0.08598577015909367,0.29999999891635976,0.22298427862393347,0.17881591859732732,0.05850742686391193,-1.0221319796414023e-10,-1.5868252099561686e-10,0.020700930500145313,-1.0705361197018243e-10
2015-05-29,true,4.1109601839580295e-10,0.047240278609419956,-1.185098476057714e-10,0.08576539877581367,-1.706861661560789e-10,-1.2029792647630372e-10,-1.2772548748396204e-10,-1.3228476295310147e-10,0.08598577017650691,0.2999999989945669,0.22298427858711822,0.17881591854114312,0.05850742685058068,-9.634268412250065e-11,-1.4375948089454195e-10,0.02070093046932326,-9.456903674425858e-11
2015-06-30,true,3.187730857506443e-10,0.04724027859313944,-1.0800120350493769e-10,0.08576539874112954,-1.570123117163289e-10,-1.0816188547905788e-10,-1.1958902876009154e-10,-1.2105390159372924e-10,0.08598577020120636,0.2999999990520566,0.22298427855903666,0.17881591849196193,0.05850742684417847,-9.21895711643948e-11,-1.3295225735095706e-10,0.020700930444555884,-8.802825934262146e-11
2015-07-31,true,2.5058298020306035e-10,0.04724027857985799,-1.0067967905537293e-10,0.08576539870998164,-1.473550520901847e-10,-9.979712897407711e-11,-1.12151101971011e-10,-1.1287083055375472e-10,0.08598577023057594,0.2999999990932671,0.22298427853564876,0.17881591844969946,0.05850742684044894,-8.9227288275823e-11,-1.2551865993358135e-10,0.02070093043306507,-8.468582247571565e-11
2015-08-31,true,3.5693762111618625e-10,0.047240278594874216,-1.0410640482638764e-10,0.08576539871522154,-1.5761414078316902e-10,-1.0132120084993175e-10,-1.1456605490055647e-10,-1.1439623634150248e-10,0.08598577030368346,0.29999999898477464,0.22298427855793435,0.17881591844721428,0.05850742690330733,-1.0230751411435091e-10,-1.3342012015961255e-10,0.020700930413366125,-9.230732033253889e-11
2015-09-30,true,8.727808059769565e-10,0.04724027863281781,-1.1751038526272303e-10,0.08576539876424458,-1.8156357540870864e-10,-1.120693760820176e-10,-1.2554998003051662e-10,-1.2436168238299287e-10,0.08598577040526319,0.299999998762981,0.222984278630761,0.17881591847916253,0.05850742704643158,-1.2889830827762456e-10,-1.5265672784165945e-10,0.02070093032844323,-1.0704771026892341e-10
2015-10-30,true,6.529041819971663e-10,0.04724027863390769,-1.3062906000228423e-10,0.0857653988063028,-1.8567052038616537e-10,-1.226715743105251e-10,-1.2787241098244358e-10,-1.255183195847868e-10,0.0859857704445045,0.29999999865316873,0.22298427870717674,0.17881591850364345,0.05850742718787641,-1.3905230739647681e-10,-1.6007963084356948e-10,0.020700930160699613,-1.0531409943870283e-10
2015-11-30,true,7.129883994955772e-10,0.0472402785955145,-1.3931324008971732e-10,0.08576539884900868,-1.7467425094824748e-10,-1.2785202047887735e-10,-1.2261172877898415e-10,-1.1918218046007906e-10,0.08598577039865626,0.2999999986610867,0.22298427880829197,0.1788159185267625,0.05850742732587471,-1.389929681320065e-10,-1.5438844119736e-10,0.02070092990230879,-9.002260922375631e-11
2015-12-31,true,1.496255269251802e-9,0.04724027851394005,-1.5846297737490182e-10,0.08576539896237556,-1.5206465881584126e-10,-1.3291886713407697e-10,-1.1388480893752797e-10,-1.1106013841755609e-10,0.0859857702308508,0.29999999866629784,0.2229842790282283,0.1788159186164459,0.05850742756676873,-1.4695671382563276e-10,-1.4471942855107437e-10,0.02070092943579753,-6.005820485721256e-11
2016-01-29,true,3.344042537562709e-9,0.047240278353230886,-1.9512494369790318e-10,0.08576539926052272,-1.2439514742730204e-10,-1.4270505959773083e-10,-6.18837664827421e-11,-1.3784235452317968e-10,0.08598576980734825,0.29999999861807103,0.22298427954835054,0.178815918833436,0.05850742805296248,-1.7438751592901285e-10,-1.2647393823591896e-10,0.02070092849698494,-7.297258826317663e-12
2016-02-29,true,5.028928575712977e-9,0.047240278176388026,-2.130624177868701e-10,0.08576539976659148,-1.3381235358520346e-10,-1.4811780468327373e-10,-8.990410714855624e-11,-1.2117073931624829e-10,0.08598576905514398,0.29999999864300886,0.22298428037880239,0.17881591915689465,0.05850742879800239,-1.9516316482133663e-10,-1.1724258503924666e-10,0.020700926993109246,5.128512295712728e-11
2016-03-31,true,5.968530341734285e-9,0.04724027791650111,-2.0514615503112577e-10,0.08576540040286104,-1.6610800285014075e-10,-1.4783276230249282e-10,-9.814188327942658e-11,-1.0896386886895754e-10,0.0859857681704035,0.2999999987286708,0.22298428144431526,0.17881591945075742,0.05850742960591425,-1.9849109496707896e-10,-1.2364215185349086e-10,0.020700925203652024,1.2584276353776524e-10
2016-04-29,true,6.622776122817267e-9,0.04724027762393386,-1.883627366124414e-10,0.08576540111940789,-2.0247040472424677e-10,-1.4373865274062767e-10,-9.651762976328262e-11,-9.754356630144838e-11,0.08598576716021322,0.2999999988163884,0.22298428263901782,0.1788159197847115,0.058507430503107784,-2.0121220455746424e-10,-1.2779894632103982e-10,0.02070092323820839,1.731406942306707e-10
2016-05-31,true,6.21687162570239e-9,0.04724027730037919,-1.8607782189794198e-10,0.08576540182401787,-1.9986489255570136e-10,-1.4128214617803585e-10,-8.845132380204229e-11,-8.540473176047657e-11,0.08598576622177201,0.29999999891406925,0.22298428372859377,0.17881592006547248,0.05850743137584837,-1.9640469388836218e-10,-1.3691324241513294e-10,0.020700921400875264,2.0384107024041723e-10
2016-06-30,true,6.864756999226855e-9,0.047240276915204105,-1.9167375252742387e-10,0.08576540273644676,-2.186942923576135e-10,-1.4687332271153158e-10,-8.037409880665439e-11,-7.684418186398589e-11,0.08598576524140972,0.2999999989635681,0.2229842849202573,0.17881592023726378,0.05850743239317461,-2.058106987058138e-10,-1.6298032841094498e-10,0.02070091939950998,2.7685924355445867e-10
2016-07-29,true,7.678643416396708e-9,0.04724027649730801,-1.3843643771375747e-10,0.08576540378619923,-3.638026428578175e-10,-1.4629327271161748e-10,6.093418877348194e-11,-1.5433637105258427e-10,0.08598576423955841,0.2999999988847491,0.22298428629510975,0.17881592029565269,0.058507433468483624,-2.3834232712500744e-10,-1.888976912354559e-10,0.02070091733969347,3.6264170468425234e-10
2016-08-31,true,7.62398431223771e-9,0.04724027607329351,-1.0639485893495477e-10,0.08576540494891467,-4.807432450651733e-10,-1.1661533028266265e-10,-3.529680268392112e-11,-1.5675091597524818e-10,0.08598576361887922,0.2999999984932519,0.2229842878335166,0.17881591986121625,0.058507434422079334,-2.976347715642318e-10,-3.0318228492171126e-10,0.020700915787708413,4.5841292018766133e-10
2016-09-30,true,7.428544362823769e-9,0.047240275341308126,-1.607987603041243e-10,0.08576540608124121,-3.719532749595687e-10,-1.658551013686568e-10,-4.623563820790738e-11,-1.0952998605435848e-10,0.08598576282162218,0.2999999988379216,0.22298428919829877,0.17881591920851944,0.05850743504767849,-2.580835398044873e-10,-3.3679349988720665e-10,0.020700914403399457,5.095756319039825e-10
2016-10-31,true,6.753766528505937e-9,0.04724027454111959,-1.762848975601861e-10,0.08576540723191059,-3.040428885299923e-10,-1.8151661675052343e-10,-4.495954107405898e-11,-7.991338356048276e-11,0.08598576216113427,0.2999999991193948,0.22298429047165394,0.17881591841606465,0.058507435581243224,-2.42635728728226e-10,-3.6242705644073436e-10,0.020700913336387895,5.331047848772895e-10
2016-11-30,true,7.063780994120133e-9,0.04724027321290093,-1.7685568351265192e-10,0.08576540883907642,-2.9590999456436734e-10,-2.2352668961764423e-10,-4.3140970254528984e-11,-6.623522385512377e-11,0.08598576191253682,0.29999999938112465,0.2229842918420027,0.1788159166141785,0.05850743563712418,-2.6779393408800883e-10,-4.4795302532732087e-10,0.020700913469394313,6.131570528231348e-10
2016-12-30,true,9.098014576825089e-9,0.04724027159185058,-1.683817433004573e-10,0.08576541075053831,-3.1050019774161223e-10,-2.5757945145286244e-10,-3.914947124865519e-11,-5.996448420973393e-11,0.08598576172081646,0.29999999959883006,0.22298429353492016,0.17881591416150694,0.058507435497316705,-2.982724465844729e-10,-5.125860937914983e-10,0.020700914141457225,6.4928346361394e-10
2017-01-31,true,9.635658839667534e-9,0.04724026985015749,-1.277410490757635e-10,0.08576541279758726,-3.289263213243882e-10,-2.625266904301905e-10,-4.137210807919508e-11,-5.994474599131517e-11,0.08598576170677756,0.29999999981605374,0.2229842949794623,0.1788159114289276,0.058507435222323566,-3.1479666368934873e-10,-5.156006078044265e-10,0.02070091520976507,6.398468463714134e-10
2017-02-28,true,1.1576331292803416e-8,0.04724026774556013,-1.1687051255006292e-10,0.08576541529273171,-3.527932042939024e-10,-2.8198290585366824e-10,-5.4373671973346834e-11,-6.993417177237554e-11,0.08598576182754969,0.29999999996483573,0.22298429657623847,0.1788159083071822,0.05850743477081629,-3.293709136932477e-10,-5.449666727624586e-10,0.02070091660409885,6.613946172030315e-10
2017-03-31,true,1.118463617761632e-8,0.04724026591096252,-1.1252382282320636e-10,0.08576541737148272,-3.436174968641322e-10,-2.8855478460649283e-10,-7.44174905326856e-11,-8.150170556946895e-11,0.08598576201930871,0.3000000000748434,0.22298429803351552,0.17881590530492125,0.05850743414098303,-2.9845123379992705e-10,-5.161596188506154e-10,0.02070091828543601,5.7401452459986e-10
2017-04-28,true,1.2639877110247307e-8,0.04724026387542469,-1.1476275968560268e-10,0.08576541956832218,-3.536191073441838e-10,-3.118031119430477e-10,-1.1175082506038855e-10,-1.0649554512518466e-10,0.08598576231877991,0.30000000018204964,0.22298429953668764,0.1788159020615296,0.05850743323626495,-2.868798292401624e-10,-4.998059972624723e-10,0.02070092047080332,5.355823620125393e-10
2017-05-31,true,1.7331013012869427e-8,0.04724026147492767,-1.0314569298427498e-10,0.08576542213262761,-3.500911434986334e-10,-3.4614708976373106e-10,-1.5496760832907524e-10,-1.4587373761234034e-10,0.08598576333729617,0.30000000029335516,0.2229843008831629,0.1788158977911129,0.05850743155532705,-2.930518162303711e-10,-4.746982206292787e-10,0.02070092405552774,3.4511162794232286e-10
2017-06-30,true,2.1127134669953362e-8,0.047240258781814856,-9.230887715388344e-11,0.08576542502785996,-3.682955562684605e-10,-3.9043384514722546e-10,-2.0659886674530942e-10,-1.8979146124098605e-10,0.08598576489262266,0.3000000004012915,0.22298430226002833,0.17881589259498207,0.058507429236785785,-3.3123102646077193e-10,-4.634571928404049e-10,0.020700928661718857,1.8561077897994504e-10
2017-07-31,true,3.068216787385762e-8,0.047240255317840374,-1.078516805837065e-10,0.08576542893006817,-4.4104136760294733e-10,-4.923024178039958e-10,-2.9322905372689506e-10,-2.614662676921307e-10,0.08598576761157797,0.3000000005678415,0.2229843039639547,0.17881588484947192,0.058507425728729405,-4.172009775284426e-10,-5.222632469957953e-10,0.020700935511339065,5.548218869256379e-11
2017-08-31,true,4.239507545286156e-8,0.047240250727697636,-1.3250573856748674e-10,0.08576543438775819,-5.583551534366267e-10,-6.164015824369323e-10,-4.060878530913178e-10,-3.5751792800006686e-10,0.08598577185702833,0.30000000081642086,0.22298430585718063,0.17881587405786925,0.05850742078173461,-5.56744197954063e-10,-6.235817228215534e-10,0.020700944863936716,-9.747055950632183e-11
2017-09-29,true,4.713246119631916e-8,0.047240245907257346,-1.8636547947130356e-10,0.08576544052998081,-6.698436363512199e-10,-7.367437120941689e-10,-5.186685621180502e-10,-4.5049248459814094e-10,0.0859857768103955,0.3000000010096916,0.22298430770212696,0.1788158614370896,0.058507415458968856,-6.59953664634653e-10,-7.2478295635404e-10,0.020700955296475462,-2.0394413940000132e-10
2017-10-31,true,4.050415918998848e-8,0.04724024136730509,-2.2616458198667024e-10,0.0857654456468443,-7.38563085576275e-10,-7.718855364047854e-10,-5.48328386022881e-10,-4.767439250699201e-10,0.08598578070598287,0.30000000109843583,0.2229843097914889,0.1788158504825334,0.05850741096302222,-6.780401568480464e-10,-7.686945553117836e-10,0.02070096429127127,-1.3716260801678192e-10
2017-11-30,true,2.8613193826198225e-8,0.047240238043006706,-2.4025211933506534e-10,0.08576544931379379,-7.124565609180803e-10,-7.022016249521383e-10,-4.98737754743466e-10,-4.317397360304767e-10,0.08598578300358502,0.30000000106455454,0.22298431158674334,0.178815842512457,0.05850740799861659,-6.217195895297679e-10,-7.258831531809938e-10,0.02070097033962546,7.160446963800588e-11
2017-12-29,true,2.1669596963058427e-8,0.047240235153062055,-2.3598012369939625e-10,0.08576545243518412,-6.539428826238638e-10,-6.195348316014795e-10,-4.188556908155097e-10,-3.5695713612364435e-10,0.08598578437078849,0.30000000098134555,0.22298431313877637,0.17881583642429005,0.05850740622502302,-5.66411282156106e-10,-6.562896156491402e-10,0.020700974469344435,3.1092248777745506e-10
2018-01-31,true,8.845619900260125e-9,0.04724023375021502,-1.94216891072263e-10,0.08576545373458327,-4.866310379781369e-10,-4.458233713596241e-10,-2.833780882285872e-10,-2.4087510441871957e-10,0.08598578425986236,0.3000000007592836,0.22298431429530907,0.17881583412364066,0.05850740583852199,-4.071896349730216e-10,-4.722608632472155e-10,0.020700975405995678,3.633772076861853e-10
2018-02-28,true,4.8510414164239604e-9,0.04724023303032863,-1.4409952539765457e-10,0.08576545440129527,-3.26594945376976e-10,-2.9374626089077186e-10,-1.8020424402278102e-10,-1.5235701131080571e-10,0.08598578400665627,0.3000000005431207,0.22298431499263224,0.1788158330416366,0.058507405782854204,-2.7529756077461567e-10,-3.111917722032908e-10,0.02070097562048758,2.6467379749217817e-10
2018-03-29,true,4.521306233501976e-9,0.0472402323915138,-1.1311214669400554e-10,0.08576545510062047,-2.3385335191056414e-10,-2.026606687105662e-10,-1.170255507676231e-10,-9.661257306532286e-11,0.08598578354388996,0.3000000004060326,0.2229843157873495,0.1788158321717787,0.05850740602253626,-2.079127396231148e-10,-2.1301209298352862e-10,0.020700975468326444,2.9226502730994015e-10
2018-04-30,true,5.46433906803687e-9,0.047240231789571055,-9.984859854041186e-11,0.0857654558347494,-1.868238953807252e-10,-1.5023930915465036e-10,-7.033886629409784e-11,-5.3223450685637e-11,0.08598578276203134,0.300000000325923,0.2229843168612312,0.17881583144851496,0.05850740657103166,-1.7752274803667166e-10,-1.5144987938970034e-10,0.020700974923313117,3.7316766266409763e-10
2018-05-31,true,5.046174142500839e-9,0.04724023125505264,-9.524201536463208e-11,0.0857654565116687,-1.613631903404126e-10,-1.207254374511442e-10,-4.8127644402501346e-11,-3.3254108342440186e-11,0.08598578193818905,0.3000000002750608,0.22298431796290918,0.17881583097727632,0.058507407121907,-1.3992936875418714e-10,-1.1060822919642143e-10,0.02070097428066875,3.8656653196956025e-10
2018-06-29,true,3.1270509573974106e-9,0.04724023100354055,-6.765469002348498e-11,0.08576545688685469,-1.1370173771250292e-10,-7.920280810722276e-11,-2.7749065135128633e-11,-1.6763913711068015e-11,0.08598578149357694,0.3000000002247227,0.22298431855485673,0.17881583065757825,0.05850740748355089,-9.804512468117269e-11,-7.140223042767527e-11,0.020700973893869344,2.759832280770417e-10
2018-07-31,true,2.5016384196221448e-9,0.047240230846102974,-4.733159674476081e-11,0.08576545715016468,-7.844596527094676e-11,-4.916430420747797e-11,-1.2945568453956562e-11,-5.443217783034462e-12,0.08598578108999314,0.30000000018590045,0.2229843190454966,0.1788158304351803,0.05850740780865994,-6.864268708690166e-11,-4.079491596274452e-11,0.020700973532166864,2.0909906750122623e-10
2018-08-31,true,1.9086046814615586e-6,0.0472403529654839,6.899945430465065e-8,0.08576556527399687,9.186448609524806e-8,6.269045082437818e-8,1.0917530770092478e-7,1.0536654458058416e-7,0.08598546735734727,0.29999987110092075,0.22298415598638907,0.17881581618026712,0.05850717483462805,-8.90056320908823e-8,-1.1418546755210141e-8,0.020701128976106,1.3141663472164998e-7
2018-09-28,true,3.856331759253606e-7,0.04724036308261198,3.956327580987147e-8,0.08576557540900329,5.099490307948148e-8,3.640981004472975e-8,5.96613517641943e-8,5.775828456867993e-8,0.08598547717757903,0.29999992077801135,0.22298416612089175,0.17881582630049098,0.058507185016196374,-3.8438209694500015e-8,-6.707293501023976e-10,0.020701139695107344,1.4112119954673893e-7
2018-10-31,true,1.066121232026051e-6,0.047240462693187595,7.309711917524178e-8,0.08576567021270273,9.680476784086827e-8,6.727925623634414e-8,1.1159635284190609e-7,1.075199083970247e-7,0.08598528536210796,0.29999987122241756,0.22298407348854984,0.1788158312535544,0.058507038084408006,-7.920214512388491e-8,-2.896578252206949e-9,0.02070126232408318,1.328310405375855e-7
2018-11-30,true,3.9635049192167466e-7,0.04724047427718965,4.2369489630679955e-8,0.08576568177695798,5.4217339043593815e-8,3.946111080247105e-8,6.163105783816549e-8,5.9596182914448443e-8,0.08598529655227923,0.29999992184589475,0.22298408507478687,0.17881584285876523,0.05850704968268745,-3.2919493319493714e-8,4.337850493525568e-9,0.020701275417506968,1.4379717081713253e-7
2018-12-31,true,2.2119086051904846e-7,0.047240481446122674,2.479590249022339e-8,0.08576568895828285,3.0716880371587806e-8,2.3339029095653526e-8,3.442460995338433e-8,3.3407723402499566e-8,0.08598530374773698,0.2999999526977578,0.22298409227751734,0.1788158500304452,0.058507056806399886,-1.2572404201005767e-8,5.782348732234157e-9,0.02070128314647323,1.5098074120833925e-7
2019-01-31,true,8.94631885644317e-7,0.04724056468740211,5.395296524613762e-8,0.08576577333894841,7.278000551065333e-8,5.0089442471633366e-8,7.978368859381803e-8,7.652267257423325e-8,0.08598516128076376,0.2999999115314297,0.22298402516264354,0.17881585481466858,0.05850694617717259,-5.228948627125918e-8,7.768604647859797e-10,0.02070137244330115,1.1059645371933872e-7
2019-02-28,true,2.8621939608927813e-7,0.04724057390012872,3.149851472467842e-8,0.08576578261014067,4.091259029281869e-8,2.9571342743118956e-8,4.441652721247453e-8,4.278657008422939e-8,0.08598517025172125,0.2999999470301632,0.2229840345605541,0.17881586400485988,0.05850695573053829,-2.1607166796255237e-8,4.905085466901715e-9,0.020701379537664585,1.1987263512958008e-7
2019-03-29,true,1.6089681816182016e-7,0.047240579641171614,1.8573395398017388e-8,0.08576578832467602,2.328199023725233e-8,1.7615944841466153e-8,2.5041799947706385e-8,2.4227422714793692e-8,0.08598517566075434,0.2999999684075259,0.22298404034195016,0.17881586978804237,0.05850696165668905,-7.970856482429418e-9,5.259807068912993e-9,0.020701384852329446,1.2528606126219075e-7
2019-04-30,true,9.296494375503707e-8,0.04724058323494817,1.1035569499271886e-8,0.08576579190680081,1.3394441066281343e-8,1.0564220223525052e-8,1.4280640851087343e-8,1.3873021394355567e-8,0.08598517900409743,0.299999981240739,0.22298404400334368,0.17881587343784505,0.05850696544778936,-2.2247752294205293e-9,4.3721427425204635e-9,0.020701387696058234,1.2872611648916122e-7
2019-05-31,true,5.451298934585246e-8,0.04724058542887509,6.596777256397718e-9,0.08576579404757756,7.781036373935698e-9,6.365973386131784e-9,8.230529041875067e-9,8.025809244514267e-9,0.08598518094472754,0.29999998886228774,0.22298404622890083,0.1788158757114679,0.05850696772786921,-3.479750822412782e-11,3.2647709907133582e-9,0.020701390096246775,1.3071765772863782e-7
2019-06-28,true,2.3621968842741342e-7,0.0472406100610544,1.4160535699222068e-8,0.08576581550607215,1.7707274569534378e-8,1.2816259508792164e-8,1.771515646019593e-8,1.7268258714549535e-8,0.08598516332766165,0.29999998711422116,0.22298404025861351,0.1788158821622665,0.05850695612012154,-5.239513311621574e-9,3.91188422895852e-9,0.020701413147859775,5.555341094757081e-8
2019-07-31,true,4.864343937029026e-6,0.04724049434518943,-3.221567808258534e-8,0.08576565622852853,-2.623714417023236e-8,-5.3657561769538405e-8,-2.377733056387987e-8,-2.4109210556843094e-8,0.08598467748623156,0.2999997517558859,0.22298370314900137,0.17881568720654567,0.058506614392356555,-1.6101898313338798e-7,-1.6256209518783495e-7,0.02070203049220261,1.8706488739171608e-6
2019-08-30,true,4.336601663810369e-7,0.0472404674982977,-2.9533113113486272e-8,0.08576562929966348,-2.654853724627703e-8,-4.025529626489051e-8,-2.531353233630277e-8,-2.5477910516791112e-8,0.08598465038841921,0.2999998165553329,0.22298367626425847,0.17881566043343364,0.058506587487065255,-9.394777858959873e-8,-9.472404396225658e-8,0.020702004637560598,1.8432898929855738e-6
2019-09-30,true,3.0096228592380356e-7,0.04724044866172117,-2.4184347651361972e-8,0.08576561035993589,-2.2697550476795542e-8,-2.95472207643356e-8,-2.2074160851879558e-8,-2.215475410024414e-8,0.0859846312681184,0.29999986509124765,0.22298365738918066,0.1788156416873679,0.05850656858190199,-5.640471344478385e-8,-5.6800250585116244e-8,0.020701986995639424,1.8238655688658566e-6
2019-10-31,true,2.126060857744087e-7,0.04724043534476549,-1.8750645621523782e-8,0.08576559691269527,-1.8014740957113504e-8,-2.1433036438161735e-8,-1.7695243282417625e-8,-1.77336180730238e-8,0.08598461758417245,0.29999990111083974,0.2229836440268791,0.17881562849896127,0.058506555194191005,-3.487490526244103e-8,-3.508287352581283e-8,0.02070197514406695,1.8097951438146882e-6
2019-11-29,true,1.5060957890161165e-7,0.04724042591636057,-1.4094936851704209e-8,0.08576558734523562,-1.3734008867394154e-8,-1.5437247285223483e-8,-1.356414586772595e-8,-1.3582162372088048e-8,0.08598460775132147,0.2999999277024728,0.22298363454035464,0.17881561921471126,0.05850654569103213,-2.2173120804368726e-8,-2.2290162575558396e-8,0.02070196721625375,1.7995169385929422e-6
2019-12-31,true,1.0705334206028222e-7,0.047240419229400754,-1.0400344693499721e-8,0.08576558057278691,-1.022351543902219e-8,-1.1070666915126402e-8,-1.0131482271965476e-8,-1.013992961961155e-8,0.08598460081616544,0.29999994728199764,0.2229836278184527,0.17881561262343515,0.058506538972233416,-1.4450276496581619e-8,-1.4515162645338646e-8,0.02070196133179503,1.7922985279382436e-6
2020-01-31,true,7.611925887870857e-8,0.04724041446981332,-7.587938946763912e-9,0.08576557571690273,-7.503247363205116e-9,-7.92219994865184e-9,-7.448593059571055e-9,-7.452035393891919e-9,0.08598459576681643,0.2999999616130813,0.22298362301717817,0.17881560797467266,0.058506534187220335,-9.623812578361465e-9,-9.666932797376952e-9,0.020701957537416837,1.7869312196321897e-6
2020-02-28,true,5.4132318970260055e-8,0.04724041105896447,-5.4996619912140625e-9,0.08576557217492978,-5.463580014392236e-9,-5.667449836678032e-9,-5.4267026072296205e-9,-5.427035318616316e-9,0.08598459200027458,0.29999997205933226,0.22298361955161353,0.17881560469698862,0.058506530723091685,-6.534813132858876e-9,-6.566965333739028e-9,0.020701955559527672,1.7827683336342999e-6
2020-03-31,true,1.4205746967058685e-7,0.04724040956735495,-2.396945899480197e-9,0.08576558541367374,-3.0383930859455186e-9,-3.063152357290409e-9,-2.7826015652971805e-9,-2.698011276756756e-9,0.08598460285396232,0.29999998064417566,0.22298362750726788,0.1788155992889018,0.05850653235090459,-2.624256664176757e-9,-3.91693868326416e-9,0.020701891424944437,1.791464872682779e-6
2020-04-30,true,1.8447929949353827e-7,0.04724038865638426,-3.3970596866748377e-9,0.08576559778101502,-3.949538964148627e-9,-3.708524221539265e-9,-2.729054475050922e-9,-2.748464564350638e-9,0.08598460420207155,0.2999999810984727,0.222983620544023,0.17881556996275932,0.058506517103171604,-1.8565553719901605e-9,-7.052793562618593e-9,0.020701968681689643,1.7774243450773612e-6
2020-05-29,true,1.4225467065635852e-7,0.04724038565229765,-2.7218630622584565e-9,0.08576562335137229,-2.541894921363117e-9,-2.3501666539942332e-9,-1.0199641659505152e-9,-1.1430563811437976e-9,0.08598462199374224,0.2999999839788583,0.22298362861552562,0.17881555643980163,0.05850652071698709,-8.443303948094534e-11,-4.5595494264994285e-9,0.020701914077563173,1.7795990500772492e-6
2020-06-30,true,1.4402672926057917e-7,0.04724038671432274,-2.6406506078155128e-9,0.08576563586832614,-1.4533892245890991e-9,-2.3133887350773685e-9,-8.869925465006993e-10,-1.1921105289611784e-9,0.0859846447484234,0.29999998825490104,0.22298363411354424,0.1788155388067236,0.05850652019181512,4.703659875952886e-11,-3.1252973521352423e-10,0.020701860274757507,1.7997899910372668e-6
2020-07-31,true,6.31150190400281e-8,0.04724039281595815,-1.654898497998398e-9,0.08576563952986736,-8.354813037240781e-10,-1.3794471617977135e-9,-3.1424987773838704e-10,-4.738748395621934e-10,0.08598465425324422,0.29999999110816133,0.22298363731934348,0.1788155305529701,0.058506521138103736,3.1178753731959e-10,-2.1520731850811817e-10,0.02070183696710167,1.8008796018129615e-6
2020-08-31,true,6.405959071095832e-8,0.047240400633393985,-1.196641920013851e-9,0.085765640304754,-5.27905232702195e-10,-1.087724773877433e-9,-1.9354056365801487e-10,-3.131772886401262e-10,0.08598466594775302,0.299999992708244,0.2229836404593947,0.178815519666832,0.0585065205688126,2.0717278765794862e-10,2.9194901118070556e-10,0.02070181649781698,1.806036780475477e-6
2020-09-30,true,7.301399635674601e-8,0.04724040837074346,-2.5843167285399294e-10,0.08576564535980404,8.945230108928124e-11,2.2076143749259574e-10,7.155286694268786e-10,6.533646759072622e-10,0.08598467173811286,0.2999999957834582,0.22298364388208103,0.17881551730815923,0.05850652645207444,1.008270338146617e-9,5.3778671327804894e-11,0.020701785198091998,1.8034240366772343e-6
2020-10-30,true,4.357625844567166e-8,0.04724041210486224,4.648587477560579e-10,0.08576564836431215,3.7317961790386034e-10,1.0372671600316318e-9,1.0333726144211221e-9,9.950518386144e-10,0.08598467422865338,0.29999999790938325,0.22298364661241193,0.17881551712371596,0.05850653152063276,1.1592437472072854e-9,-6.804862122596555e-11,0.020701768961208886,1.798178941571782e-6
2020-11-30,true,5.451462916999732e-8,0.047240420055052294,1.2657574427488152e-9,0.08576564901967228,7.71642464551218e-10,1.918579355197156e-9,1.467216278680459e-9,1.424814536466181e-9,0.08598467764268916,0.29999999964879914,0.22298365003880072,0.17881551701127746,0.058506538244886976,1.4140427497613229e-9,8.0123079051432e-11,0.020701748110570968,1.7918842844714406e-6
2020-12-31,true,3.3255945601969536e-8,0.04724042538715689,1.6664458391626908e-9,0.08576564707427492,9.181019996441184e-10,2.1349828290209995e-9,1.3869631686787308e-9,1.363409410556756e-9,0.0859846790250027,0.3000000007215886,0.22298365253747704,0.17881551818693875,0.05850654240961529,1.0907708351718826e-9,3.185276846033783e-10,0.02070173858244639,1.7871950204975494e-6
2021-01-29,true,3.4863807043063316e-8,0.04724043331124512,2.192674351011982e-9,0.08576563936566485,1.2260092532159382e-9,2.47311821959518e-9,1.4942201570310953e-9,1.4839385500720697e-9,0.08598467872065416,0.30000000125886406,0.22298365466606843,0.17881552014453567,0.05850654571513824,8.752401203958319e-10,4.973489006826007e-10,0.020701735771245146,1.7808028574584784e-6
2021-02-26,true,7.414884912735242e-8,0.0472404469136387,2.64700657088817e-9,0.08576563904890827,1.3875892061477007e-9,3.1854537561585077e-9,2.04445708648798e-9,2.041371187634942e-9,0.08598468681260332,0.30000000120761294,0.22298365842564263,0.17881551571062526,0.05850655396102228,1.6303259006527628e-9,6.799373406459238e-10,0.020701710109106746,1.7741914573188214e-6
2021-03-31,true,7.244936677689565e-8,0.04724046343352432,3.330597907260704e-9,0.08576563324551228,1.6093600158395028e-9,3.7138450305444068e-9,2.2323674930652902e-9,2.2856978114438843e-9,0.08598469497927924,0.29999999989510984,0.22298366176829504,0.17881550821096487,0.05850656028964162,1.5343048265300046e-9,5.353119602626659e-10,0.020701698413543124,1.7645176838406631e-6
2021-04-30,true,1.019076693308026e-7,0.04724048014976984,2.6950536208949376e-9,0.08576563222784225,1.5588399241816466e-9,3.2992876597712436e-9,2.1341031347230693e-9,2.0918935697028427e-9,0.08598471323330732,0.29999999908795216,0.2229836658789101,0.17881549412037567,0.05850656649723878,1.5236128116203672e-9,1.8090649965058442e-9,0.020701664782309937,1.768913081853585e-6
2021-05-28,true,9.317854420391018e-8,0.04724049460377191,2.6152398318681407e-9,0.08576562875726873,1.6283353361607923e-9,3.2371282822876e-9,2.0505721984286726e-9,1.9447767331431925e-9,0.08598473006299774,0.2999999986181271,0.22298367049535972,0.1788154812420318,0.05850657255150672,1.4629462163714839e-9,2.4707934470133893e-9,0.02070163544621737,1.772817869597228e-6
2021-06-30,true,2.2506108340761776e-7,0.047240516328939434,2.6600403202400813e-9,0.08576563546692992,1.9955456956017827e-9,4.013708706590606e-9,2.531678983933336e-9,2.260908967968266e-9,0.08598475875259093,0.3000000011817966,0.22298368143004016,0.1788154643908398,0.058506587948518186,2.7633407574624086e-9,4.6932250985223825e-9,0.02070153976666773,1.7938197715783292e-6
2021-07-30,true,1.289796173418845e-7,0.047240536161642525,1.0336950151821626e-9,0.08576562475244452,1.886687603254069e-9,3.289115511206004e-9,2.4607755935747304e-9,1.7655373028853431e-9,0.08598477681487834,0.29999999748920275,0.22298368276483474,0.1788154329801947,0.058506591254278116,1.9104347435113346e-9,2.664635655399119e-9,0.020701561733289343,1.781067612321122e-6
2021-08-31,true,1.6283941804009097e-7,0.04724056502800705,1.1954094910646775e-9,0.0857656040677198,2.431208625280371e-9,3.646765043642366e-9,2.721080140759758e-9,1.9612181638014347e-9,0.08598479526799274,0.2999999944662644,0.2229836816612975,0.17881539736263008,0.05850659419617693,1.9646329436225874e-9,1.6806374660086846e-9,0.02070159131297309,1.761056087519362e-6
2021-09-30,true,1.384470046981684e-7,0.04724060021665035,1.2433425477572374e-9,0.08576558744408247,3.077719173400106e-9,4.339823032654701e-9,3.584241363390532e-9,2.746389973804488e-9,0.08598481476009692,0.29999999285563084,0.22298368340572342,0.17881536643988205,0.0585066022588771,1.9905118298059625e-9,1.8020710241442226e-9,0.02070159286546834,1.7409896176250502e-6
2021-10-29,true,8.236073471211193e-7,0.0472406130756334,-1.7238932735765758e-8,0.08576555681243292,-1.3758838786616516e-8,-7.791591972387365e-9,-6.70050653416446e-9,-7.00922999090945e-9,0.08598494307520049,0.30000002148020644,0.22298372510487982,0.17881532577937959,0.05850665677599068,7.519201210253915e-9,1.151411039125215e-8,0.02070131982780801,1.8715208753338318e-6
2021-11-30,true,1.5715749969442338e-6,0.047240659034371205,2.2068179852176257e-8,0.08576556836296408,6.469766550671734e-9,2.8385929677303675e-8,6.523810524639428e-9,2.2651063015687605e-8,0.08598517160326175,0.30000009149542806,0.2229838328873977,0.17881530469727996,0.058506794695037785,2.9613924192211994e-8,3.474528032254902e-8,0.020700805291699723,1.621241945671528e-6
2021-12-31,true,2.6975999886833457e-6,0.04724080871057104,7.043419219274613e-8,0.0857656759191993,1.870876899852512e-7,7.885508695940895e-8,4.6917073203760806e-8,6.100828448520092e-8,0.08598534262741755,0.30000014609738074,0.22298396743894985,0.17881538322875357,0.0585069270101375,4.0194588174540626e-8,6.96466977573906e-8,0.020700922135962543,2.72428547452711e-7
2022-01-31,true,8.325770555983801e-7,0.04724090416410316,6.33244046124119e-8,0.08576571788629105,7.865992081177556e-8,7.209670054870412e-8,4.21696272291548e-8,4.388432564425533e-8,0.08598543960227241,0.30000013067862996,0.22298403482438942,0.17881537732303932,0.058506983348969754,2.5054915024522998e-8,5.6058411318398256e-8,0.020700980383937497,5.043898993908322e-8
2022-02-28,true,4.9491091991206e-7,0.04724098380534367,4.521326706436965e-8,0.08576572018589819,3.518054487914084e-8,5.347320452230226e-8,3.058705865443978e-8,2.561097043093704e-8,0.08598550881492704,0.30000010126971766,0.22298407124306432,0.17881533794666166,0.058507009834394934,1.4722732476255373e-8,3.783205932214048e-8,0.020701013813623905,1.0429116611163882e-8
2022-03-31,true,4.721678691804092e-7,0.047241107995721246,3.364204643440038e-8,0.08576565083512015,2.0020898636797227e-8,3.933062621336828e-8,2.2192700030466467e-8,2.0463667808808194e-8,0.08598555391644834,0.3000000697820975,0.22298410731143808,0.17881528804215285,0.05850704057165179,1.0100139548264097e-8,2.6083866574683582e-8,0.020701006743144828,2.958055120877344e-9
2022-04-29,true,4.7194402413851616e-7,0.047241250012706036,2.5543671932937313e-8,0.08576555424456594,1.4163874795123428e-8,3.0239221981277185e-8,1.7490982056279e-8,1.722227928528809e-8,0.08598558702900866,0.30000004529890933,0.2229841397082217,0.1788152331802874,0.0585070690220026,7.640165801935799e-9,1.9354747962494257e-8,0.020700988340924365,1.5075402320890553e-9
2022-05-31,true,4.633932031783837e-7,0.04724139452131875,1.9277985960901655e-8,0.08576545170612608,1.1091521371447324e-8,2.41191639083935e-8,1.4610074680704403e-8,1.4781785047560282e-8,0.08598560974560776,0.30000002616528265,0.22298417499224443,0.17881517130371824,0.0585070982152543,6.13361651180272e-9,1.4719641927580839e-8,0.020700968076497094,5.510406716293907e-10
2022-06-30,true,5.797813141584382e-7,0.047241595091036766,1.5863048243232072e-8,0.085765294155791,1.086378914215541e-8,2.2036671267152953e-8,1.4954241174193355e-8,1.5186456654625358e-8,0.08598562680309939,0.3000000094084951,0.22298421328192697,0.17881509735538942,0.05850713145194529,6.017133561362716e-9,1.3218293937368596e-8,0.02070093413035878,2.1673109744000202e-10
2022-07-29,true,5.925807509145803e-7,0.04724180985596202,1.1997124478734738e-8,0.08576513453899479,9.812704001393902e-9,1.945850820876209e-8,1.4859345139958632e-8,1.512525129774014e-8,0.08598562878652756,0.29999999796295207,0.2229842526187887,0.17881503165872586,0.05850717067245771,6.0005194946600885e-9,1.0681873984394993e-8,0.020700884799254807,1.1973403005459353e-9
2022-08-31,true,7.897102895713402e-7,0.04724207898020595,1.4742789585426814e-8,0.08576491627763518,1.2664274628268267e-8,2.1708895390358263e-8,1.8347331370065705e-8,1.8798815877606673e-8,0.08598560025703435,0.2999999909319461,0.22298430486796444,0.17881497816379743,0.05850722780944472,6.97648263315083e-9,1.0835865099625921e-8,0.0207007972457169,1.3877701110697304e-9
2022-09-30,true,7.822181662024522e-7,0.047242364329849566,1.0139263941988873e-8,0.08576471117410016,1.1264870165035789e-8,1.9669156196615203e-8,1.860141753782278e-8,1.893597743248445e-8,0.08598557388678793,0.29999998429576075,0.2229843565893495,0.17881492288354212,0.058507278546481724,7.183322453211339e-9,8.718095603747303e-9,0.020700709705945813,4.109351074131157e-9
2022-10-31,true,8.392633222654066e-7,0.04724268363243897,3.3620239089564986e-9,0.08576451133327231,8.875684636129328e-9,1.5870172051732648e-8,1.8233249482386936e-8,1.8546305746662756e-8,0.08598553828400593,0.29999997780588983,0.22298439953576998,0.1788148678603086,0.05850733511589429,7.390521928947862e-9,3.943482022371518e-9,0.020700605528480732,4.715009021817504e-9
2022-11-30,true,7.069942312755921e-7,0.047242956652678976,-1.497933469976172e-8,0.0857644393088051,-3.5360524896278324e-11,3.426340881749891e-9,1.2744571403561325e-8,1.2627748615134818e-8,0.08598550962663948,0.29999996781680077,0.22298442277873465,0.17881479096539787,0.05850739065474422,6.562956303329721e-9,-7.990687759216512e-9,0.02070050348208159,6.429747563500708e-9
2022-12-30,true,6.153405583884388e-7,0.0472431371186644,-2.819416639209164e-8,0.08576447131837575,-7.65933685879734e-9,-8.265249973850488e-9,6.416716325462893e-9,6.5553568762646754e-9,0.08598545365996568,0.29999996208535173,0.22298445027959685,0.17881471173298996,0.058507458321764745,5.347852406193721e-9,-1.944750651074465e-8,0.020700395560668383,5.187140273485945e-9
2023-01-31,true,6.245849648743665e-7,0.04724323992388325,-4.172410075211847e-8,0.08576459013148008,-1.5043760800246095e-8,-1.980643547255144e-8,-8.979773549694994e-10,-1.148938266344858e-9,0.08598540250637991,0.2999999547795543,0.22298447654938924,0.17881461187862038,0.0585075227032821,3.038145331609042e-9,-2.7789272865875482e-8,0.02070029972629215,5.228337179124584e-9
2023-02-28,true,1.2977151601614122e-7,0.047243232827380945,-1.993062316483957e-8,0.08576458371371573,-6.003107352849824e-9,-1.1471478244129916e-8,-2.8990639302623578e-9,-3.1030842241663443e-9,0.0859853947470268,0.299999964825439,0.22298446871473226,0.1788146040631362,0.058507515731897844,-7.265137124464378e-10,-1.214072230383737e-8,0.02070029179243676,-1.3076318801320105e-10
2023-03-31,true,1.9498549840067298e-7,0.04724320601569785,-9.138744144883387e-9,0.08576458598218512,-3.659394895219369e-9,-7.730087823643836e-9,-4.399233217920715e-9,-4.390257051410083e-9,0.08598542215527738,0.2999999768765072,0.2229844612591984,0.17881456988516886,0.0585074962743527,-2.0526067976695007e-9,-5.303143637302267e-9,0.02070032382907603,-5.621108943606918e-9
2023-04-28,true,1.2625358223769304e-7,0.04724317887219841,-7.482883011206635e-9,0.08576461548690574,-4.399163032537598e-9,-7.416669546637151e-9,-5.393694375691651e-9,-5.389940621455952e-9,0.08598542858899255,0.29999998518991533,0.2229844560843876,0.17881455010675337,0.05850748855894296,-2.4919484969816963e-9,-5.4393088499082995e-9,0.020700337865181145,-2.746310407584079e-9
2023-05-31,true,1.0139192991573675e-7,0.047243155623820546,-6.5243505930079964e-9,0.0857646421801067,-4.449758243357952e-9,-6.911055366654774e-9,-5.521849547056332e-9,-5.580076798867852e-9,0.08598543275912568,0.29999999075988265,0.22298445167897926,0.17881453376898537,0.0585074822250391,-2.4900261157748537e-9,-5.359518050628247e-9,0.020700349281850532,-1.4445556860410634e-9
2023-06-30,true,8.992312010664334e-8,0.04724313614614094,-5.7691480966749915e-9,0.08576466642550169,-4.182224537556136e-9,-6.248555990838243e-9,-5.274524174275046e-9,-5.333785112147974e-9,0.08598543630351974,0.29999999468390137,0.2229844483129633,0.1788145173415281,0.058507476535154354,-2.4405341121064406e-9,-5.123771173798554e-9,0.02070035941777195,-7.962938911639488e-10
2023-07-31,true,8.857583916713486e-8,0.04724311766240853,-5.2051530918907135e-9,0.08576469071920167,-3.936023477466078e-9,-5.694062659562223e-9,-4.959238397291183e-9,-4.988356076241145e-9,0.08598544051135679,0.29999999756260254,0.22298444462507555,0.17881450085665937,0.05850747090355548,-2.32873723521074e-9,-4.834746086795479e-9,0.020700369644126235,-5.413611265390529e-10
2023-08-31,true,7.403316867830287e-8,0.04724310114186897,-4.6788455977793034e-9,0.08576471234600327,-3.5035620299822417e-9,-5.080646791069048e-9,-4.468678167545573e-9,-4.480279233939906e-9,0.08598544266052846,0.29999999950565903,0.2229844414292595,0.17881448780066694,0.0585074666600849,-2.213310583871213e-9,-4.439499115753708e-9,0.020700377321070055,-1.4801655128348157e-12
2023-09-29,true,5.1260815678139913e-8,0.04724309067010116,-3.820385541833379e-9,0.08576472596728897,-2.691906462225053e-9,-4.172036516993171e-9,-3.672597943871474e-9,-3.672001159142055e-9,0.08598544310179007,0.3000000008241772,0.2229844387533753,0.17881447816909452,0.05850746380930202,-2.075199070654379e-9,-3.6896166291906526e-9,0.02070038196896877,5.292858066919685e-10
2023-10-31,true,5.1187540243387486e-8,0.0472430815283639,-3.2620693155028287e-9,0.08576473999272297,-2.1903461057804543e-9,-3.5747729312163042e-9,-3.093310922292231e-9,-3.095622783366082e-9,0.08598544421627706,0.3000000021876917,0.22298443591789943,0.17881446817791927,0.05850746018343269,-1.907694428926391e-9,-3.1613669311236525e-9,0.020700387181884862,8.976568877649947e-10
2023-11-30,true,5.567657640662434e-8,0.04724307220171642,-2.708492494631899e-9,0.08576475442642809,-1.8127451371562205e-9,-3.1575723705562896e-9,-2.7532996995013866e-9,-2.7271557446584798e-9,0.08598544648921279,0.30000000348940314,0.22298443400002643,0.17881445627661674,0.058507455564247884,-1.9817533979755805e-9,-2.709919173792667e-9,0.020700394447035555,9.53359140432945e-10
2023-12-29,true,6.739103006708404e-8,0.047243060413853274,-2.313968947048241e-9,0.0857647720532885,-1.696903038279789e-9,-3.035008150083179e-9,-2.705396805397624e-9,-2.639553639466712e-9,0.08598545006242234,0.30000000489811274,0.2229844334936837,0.1788144417257992,0.058507448982663864,-2.0975987863562645e-9,-2.5340885320813495e-9,0.02070040458791923,7.987106621114378e-10
2024-01-31,true,6.337149425970893e-8,0.047243050294945646,-1.8903336109169568e-9,0.0857647882355888,-1.4692115071834135e-9,-2.798840139581313e-9,-2.559198074389035e-9,-2.4455359868041517e-9,0.08598545320103439,0.30000000617385747,0.22298443321247904,0.1788144268157597,0.058507442655984496,-2.14697300771963e-9,-2.4313786653353925e-9,0.020700414166118758,9.787218353369325e-10
2024-02-29,true,5.9160806851185494e-8,0.047243041600231406,-1.5162052199908781e-9,0.08576480309886564,-1.1632991882804807e-9,-2.5263524993398537e-9,-2.3556625001116496e-9,-2.229633094707263e-9,0.08598545611251168,0.3000000072544683,0.22298443332779455,0.1788144114675851,0.058507437213131556,-2.241920840908874e-9,-2.187662624503497e-9,0.020700422912815427,1.225779070376014e-9
2024-03-28,true,3.3169892347220216e-8,0.04724303691551732,-1.0983919229866275e-9,0.08576481112919404,-6.918192379095017e-10,-1.915294468787786e-9,-1.8069086897187268e-9,-1.6975039928381075e-9,0.08598545521693213,0.3000000075362581,0.22298443428245723,0.17881440203059284,0.05850743564777228,-1.9640258244212716e-9,-1.669404304062199e-9,0.020700426274298637,1.8073746157096334e-9
2024-04-30,true,2.945265602566663e-8,0.047243032992940866,-8.551691277922964e-10,0.08576481891549513,-4.111696103173837e-10,-1.4658148194721304e-9,-1.4058335167287336e-9,-1.3098745607270928e-9,0.08598545380870147,0.3000000077420556,0.22298443573705823,0.17881439366248825,0.05850743462059603,-1.722185661053765e-9,-1.3589973449870458e-9,0.02070042889670099,2.150536958847166e-9
2024-05-31,true,2.2160620462884666e-8,0.04724303031151446,-6.340392991077627e-10,0.08576482520139532,-1.9994086807206756e-10,-1.0902775538659216e-9,-1.0578158247323958e-9,-9.865169523770064e-10,0.08598545246148086,0.3000000077869179,0.2229844364759706,0.1788143866111008,0.058507434759433374,-1.5572446778251234e-9,-1.0669845083515304e-9,0.020700430586331267,2.396755532762489e-9
2024-06-28,true,2.7304780355770777e-8,0.047243026493116846,-4.3427796793983154e-10,0.08576483255505293,-1.199886535934911e-10,-9.167333357427197e-10,-9.083957183102657e-10,-8.500615708090383e-10,0.08598545123958912,0.30000000815575134,0.22298443820520297,0.1788143793180728,0.05850743343961744,-1.5414686792675723e-9,-9.562449374322129e-10,0.02070043379639268,2.520968930397242e-9
2024-07-31,true,2.415374882362276e-8,0.0472430231367886,-3.5495886552672307e-10,0.08576483963338805,-4.717605429166742e-11,-7.093569471519397e-10,-6.526603996504213e-10,-6.139886738886922e-10,0.08598544896950464,0.3000000083476099,0.22298444020102315,0.17881437347820361,0.05850743282960607,-1.3407689472363596e-9,-8.764807567118904e-10,0.020700435321208414,2.6758146387632704e-9
2024-08-30,true,2.388329728158968e-8,0.04724302053035384,-4.4833039511918136e-10,0.08576484856221527,-1.492623382440046e-10,-6.63563385593636e-10,-6.054753766972182e-10,-5.889054555826899e-10,0.08598544594072813,0.30000000867590365,0.22298444209754756,0.17881436749884932,0.05850743303677471,-1.2577078339574805e-9,-1.0065452325410557e-9,0.020700435319433667,3.0553124106669496e-9
2024-09-30,true,3.009216231661311e-8,0.0472430158713402,-6.007409023683287e-10,0.08576486034482356,-2.887104776395252e-10,-7.531966638604462e-10,-6.481130623989889e-10,-6.354958764128014e-10,0.08598544379310141,0.3000000090802671,0.22298444350913424,0.17881436089891806,0.05850743215585067,-1.2376508409992859e-9,-1.2949793175353125e-9,0.02070043657843908,3.2232041340137767e-9
2024-10-31,true,4.954707472113595e-8,0.04724300953812639,-5.573755108062617e-10,0.08576487546214917,-4.681981187731345e-10,-9.783885431326693e-10,-7.707848474789948e-10,-7.241372657399195e-10,0.08598544448501644,0.3000000103382489,0.22298444484575788,0.17881434888160314,0.05850742703576854,-1.516809395445996e-9,-1.648045749328588e-9,0.02070044290148438,3.165214755995628e-9
2024-11-29,true,3.4059207640432285e-8,0.04724300506910423,-5.186736575581599e-10,0.08576488712841296,-4.051660122632251e-10,-8.632487438806952e-10,-5.60191772160976e-10,-5.109758997033095e-10,0.08598544342440478,0.3000000106691887,0.2229844458983308,0.17881434064511267,0.05850742377402264,-1.3387659994896704e-9,-1.5304877286033671e-9,0.020700445836938218,3.275092276083223e-9
2024-12-31,true,2.4812049398491593e-8,0.04724300399574796,-4.6104234068842e-10,0.0857648964624347,-3.7405146963406455e-10,-6.248067868508546e-10,-2.3838674176836325e-10,-2.0598509589645843e-10,0.08598544072491233,0.3000000113140351,0.22298444656437144,0.17881433351772402,0.05850742226806902,-1.1623809588564993e-9,-1.5249294898783708e-9,0.02070044602031149,3.7167417149176166e-9
2025-01-31,true,2.426292087947953e-8,0.04724300308342991,-4.400598837169112e-10,0.08576490563968017,-3.7512543655459943e-10,-5.263681389899387e-10,-5.576105051281553e-11,-5.4106746902829436e-11,0.08598543748011352,0.30000001173023344,0.22298444821343216,0.17881432732919805,0.0585074205121605,-9.675440432316614e-10,-1.5539854410137591e-9,0.020700446124462455,3.8525637325315565e-9
2025-02-28,true,1.9797688450413412e-8,0.047243002881822614,-8.710125440797985e-11,0.08576491090869562,-2.3091812049275915e-11,-2.5043049080385075e-10,2.4190469718419955e-10,2.506125847164488e-10,0.08598543400337325,0.3000000117522976,0.22298445084664376,0.17881432239695533,0.058507419352805755,-9.141581345083641e-10,-1.2157404827284938e-9,0.020700446082092632,3.766427210120211e-9
2025-03-31,true,3.207085306937625e-8,0.04724300469416513,2.9810934969239636e-11,0.08576491072650634,3.363335291520044e-10,2.1381783317490954e-10,5.976942958571943e-10,5.558235937068924e-10,0.08598542772699438,0.3000000097049935,0.22298445430093317,0.17881432482712228,0.05850742488841339,-5.162067815126807e-10,-4.072764322656308e-10,0.020700439284651876,3.0392955229213384e-9
2025-04-30,true,2.3486700928062045e-8,0.04724300477562124,-1.1331875382049856e-10,0.0857649150670096,2.056416272242022e-10,1.9566114064628928e-10,6.103663396930501e-10,5.488027126165328e-10,0.08598542246263534,0.30000000894439094,0.2229844576053337,0.17881432504955552,0.05850742833137012,-4.446437772967614e-10,-4.5263244282378066e-10,0.020700433909341696,3.305384551799099e-9
2025-05-30,true,2.8437910909250092e-8,0.04724300550964346,-4.697277865285559e-12,0.08576491584215029,3.661057207962853e-10,3.313217054609036e-10,7.214156464916196e-10,6.525211658541329e-10,0.0859854162654074,0.30000000781368774,0.22298446169499347,0.1788143280808554,0.05850743285043862,-3.339514178254341e-10,-1.1209924021011685e-10,0.020700427208707708,3.1159692869192674e-9
2025-06-30,true,2.8857832061906904e-8,0.0472430046561193,1.508228081185885e-10,0.08576491664972713,5.122626640134918e-10,4.2095851728828124e-10,8.183151998933322e-10,7.506493941478664e-10,0.0859854099132936,0.30000000704900354,0.22298446638019218,0.17881433201134356,0.058507436967216796,-2.9731503217977193e-10,1.2024577003721765e-10,0.02070042074961039,3.149016986007631e-9
2025-07-31,true,3.6016447350681656e-8,0.04724300289001026,1.9247291336379417e-10,0.08576491784021201,5.812079686218515e-10,5.012672927853611e-10,8.61786307794496e-10,7.936802016873418e-10,0.08598540299142489,0.30000000599838406,0.2229844716705052,0.1788143375822347,0.058507442349836535,-2.169432297131487e-10,3.3726269233285997e-10,0.020700412811940704,2.81794016117738e-9
2025-08-29,true,3.470480659066936e-8,0.047243000973743454,1.4730714815509824e-10,0.08576491938170182,5.67896756076535e-10,5.163567675199395e-10,8.229420754100063e-10,7.517719290198555e-10,0.08598539683861446,0.30000000484796496,0.2229844762182077,0.178814343289024,0.05850744770348449,-1.5957369514317648e-10,4.680864961783037e-10,0.02070040532331143,2.313401042356287e-9
2025-09-30,true,3.4041589038808495e-8,0.047242999457460966,7.965035099478316e-11,0.08576492048975543,5.49166434618593e-10,5.311102577261489e-10,7.609371945452798e-10,6.87121961577817e-10,0.08598539062570168,0.3000000038456735,0.22298448057599257,0.1788143492952341,0.0585074530826524,-1.1750510059644158e-10,5.812707469467118e-10,0.02070039774815729,1.8127176755087622e-9
2025-10-03,true,3.297130840879176e-8,0.047242998075999576,4.968738140857709e-12,0.08576492147570133,5.144901181461359e-10,5.099509317332474e-10,6.89885028479429e-10,6.118889960714745e-10,0.08598538439405645,0.30000000304940677,0.22298448485464678,0.17881435508198257,0.05850745848099131,-1.2597000127537946e-10,6.174059626575831e-10,0.02070039021610532,1.5539245689001162e-9
