date,rebalanced,turnover,SPY,IWD,IWF,IWM,EFA,EEM,VWO,TLT,IEF,LQD,HYG,GLD,SLV,VNQ,DBC,USO
2010-04-30,true,1.172127052101356,2.328535376935239e-9,2.760651230916118e-9,0.09554593966945535,0.013715368292124967,-2.4241394751443663e-9,-8.45060228969426e-9,-6.386234402921869e-9,0.214159805658759,0.2999999990272081,0.15816978830399103,0.10039831054749515,0.09278968283697388,-3.174003850099173e-9,8.127435960900665e-10,0.0252211234271185,-3.243667285274467e-9
2010-05-28,true,0.11120836645050669,-7.68996710274434e-9,-7.108358482469268e-9,0.0399419195964477,0.04980370570643525,-8.621648845721555e-9,-4.810808328856971e-9,-5.057855086302043e-9,0.21431743020063435,0.2999998857343368,0.1637874339590948,0.1053072556076555,0.09641345780275688,-1.872302795663309e-8,1.5410416914898066e-9,0.030428973341607744,-1.1446055964962732e-8
2010-06-30,false,0.0,-7.68996710274434e-9,-7.108358482469268e-9,0.0399419195964477,0.04980370570643525,-8.621648845721555e-9,-4.810808328856971e-9,-5.057855086302043e-9,0.21431743020063435,0.2999998857343368,0.1637874339590948,0.1053072556076555,0.09641345780275688,-1.872302795663309e-8,1.5410416914898066e-9,0.030428973341607744,-1.1446055964962732e-8
2010-07-30,false,0.0,-7.68996710274434e-9,-7.108358482469268e-9,0.0399419195964477,0.04980370570643525,-8.621648845721555e-9,-4.810808328856971e-9,-5.057855086302043e-9,0.21431743020063435,0.2999998857343368,0.1637874339590948,0.1053072556076555,0.09641345780275688,-1.872302795663309e-8,1.5410416914898066e-9,0.030428973341607744,-1.1446055964962732e-8
2010-08-31,false,0.0,-7.68996710274434e-9,-7.108358482469268e-9,0.0399419195964477,0.04980370570643525,-8.621648845721555e-9,-4.810808328856971e-9,-5.057855086302043e-9,0.21431743020063435,0.2999998857343368,0.1637874339590948,0.1053072556076555,0.09641345780275688,-1.872302795663309e-8,1.5410416914898066e-9,0.030428973341607744,-1.1446055964962732e-8
2010-09-30,false,0.0,-7.68996710274434e-9,-7.108358482469268e-9,0.0399419195964477,0.04980370570643525,-8.621648845721555e-9,-4.810808328856971e-9,-5.057855086302043e-9,0.21431743020063435,0.2999998857343368,0.1637874339590948,0.1053072556076555,0.09641345780275688,-1.872302795663309e-8,1.5410416914898066e-9,0.030428973341607744,-1.1446055964962732e-8
2010-10-29,false,0.0,-7.68996710274434e-9,-7.108358482469268e-9,0.0399419195964477,0.04980370570643525,-8.621648845721555e-9,-4.810808328856971e-9,-5.057855086302043e-9,0.21431743020063435,0.2999998857343368,0.1637874339590948,0.1053072556076555,0.09641345780275688,-1.872302795663309e-8,1.5410416914898066e-9,0.030428973341607744,-1.1446055964962732e-8
2010-11-30,false,0.0,-7.68996710274434e-9,-7.108358482469268e-9,0.0399419195964477,0.04980370570643525,-8.621648845721555e-9,-4.810808328856971e-9,-5.057855086302043e-9,0.21431743020063435,0.2999998857343368,0.1637874339590948,0.1053072556076555,0.09641345780275688,-1.872302795663309e-8,1.5410416914898066e-9,0.030428973341607744,-1.1446055964962732e-8
2010-12-31,false,0.0,-7.68996710274434e-9,-7.108358482469268e-9,0.0399419195964477,0.04980370570643525,-8.621648845721555e-9,-4.810808328856971e-9,-5.057855086302043e-9,0.21431743020063435,0.2999998857343368,0.1637874339590948,0.1053072556076555,0.09641345780275688,-1.872302795663309e-8,1.5410416914898066e-9,0.030428973341607744,-1.1446055964962732e-8
2011-01-31,false,0.0,-7.68996710274434e-9,-7.108358482469268e-9,0.0399419195964477,0.04980370570643525,-8.621648845721555e-9,-4.810808328856971e-9,-5.057855086302043e-9,0.21431743020063435,0.2999998857343368,0.1637874339590948,0.1053072556076555,0.09641345780275688,-1.872302795663309e-8,1.5410416914898066e-9,0.030428973341607744,-1.1446055964962732e-8
2011-02-28,false,0.0,-7.68996710274434e-9,-7.108358482469268e-9,0.0399419195964477,0.04980370570643525,-8.621648845721555e-9,-4.810808328856971e-9,-5.057855086302043e-9,0.21431743020063435,0.2999998857343368,0.1637874339590948,0.1053072556076555,0.09641345780275688,-1.872302795663309e-8,1.5410416914898066e-9,0.030428973341607744,-1.1446055964962732e-8
2011-03-31,false,0.0,-7.68996710274434e-9,-7.108358482469268e-9,0.0399419195964477,0.04980370570643525,-8.621648845721555e-9,-4.810808328856971e-9,-5.057855086302043e-9,0.21431743020063435,0.2999998857343368,0.1637874339590948,0.1053072556076555,0.09641345780275688,-1.872302795663309e-8,1.5410416914898066e-9,0.030428973341607744,-1.1446055964962732e-8
2011-04-29,false,0.0,-7.68996710274434e-9,-7.108358482469268e-9,0.0399419195964477,0.04980370570643525,-8.621648845721555e-9,-4.810808328856971e-9,-5.057855086302043e-9,0.21431743020063435,0.2999998857343368,0.1637874339590948,0.1053072556076555,0.09641345780275688,-1.872302795663309e-8,1.5410416914898066e-9,0.030428973341607744,-1.1446055964962732e-8
2011-05-31,false,0.0,-7.68996710274434e-9,-7.108358482469268e-9,0.0399419195964477,0.04980370570643525,-8.621648845721555e-9,-4.810808328856971e-9,-5.057855086302043e-9,0.21431743020063435,0.2999998857343368,0.1637874339590948,0.1053072556076555,0.09641345780275688,-1.872302795663309e-8,1.5410416914898066e-9,0.030428973341607744,-1.1446055964962732e-8
2011-06-30,false,0.0,-7.68996710274434e-9,-7.108358482469268e-9,0.0399419195964477,0.04980370570643525,-8.621648845721555e-9,-4.810808328856971e-9,-5.057855086302043e-9,0.21431743020063435,0.2999998857343368,0.1637874339590948,0.1053072556076555,0.09641345780275688,-1.872302795663309e-8,1.5410416914898066e-9,0.030428973341607744,-1.1446055964962732e-8
2011-07-29,false,0.0,-7.68996710274434e-9,-7.108358482469268e-9,0.0399419195964477,0.04980370570643525,-8.621648845721555e-9,-4.810808328856971e-9,-5.057855086302043e-9,0.21431743020063435,0.2999998857343368,0.1637874339590948,0.1053072556076555,0.09641345780275688,-1.872302795663309e-8,1.5410416914898066e-9,0.030428973341607744,-1.1446055964962732e-8
2011-08-31,false,0.0,-7.68996710274434e-9,-7.108358482469268e-9,0.0399419195964477,0.04980370570643525,-8.621648845721555e-9,-4.810808328856971e-9,-5.057855086302043e-9,0.21431743020063435,0.2999998857343368,0.1637874339590948,0.1053072556076555,0.09641345780275688,-1.872302795663309e-8,1.5410416914898066e-9,0.030428973341607744,-1.1446055964962732e-8
2011-09-30,true,0.3501983944971228,-6.105342516690544e-8,-4.274430751218857e-8,0.026636833477024675,0.019523859151524214,-4.447590906259846e-8,-2.6266492775557577e-9,-1.109165698172155e-8,0.10476067336662123,0.29999969435240836,0.2999996298282097,0.12880113768102106,0.0773839863192711,-1.1471843969081208e-9,-1.0712686391518703e-8,0.02750127170909997,0.015393088201117316
2011-10-31,true,0.22536303527181767,0.03387639436387145,1.3731622676714327e-7,0.007793074255242459,1.0969291631205622e-7,1.2315846236994088e-7,8.503141906542729e-8,8.991006700706835e-8,0.05416848002510735,0.30000101774911847,0.30000115552170215,0.19722983581532358,0.06905508974245902,2.2385635012138346e-7,2.5348744915312424e-8,0.037873988892721894,1.6877310321849668e-7
2011-11-30,false,0.0,0.03387639436387145,1.3731622676714327e-7,0.007793074255242459,1.0969291631205622e-7,1.2315846236994088e-7,8.503141906542729e-8,8.991006700706835e-8,0.05416848002510735,0.30000101774911847,0.30000115552170215,0.19722983581532358,0.06905508974245902,2.2385635012138346e-7,2.5348744915312424e-8,0.037873988892721894,1.6877310321849668e-7
2011-12-30,false,0.0,0.03387639436387145,1.3731622676714327e-7,0.007793074255242459,1.0969291631205622e-7,1.2315846236994088e-7,8.503141906542729e-8,8.991006700706835e-8,0.05416848002510735,0.30000101774911847,0.30000115552170215,0.19722983581532358,0.06905508974245902,2.2385635012138346e-7,2.5348744915312424e-8,0.037873988892721894,1.6877310321849668e-7
2012-01-31,true,0.10189521526980745,0.024991281366262646,-3.155025087896733e-8,7.638531716861474e-9,-5.509486250800734e-8,-1.401424358066214e-8,-5.690824573237853e-8,-5.523397772956715e-8,0.037804057067969646,0.3000000770384734,0.30000005223261356,0.24817744366275846,0.060295516982341306,-1.463993004240162e-7,-3.586713209121428e-7,0.02873231647327806,-3.471212859164875e-8
2012-02-29,false,0.0,0.024991281366262646,-3.155025087896733e-8,7.638531716861474e-9,-5.509486250800734e-8,-1.401424358066214e-8,-5.690824573237853e-8,-5.523397772956715e-8,0.037804057067969646,0.3000000770384734,0.30000005223261356,0.24817744366275846,0.060295516982341306,-1.463993004240162e-7,-3.586713209121428e-7,0.02873231647327806,-3.471212859164875e-8
2012-03-30,false,0.0,0.024991281366262646,-3.155025087896733e-8,7.638531716861474e-9,-5.509486250800734e-8,-1.401424358066214e-8,-5.690824573237853e-8,-5.523397772956715e-8,0.037804057067969646,0.3000000770384734,0.30000005223261356,0.24817744366275846,0.060295516982341306,-1.463993004240162e-7,-3.586713209121428e-7,0.02873231647327806,-3.471212859164875e-8
2012-04-30,true,0.12331536486978607,0.034820453408178034,5.715121059573936e-7,5.391399168706241e-7,6.518813331684263e-7,5.828906466042345e-7,5.812026241162125e-7,5.635381723326512e-7,0.01837923346354376,0.29999995399598217,0.3000000433732535,0.3000007614733876,0.04138673194802741,-1.1328455837666024e-8,5.958987858988804e-7,0.005408374478112932,3.7280055753490614e-7
2012-05-31,false,0.0,0.034820453408178034,5.715121059573936e-7,5.391399168706241e-7,6.518813331684263e-7,5.828906466042345e-7,5.812026241162125e-7,5.635381723326512e-7,0.01837923346354376,0.29999995399598217,0.3000000433732535,0.3000007614733876,0.04138673194802741,-1.1328455837666024e-8,5.958987858988804e-7,0.005408374478112932,3.7280055753490614e-7
2012-06-29,false,0.0,0.034820453408178034,5.715121059573936e-7,5.391399168706241e-7,6.518813331684263e-7,5.828906466042345e-7,5.812026241162125e-7,5.635381723326512e-7,0.01837923346354376,0.29999995399598217,0.3000000433732535,0.3000007614733876,0.04138673194802741,-1.1328455837666024e-8,5.958987858988804e-7,0.005408374478112932,3.7280055753490614e-7
2012-07-31,false,0.0,0.034820453408178034,5.715121059573936e-7,5.391399168706241e-7,6.518813331684263e-7,5.828906466042345e-7,5.812026241162125e-7,5.635381723326512e-7,0.01837923346354376,0.29999995399598217,0.3000000433732535,0.3000007614733876,0.04138673194802741,-1.1328455837666024e-8,5.958987858988804e-7,0.005408374478112932,3.7280055753490614e-7
2012-08-31,false,0.0,0.034820453408178034,5.715121059573936e-7,5.391399168706241e-7,6.518813331684263e-7,5.828906466042345e-7,5.812026241162125e-7,5.635381723326512e-7,0.01837923346354376,0.29999995399598217,0.3000000433732535,0.3000007614733876,0.04138673194802741,-1.1328455837666024e-8,5.958987858988804e-7,0.005408374478112932,3.7280055753490614e-7
2012-09-28,false,0.0,0.034820453408178034,5.715121059573936e-7,5.391399168706241e-7,6.518813331684263e-7,5.828906466042345e-7,5.812026241162125e-7,5.635381723326512e-7,0.01837923346354376,0.29999995399598217,0.3000000433732535,0.3000007614733876,0.04138673194802741,-1.1328455837666024e-8,5.958987858988804e-7,0.005408374478112932,3.7280055753490614e-7
2012-10-31,false,0.0,0.034820453408178034,5.715121059573936e-7,5.391399168706241e-7,6.518813331684263e-7,5.828906466042345e-7,5.812026241162125e-7,5.635381723326512e-7,0.01837923346354376,0.29999995399598217,0.3000000433732535,0.3000007614733876,0.04138673194802741,-1.1328455837666024e-8,5.958987858988804e-7,0.005408374478112932,3.7280055753490614e-7
2012-11-30,false,0.0,0.034820453408178034,5.715121059573936e-7,5.391399168706241e-7,6.518813331684263e-7,5.828906466042345e-7,5.812026241162125e-7,5.635381723326512e-7,0.01837923346354376,0.29999995399598217,0.3000000433732535,0.3000007614733876,0.04138673194802741,-1.1328455837666024e-8,5.958987858988804e-7,0.005408374478112932,3.7280055753490614e-7
2012-12-31,false,0.0,0.034820453408178034,5.715121059573936e-7,5.391399168706241e-7,6.518813331684263e-7,5.828906466042345e-7,5.812026241162125e-7,5.635381723326512e-7,0.01837923346354376,0.29999995399598217,0.3000000433732535,0.3000007614733876,0.04138673194802741,-1.1328455837666024e-8,5.958987858988804e-7,0.005408374478112932,3.7280055753490614e-7
2013-01-31,false,0.0,0.034820453408178034,5.715121059573936e-7,5.391399168706241e-7,6.518813331684263e-7,5.828906466042345e-7,5.812026241162125e-7,5.635381723326512e-7,0.01837923346354376,0.29999995399598217,0.3000000433732535,0.3000007614733876,0.04138673194802741,-1.1328455837666024e-8,5.958987858988804e-7,0.005408374478112932,3.7280055753490614e-7
2013-02-28,false,0.0,0.034820453408178034,5.715121059573936e-7,5.391399168706241e-7,6.518813331684263e-7,5.828906466042345e-7,5.812026241162125e-7,5.635381723326512e-7,0.01837923346354376,0.29999995399598217,0.3000000433732535,0.3000007614733876,0.04138673194802741,-1.1328455837666024e-8,5.958987858988804e-7,0.005408374478112932,3.7280055753490614e-7
2013-03-28,false,0.0,0.034820453408178034,5.715121059573936e-7,5.391399168706241e-7,6.518813331684263e-7,5.828906466042345e-7,5.812026241162125e-7,5.635381723326512e-7,0.01837923346354376,0.29999995399598217,0.3000000433732535,0.3000007614733876,0.04138673194802741,-1.1328455837666024e-8,5.958987858988804e-7,0.005408374478112932,3.7280055753490614e-7
2013-04-30,false,0.0,0.034820453408178034,5.715121059573936e-7,5.391399168706241e-7,6.518813331684263e-7,5.828906466042345e-7,5.812026241162125e-7,5.635381723326512e-7,0.01837923346354376,0.29999995399598217,0.3000000433732535,0.3000007614733876,0.04138673194802741,-1.1328455837666024e-8,5.958987858988804e-7,0.005408374478112932,3.7280055753490614e-7
2013-05-31,false,0.0,0.034820453408178034,5.715121059573936e-7,5.391399168706241e-7,6.518813331684263e-7,5.828906466042345e-7,5.812026241162125e-7,5.635381723326512e-7,0.01837923346354376,0.29999995399598217,0.3000000433732535,0.3000007614733876,0.04138673194802741,-1.1328455837666024e-8,5.958987858988804e-7,0.005408374478112932,3.7280055753490614e-7
2013-06-28,false,0.0,0.034820453408178034,5.715121059573936e-7,5.391399168706241e-7,6.518813331684263e-7,5.828906466042345e-7,5.812026241162125e-7,5.635381723326512e-7,0.01837923346354376,0.29999995399598217,0.3000000433732535,0.3000007614733876,0.04138673194802741,-1.1328455837666024e-8,5.958987858988804e-7,0.005408374478112932,3.7280055753490614e-7
2013-07-31,false,0.0,0.034820453408178034,5.715121059573936e-7,5.391399168706241e-7,6.518813331684263e-7,5.828906466042345e-7,5.812026241162125e-7,5.635381723326512e-7,0.01837923346354376,0.29999995399598217,0.3000000433732535,0.3000007614733876,0.04138673194802741,-1.1328455837666024e-8,5.958987858988804e-7,0.005408374478112932,3.7280055753490614e-7
2013-08-30,true,0.10054593371295793,0.028864652512644744,-7.244093568110182e-8,-6.140570068156053e-8,-9.876777819956331e-8,-9.142415139550682e-8,-9.529856957118377e-8,-9.457547073960095e-8,0.015232055167695357,0.300000064770635,0.29999974379635774,0.2999998419711706,0.00022304340552401755,1.0217208534082075e-7,-1.2316309818475315e-7,0.055681117282420554,1.611938850862225e-8
2013-09-30,false,0.0,0.028864652512644744,-7.244093568110182e-8,-6.140570068156053e-8,-9.876777819956331e-8,-9.142415139550682e-8,-9.529856957118377e-8,-9.457547073960095e-8,0.015232055167695357,0.300000064770635,0.29999974379635774,0.2999998419711706,0.00022304340552401755,1.0217208534082075e-7,-1.2316309818475315e-7,0.055681117282420554,1.611938850862225e-8
2013-10-31,false,0.0,0.028864652512644744,-7.244093568110182e-8,-6.140570068156053e-8,-9.876777819956331e-8,-9.142415139550682e-8,-9.529856957118377e-8,-9.457547073960095e-8,0.015232055167695357,0.300000064770635,0.29999974379635774,0.2999998419711706,0.00022304340552401755,1.0217208534082075e-7,-1.2316309818475315e-7,0.055681117282420554,1.611938850862225e-8
2013-11-29,false,0.0,0.028864652512644744,-7.244093568110182e-8,-6.140570068156053e-8,-9.876777819956331e-8,-9.142415139550682e-8,-9.529856957118377e-8,-9.457547073960095e-8,0.015232055167695357,0.300000064770635,0.29999974379635774,0.2999998419711706,0.00022304340552401755,1.0217208534082075e-7,-1.2316309818475315e-7,0.055681117282420554,1.611938850862225e-8
2013-12-31,false,0.0,0.028864652512644744,-7.244093568110182e-8,-6.140570068156053e-8,-9.876777819956331e-8,-9.142415139550682e-8,-9.529856957118377e-8,-9.457547073960095e-8,0.015232055167695357,0.300000064770635,0.29999974379635774,0.2999998419711706,0.00022304340552401755,1.0217208534082075e-7,-1.2316309818475315e-7,0.055681117282420554,1.611938850862225e-8
2014-01-31,false,0.0,0.028864652512644744,-7.244093568110182e-8,-6.140570068156053e-8,-9.876777819956331e-8,-9.142415139550682e-8,-9.529856957118377e-8,-9.457547073960095e-8,0.015232055167695357,0.300000064770635,0.29999974379635774,0.2999998419711706,0.00022304340552401755,1.0217208534082075e-7,-1.2316309818475315e-7,0.055681117282420554,1.611938850862225e-8
2014-02-28,false,0.0,0.028864652512644744,-7.244093568110182e-8,-6.140570068156053e-8,-9.876777819956331e-8,-9.142415139550682e-8,-9.529856957118377e-8,-9.457547073960095e-8,0.015232055167695357,0.300000064770635,0.29999974379635774,0.2999998419711706,0.00022304340552401755,1.0217208534082075e-7,-1.2316309818475315e-7,0.055681117282420554,1.611938850862225e-8
2014-03-31,false,0.0,0.028864652512644744,-7.244093568110182e-8,-6.140570068156053e-8,-9.876777819956331e-8,-9.142415139550682e-8,-9.529856957118377e-8,-9.457547073960095e-8,0.015232055167695357,0.300000064770635,0.29999974379635774,0.2999998419711706,0.00022304340552401755,1.0217208534082075e-7,-1.2316309818475315e-7,0.055681117282420554,1.611938850862225e-8
2014-04-30,false,0.0,0.028864652512644744,-7.244093568110182e-8,-6.140570068156053e-8,-9.876777819956331e-8,-9.142415139550682e-8,-9.529856957118377e-8,-9.457547073960095e-8,0.015232055167695357,0.300000064770635,0.29999974379635774,0.2999998419711706,0.00022304340552401755,1.0217208534082075e-7,-1.2316309818475315e-7,0.055681117282420554,1.611938850862225e-8
2014-05-30,false,0.0,0.028864652512644744,-7.244093568110182e-8,-6.140570068156053e-8,-9.876777819956331e-8,-9.142415139550682e-8,-9.529856957118377e-8,-9.457547073960095e-8,0.015232055167695357,0.300000064770635,0.29999974379635774,0.2999998419711706,0.00022304340552401755,1.0217208534082075e-7,-1.2316309818475315e-7,0.055681117282420554,1.611938850862225e-8
2014-06-30,false,0.0,0.028864652512644744,-7.244093568110182e-8,-6.140570068156053e-8,-9.876777819956331e-8,-9.142415139550682e-8,-9.529856957118377e-8,-9.457547073960095e-8,0.015232055167695357,0.300000064770635,0.29999974379635774,0.2999998419711706,0.00022304340552401755,1.0217208534082075e-7,-1.2316309818475315e-7,0.055681117282420554,1.611938850862225e-8
2014-07-31,false,0.0,0.028864652512644744,-7.244093568110182e-8,-6.140570068156053e-8,-9.876777819956331e-8,-9.142415139550682e-8,-9.529856957118377e-8,-9.457547073960095e-8,0.015232055167695357,0.300000064770635,0.29999974379635774,0.2999998419711706,0.00022304340552401755,1.0217208534082075e-7,-1.2316309818475315e-7,0.055681117282420554,1.611938850862225e-8
2014-08-29,false,0.0,0.028864652512644744,-7.244093568110182e-8,-6.140570068156053e-8,-9.876777819956331e-8,-9.142415139550682e-8,-9.529856957118377e-8,-9.457547073960095e-8,0.015232055167695357,0.300000064770635,0.29999974379635774,0.2999998419711706,0.00022304340552401755,1.0217208534082075e-7,-1.2316309818475315e-7,0.055681117282420554,1.611938850862225e-8
2014-09-30,false,0.0,0.028864652512644744,-7.244093568110182e-8,-6.140570068156053e-8,-9.876777819956331e-8,-9.142415139550682e-8,-9.529856957118377e-8,-9.457547073960095e-8,0.015232055167695357,0.300000064770635,0.29999974379635774,0.2999998419711706,0.00022304340552401755,1.0217208534082075e-7,-1.2316309818475315e-7,0.055681117282420554,1.611938850862225e-8
2014-10-31,false,0.0,0.028864652512644744,-7.244093568110182e-8,-6.140570068156053e-8,-9.876777819956331e-8,-9.142415139550682e-8,-9.529856957118377e-8,-9.457547073960095e-8,0.015232055167695357,0.300000064770635,0.29999974379635774,0.2999998419711706,0.00022304340552401755,1.0217208534082075e-7,-1.2316309818475315e-7,0.055681117282420554,1.611938850862225e-8
2014-11-28,false,0.0,0.028864652512644744,-7.244093568110182e-8,-6.140570068156053e-8,-9.876777819956331e-8,-9.142415139550682e-8,-9.529856957118377e-8,-9.457547073960095e-8,0.015232055167695357,0.300000064770635,0.29999974379635774,0.2999998419711706,0.00022304340552401755,1.0217208534082075e-7,-1.2316309818475315e-7,0.055681117282420554,1.611938850862225e-8
2014-12-31,false,0.0,0.028864652512644744,-7.244093568110182e-8,-6.140570068156053e-8,-9.876777819956331e-8,-9.142415139550682e-8,-9.529856957118377e-8,-9.457547073960095e-8,0.015232055167695357,0.300000064770635,0.29999974379635774,0.2999998419711706,0.00022304340552401755,1.0217208534082075e-7,-1.2316309818475315e-7,0.055681117282420554,1.611938850862225e-8
2015-01-30,false,0.0,0.028864652512644744,-7.244093568110182e-8,-6.140570068156053e-8,-9.876777819956331e-8,-9.142415139550682e-8,-9.529856957118377e-8,-9.457547073960095e-8,0.015232055167695357,0.300000064770635,0.29999974379635774,0.2999998419711706,0.00022304340552401755,1.0217208534082075e-7,-1.2316309818475315e-7,0.055681117282420554,1.611938850862225e-8
2015-02-27,false,0.0,0.028864652512644744,-7.244093568110182e-8,-6.140570068156053e-8,-9.876777819956331e-8,-9.142415139550682e-8,-9.529856957118377e-8,-9.457547073960095e-8,0.015232055167695357,0.300000064770635,0.29999974379635774,0.2999998419711706,0.00022304340552401755,1.0217208534082075e-7,-1.2316309818475315e-7,0.055681117282420554,1.611938850862225e-8
2015-03-31,false,0.0,0.028864652512644744,-7.244093568110182e-8,-6.140570068156053e-8,-9.876777819956331e-8,-9.142415139550682e-8,-9.529856957118377e-8,-9.457547073960095e-8,0.015232055167695357,0.300000064770635,0.29999974379635774,0.2999998419711706,0.00022304340552401755,1.0217208534082075e-7,-1.2316309818475315e-7,0.055681117282420554,1.611938850862225e-8
2015-04-30,false,0.0,0.028864652512644744,-7.244093568110182e-8,-6.140570068156053e-8,-9.876777819956331e-8,-9.142415139550682e-8,-9.529856957118377e-8,-9.457547073960095e-8,0.015232055167695357,0.300000064770635,0.29999974379635774,0.2999998419711706,0.00022304340552401755,1.0217208534082075e-7,-1.2316309818475315e-7,0.055681117282420554,1.611938850862225e-8
2015-05-29,false,0.0,0.028864652512644744,-7.244093568110182e-8,-6.140570068156053e-8,-9.876777819956331e-8,-9.142415139550682e-8,-9.529856957118377e-8,-9.457547073960095e-8,0.015232055167695357,0.300000064770635,0.29999974379635774,0.2999998419711706,0.00022304340552401755,1.0217208534082075e-7,-1.2316309818475315e-7,0.055681117282420554,1.611938850862225e-8
2015-06-30,false,0.0,0.028864652512644744,-7.244093568110182e-8,-6.140570068156053e-8,-9.876777819956331e-8,-9.142415139550682e-8,-9.529856957118377e-8,-9.457547073960095e-8,0.015232055167695357,0.300000064770635,0.29999974379635774,0.2999998419711706,0.00022304340552401755,1.0217208534082075e-7,-1.2316309818475315e-7,0.055681117282420554,1.611938850862225e-8
2015-07-31,false,0.0,0.028864652512644744,-7.244093568110182e-8,-6.140570068156053e-8,-9.876777819956331e-8,-9.142415139550682e-8,-9.529856957118377e-8,-9.457547073960095e-8,0.015232055167695357,0.300000064770635,0.29999974379635774,0.2999998419711706,0.00022304340552401755,1.0217208534082075e-7,-1.2316309818475315e-7,0.055681117282420554,1.611938850862225e-8
2015-08-31,false,0.0,0.028864652512644744,-7.244093568110182e-8,-6.140570068156053e-8,-9.876777819956331e-8,-9.142415139550682e-8,-9.529856957118377e-8,-9.457547073960095e-8,0.015232055167695357,0.300000064770635,0.29999974379635774,0.2999998419711706,0.00022304340552401755,1.0217208534082075e-7,-1.2316309818475315e-7,0.055681117282420554,1.611938850862225e-8
2015-09-30,false,0.0,0.028864652512644744,-7.244093568110182e-8,-6.140570068156053e-8,-9.876777819956331e-8,-9.142415139550682e-8,-9.529856957118377e-8,-9.457547073960095e-8,0.015232055167695357,0.300000064770635,0.29999974379635774,0.2999998419711706,0.00022304340552401755,1.0217208534082075e-7,-1.2316309818475315e-7,0.055681117282420554,1.611938850862225e-8
2015-10-30,false,0.0,0.028864652512644744,-7.244093568110182e-8,-6.140570068156053e-8,-9.876777819956331e-8,-9.142415139550682e-8,-9.529856957118377e-8,-9.457547073960095e-8,0.015232055167695357,0.300000064770635,0.29999974379635774,0.2999998419711706,0.00022304340552401755,1.0217208534082075e-7,-1.2316309818475315e-7,0.055681117282420554,1.611938850862225e-8
2015-11-30,true,0.13416316211449614,0.0025782922613654946,7.239745522545852e-8,0.06009651063630627,-5.3019546305622115e-8,1.541862485139551e-7,3.888043694225065e-7,3.9752963724684594e-7,-1.946877796507361e-8,0.299999952204696,0.27466119038046827,0.3000000470765528,-5.168792812954384e-7,-8.177581052939862e-7,6.997037491498526e-8,0.06266397254507929,3.592007169191451e-7
2015-12-31,false,0.0,0.0025782922613654946,7.239745522545852e-8,0.06009651063630627,-5.3019546305622115e-8,1.541862485139551e-7,3.888043694225065e-7,3.9752963724684594e-7,-1.946877796507361e-8,0.299999952204696,0.27466119038046827,0.3000000470765528,-5.168792812954384e-7,-8.177581052939862e-7,6.997037491498526e-8,0.06266397254507929,3.592007169191451e-7
2016-01-29,false,0.0,0.0025782922613654946,7.239745522545852e-8,0.06009651063630627,-5.3019546305622115e-8,1.541862485139551e-7,3.888043694225065e-7,3.9752963724684594e-7,-1.946877796507361e-8,0.299999952204696,0.27466119038046827,0.3000000470765528,-5.168792812954384e-7,-8.177581052939862e-7,6.997037491498526e-8,0.06266397254507929,3.592007169191451e-7
2016-02-29,false,0.0,0.0025782922613654946,7.239745522545852e-8,0.06009651063630627,-5.3019546305622115e-8,1.541862485139551e-7,3.888043694225065e-7,3.9752963724684594e-7,-1.946877796507361e-8,0.299999952204696,0.27466119038046827,0.3000000470765528,-5.168792812954384e-7,-8.177581052939862e-7,6.997037491498526e-8,0.06266397254507929,3.592007169191451e-7
2016-03-31,false,0.0,0.0025782922613654946,7.239745522545852e-8,0.06009651063630627,-5.3019546305622115e-8,1.541862485139551e-7,3.888043694225065e-7,3.9752963724684594e-7,-1.946877796507361e-8,0.299999952204696,0.27466119038046827,0.3000000470765528,-5.168792812954384e-7,-8.177581052939862e-7,6.997037491498526e-8,0.06266397254507929,3.592007169191451e-7
2016-04-29,false,0.0,0.0025782922613654946,7.239745522545852e-8,0.06009651063630627,-5.3019546305622115e-8,1.541862485139551e-7,3.888043694225065e-7,3.9752963724684594e-7,-1.946877796507361e-8,0.299999952204696,0.27466119038046827,0.3000000470765528,-5.168792812954384e-7,-8.177581052939862e-7,6.997037491498526e-8,0.06266397254507929,3.592007169191451e-7
2016-05-31,false,0.0,0.0025782922613654946,7.239745522545852e-8,0.06009651063630627,-5.3019546305622115e-8,1.541862485139551e-7,3.888043694225065e-7,3.9752963724684594e-7,-1.946877796507361e-8,0.299999952204696,0.27466119038046827,0.3000000470765528,-5.168792812954384e-7,-8.177581052939862e-7,6.997037491498526e-8,0.06266397254507929,3.592007169191451e-7
2016-06-30,false,0.0,0.0025782922613654946,7.239745522545852e-8,0.06009651063630627,-5.3019546305622115e-8,1.541862485139551e-7,3.888043694225065e-7,3.9752963724684594e-7,-1.946877796507361e-8,0.299999952204696,0.27466119038046827,0.3000000470765528,-5.168792812954384e-7,-8.177581052939862e-7,6.997037491498526e-8,0.06266397254507929,3.592007169191451e-7
2016-07-29,false,0.0,0.0025782922613654946,7.239745522545852e-8,0.06009651063630627,-5.3019546305622115e-8,1.541862485139551e-7,3.888043694225065e-7,3.9752963724684594e-7,-1.946877796507361e-8,0.299999952204696,0.27466119038046827,0.3000000470765528,-5.168792812954384e-7,-8.177581052939862e-7,6.997037491498526e-8,0.06266397254507929,3.592007169191451e-7
2016-08-31,false,0.0,0.0025782922613654946,7.239745522545852e-8,0.06009651063630627,-5.3019546305622115e-8,1.541862485139551e-7,3.888043694225065e-7,3.9752963724684594e-7,-1.946877796507361e-8,0.299999952204696,0.27466119038046827,0.3000000470765528,-5.168792812954384e-7,-8.177581052939862e-7,6.997037491498526e-8,0.06266397254507929,3.592007169191451e-7
2016-09-30,false,0.0,0.0025782922613654946,7.239745522545852e-8,0.06009651063630627,-5.3019546305622115e-8,1.541862485139551e-7,3.888043694225065e-7,3.9752963724684594e-7,-1.946877796507361e-8,0.299999952204696,0.27466119038046827,0.3000000470765528,-5.168792812954384e-7,-8.177581052939862e-7,6.997037491498526e-8,0.06266397254507929,3.592007169191451e-7
2016-10-31,false,0.0,0.0025782922613654946,7.239745522545852e-8,0.06009651063630627,-5.3019546305622115e-8,1.541862485139551e-7,3.888043694225065e-7,3.9752963724684594e-7,-1.946877796507361e-8,0.299999952204696,0.27466119038046827,0.3000000470765528,-5.168792812954384e-7,-8.177581052939862e-7,6.997037491498526e-8,0.06266397254507929,3.592007169191451e-7
2016-11-30,false,0.0,0.0025782922613654946,7.239745522545852e-8,0.06009651063630627,-5.3019546305622115e-8,1.541862485139551e-7,3.888043694225065e-7,3.9752963724684594e-7,-1.946877796507361e-8,0.299999952204696,0.27466119038046827,0.3000000470765528,-5.168792812954384e-7,-8.177581052939862e-7,6.997037491498526e-8,0.06266397254507929,3.592007169191451e-7
2016-12-30,false,0.0,0.0025782922613654946,7.239745522545852e-8,0.06009651063630627,-5.3019546305622115e-8,1.541862485139551e-7,3.888043694225065e-7,3.9752963724684594e-7,-1.946877796507361e-8,0.299999952204696,0.27466119038046827,0.3000000470765528,-5.168792812954384e-7,-8.177581052939862e-7,6.997037491498526e-8,0.06266397254507929,3.592007169191451e-7
2017-01-31,false,0.0,0.0025782922613654946,7.239745522545852e-8,0.06009651063630627,-5.3019546305622115e-8,1.541862485139551e-7,3.888043694225065e-7,3.9752963724684594e-7,-1.946877796507361e-8,0.299999952204696,0.27466119038046827,0.3000000470765528,-5.168792812954384e-7,-8.177581052939862e-7,6.997037491498526e-8,0.06266397254507929,3.592007169191451e-7
2017-02-28,false,0.0,0.0025782922613654946,7.239745522545852e-8,0.06009651063630627,-5.3019546305622115e-8,1.541862485139551e-7,3.888043694225065e-7,3.9752963724684594e-7,-1.946877796507361e-8,0.299999952204696,0.27466119038046827,0.3000000470765528,-5.168792812954384e-7,-8.177581052939862e-7,6.997037491498526e-8,0.06266397254507929,3.592007169191451e-7
2017-03-31,false,0.0,0.0025782922613654946,7.239745522545852e-8,0.06009651063630627,-5.3019546305622115e-8,1.541862485139551e-7,3.888043694225065e-7,3.9752963724684594e-7,-1.946877796507361e-8,0.299999952204696,0.27466119038046827,0.3000000470765528,-5.168792812954384e-7,-8.177581052939862e-7,6.997037491498526e-8,0.06266397254507929,3.592007169191451e-7
2017-04-28,false,0.0,0.0025782922613654946,7.239745522545852e-8,0.06009651063630627,-5.3019546305622115e-8,1.541862485139551e-7,3.888043694225065e-7,3.9752963724684594e-7,-1.946877796507361e-8,0.299999952204696,0.27466119038046827,0.3000000470765528,-5.168792812954384e-7,-8.177581052939862e-7,6.997037491498526e-8,0.06266397254507929,3.592007169191451e-7
2017-05-31,false,0.0,0.0025782922613654946,7.239745522545852e-8,0.06009651063630627,-5.3019546305622115e-8,1.541862485139551e-7,3.888043694225065e-7,3.9752963724684594e-7,-1.946877796507361e-8,0.299999952204696,0.27466119038046827,0.3000000470765528,-5.168792812954384e-7,-8.177581052939862e-7,6.997037491498526e-8,0.06266397254507929,3.592007169191451e-7
2017-06-30,true,0.19247482774027427,0.05709430700894596,5.744097456103867e-9,0.0033760355983752407,2.1874123110455928e-10,1.961944596882268e-9,-9.469163752449068e-10,-3.8297958138763254e-10,4.780530312164298e-9,0.3000000082449709,0.3000000082583358,0.3000000061402875,0.016381116671506067,-3.629773777441607e-9,4.084197444772828e-9,0.023148505959991048,2.7990665686724454e-10
2017-07-31,false,0.0,0.05709430700894596,5.744097456103867e-9,0.0033760355983752407,2.1874123110455928e-10,1.961944596882268e-9,-9.469163752449068e-10,-3.8297958138763254e-10,4.780530312164298e-9,0.3000000082449709,0.3000000082583358,0.3000000061402875,0.016381116671506067,-3.629773777441607e-9,4.084197444772828e-9,0.023148505959991048,2.7990665686724454e-10
2017-08-31,false,0.0,0.05709430700894596,5.744097456103867e-9,0.0033760355983752407,2.1874123110455928e-10,1.961944596882268e-9,-9.469163752449068e-10,-3.8297958138763254e-10,4.780530312164298e-9,0.3000000082449709,0.3000000082583358,0.3000000061402875,0.016381116671506067,-3.629773777441607e-9,4.084197444772828e-9,0.023148505959991048,2.7990665686724454e-10
2017-09-29,false,0.0,0.05709430700894596,5.744097456103867e-9,0.0033760355983752407,2.1874123110455928e-10,1.961944596882268e-9,-9.469163752449068e-10,-3.8297958138763254e-10,4.780530312164298e-9,0.3000000082449709,0.3000000082583358,0.3000000061402875,0.016381116671506067,-3.629773777441607e-9,4.084197444772828e-9,0.023148505959991048,2.7990665686724454e-10
2017-10-31,false,0.0,0.05709430700894596,5.744097456103867e-9,0.0033760355983752407,2.1874123110455928e-10,1.961944596882268e-9,-9.469163752449068e-10,-3.8297958138763254e-10,4.780530312164298e-9,0.3000000082449709,0.3000000082583358,0.3000000061402875,0.016381116671506067,-3.629773777441607e-9,4.084197444772828e-9,0.023148505959991048,2.7990665686724454e-10
2017-11-30,false,0.0,0.05709430700894596,5.744097456103867e-9,0.0033760355983752407,2.1874123110455928e-10,1.961944596882268e-9,-9.469163752449068e-10,-3.8297958138763254e-10,4.780530312164298e-9,0.3000000082449709,0.3000000082583358,0.3000000061402875,0.016381116671506067,-3.629773777441607e-9,4.084197444772828e-9,0.023148505959991048,2.7990665686724454e-10
2017-12-29,false,0.0,0.05709430700894596,5.744097456103867e-9,0.0033760355983752407,2.1874123110455928e-10,1.961944596882268e-9,-9.469163752449068e-10,-3.8297958138763254e-10,4.780530312164298e-9,0.3000000082449709,0.3000000082583358,0.3000000061402875,0.016381116671506067,-3.629773777441607e-9,4.084197444772828e-9,0.023148505959991048,2.7990665686724454e-10
2018-01-31,false,0.0,0.05709430700894596,5.744097456103867e-9,0.0033760355983752407,2.1874123110455928e-10,1.961944596882268e-9,-9.469163752449068e-10,-3.8297958138763254e-10,4.780530312164298e-9,0.3000000082449709,0.3000000082583358,0.3000000061402875,0.016381116671506067,-3.629773777441607e-9,4.084197444772828e-9,0.023148505959991048,2.7990665686724454e-10
2018-02-28,false,0.0,0.05709430700894596,5.744097456103867e-9,0.0033760355983752407,2.1874123110455928e-10,1.961944596882268e-9,-9.469163752449068e-10,-3.8297958138763254e-10,4.780530312164298e-9,0.3000000082449709,0.3000000082583358,0.3000000061402875,0.016381116671506067,-3.629773777441607e-9,4.084197444772828e-9,0.023148505959991048,2.7990665686724454e-10
2018-03-29,false,0.0,0.05709430700894596,5.744097456103867e-9,0.0033760355983752407,2.1874123110455928e-10,1.961944596882268e-9,-9.469163752449068e-10,-3.8297958138763254e-10,4.780530312164298e-9,0.3000000082449709,0.3000000082583358,0.3000000061402875,0.016381116671506067,-3.629773777441607e-9,4.084197444772828e-9,0.023148505959991048,2.7990665686724454e-10
2018-04-30,true,0.11008770108144693,0.005426749397036331,0.04366572659608562,6.14004299412907e-7,-1.901977882103615e-7,1.4467183664933533e-7,3.278104323267945e-7,2.8958482164795786e-7,4.581410652211579e-7,0.30000099607539965,0.300000186207089,0.3000003349603212,0.027291725179870954,-2.35162786973946e-7,3.158948810496327e-8,0.023613290003584367,-4.4934198256651667e-7
2018-05-31,false,0.0,0.005426749397036331,0.04366572659608562,6.14004299412907e-7,-1.901977882103615e-7,1.4467183664933533e-7,3.278104323267945e-7,2.8958482164795786e-7,4.581410652211579e-7,0.30000099607539965,0.300000186207089,0.3000003349603212,0.027291725179870954,-2.35162786973946e-7,3.158948810496327e-8,0.023613290003584367,-4.4934198256651667e-7
2018-06-29,false,0.0,0.005426749397036331,0.04366572659608562,6.14004299412907e-7,-1.901977882103615e-7,1.4467183664933533e-7,3.278104323267945e-7,2.8958482164795786e-7,4.581410652211579e-7,0.30000099607539965,0.300000186207089,0.3000003349603212,0.027291725179870954,-2.35162786973946e-7,3.158948810496327e-8,0.023613290003584367,-4.4934198256651667e-7
2018-07-31,false,0.0,0.005426749397036331,0.04366572659608562,6.14004299412907e-7,-1.901977882103615e-7,1.4467183664933533e-7,3.278104323267945e-7,2.8958482164795786e-7,4.581410652211579e-7,0.30000099607539965,0.300000186207089,0.3000003349603212,0.027291725179870954,-2.35162786973946e-7,3.158948810496327e-8,0.023613290003584367,-4.4934198256651667e-7
2018-08-31,false,0.0,0.005426749397036331,0.04366572659608562,6.14004299412907e-7,-1.901977882103615e-7,1.4467183664933533e-7,3.278104323267945e-7,2.8958482164795786e-7,4.581410652211579e-7,0.30000099607539965,0.300000186207089,0.3000003349603212,0.027291725179870954,-2.35162786973946e-7,3.158948810496327e-8,0.023613290003584367,-4.4934198256651667e-7
2018-09-28,false,0.0,0.005426749397036331,0.04366572659608562,6.14004299412907e-7,-1.901977882103615e-7,1.4467183664933533e-7,3.278104323267945e-7,2.8958482164795786e-7,4.581410652211579e-7,0.30000099607539965,0.300000186207089,0.3000003349603212,0.027291725179870954,-2.35162786973946e-7,3.158948810496327e-8,0.023613290003584367,-4.4934198256651667e-7
2018-10-31,false,0.0,0.005426749397036331,0.04366572659608562,6.14004299412907e-7,-1.901977882103615e-7,1.4467183664933533e-7,3.278104323267945e-7,2.8958482164795786e-7,4.581410652211579e-7,0.30000099607539965,0.300000186207089,0.3000003349603212,0.027291725179870954,-2.35162786973946e-7,3.158948810496327e-8,0.023613290003584367,-4.4934198256651667e-7
2018-11-30,false,0.0,0.005426749397036331,0.04366572659608562,6.14004299412907e-7,-1.901977882103615e-7,1.4467183664933533e-7,3.278104323267945e-7,2.8958482164795786e-7,4.581410652211579e-7,0.30000099607539965,0.300000186207089,0.3000003349603212,0.027291725179870954,-2.35162786973946e-7,3.158948810496327e-8,0.023613290003584367,-4.4934198256651667e-7
2018-12-31,false,0.0,0.005426749397036331,0.04366572659608562,6.14004299412907e-7,-1.901977882103615e-7,1.4467183664933533e-7,3.278104323267945e-7,2.8958482164795786e-7,4.581410652211579e-7,0.30000099607539965,0.300000186207089,0.3000003349603212,0.027291725179870954,-2.35162786973946e-7,3.158948810496327e-8,0.023613290003584367,-4.4934198256651667e-7
2019-01-31,false,0.0,0.005426749397036331,0.04366572659608562,6.14004299412907e-7,-1.901977882103615e-7,1.4467183664933533e-7,3.278104323267945e-7,2.8958482164795786e-7,4.581410652211579e-7,0.30000099607539965,0.300000186207089,0.3000003349603212,0.027291725179870954,-2.35162786973946e-7,3.158948810496327e-8,0.023613290003584367,-4.4934198256651667e-7
2019-02-28,false,0.0,0.005426749397036331,0.04366572659608562,6.14004299412907e-7,-1.901977882103615e-7,1.4467183664933533e-7,3.278104323267945e-7,2.8958482164795786e-7,4.581410652211579e-7,0.30000099607539965,0.300000186207089,0.3000003349603212,0.027291725179870954,-2.35162786973946e-7,3.158948810496327e-8,0.023613290003584367,-4.4934198256651667e-7
2019-03-29,false,0.0,0.005426749397036331,0.04366572659608562,6.14004299412907e-7,-1.901977882103615e-7,1.4467183664933533e-7,3.278104323267945e-7,2.8958482164795786e-7,4.581410652211579e-7,0.30000099607539965,0.300000186207089,0.3000003349603212,0.027291725179870954,-2.35162786973946e-7,3.158948810496327e-8,0.023613290003584367,-4.4934198256651667e-7
2019-04-30,false,0.0,0.005426749397036331,0.04366572659608562,6.14004299412907e-7,-1.901977882103615e-7,1.4467183664933533e-7,3.278104323267945e-7,2.8958482164795786e-7,4.581410652211579e-7,0.30000099607539965,0.300000186207089,0.3000003349603212,0.027291725179870954,-2.35162786973946e-7,3.158948810496327e-8,0.023613290003584367,-4.4934198256651667e-7
2019-05-31,false,0.0,0.005426749397036331,0.04366572659608562,6.14004299412907e-7,-1.901977882103615e-7,1.4467183664933533e-7,3.278104323267945e-7,2.8958482164795786e-7,4.581410652211579e-7,0.30000099607539965,0.300000186207089,0.3000003349603212,0.027291725179870954,-2.35162786973946e-7,3.158948810496327e-8,0.023613290003584367,-4.4934198256651667e-7
2019-06-28,false,0.0,0.005426749397036331,0.04366572659608562,6.14004299412907e-7,-1.901977882103615e-7,1.4467183664933533e-7,3.278104323267945e-7,2.8958482164795786e-7,4.581410652211579e-7,0.30000099607539965,0.300000186207089,0.3000003349603212,0.027291725179870954,-2.35162786973946e-7,3.158948810496327e-8,0.023613290003584367,-4.4934198256651667e-7
2019-07-31,false,0.0,0.005426749397036331,0.04366572659608562,6.14004299412907e-7,-1.901977882103615e-7,1.4467183664933533e-7,3.278104323267945e-7,2.8958482164795786e-7,4.581410652211579e-7,0.30000099607539965,0.300000186207089,0.3000003349603212,0.027291725179870954,-2.35162786973946e-7,3.158948810496327e-8,0.023613290003584367,-4.4934198256651667e-7
2019-08-30,false,0.0,0.005426749397036331,0.04366572659608562,6.14004299412907e-7,-1.901977882103615e-7,1.4467183664933533e-7,3.278104323267945e-7,2.8958482164795786e-7,4.581410652211579e-7,0.30000099607539965,0.300000186207089,0.3000003349603212,0.027291725179870954,-2.35162786973946e-7,3.158948810496327e-8,0.023613290003584367,-4.4934198256651667e-7
2019-09-30,false,0.0,0.005426749397036331,0.04366572659608562,6.14004299412907e-7,-1.901977882103615e-7,1.4467183664933533e-7,3.278104323267945e-7,2.8958482164795786e-7,4.581410652211579e-7,0.30000099607539965,0.300000186207089,0.3000003349603212,0.027291725179870954,-2.35162786973946e-7,3.158948810496327e-8,0.023613290003584367,-4.4934198256651667e-7
2019-10-31,false,0.0,0.005426749397036331,0.04366572659608562,6.14004299412907e-7,-1.901977882103615e-7,1.4467183664933533e-7,3.278104323267945e-7,2.8958482164795786e-7,4.581410652211579e-7,0.30000099607539965,0.300000186207089,0.3000003349603212,0.027291725179870954,-2.35162786973946e-7,3.158948810496327e-8,0.023613290003584367,-4.4934198256651667e-7
2019-11-29,false,0.0,0.005426749397036331,0.04366572659608562,6.14004299412907e-7,-1.901977882103615e-7,1.4467183664933533e-7,3.278104323267945e-7,2.8958482164795786e-7,4.581410652211579e-7,0.30000099607539965,0.300000186207089,0.3000003349603212,0.027291725179870954,-2.35162786973946e-7,3.158948810496327e-8,0.023613290003584367,-4.4934198256651667e-7
2019-12-31,false,0.0,0.005426749397036331,0.04366572659608562,6.14004299412907e-7,-1.901977882103615e-7,1.4467183664933533e-7,3.278104323267945e-7,2.8958482164795786e-7,4.581410652211579e-7,0.30000099607539965,0.300000186207089,0.3000003349603212,0.027291725179870954,-2.35162786973946e-7,3.158948810496327e-8,0.023613290003584367,-4.4934198256651667e-7
2020-01-31,false,0.0,0.005426749397036331,0.04366572659608562,6.14004299412907e-7,-1.901977882103615e-7,1.4467183664933533e-7,3.278104323267945e-7,2.8958482164795786e-7,4.581410652211579e-7,0.30000099607539965,0.300000186207089,0.3000003349603212,0.027291725179870954,-2.35162786973946e-7,3.158948810496327e-8,0.023613290003584367,-4.4934198256651667e-7
2020-02-28,false,0.0,0.005426749397036331,0.04366572659608562,6.14004299412907e-7,-1.901977882103615e-7,1.4467183664933533e-7,3.278104323267945e-7,2.8958482164795786e-7,4.581410652211579e-7,0.30000099607539965,0.300000186207089,0.3000003349603212,0.027291725179870954,-2.35162786973946e-7,3.158948810496327e-8,0.023613290003584367,-4.4934198256651667e-7
2020-03-31,true,0.5385455663999046,0.012664237266852252,-2.973313908406342e-7,-3.177075592508118e-7,-3.0454243417123394e-7,-2.41475645510333e-7,-2.5337371843441343e-7,-2.431343961192963e-7,0.10904433831680772,0.29999982091114935,0.07439803922797525,0.2999997330931371,0.1086011920877149,-2.0257716532863008e-8,-2.572273942900606e-7,0.09529474953527144,-1.7519450021466334e-7
2020-04-30,true,0.11798873116819233,0.016742576271969824,-1.220932567589018e-8,-3.7455652290799576e-8,2.7999928016213894e-8,9.776868479333344e-9,6.749920209302622e-8,6.068234034672869e-8,0.1523386539827628,0.2999998254962455,0.017299839779283274,0.2999998955844927,0.10670502592407799,1.4231306917892794e-8,6.306452081383187e-8,0.10691400432801983,-1.4818353390943033e-8
2020-05-29,false,0.0,0.016742576271969824,-1.220932567589018e-8,-3.7455652290799576e-8,2.7999928016213894e-8,9.776868479333344e-9,6.749920209302622e-8,6.068234034672869e-8,0.1523386539827628,0.2999998254962455,0.017299839779283274,0.2999998955844927,0.10670502592407799,1.4231306917892794e-8,6.306452081383187e-8,0.10691400432801983,-1.4818353390943033e-8
2020-06-30,false,0.0,0.016742576271969824,-1.220932567589018e-8,-3.7455652290799576e-8,2.7999928016213894e-8,9.776868479333344e-9,6.749920209302622e-8,6.068234034672869e-8,0.1523386539827628,0.2999998254962455,0.017299839779283274,0.2999998955844927,0.10670502592407799,1.4231306917892794e-8,6.306452081383187e-8,0.10691400432801983,-1.4818353390943033e-8
2020-07-31,false,0.0,0.016742576271969824,-1.220932567589018e-8,-3.7455652290799576e-8,2.7999928016213894e-8,9.776868479333344e-9,6.749920209302622e-8,6.068234034672869e-8,0.1523386539827628,0.2999998254962455,0.017299839779283274,0.2999998955844927,0.10670502592407799,1.4231306917892794e-8,6.306452081383187e-8,0.10691400432801983,-1.4818353390943033e-8
2020-08-31,false,0.0,0.016742576271969824,-1.220932567589018e-8,-3.7455652290799576e-8,2.7999928016213894e-8,9.776868479333344e-9,6.749920209302622e-8,6.068234034672869e-8,0.1523386539827628,0.2999998254962455,0.017299839779283274,0.2999998955844927,0.10670502592407799,1.4231306917892794e-8,6.306452081383187e-8,0.10691400432801983,-1.4818353390943033e-8
2020-09-30,false,0.0,0.016742576271969824,-1.220932567589018e-8,-3.7455652290799576e-8,2.7999928016213894e-8,9.776868479333344e-9,6.749920209302622e-8,6.068234034672869e-8,0.1523386539827628,0.2999998254962455,0.017299839779283274,0.2999998955844927,0.10670502592407799,1.4231306917892794e-8,6.306452081383187e-8,0.10691400432801983,-1.4818353390943033e-8
2020-10-30,false,0.0,0.016742576271969824,-1.220932567589018e-8,-3.7455652290799576e-8,2.7999928016213894e-8,9.776868479333344e-9,6.749920209302622e-8,6.068234034672869e-8,0.1523386539827628,0.2999998254962455,0.017299839779283274,0.2999998955844927,0.10670502592407799,1.4231306917892794e-8,6.306452081383187e-8,0.10691400432801983,-1.4818353390943033e-8
2020-11-30,false,0.0,0.016742576271969824,-1.220932567589018e-8,-3.7455652290799576e-8,2.7999928016213894e-8,9.776868479333344e-9,6.749920209302622e-8,6.068234034672869e-8,0.1523386539827628,0.2999998254962455,0.017299839779283274,0.2999998955844927,0.10670502592407799,1.4231306917892794e-8,6.306452081383187e-8,0.10691400432801983,-1.4818353390943033e-8
2020-12-31,false,0.0,0.016742576271969824,-1.220932567589018e-8,-3.7455652290799576e-8,2.7999928016213894e-8,9.776868479333344e-9,6.749920209302622e-8,6.068234034672869e-8,0.1523386539827628,0.2999998254962455,0.017299839779283274,0.2999998955844927,0.10670502592407799,1.4231306917892794e-8,6.306452081383187e-8,0.10691400432801983,-1.4818353390943033e-8
2021-01-29,false,0.0,0.016742576271969824,-1.220932567589018e-8,-3.7455652290799576e-8,2.7999928016213894e-8,9.776868479333344e-9,6.749920209302622e-8,6.068234034672869e-8,0.1523386539827628,0.2999998254962455,0.017299839779283274,0.2999998955844927,0.10670502592407799,1.4231306917892794e-8,6.306452081383187e-8,0.10691400432801983,-1.4818353390943033e-8
2021-02-26,false,0.0,0.016742576271969824,-1.220932567589018e-8,-3.7455652290799576e-8,2.7999928016213894e-8,9.776868479333344e-9,6.749920209302622e-8,6.068234034672869e-8,0.1523386539827628,0.2999998254962455,0.017299839779283274,0.2999998955844927,0.10670502592407799,1.4231306917892794e-8,6.306452081383187e-8,0.10691400432801983,-1.4818353390943033e-8
2021-03-31,false,0.0,0.016742576271969824,-1.220932567589018e-8,-3.7455652290799576e-8,2.7999928016213894e-8,9.776868479333344e-9,6.749920209302622e-8,6.068234034672869e-8,0.1523386539827628,0.2999998254962455,0.017299839779283274,0.2999998955844927,0.10670502592407799,1.4231306917892794e-8,6.306452081383187e-8,0.10691400432801983,-1.4818353390943033e-8
2021-04-30,false,0.0,0.016742576271969824,-1.220932567589018e-8,-3.7455652290799576e-8,2.7999928016213894e-8,9.776868479333344e-9,6.749920209302622e-8,6.068234034672869e-8,0.1523386539827628,0.2999998254962455,0.017299839779283274,0.2999998955844927,0.10670502592407799,1.4231306917892794e-8,6.306452081383187e-8,0.10691400432801983,-1.4818353390943033e-8
2021-05-28,false,0.0,0.016742576271969824,-1.220932567589018e-8,-3.7455652290799576e-8,2.7999928016213894e-8,9.776868479333344e-9,6.749920209302622e-8,6.068234034672869e-8,0.1523386539827628,0.2999998254962455,0.017299839779283274,0.2999998955844927,0.10670502592407799,1.4231306917892794e-8,6.306452081383187e-8,0.10691400432801983,-1.4818353390943033e-8
2021-06-30,false,0.0,0.016742576271969824,-1.220932567589018e-8,-3.7455652290799576e-8,2.7999928016213894e-8,9.776868479333344e-9,6.749920209302622e-8,6.068234034672869e-8,0.1523386539827628,0.2999998254962455,0.017299839779283274,0.2999998955844927,0.10670502592407799,1.4231306917892794e-8,6.306452081383187e-8,0.10691400432801983,-1.4818353390943033e-8
2021-07-30,false,0.0,0.016742576271969824,-1.220932567589018e-8,-3.7455652290799576e-8,2.7999928016213894e-8,9.776868479333344e-9,6.749920209302622e-8,6.068234034672869e-8,0.1523386539827628,0.2999998254962455,0.017299839779283274,0.2999998955844927,0.10670502592407799,1.4231306917892794e-8,6.306452081383187e-8,0.10691400432801983,-1.4818353390943033e-8
2021-08-31,false,0.0,0.016742576271969824,-1.220932567589018e-8,-3.7455652290799576e-8,2.7999928016213894e-8,9.776868479333344e-9,6.749920209302622e-8,6.068234034672869e-8,0.1523386539827628,0.2999998254962455,0.017299839779283274,0.2999998955844927,0.10670502592407799,1.4231306917892794e-8,6.306452081383187e-8,0.10691400432801983,-1.4818353390943033e-8
2021-09-30,false,0.0,0.016742576271969824,-1.220932567589018e-8,-3.7455652290799576e-8,2.7999928016213894e-8,9.776868479333344e-9,6.749920209302622e-8,6.068234034672869e-8,0.1523386539827628,0.2999998254962455,0.017299839779283274,0.2999998955844927,0.10670502592407799,1.4231306917892794e-8,6.306452081383187e-8,0.10691400432801983,-1.4818353390943033e-8
2021-10-29,false,0.0,0.016742576271969824,-1.220932567589018e-8,-3.7455652290799576e-8,2.7999928016213894e-8,9.776868479333344e-9,6.749920209302622e-8,6.068234034672869e-8,0.1523386539827628,0.2999998254962455,0.017299839779283274,0.2999998955844927,0.10670502592407799,1.4231306917892794e-8,6.306452081383187e-8,0.10691400432801983,-1.4818353390943033e-8
2021-11-30,false,0.0,0.016742576271969824,-1.220932567589018e-8,-3.7455652290799576e-8,2.7999928016213894e-8,9.776868479333344e-9,6.749920209302622e-8,6.068234034672869e-8,0.1523386539827628,0.2999998254962455,0.017299839779283274,0.2999998955844927,0.10670502592407799,1.4231306917892794e-8,6.306452081383187e-8,0.10691400432801983,-1.4818353390943033e-8
2021-12-31,false,0.0,0.016742576271969824,-1.220932567589018e-8,-3.7455652290799576e-8,2.7999928016213894e-8,9.776868479333344e-9,6.749920209302622e-8,6.068234034672869e-8,0.1523386539827628,0.2999998254962455,0.017299839779283274,0.2999998955844927,0.10670502592407799,1.4231306917892794e-8,6.306452081383187e-8,0.10691400432801983,-1.4818353390943033e-8
2022-01-31,false,0.0,0.016742576271969824,-1.220932567589018e-8,-3.7455652290799576e-8,2.7999928016213894e-8,9.776868479333344e-9,6.749920209302622e-8,6.068234034672869e-8,0.1523386539827628,0.2999998254962455,0.017299839779283274,0.2999998955844927,0.10670502592407799,1.4231306917892794e-8,6.306452081383187e-8,0.10691400432801983,-1.4818353390943033e-8
2022-02-28,false,0.0,0.016742576271969824,-1.220932567589018e-8,-3.7455652290799576e-8,2.7999928016213894e-8,9.776868479333344e-9,6.749920209302622e-8,6.068234034672869e-8,0.1523386539827628,0.2999998254962455,0.017299839779283274,0.2999998955844927,0.10670502592407799,1.4231306917892794e-8,6.306452081383187e-8,0.10691400432801983,-1.4818353390943033e-8
2022-03-31,false,0.0,0.016742576271969824,-1.220932567589018e-8,-3.7455652290799576e-8,2.7999928016213894e-8,9.776868479333344e-9,6.749920209302622e-8,6.068234034672869e-8,0.1523386539827628,0.2999998254962455,0.017299839779283274,0.2999998955844927,0.10670502592407799,1.4231306917892794e-8,6.306452081383187e-8,0.10691400432801983,-1.4818353390943033e-8
2022-04-29,false,0.0,0.016742576271969824,-1.220932567589018e-8,-3.7455652290799576e-8,2.7999928016213894e-8,9.776868479333344e-9,6.749920209302622e-8,6.068234034672869e-8,0.1523386539827628,0.2999998254962455,0.017299839779283274,0.2999998955844927,0.10670502592407799,1.4231306917892794e-8,6.306452081383187e-8,0.10691400432801983,-1.4818353390943033e-8
2022-05-31,false,0.0,0.016742576271969824,-1.220932567589018e-8,-3.7455652290799576e-8,2.7999928016213894e-8,9.776868479333344e-9,6.749920209302622e-8,6.068234034672869e-8,0.1523386539827628,0.2999998254962455,0.017299839779283274,0.2999998955844927,0.10670502592407799,1.4231306917892794e-8,6.306452081383187e-8,0.10691400432801983,-1.4818353390943033e-8
2022-06-30,true,0.14380184356602546,-1.0389385901541847e-9,-1.5326120684765546e-9,-4.772975180250186e-10,-3.9618119520808066e-10,0.013902479352911655,-1.0557898424151811e-9,-1.0823631205483515e-9,0.11069325410363963,0.2999999986360633,0.0752979537215438,0.29999999835955615,0.10417807946218263,-1.8501261310208778e-10,-7.880635238002762e-10,0.09592824311471836,-1.9051818339789406e-10
2022-07-29,false,0.0,-1.0389385901541847e-9,-1.5326120684765546e-9,-4.772975180250186e-10,-3.9618119520808066e-10,0.013902479352911655,-1.0557898424151811e-9,-1.0823631205483515e-9,0.11069325410363963,0.2999999986360633,0.0752979537215438,0.29999999835955615,0.10417807946218263,-1.8501261310208778e-10,-7.880635238002762e-10,0.09592824311471836,-1.9051818339789406e-10
2022-08-31,false,0.0,-1.0389385901541847e-9,-1.5326120684765546e-9,-4.772975180250186e-10,-3.9618119520808066e-10,0.013902479352911655,-1.0557898424151811e-9,-1.0823631205483515e-9,0.11069325410363963,0.2999999986360633,0.0752979537215438,0.29999999835955615,0.10417807946218263,-1.8501261310208778e-10,-7.880635238002762e-10,0.09592824311471836,-1.9051818339789406e-10
2022-09-30,false,0.0,-1.0389385901541847e-9,-1.5326120684765546e-9,-4.772975180250186e-10,-3.9618119520808066e-10,0.013902479352911655,-1.0557898424151811e-9,-1.0823631205483515e-9,0.11069325410363963,0.2999999986360633,0.0752979537215438,0.29999999835955615,0.10417807946218263,-1.8501261310208778e-10,-7.880635238002762e-10,0.09592824311471836,-1.9051818339789406e-10
2022-10-31,false,0.0,-1.0389385901541847e-9,-1.5326120684765546e-9,-4.772975180250186e-10,-3.9618119520808066e-10,0.013902479352911655,-1.0557898424151811e-9,-1.0823631205483515e-9,0.11069325410363963,0.2999999986360633,0.0752979537215438,0.29999999835955615,0.10417807946218263,-1.8501261310208778e-10,-7.880635238002762e-10,0.09592824311471836,-1.9051818339789406e-10
2022-11-30,false,0.0,-1.0389385901541847e-9,-1.5326120684765546e-9,-4.772975180250186e-10,-3.9618119520808066e-10,0.013902479352911655,-1.0557898424151811e-9,-1.0823631205483515e-9,0.11069325410363963,0.2999999986360633,0.0752979537215438,0.29999999835955615,0.10417807946218263,-1.8501261310208778e-10,-7.880635238002762e-10,0.09592824311471836,-1.9051818339789406e-10
2022-12-30,false,0.0,-1.0389385901541847e-9,-1.5326120684765546e-9,-4.772975180250186e-10,-3.9618119520808066e-10,0.013902479352911655,-1.0557898424151811e-9,-1.0823631205483515e-9,0.11069325410363963,0.2999999986360633,0.0752979537215438,0.29999999835955615,0.10417807946218263,-1.8501261310208778e-10,-7.880635238002762e-10,0.09592824311471836,-1.9051818339789406e-10
2023-01-31,false,0.0,-1.0389385901541847e-9,-1.5326120684765546e-9,-4.772975180250186e-10,-3.9618119520808066e-10,0.013902479352911655,-1.0557898424151811e-9,-1.0823631205483515e-9,0.11069325410363963,0.2999999986360633,0.0752979537215438,0.29999999835955615,0.10417807946218263,-1.8501261310208778e-10,-7.880635238002762e-10,0.09592824311471836,-1.9051818339789406e-10
2023-02-28,false,0.0,-1.0389385901541847e-9,-1.5326120684765546e-9,-4.772975180250186e-10,-3.9618119520808066e-10,0.013902479352911655,-1.0557898424151811e-9,-1.0823631205483515e-9,0.11069325410363963,0.2999999986360633,0.0752979537215438,0.29999999835955615,0.10417807946218263,-1.8501261310208778e-10,-7.880635238002762e-10,0.09592824311471836,-1.9051818339789406e-10
2023-03-31,true,0.33265899928187076,3.733238659159993e-9,4.598980947110208e-9,2.9552020046012415e-9,4.915824450886892e-9,3.7244783447321344e-9,1.469237125532158e-9,1.5038638293471584e-9,-3.62783387250074e-9,0.3000000452525001,0.24162737231858789,0.29999994956042303,0.07492345167306474,1.2707322967077764e-9,4.23412346986281e-9,0.08344915341807199,2.9956063151106114e-9
2023-04-28,false,0.0,3.733238659159993e-9,4.598980947110208e-9,2.9552020046012415e-9,4.915824450886892e-9,3.7244783447321344e-9,1.469237125532158e-9,1.5038638293471584e-9,-3.62783387250074e-9,0.3000000452525001,0.24162737231858789,0.29999994956042303,0.07492345167306474,1.2707322967077764e-9,4.23412346986281e-9,0.08344915341807199,2.9956063151106114e-9
2023-05-31,false,0.0,3.733238659159993e-9,4.598980947110208e-9,2.9552020046012415e-9,4.915824450886892e-9,3.7244783447321344e-9,1.469237125532158e-9,1.5038638293471584e-9,-3.62783387250074e-9,0.3000000452525001,0.24162737231858789,0.29999994956042303,0.07492345167306474,1.2707322967077764e-9,4.23412346986281e-9,0.08344915341807199,2.9956063151106114e-9
2023-06-30,false,0.0,3.733238659159993e-9,4.598980947110208e-9,2.9552020046012415e-9,4.915824450886892e-9,3.7244783447321344e-9,1.469237125532158e-9,1.5038638293471584e-9,-3.62783387250074e-9,0.3000000452525001,0.24162737231858789,0.29999994956042303,0.07492345167306474,1.2707322967077764e-9,4.23412346986281e-9,0.08344915341807199,2.9956063151106114e-9
2023-07-31,false,0.0,3.733238659159993e-9,4.598980947110208e-9,2.9552020046012415e-9,4.915824450886892e-9,3.7244783447321344e-9,1.469237125532158e-9,1.5038638293471584e-9,-3.62783387250074e-9,0.3000000452525001,0.24162737231858789,0.29999994956042303,0.07492345167306474,1.2707322967077764e-9,4.23412346986281e-9,0.08344915341807199,2.9956063151106114e-9
2023-08-31,false,0.0,3.733238659159993e-9,4.598980947110208e-9,2.9552020046012415e-9,4.915824450886892e-9,3.7244783447321344e-9,1.469237125532158e-9,1.5038638293471584e-9,-3.62783387250074e-9,0.3000000452525001,0.24162737231858789,0.29999994956042303,0.07492345167306474,1.2707322967077764e-9,4.23412346986281e-9,0.08344915341807199,2.9956063151106114e-9
2023-09-29,false,0.0,3.733238659159993e-9,4.598980947110208e-9,2.9552020046012415e-9,4.915824450886892e-9,3.7244783447321344e-9,1.469237125532158e-9,1.5038638293471584e-9,-3.62783387250074e-9,0.3000000452525001,0.24162737231858789,0.29999994956042303,0.07492345167306474,1.2707322967077764e-9,4.23412346986281e-9,0.08344915341807199,2.9956063151106114e-9
2023-10-31,false,0.0,3.733238659159993e-9,4.598980947110208e-9,2.9552020046012415e-9,4.915824450886892e-9,3.7244783447321344e-9,1.469237125532158e-9,1.5038638293471584e-9,-3.62783387250074e-9,0.3000000452525001,0.24162737231858789,0.29999994956042303,0.07492345167306474,1.2707322967077764e-9,4.23412346986281e-9,0.08344915341807199,2.9956063151106114e-9
2023-11-30,true,0.1124218885982816,5.03018031918446e-7,0.03900476105586719,4.7093466734332933e-7,5.061912563073557e-7,5.203883666492051e-7,4.885636674006812e-7,0.004970216341226406,4.886466636889077e-7,0.3000015552935523,0.1854164275193369,0.3000015044736636,0.08234680612681333,6.174527836841976e-7,5.111953919001849e-7,0.08825402413286612,5.976617262303857e-7
2023-12-29,false,0.0,5.03018031918446e-7,0.03900476105586719,4.7093466734332933e-7,5.061912563073557e-7,5.203883666492051e-7,4.885636674006812e-7,0.004970216341226406,4.886466636889077e-7,0.3000015552935523,0.1854164275193369,0.3000015044736636,0.08234680612681333,6.174527836841976e-7,5.111953919001849e-7,0.08825402413286612,5.976617262303857e-7
2024-01-31,false,0.0,5.03018031918446e-7,0.03900476105586719,4.7093466734332933e-7,5.061912563073557e-7,5.203883666492051e-7,4.885636674006812e-7,0.004970216341226406,4.886466636889077e-7,0.3000015552935523,0.1854164275193369,0.3000015044736636,0.08234680612681333,6.174527836841976e-7,5.111953919001849e-7,0.08825402413286612,5.976617262303857e-7
2024-02-29,false,0.0,5.03018031918446e-7,0.03900476105586719,4.7093466734332933e-7,5.061912563073557e-7,5.203883666492051e-7,4.885636674006812e-7,0.004970216341226406,4.886466636889077e-7,0.3000015552935523,0.1854164275193369,0.3000015044736636,0.08234680612681333,6.174527836841976e-7,5.111953919001849e-7,0.08825402413286612,5.976617262303857e-7
2024-03-28,false,0.0,5.03018031918446e-7,0.03900476105586719,4.7093466734332933e-7,5.061912563073557e-7,5.203883666492051e-7,4.885636674006812e-7,0.004970216341226406,4.886466636889077e-7,0.3000015552935523,0.1854164275193369,0.3000015044736636,0.08234680612681333,6.174527836841976e-7,5.111953919001849e-7,0.08825402413286612,5.976617262303857e-7
2024-04-30,false,0.0,5.03018031918446e-7,0.03900476105586719,4.7093466734332933e-7,5.061912563073557e-7,5.203883666492051e-7,4.885636674006812e-7,0.004970216341226406,4.886466636889077e-7,0.3000015552935523,0.1854164275193369,0.3000015044736636,0.08234680612681333,6.174527836841976e-7,5.111953919001849e-7,0.08825402413286612,5.976617262303857e-7
2024-05-31,false,0.0,5.03018031918446e-7,0.03900476105586719,4.7093466734332933e-7,5.061912563073557e-7,5.203883666492051e-7,4.885636674006812e-7,0.004970216341226406,4.886466636889077e-7,0.3000015552935523,0.1854164275193369,0.3000015044736636,0.08234680612681333,6.174527836841976e-7,5.111953919001849e-7,0.08825402413286612,5.976617262303857e-7
2024-06-28,false,0.0,5.03018031918446e-7,0.03900476105586719,4.7093466734332933e-7,5.061912563073557e-7,5.203883666492051e-7,4.885636674006812e-7,0.004970216341226406,4.886466636889077e-7,0.3000015552935523,0.1854164275193369,0.3000015044736636,0.08234680612681333,6.174527836841976e-7,5.111953919001849e-7,0.08825402413286612,5.976617262303857e-7
2024-07-31,false,0.0,5.03018031918446e-7,0.03900476105586719,4.7093466734332933e-7,5.061912563073557e-7,5.203883666492051e-7,4.885636674006812e-7,0.004970216341226406,4.886466636889077e-7,0.3000015552935523,0.1854164275193369,0.3000015044736636,0.08234680612681333,6.174527836841976e-7,5.111953919001849e-7,0.08825402413286612,5.976617262303857e-7
2024-08-30,false,0.0,5.03018031918446e-7,0.03900476105586719,4.7093466734332933e-7,5.061912563073557e-7,5.203883666492051e-7,4.885636674006812e-7,0.004970216341226406,4.886466636889077e-7,0.3000015552935523,0.1854164275193369,0.3000015044736636,0.08234680612681333,6.174527836841976e-7,5.111953919001849e-7,0.08825402413286612,5.976617262303857e-7
2024-09-30,false,0.0,5.03018031918446e-7,0.03900476105586719,4.7093466734332933e-7,5.061912563073557e-7,5.203883666492051e-7,4.885636674006812e-7,0.004970216341226406,4.886466636889077e-7,0.3000015552935523,0.1854164275193369,0.3000015044736636,0.08234680612681333,6.174527836841976e-7,5.111953919001849e-7,0.08825402413286612,5.976617262303857e-7
2024-10-31,false,0.0,5.03018031918446e-7,0.03900476105586719,4.7093466734332933e-7,5.061912563073557e-7,5.203883666492051e-7,4.885636674006812e-7,0.004970216341226406,4.886466636889077e-7,0.3000015552935523,0.1854164275193369,0.3000015044736636,0.08234680612681333,6.174527836841976e-7,5.111953919001849e-7,0.08825402413286612,5.976617262303857e-7
2024-11-29,false,0.0,5.03018031918446e-7,0.03900476105586719,4.7093466734332933e-7,5.061912563073557e-7,5.203883666492051e-7,4.885636674006812e-7,0.004970216341226406,4.886466636889077e-7,0.3000015552935523,0.1854164275193369,0.3000015044736636,0.08234680612681333,6.174527836841976e-7,5.111953919001849e-7,0.08825402413286612,5.976617262303857e-7
2024-12-31,false,0.0,5.03018031918446e-7,0.03900476105586719,4.7093466734332933e-7,5.061912563073557e-7,5.203883666492051e-7,4.885636674006812e-7,0.004970216341226406,4.886466636889077e-7,0.3000015552935523,0.1854164275193369,0.3000015044736636,0.08234680612681333,6.174527836841976e-7,5.111953919001849e-7,0.08825402413286612,5.976617262303857e-7
2025-01-31,false,0.0,5.03018031918446e-7,0.03900476105586719,4.7093466734332933e-7,5.061912563073557e-7,5.203883666492051e-7,4.885636674006812e-7,0.004970216341226406,4.886466636889077e-7,0.3000015552935523,0.1854164275193369,0.3000015044736636,0.08234680612681333,6.174527836841976e-7,5.111953919001849e-7,0.08825402413286612,5.976617262303857e-7
2025-02-28,false,0.0,5.03018031918446e-7,0.03900476105586719,4.7093466734332933e-7,5.061912563073557e-7,5.203883666492051e-7,4.885636674006812e-7,0.004970216341226406,4.886466636889077e-7,0.3000015552935523,0.1854164275193369,0.3000015044736636,0.08234680612681333,6.174527836841976e-7,5.111953919001849e-7,0.08825402413286612,5.976617262303857e-7
2025-03-31,true,0.12597765074545553,9.26392230724193e-8,0.010874500795312977,8.048917531228364e-8,8.904434650503463e-8,1.0003328301916567e-7,9.268027837645144e-8,0.0029430370353382383,1.2007096337573965e-7,0.3000002197509507,0.19125645217581128,0.3000005104088491,0.049521505720487906,1.161881708860124e-7,9.320599525752898e-8,0.14540282523470463,1.6429416056809573e-7
2025-04-30,false,0.0,9.26392230724193e-8,0.010874500795312977,8.048917531228364e-8,8.904434650503463e-8,1.0003328301916567e-7,9.268027837645144e-8,0.0029430370353382383,1.2007096337573965e-7,0.3000002197509507,0.19125645217581128,0.3000005104088491,0.049521505720487906,1.161881708860124e-7,9.320599525752898e-8,0.14540282523470463,1.6429416056809573e-7
2025-05-30,false,0.0,9.26392230724193e-8,0.010874500795312977,8.048917531228364e-8,8.904434650503463e-8,1.0003328301916567e-7,9.268027837645144e-8,0.0029430370353382383,1.2007096337573965e-7,0.3000002197509507,0.19125645217581128,0.3000005104088491,0.049521505720487906,1.161881708860124e-7,9.320599525752898e-8,0.14540282523470463,1.6429416056809573e-7
2025-06-30,false,0.0,9.26392230724193e-8,0.010874500795312977,8.048917531228364e-8,8.904434650503463e-8,1.0003328301916567e-7,9.268027837645144e-8,0.0029430370353382383,1.2007096337573965e-7,0.3000002197509507,0.19125645217581128,0.3000005104088491,0.049521505720487906,1.161881708860124e-7,9.320599525752898e-8,0.14540282523470463,1.6429416056809573e-7
2025-07-31,false,0.0,9.26392230724193e-8,0.010874500795312977,8.048917531228364e-8,8.904434650503463e-8,1.0003328301916567e-7,9.268027837645144e-8,0.0029430370353382383,1.2007096337573965e-7,0.3000002197509507,0.19125645217581128,0.3000005104088491,0.049521505720487906,1.161881708860124e-7,9.320599525752898e-8,0.14540282523470463,1.6429416056809573e-7
2025-08-29,false,0.0,9.26392230724193e-8,0.010874500795312977,8.048917531228364e-8,8.904434650503463e-8,1.0003328301916567e-7,9.268027837645144e-8,0.0029430370353382383,1.2007096337573965e-7,0.3000002197509507,0.19125645217581128,0.3000005104088491,0.049521505720487906,1.161881708860124e-7,9.320599525752898e-8,0.14540282523470463,1.6429416056809573e-7
2025-09-30,false,0.0,9.26392230724193e-8,0.010874500795312977,8.048917531228364e-8,8.904434650503463e-8,1.0003328301916567e-7,9.268027837645144e-8,0.0029430370353382383,1.2007096337573965e-7,0.3000002197509507,0.19125645217581128,0.3000005104088491,0.049521505720487906,1.161881708860124e-7,9.320599525752898e-8,0.14540282523470463,1.6429416056809573e-7
2025-10-03,false,0.0,9.26392230724193e-8,0.010874500795312977,8.048917531228364e-8,8.904434650503463e-8,1.0003328301916567e-7,9.268027837645144e-8,0.0029430370353382383,1.2007096337573965e-7,0.3000002197509507,0.19125645217581128,0.3000005104088491,0.049521505720487906,1.161881708860124e-7,9.320599525752898e-8,0.14540282523470463,1.6429416056809573e-7
