date,rebalanced,turnover,SPY,IWD,IWF,IWM,EFA,EEM,VWO,TLT,IEF,LQD,HYG,GLD,SLV,VNQ,DBC,USO
2010-04-30,true,1.1699304269559487,-1.9663055898878343e-9,-1.805671639165966e-9,0.09675945143724143,0.012928440629237141,-1.0046637252123646e-8,-2.4192589784215748e-8,-2.2388695509857627e-8,0.21402586893543704,0.30000000535269844,0.1579002271157196,0.10040474025863354,0.09288419010663038,-4.092318471436408e-9,-8.707771850610486e-10,0.025097145718326698,-4.199910744837441e-9
2010-05-28,false,0.0,-1.7902342030735635e-9,-1.6282959589108081e-9,0.08373891515637175,0.011639871755006114,-8.891548864618289e-9,-2.1769502636590456e-8,-2.0174934857418934e-8,0.22554913955481296,0.3084352352445577,0.15625959017985502,0.09547517878556716,0.09609674641670848,-4.056353784932941e-9,-7.995942079160703e-10,0.022805385497186487,-3.4796012774532596e-9
2010-06-30,false,0.0,-1.6487766626668458e-9,-1.490806653580881e-9,0.07698527491559454,0.010424445214748963,-8.366349317145145e-9,-2.0669951895148568e-8,-1.9392626898120797e-8,0.2323960339792988,0.31139100124986424,0.156819839746477,0.09458980905049431,0.09581775864965092,-3.952899741853904e-9,-7.350524448388245e-10,0.02157589682079502,-3.370460201377751e-9
2010-07-30,false,0.0,-1.7321749326160315e-9,-1.5624405550190174e-9,0.0810793439653413,0.01088689586094727,-9.22728517028695e-9,-2.2492822588858388e-8,-2.0968883649925975e-8,0.22674270304200847,0.3110392081454198,0.15910549211040806,0.09897525285770163,0.08964523590796294,-3.728820539047271e-9,-7.845276902560646e-10,0.022525932035090793,-3.427925185973961e-9
2010-08-31,false,0.0,-1.59662247238435e-9,-1.4410623877152352e-9,0.07480183116984343,0.009737228341584154,-8.508549335197328e-9,-2.097851582814565e-8,-1.9690479809524204e-8,0.23821354356010177,0.3110875660937705,0.15836003912087998,0.09449131527316872,0.09164720268239161,-3.887777526329792e-9,-7.458106928183177e-10,0.021661333718452507,-3.1113746048025126e-9
2010-09-30,false,0.0,-1.7126198685587373e-9,-1.5304982457214756e-9,0.08135843125990196,0.010737745602530262,-9.275991630406958e-9,-2.3008297682542963e-8,-2.1532109498888822e-8,0.23053921400463398,0.30734062177630334,0.15638562572981582,0.09571942522192722,0.09526041319559182,-4.383284140822857e-9,-7.672064335019365e-10,0.0226585885532114,-3.133908151891865e-9
2010-10-29,false,0.0,-1.7800046817022298e-9,-1.581411615344319e-9,0.08522947378532102,0.011167317765252238,-9.599528442331137e-9,-2.3864849095612964e-8,-2.2339215226843333e-8,0.21905698899397338,0.30715672726016124,0.1569175534775224,0.098436997419286,0.0980931737467039,-4.8007725624627115e-9,-8.094375581589584e-10,0.023941835600124264,-3.2731249231324113e-9
2010-11-30,false,0.0,-1.7992283505183433e-9,-1.5891099951719597e-9,0.08717224110005695,0.011727615367498155,-9.267190977079756e-9,-2.3488551276141e-8,-2.1974175242577446e-8,0.21700872595713838,0.3067143015654114,0.15569217719021375,0.09746938992774898,0.10014353441132501,-5.42332719092245e-9,-8.004081315751937e-10,0.02407208223052794,-3.407929367670836e-9
2010-12-31,false,0.0,-1.9282812359515692e-9,-1.7209734760062993e-9,0.09253899336066962,0.01278331323921974,-9.961408336055662e-9,-2.5060170726815535e-8,-2.3551827361623736e-8,0.2097483449165907,0.29828638266461366,0.1555415231389091,0.10131397294279998,0.10381376646770665,-6.1188756188976336e-9,-8.43156930227694e-10,0.02597377601988361,-3.565699453887179e-9
2011-01-31,false,0.0,-1.960584282686984e-9,-1.748693378917246e-9,0.09404791356430624,0.012562411493356572,-1.0147490744929148e-8,-2.4009180569078184e-8,-2.2648551388291052e-8,0.20718973860156825,0.3011964296046414,0.15659020056944697,0.10273488528401913,0.09869495722995421,-5.595725771054038e-9,-8.576956031971043e-10,0.026983534128610227,-3.507981315419054e-9
2011-02-28,false,0.0,-2.0042302756123518e-9,-1.7887424746700018e-9,0.0961813612296306,0.013148227209655845,-1.0359333926961098e-8,-2.376615027269946e-8,-2.232850046284783e-8,0.20594246274011657,0.2956246232082593,0.1553928311673084,0.10289872264019731,0.10270250362507537,-6.558621116408432e-9,-8.76106133069436e-10,0.028109339504463503,-3.64302239767615e-9
2011-03-31,false,0.0,-2.010764483750353e-9,-1.8042083449548234e-9,0.09625252913333518,0.01338153399671012,-1.019212361531236e-8,-2.5060834031715304e-8,-2.345052450785373e-8,0.2058746758711292,0.29479489994033475,0.15495244987364426,0.10316547555530882,0.10325787703678796,-7.3064514533078955e-9,-8.71881933764499e-10,0.02832063309049355,-3.800955432140694e-9
2011-04-29,false,0.0,-2.0106047134372814e-9,-1.7981104586731114e-9,0.09674895310445454,0.01338855882763557,-1.0493242334592941e-8,-2.515233844029436e-8,-2.3638839036488683e-8,0.2044065395981245,0.2915435395521627,0.1541639263023449,0.10196029314501244,0.10878119666513981,-9.16938277350676e-9,-9.115503760427052e-10,0.029007069958852997,-3.979659516731582e-9
2011-05-31,false,0.0,-1.946233241621642e-9,-1.741370814576049e-9,0.09372492133019628,0.012826827616962702,-9.866201554388346e-9,-2.381615839336607e-8,-2.2400083862717018e-8,0.2087887763242359,0.29514466348073864,0.15442768775422283,0.10075381336651171,0.10717873038234875,-6.901360227021535e-9,-8.92235035486922e-10,0.02715465075759393,-3.449167572668233e-9
2011-06-30,false,0.0,-1.9344820317526326e-9,-1.7257916174554618e-9,0.09327644618784178,0.012722522152904904,-9.895542560397818e-9,-2.3955047250450818e-8,-2.251593859221121e-8,0.20685644334921405,0.29839391714468894,0.1546760702729782,0.10086841319225966,0.10652093840661796,-6.374846588112304e-9,-8.824313149297339e-10,0.0266853198358621,-3.258287439824513e-9
2011-07-29,false,0.0,-1.885526150179546e-9,-1.658286122022864e-9,0.09179276837140551,0.012117770438549835,-9.556204833568252e-9,-2.333750479124027e-8,-2.2041148853479317e-8,0.20692830523813904,0.29681170996042117,0.15399161998065392,0.09968201806793435,0.11143608614632963,-7.071894635669154e-9,-8.78821567183797e-10,0.02723979146929021,-3.2433366493257025e-9
2011-08-31,false,0.0,-1.6635949186855495e-9,-1.4448597417909484e-9,0.08124571604937232,0.010356375177364749,-8.064698032255709e-9,-1.959214735925117e-8,-1.853498781327469e-8,0.2228234036332241,0.30052735901409594,0.14805755199008866,0.09109773809484886,0.12035234863320664,-6.945872699417502e-9,-7.705010254367431e-10,0.025539567204249502,-2.779788982326649e-9
2011-09-30,true,0.4421406385910191,-6.251034972600869e-8,-4.3970116733590413e-8,0.0268696299760628,0.019422077742088,-4.555457758420562e-8,-2.998443616277072e-9,-1.1576562502564703e-8,0.10452160086848994,0.2999996842811856,0.2999996184412302,0.12868967041370702,0.07756146909721232,-2.6744853278234297e-9,-1.1430429370857631e-8,0.027577051560790454,0.015359378574474458
2011-10-31,false,0.0,-6.765805839851448e-8,-4.79413755756732e-8,0.029023161477005666,0.02162397392413003,-4.96360505906456e-8,-3.3433484765486215e-9,-1.2865801171475542e-8,0.09688120985492638,0.28813123740233987,0.30222536696781566,0.13516002360947116,0.0816293827376485,-2.9769971179592672e-9,-1.2508356494074807e-8,0.02846807044077064,0.01685777051587983
2011-11-30,false,0.0,-6.344088525432326e-8,-4.452157864266063e-8,0.02740745605955799,0.01985046350125863,-4.385506526915954e-8,-2.971820737848591e-9,-1.1455379535970377e-8,0.10490416754480879,0.29758619465449343,0.294227226741378,0.12930632574523457,0.08078367548312067,-2.6953592824975476e-9,-1.1410041742034975e-8,0.02780163696079855,0.018133033659479818
2011-12-30,false,0.0,-6.585378325085486e-8,-4.682397161228097e-8,0.02797301077577277,0.020802317052690582,-4.396797359125565e-8,-2.954974320630343e-9,-1.1401449701200476e-8,0.10459883236072419,0.2958042001287899,0.2996432689939065,0.13515316078468942,0.07143330367883614,-2.2954480231326705e-9,-1.2338592488024451e-8,0.026876782519295907,0.01771530934148767
2012-01-31,true,0.29744594339746067,0.02525174188375324,-2.2652790374880057e-8,-7.52874043589455e-8,-1.7534150851692725e-8,-8.37947026593086e-9,-1.0786805236013412e-8,-7.7722719204017e-9,0.03762856913466146,0.30000036163044785,0.30000056568431177,0.2479059187112849,0.060583447827641836,1.3883798722708768e-7,-9.834876209589889e-9,0.028629320132904222,8.822638432719959e-8
2012-02-29,false,0.0,0.026062233833611247,-2.3318027178863854e-8,-7.799419088002312e-8,-1.796377802516914e-8,-8.813790643845416e-9,-1.1286908997672791e-8,-8.150510965234971e-9,0.03674701120585979,0.2947722333399583,0.3011908010539625,0.24984244645091094,0.06162219434971369,1.503722695265798e-7,-9.664910295050332e-9,0.02976299337022957,9.321560151826718e-8
2012-03-30,false,0.0,0.027089164980954237,-2.4116002093917173e-8,-8.123280538746545e-8,-1.845496696846736e-8,-8.780138228888842e-9,-1.0995060609238413e-8,-7.948588788494757e-9,0.03610081480644648,0.29486618141437715,0.30255753880200986,0.252120143655575,0.0580340884180127,1.3285842355395223e-7,-1.0193642371177777e-8,0.029232005756372463,9.102903278347615e-8
2012-04-30,false,0.0,0.026804650387750584,-2.3793578125883445e-8,-8.070329036204401e-8,-1.8074727333911757e-8,-8.614909891407715e-9,-1.0775508213442794e-8,-7.788887665017511e-9,0.036753323475633176,0.2972106728456968,0.30193258137939355,0.2511828837000121,0.05740289043237074,1.2698487777024e-7,-1.0472449023401901e-8,0.028712940321148232,9.069646769341188e-8
2012-05-31,false,0.0,0.02520543183117865,-2.2335112103826874e-8,-7.574563556568876e-8,-1.674285080795601e-8,-7.587933027521101e-9,-9.567643402597114e-9,-6.921876084430318e-9,0.03969907171247578,0.3056180245227841,0.30270871943281796,0.2467678971533431,0.054122809780423074,1.1343713884939722e-7,-9.912149582398173e-9,0.025878005372848064,7.557019111311042e-8
2012-06-29,false,0.0,0.025201058085599255,-2.26090704362263e-8,-7.43589401325118e-8,-1.6832341328467778e-8,-7.770693860904637e-9,-9.533226256376294e-9,-6.901889448041727e-9,0.0394958973828348,0.3033379462619671,0.30397930213505003,0.2501067821660723,0.05311801421741756,1.0566635003780091e-7,-1.0140610732654367e-8,0.02476097578290546,6.644857549541067e-8
2012-07-31,false,0.0,0.025683893114146338,-2.2948464560880366e-8,-7.580999855123857e-8,-1.6789607619288053e-8,-7.901607157009743e-9,-9.738562645948968e-9,-7.0448411004127244e-9,0.03942710251711466,0.29854771669316427,0.3056238815989766,0.2497194277732074,0.054032391191311625,1.0995338431144479e-7,-1.0370009980152548e-8,0.026965554643197866,7.3118588626765e-8
2012-08-31,false,0.0,0.025995573669354465,-2.3196085910896636e-8,-7.701533992504451e-8,-1.7136586929844305e-8,-8.02138147565832e-9,-9.628470925422799e-9,-6.970124787136689e-9,0.03839402452760803,0.29660862649886666,0.30472822400942473,0.2514054124003477,0.055042360928690415,1.180308997503543e-7,-1.0312573514111697e-8,0.02782573533797283,7.687739868054792e-8
2012-09-28,false,0.0,0.02654508247796566,-2.3804556725532236e-8,-7.821852161572199e-8,-1.7652473125003547e-8,-8.361634164038614e-9,-1.014099219715025e-8,-7.3390999889102534e-9,0.0374002579648082,0.2935940821280326,0.3054893011311901,0.25123623881682705,0.05827634982044566,1.3242661170831186e-7,-1.0031616381435106e-8,0.027458637471907184,7.331110583478011e-8
2012-10-31,false,0.0,0.02598346280428736,-2.3572184200901594e-8,-7.576036410391917e-8,-1.706993071068045e-8,-8.300521334536624e-9,-1.0063400458302835e-8,-7.274844001892798e-9,0.0370706312650307,0.29181703864598285,0.30996252140775704,0.2523636866510748,0.05620628317238896,1.22645362806102e-7,-9.84717649481755e-9,0.02659633713263699,6.816389983422445e-8
2012-11-30,false,0.0,0.025891519975491873,-2.3373444486294846e-8,-7.631061599944327e-8,-1.7140514256354192e-8,-8.438106901595941e-9,-1.0119706984620909e-8,-7.302254255129166e-9,0.03758540863292506,0.2935393152856284,0.3071577547092436,0.25285244076213415,0.056134459882726515,1.2938330527554335e-7,-9.811628035817181e-9,0.026839055621105855,6.824371015757155e-8
2012-12-31,false,0.0,0.025715543245730433,-2.3507095138972375e-8,-7.494355486325128e-8,-1.7364206734808902e-8,-8.694876699092272e-9,-1.065310664027369e-8,-7.699771423586318e-9,0.037221342523259204,0.2926072873819566,0.3080992740751072,0.2559693744558237,0.053952250897766396,1.1354105864368524e-7,-1.0099845382924638e-8,0.026434896735868685,7.010588618878652e-8
2013-01-31,false,0.0,0.027751580278370044,-2.5681475031403587e-8,-8.02435099767652e-8,-1.884401887913645e-8,-9.254357409746298e-9,-1.0832418256672423e-8,-7.865844346165866e-9,0.03548506505876889,0.28919891892425653,0.3045403932753821,0.2606800626109746,0.0548962267395685,1.2135015623062732e-7,-1.0729764877260891e-8,0.027447719380340865,7.583357093613241e-8
2013-02-28,false,0.0,0.027927433832840468,-2.5858604412592088e-8,-8.066817695210329e-8,-1.9011375431551065e-8,-9.053619767285545e-9,-1.0594736320035823e-8,-7.6805619402902e-9,0.035825512291243686,0.2907665611393034,0.30633095253495723,0.26102675944515347,0.052003127294054104,1.0919196883491583e-7,-1.0744673000271637e-8,0.026119636961831772,7.092039476578245e-8
2013-03-28,false,0.0,0.0286882474493392,-2.662048747831465e-8,-8.275962953334065e-8,-1.9802591455003654e-8,-9.068734685444958e-9,-1.035704378389328e-8,-7.500759193579387e-9,0.035726171704915446,0.29104224120863553,0.3048962124562167,0.2613717815014417,0.05199143895950794,1.074873879912545e-7,-1.0945912141712167e-8,0.026283893368657846,7.291905611424644e-8
2013-04-30,false,0.0,0.02888100410519762,-2.6711132539301953e-8,-8.338754528203007e-8,-1.9373410270778665e-8,-9.430203812099895e-9,-1.021868950194485e-8,-7.459369052495796e-9,0.03671089309190256,0.2913946460561693,0.30808919448051025,0.2633067373036452,0.046719458012291395,8.882308077812375e-8,-1.1437860239778073e-8,0.024898076257545386,6.988786809745181e-8
2013-05-31,false,0.0,0.030772914849589862,-2.8511447341046702e-8,-8.849064250629473e-8,-2.0942556529552622e-8,-9.557112051704779e-9,-1.0280159950040628e-8,-7.479402351055575e-9,0.03514377092463075,0.2897833218026144,0.30625112350690276,0.26699208756506004,0.045864935200964525,8.464562271943271e-8,-1.1278868641039786e-8,0.02519186738284457,7.06619598738824e-8
2013-06-28,false,0.0,0.031133600528876454,-2.8949483465007865e-8,-8.918039456209499e-8,-2.140240537527872e-8,-9.4576616345106e-9,-9.818050995916258e-9,-7.136943977789908e-9,0.03486756512042374,0.2924137834402704,0.3058432229915226,0.2703388947445406,0.04019944591023795,7.088762837734598e-8,-1.1353198824672614e-8,0.02520351810796175,7.556667707478098e-8
2013-07-31,false,0.0,0.03220030710195554,-2.999813699662337e-8,-9.249156976933746e-8,-2.2524764129612782e-8,-9.798707272836047e-9,-9.928401011301163e-9,-7.172770327537612e-9,0.03375517742579329,0.28740167734331845,0.3053573757220373,0.2720763475811423,0.043818764140959594,7.405804203860842e-8,-1.1429818793425569e-8,0.0253903803079233,7.966299625687086e-8
2013-08-30,false,0.0,0.03155016652370946,-2.9134144722706792e-8,-9.180661025509276e-8,-2.2321549627899738e-8,-9.808927167387106e-9,-9.592173459771227e-9,-6.862226004104338e-9,0.03365431011942225,0.28587053946784896,0.3042904520866455,0.2713775960743498,0.04672643886392847,8.971802690117254e-8,-1.060454675414364e-8,0.026530503037929226,8.423831727600995e-8
2013-09-30,false,0.0,0.03236549368693263,-2.9745861539143005e-8,-9.518361810004018e-8,-2.320428270932114e-8,-1.0432231712644911e-8,-1.0383407898338158e-8,-7.4204334127550684e-9,0.03361336205885221,0.2878730833699341,0.30484190842528497,0.27194407480897403,0.04390432005745638,8.051115881526025e-8,-1.0900763774007166e-8,0.0254577843672603,7.998474573660625e-8
2013-10-31,false,0.0,0.0332201005549103,-3.045830299307706e-8,-9.745824285514939e-8,-2.3506557054990277e-8,-1.0578240175413081e-8,-1.0618153253784222e-8,-7.587632260046965e-9,0.033421101109287726,0.28629940120351666,0.3051536911969825,0.27342018239633675,0.04334584100895724,8.253644059691223e-8,-1.1145575131650643e-8,0.02513971722714813,7.411912404904959e-8
2013-11-29,false,0.0,0.034327273191269214,-3.143118909795021e-8,-1.0042530575635007e-7,-2.4411550227213712e-8,-1.0616207797604022e-8,-1.0427537756188558e-8,-7.444247984695307e-9,0.03275208001541054,0.28531300740704385,0.3063657864564297,0.27622993149156533,0.04016558878017108,7.181373499868946e-8,-1.0653817876280302e-8,0.02484638529830055,7.095593133156705e-8
2013-12-31,false,0.0,0.03513553464702669,-3.21018200731027e-8,-1.0324980973554031e-7,-2.4927937577938018e-8,-1.085881463388898e-8,-1.0430524988267232e-8,-7.443337992174133e-9,0.0324543983045522,0.2814001866572197,0.3086140812808165,0.27842653538278817,0.03886498324596043,7.13541511076111e-8,-1.0652847306587068e-8,0.02510433262652237,7.616605539326487e-8
2014-01-31,false,0.0,0.03379981315235145,-3.0889645228021855e-8,-9.981821026076852e-8,-2.4136597197451758e-8,-1.0368495148214738e-8,-9.445902378948053e-9,-6.769599521143687e-9,0.03360750425373553,0.2838814777585845,0.3086836385705202,0.27623085185184276,0.03978078055236465,6.89530211015128e-8,-1.0843210106590554e-8,0.024015983314288586,7.386495106927505e-8
2014-02-28,false,0.0,0.03438634290939259,-3.1285520896827386e-8,-1.0237778436306949e-7,-2.471963168096869e-8,-1.0592480966530788e-8,-9.653821105978417e-9,-6.904461882789103e-9,0.033362273816635264,0.2810835580683714,0.30763924514273483,0.27709633703626546,0.04178882453321201,7.472313669643376e-8,-1.1138754788887273e-8,0.024643464349250313,7.609345705781283e-8
2014-03-31,false,0.0,0.03457851885747126,-3.1927245491740776e-8,-1.0087175687521396e-7,-2.4064739941775813e-8,-1.0533297384473641e-8,-9.912735280674297e-9,-7.126806922596901e-9,0.0338011344594996,0.2800830230232932,0.30837857773138,0.27765492003215086,0.04069394783749247,6.972926234661474e-8,-1.123218767459966e-8,0.024809927887341248,7.611087848398363e-8
2014-04-30,false,0.0,0.03471361073237644,-3.215161161899055e-8,-1.0050367247351352e-7,-2.3208232081903655e-8,-1.0635562070908856e-8,-9.993434208883716e-9,-7.190207918988522e-9,0.03401540771784512,0.2793665369714195,0.30923713092254757,0.2771977623031244,0.04046617506076595,6.808796946582888e-8,-1.1566150983690024e-8,0.025003427761677084,7.569114583287701e-8
2014-05-30,false,0.0,0.03503561416995998,-3.221372159779609e-8,-1.0220600266018165e-7,-2.3278294529995387e-8,-1.0685481142195015e-8,-1.0252740730846701e-8,-7.39062053687396e-9,0.03464675957362364,0.28122422011425174,0.31009203318988565,0.2760690872465416,0.03859701369957642,6.537751068314831e-8,-1.1654701631422363e-8,0.024335327350069793,7.696014323005667e-8
2014-06-30,false,0.0,0.035674462285717586,-3.290122253385729e-8,-1.0381554828570168e-7,-2.4180326196356743e-8,-1.0727986053196434e-8,-1.0335120429869058e-8,-7.5035368154803e-9,0.03429705252301257,0.278951587189804,0.3090858465656992,0.2770778780889318,0.04021803518970163,7.164648119534556e-8,-1.1812426568440425e-8,0.024695189033723204,7.875309586592119e-8
2014-07-31,false,0.0,0.03612168129237812,-3.320518153806481e-8,-1.0515441299950408e-7,-2.348207063112255e-8,-1.0691558939301833e-8,-1.0699551206285819e-8,-7.779673271338767e-9,0.03493235407798419,0.28050944990185683,0.3107271661065392,0.27417386062457877,0.039877199014802946,7.065844077957512e-8,-1.2051258019328337e-8,0.023658346347467742,7.503965795649813e-8
2014-08-29,false,0.0,0.03612118501136519,-3.310874407482885e-8,-1.0568325227156245e-7,-2.3536678401479804e-8,-1.0369377352665147e-8,-1.0653311128318023e-8,-7.811316329290386e-9,0.035875982147534416,0.28126941610046113,0.3109721901461499,0.27391189840263713,0.038990511924295645,6.588507555638377e-8,-1.1975644789759411e-8,0.022858882894168632,7.062663678065306e-8
2014-09-30,false,0.0,0.0365169557247871,-3.328364452688284e-8,-1.0675286985761163e-7,-2.3038024348290073e-8,-1.0163663101119519e-8,-9.992950630015992e-9,-7.363066171082646e-9,0.03602401152577358,0.28409549006069457,0.31157513133124487,0.27223277602105633,0.03751198074895277,6.010071627689595e-8,-1.1583573555498778e-8,0.022043724343357014,7.232120986418537e-8
2014-10-31,false,0.0,0.03635060620470744,-3.306529222185761e-8,-1.0645756640629235e-7,-2.348835633290129e-8,-9.807115320585927e-9,-9.952057994896298e-9,-7.378408070090889e-9,0.036445113643325665,0.28505758236733836,0.3119862680178201,0.2731465436645131,0.03644291428524951,5.5845781002098864e-8,-1.2350460767359557e-8,0.020571059586468043,5.888405392231717e-8
2014-11-28,false,0.0,0.03765902890455081,-3.414845569862039e-8,-1.1049259206197214e-7,-2.4086987813714875e-8,-1.001999878872409e-8,-9.981876443328374e-9,-7.44524165843379e-9,0.03693833208541481,0.28567885774108787,0.3123185036318409,0.2716354924240303,0.036185582747244704,5.5574956640438493e-8,-1.2654408633572768e-8,0.01958430034057135,5.537986369737527e-8
2014-12-31,false,0.0,0.037963824528351016,-3.461708165437078e-8,-1.1063508971116178e-7,-2.4613633071541038e-8,-9.628244576255773e-9,-9.40494724475527e-9,-6.98243163218144e-9,0.03847169668416622,0.2878376588545004,0.31402120753844454,0.26843314431984966,0.0362411508322557,5.432662335772017e-8,-1.318670466579646e-8,0.01703143207183692,3.9912104591056454e-8
2015-01-30,false,0.0,0.03605387582728254,-3.256126417495317e-8,-1.0665917776549383e-7,-2.3610642881263518e-8,-9.548576341047085e-9,-9.378931991782732e-9,-6.9871570386179215e-9,0.04059180631877059,0.29106150578033346,0.3159239967817914,0.2641077555546019,0.0370694398891799,5.5044077856879025e-8,-1.3808889179759998e-8,0.015191735626292275,3.173230928810125e-8
2015-02-27,false,0.0,0.03788731573932918,-3.386471186284879e-8,-1.1331103952100722e-7,-2.4695626926197564e-8,-1.00271521230047e-8,-9.561628539262777e-9,-7.134686980613733e-9,0.03858783120326365,0.28659600219299003,0.31463682656088404,0.2704174255549898,0.03575924766669926,5.380129491581192e-8,-1.2966046126883345e-8,0.01611547481108778,3.403035339847836e-8
2015-03-31,false,0.0,0.03746287225223153,-3.353364243008061e-8,-1.1243860885805394e-7,-2.5057370529341365e-8,-1.0033234995030749e-8,-9.417520937845442e-9,-6.987342353933553e-9,0.039208603596595164,0.28927027888730955,0.3153735017487649,0.2682047095493075,0.03501731147035918,5.417503909957962e-8,-1.3391316914707664e-8,0.015462846946923089,3.223250694289513e-8
2015-04-30,false,0.0,0.037947194344905955,-3.391383450415293e-8,-1.1361531917297652e-7,-2.490217902878798e-8,-1.0363179965127732e-8,-1.0205794386218593e-8,-7.608273902001008e-9,0.03792853516375464,0.2888262020202594,0.3125332740372367,0.27089926435572753,0.03559782560204197,5.358843799224987e-8,-1.2719392780290937e-8,0.016267826750580878,3.746502872544323e-8
2015-05-29,false,0.0,0.03851118356224113,-3.441035960564735e-8,-1.153517293726451e-7,-2.5213121394074033e-8,-1.042998687338365e-8,-9.785968884928717e-9,-7.361225871277937e-9,0.03719584982050271,0.2891380193851574,0.31104858254253404,0.27301086873806873,0.03533574822157255,5.435238664704512e-8,-1.268541988793034e-8,0.015759872079260738,3.653608795893674e-8
2015-06-30,false,0.0,0.03807983509004879,-3.410002062069812e-8,-1.1391742367669919e-7,-2.5573913859972725e-8,-1.0211812749057193e-8,-9.42807185226618e-9,-7.1209836612636045e-9,0.036581383710834955,0.2904268795382024,0.31134588143919056,0.27175377203633094,0.03566028366283418,5.2032314697776305e-8,-1.2162346496351058e-8,0.016152088015449335,3.6989366946025673e-8
2015-07-31,false,0.0,0.039037055753017184,-3.442450048524738e-8,-1.1807632092556047e-7,-2.524725831051843e-8,-1.0302737333149202e-8,-8.84275344402631e-9,-6.687799947938472e-9,0.03767559195942671,0.29218688129837855,0.31160928553233247,0.27204589539994284,0.03285219635852073,4.868867210724059e-8,-1.2747925713974759e-8,0.014593231003657947,3.03353477203879e-8
2015-08-31,false,0.0,0.03690670418293744,-3.2400586611989815e-8,-1.1226708314650638e-7,-2.3897704923038698e-8,-9.67951871160551e-9,-8.127601849721422e-9,-6.084369597378983e-9,0.038073584669527254,0.29556285436612784,0.3124152373404621,0.2686721599240029,0.0343361582818922,4.811769250379922e-8,-1.2331599559715764e-8,0.014033430089234966,2.7816587317592632e-8
2015-09-30,false,0.0,0.03513320828319707,-3.08099459580141e-8,-1.06459894547902e-7,-2.236215664661387e-8,-9.034549915274477e-9,-7.681156442096417e-9,-5.752416298668023e-9,0.038809196290405024,0.3011321013213656,0.31693619410016444,0.25990919286091196,0.0342580127161994,4.843690326028749e-8,-1.235709743042247e-8,0.013822213278952555,2.7169117746940183e-8
2015-10-30,false,0.0,0.03852436031516855,-3.344211201610858e-8,-1.1683466419669949e-7,-2.37678234718426e-8,-9.709892942137847e-9,-8.273195170872036e-9,-6.141261928998882e-9,0.037760762010087545,0.29512957641670107,0.3141056287258395,0.26645136668707076,0.03437238442893042,5.086033411672088e-8,-1.3134851249021556e-8,0.01365605512899092,2.673067817216205e-8
2015-11-30,false,0.0,0.03903050343323479,-3.382899882510865e-8,-1.1869061667796014e-7,-2.477192963068998e-8,-9.720776923977526e-9,-8.13805257688198e-9,-6.036934466049707e-9,0.03794618883672425,0.29739853052639587,0.31757002537056606,0.26294494374543864,0.032030959870383305,4.6460176073746054e-8,-1.3146888767944651e-8,0.013078992132733681,2.3958545248342622e-8
2015-12-31,false,0.0,0.03903717718355705,-3.3653213403580695e-8,-1.1871460723516982e-7,-2.3993484076731918e-8,-9.730021257702095e-9,-7.951489503607192e-9,-5.903510180107607e-9,0.03826294184401965,0.29962025098725004,0.31776820245259774,0.26053556854531074,0.03246298303259801,4.606498395861995e-8,-1.3562576321115675e-8,0.012313023192032046,2.0206552831949236e-8
2016-01-29,false,0.0,0.03568624405696185,-3.0680483644607014e-8,-1.0785983530174172e-7,-2.0862055565529468e-8,-8.866172702101267e-9,-7.247434830487108e-9,-5.343214307918544e-9,0.04010516004712999,0.3074731110034725,0.3161891396249039,0.25488860760340165,0.03398344395456664,4.7120010404573685e-8,-1.266249558367076e-8,0.011674422520451767,1.759079313487337e-8
2016-02-29,false,0.0,0.03611150260976365,-3.1153602643882115e-8,-1.0900533685701942e-7,-2.1169447750715864e-8,-8.604680995164482e-9,-7.206078011232702e-9,-5.367200727924577e-9,0.0407473575501452,0.3076592926447338,0.3152842557629268,0.2521978317119189,0.03661492836713148,4.772039369886207e-8,-1.2676678603170607e-8,0.01138496340866546,1.540734654140455e-8
2016-03-31,false,0.0,0.03752731599547953,-3.249660658196254e-8,-1.1321817888823231e-7,-2.2198945526737508e-8,-9.010290475814474e-9,-8.032719140715313e-9,-5.957110304869165e-9,0.03975292514187683,0.30056771812955024,0.31896773763357883,0.2555947341397914,0.03581295252301316,4.820380337419105e-8,-1.3566523614831261e-8,0.011776756130758298,1.6582522812964707e-8
2016-04-29,false,0.0,0.03714977534509365,-3.2737355923964736e-8,-1.1065080228508469e-7,-2.2444237648200375e-8,-8.9960565393e-9,-7.948802427071043e-9,-5.91423549368686e-9,0.03896711190736672,0.29630737484504643,0.3194785482588009,0.25910119042336327,0.03644861691398023,5.4718626093283145e-8,-1.3222975877464188e-8,0.012547510823001538,1.8679187386026684e-8
2016-05-31,false,0.0,0.037714333756043994,-3.31332937158609e-8,-1.1241931857083976e-7,-2.2686961545927218e-8,-9.00593950130602e-9,-7.619297022291534e-9,-5.70092596585771e-9,0.0393584651940223,0.2961867299217559,0.31831051893148526,0.26076880970482297,0.03478980479729655,5.022967139326197e-8,-1.3411016381494273e-8,0.012871471517136896,1.9924517246303952e-8
2016-06-30,false,0.0,0.036265624791127306,-3.196591875152262e-8,-1.077503687042257e-7,-2.1726836280179177e-8,-8.343008129931962e-9,-7.663826903013033e-9,-5.765270092393698e-9,0.040917491033592775,0.2971729413470435,0.3192034880616869,0.25655232346835044,0.036821349133359244,5.5106305520876405e-8,-1.3821972009202426e-8,0.01306690509164029,1.9004094831110653e-8
2016-07-29,false,0.0,0.0376171445125806,-3.2961769481654363e-8,-1.1268808903953435e-7,-2.3112287786661433e-8,-8.600525673420735e-9,-8.018573078466876e-9,-6.017896605192051e-9,0.04110645057125077,0.29419338309513293,0.31976617214926434,0.2585613515918688,0.03691852391538092,6.004846937489145e-8,-1.4215427304838486e-8,0.01183710441244075,1.5318180601090396e-8
2016-08-31,false,0.0,0.03758850609347097,-3.3158748603969126e-8,-1.1176320928633082e-7,-2.3545574208358228e-8,-8.709397504940639e-9,-8.167070951095041e-9,-6.114892744067417e-9,0.040689686915266865,0.2908069317757857,0.3195813357378636,0.26324636957496034,0.0359132881771391,5.478741464686282e-8,-1.3745476266851137e-8,0.012174015345761732,1.679670675901495e-8
2016-09-30,false,0.0,0.03714005639865382,-3.263655619825973e-8,-1.1100861229642354e-7,-2.3352799605328363e-8,-8.721430140922702e-9,-8.216270591155809e-9,-6.117943996114896e-9,0.04043664577626715,0.29159824088839753,0.3186859047454143,0.26358963189674717,0.03616256981471921,5.5953584495564864e-8,-1.3565002605864325e-8,0.012387081260237732,1.6884594238400525e-8
2016-10-31,false,0.0,0.03734588877096195,-3.289422799148107e-8,-1.1084006820372941e-7,-2.2777198057806766e-8,-8.724832266679305e-9,-8.258996287961584e-9,-6.22577602454303e-9,0.03867609478054968,0.2908235246138017,0.31792065448544193,0.2670871108492962,0.03539910088301627,5.282607020736272e-8,-1.2678542033479992e-8,0.01274775785266745,1.7337835529727053e-8
2016-11-30,false,0.0,0.03974142156639707,-3.545082875271345e-8,-1.170445852898284e-7,-2.6101221381635513e-8,-8.78745148582076e-9,-8.098122696835988e-9,-6.144344759623478e-9,0.03713255905673414,0.2873923474598614,0.3167412892055592,0.2725516038644616,0.03374595727098503,5.043396238900068e-8,-1.3106168644816684e-8,0.012694969750202354,1.612455984095073e-8
2016-12-30,false,0.0,0.04047495856851103,-3.647515069135445e-8,-1.1780631132685357e-7,-2.6731177100120767e-8,-8.955832733316629e-9,-8.117581244820082e-9,-6.118176501106721e-9,0.036184419667917356,0.28345713816453255,0.3167925662272063,0.27679620829664714,0.032747486833479174,4.87254737987699e-8,-1.3358408372422094e-8,0.013547372453639066,1.862523175642398e-8
2017-01-31,false,0.0,0.04082921464026705,-3.64202636610359e-8,-1.2034070333227127e-7,-2.6357966131533122e-8,-9.217460423057776e-9,-8.53079604689847e-9,-6.396337629861074e-9,0.03607071735392289,0.2824172548762379,0.3154718324713266,0.27822597150116773,0.03364489935874458,5.12924323205043e-8,-1.3326607093620434e-8,0.013340261309482095,1.778655328868798e-8
2017-02-28,false,0.0,0.04188174769112758,-3.7255584549384424e-8,-1.2374340847260142e-7,-2.7041597849013336e-8,-9.209457848753422e-9,-8.64177515590272e-9,-6.497103042310813e-9,0.036177978266748526,0.2811319337629704,0.3150291275887367,0.27804149292524066,0.03460783324376382,5.3694085863036975e-8,-1.376772018765257e-8,0.01313004119527691,1.778869659311987e-8
2017-03-31,false,0.0,0.04203130888616102,-3.699320452765628e-8,-1.2510585819675447e-7,-2.663967522240081e-8,-9.531708501114815e-9,-8.953429313986809e-9,-6.6867021321886995e-9,0.03606005789807639,0.2814740581553793,0.3148954865794975,0.27827637765446456,0.034505662664247184,5.33783877457101e-8,-1.3293144472320422e-8,0.012757205596852034,1.639065670274675e-8
2017-04-28,false,0.0,0.04199133214473093,-3.6598285909517743e-8,-1.264770425157824e-7,-2.705358451809907e-8,-9.653279842370461e-9,-8.929763549506828e-9,-6.639250947769024e-9,0.036256536940522006,0.2818721907074092,0.31524180759905907,0.2776132368581226,0.03468834247434542,5.0384651537531465e-8,-1.3400949891424507e-8,0.012336715956271081,1.5687045433228766e-8
2017-05-31,false,0.0,0.042052159716525636,-3.601933117171543e-8,-1.2826307731669157e-7,-2.5902818052291693e-8,-9.865768771026303e-9,-9.165365311995011e-9,-6.707883891069552e-9,0.036539549770108974,0.2814103136689552,0.31613451350935007,0.2775020594323045,0.03424067225919765,5.010458131602032e-8,-1.3015610931858837e-8,0.012120895026060358,1.545277156230172e-8
2017-06-30,false,0.0,0.04219102158935704,-3.6491577151638705e-8,-1.2759853234350736e-7,-2.6754372914806077e-8,-9.891391745005135e-9,-9.125470419693816e-9,-6.6548990700035946e-9,0.03696542067214275,0.28054442861524687,0.31803717147422816,0.27695541760629255,0.03368728955144209,4.778458700612014e-8,-1.3299757196655924e-8,0.011619418688082667,1.383462166441078e-8
2017-07-31,false,0.0,0.042822755988878566,-3.6666667545980295e-8,-1.305813245487446e-7,-2.6808211147469457e-8,-1.005889922251371e-8,-9.609758296489825e-9,-6.995846920988222e-9,0.03629881099722359,0.27866795475199774,0.3177041827277182,0.27826150795110705,0.034082617047857755,4.759268079536556e-8,-1.3333865274463848e-8,0.012162341892547182,1.5104561907745798e-8
2017-08-31,false,0.0,0.042377443921653955,-3.5867767801010235e-8,-1.3059205690078029e-7,-2.594391994039519e-8,-9.931643693407534e-9,-9.761572971554587e-9,-7.142105826144091e-9,0.03721853691142263,0.2805391990102196,0.3172364352725624,0.27588222946589736,0.034879587376438176,4.914091534112985e-8,-1.314865430089284e-8,0.011866737486472396,1.380213971643844e-8
2017-09-29,false,0.0,0.0433811980411996,-3.706749259720717e-8,-1.3277546053325377e-7,-2.780326030110618e-8,-1.019373772700519e-8,-9.667136916489522e-9,-7.063762611121833e-9,0.036403172583224265,0.2775522849942185,0.31767295410971186,0.27818823815027593,0.03429293738395161,4.7531679397501616e-8,-1.3193057651880483e-8,0.012509389637719994,1.5331926936477854e-8
2017-10-31,false,0.0,0.04437613574326996,-3.7288352329442906e-8,-1.3785882584072667e-7,-2.77995211673839e-8,-1.035586881889152e-8,-9.975250383379252e-9,-7.247238384437347e-9,0.03636153734010069,0.27618422879379106,0.3182288891922333,0.27808427436388755,0.03389717841775602,4.7356144223930216e-8,-1.3045866954183848e-8,0.01286793645555572,1.5908185263792902e-8
2017-11-30,false,0.0,0.045389706820212546,-3.8200980212811694e-8,-1.409022397400838e-7,-2.8747622718003438e-8,-1.0455899649011795e-8,-1.0130048753431365e-8,-7.304812184224061e-9,0.036744524320879914,0.27602069967546444,0.31767183564843215,0.27697374393656954,0.03413264612312579,4.647425526435038e-8,-1.3364527961621018e-8,0.01306702935428276,1.675290883295803e-8
2017-12-29,false,0.0,0.0462946391692945,-3.898096616396972e-8,-1.4353568188249123e-7,-2.877816510927128e-8,-1.0549855408623648e-8,-1.0295016528302746e-8,-7.451759687485564e-9,0.03703534864677837,0.2739408609282086,0.3192514489721428,0.2760224427691599,0.03419117707400102,4.693000295183535e-8,-1.3293242922347287e-8,0.013264271018589891,1.7376509579282077e-8
2018-01-31,false,0.0,0.049028593259147525,-4.0637714224893684e-8,-1.5358423795881125e-7,-2.9619298965964696e-8,-1.1178581874362456e-8,-1.1175629381643095e-8,-8.130865992353778e-9,0.035920765369757524,0.27033033367813436,0.31734593154055474,0.2780666851984258,0.035531865607944704,4.80229013648434e-8,-1.2588715177817749e-8,0.013776025399384073,1.8838793600004528e-8
2018-02-28,false,0.0,0.04834447409714535,-3.9624812628107044e-8,-1.5302202430749523e-7,-2.9164758236071334e-8,-1.0863278381379493e-8,-1.0879681922083338e-8,-7.936344558066173e-9,0.03532561530408139,0.2713047769161103,0.3150107563776991,0.28070487437576214,0.035579506847783285,4.666358070449309e-8,-1.1989268224888247e-8,0.01373019418691446,1.8711091506642332e-8
2018-03-29,false,0.0,0.04584333377847538,-3.788114364923341e-8,-1.4489663473997891e-7,-2.8696311371057282e-8,-1.055699941231497e-8,-1.0529849592074064e-8,-7.657876364652045e-9,0.03634704327936728,0.2742785839362964,0.3156477423255341,0.27842882911609257,0.03570208416901511,4.6215928838408344e-8,-1.2440779343589992e-8,0.013752570613761865,1.922512272835677e-8
2018-04-30,false,0.0,0.047122202340824204,-3.891665537896453e-8,-1.4874372082094366e-7,-2.95916885027059e-8,-1.088086008765525e-8,-1.0543906760802023e-8,-7.649900760785255e-9,0.03579854089534086,0.2718797091800137,0.31335405105665415,0.2817893693060551,0.03573677712702046,4.6939116613196716e-8,-1.2607551347598534e-8,0.01431954183663538,2.0252623268273054e-8
2018-05-31,false,0.0,0.04785892818258056,-3.884581387250835e-8,-1.5401271613212713e-7,-3.117107541283807e-8,-1.0633098186395288e-8,-1.0120519811227059e-8,-7.356483469730297e-9,0.03638554233709341,0.2731879976296161,0.31279530502865127,0.2801697089247246,0.03489426934758645,4.6546060087033216e-8,-1.2972450764584343e-8,0.01470844689456525,2.0221279881791843e-8
2018-06-29,false,0.0,0.047868479937576806,-3.867936648683629e-8,-1.547119117264435e-7,-3.118928793120817e-8,-1.036250485675141e-8,-9.526048905614339e-9,-6.907220915934307e-9,0.03676284132997331,0.27443726615945097,0.3116881337629135,0.28149453942406605,0.033508378679431294,4.5162602352215494e-8,-1.3463453635714627e-8,0.01424055869618877,2.1687591411193776e-8
2018-07-31,false,0.0,0.049227188911780344,-3.988122541985047e-8,-1.5751265545095521e-7,-3.120162931156599e-8,-1.0649566111490232e-8,-9.898566273813689e-9,-7.224587013898956e-9,0.035739146068137564,0.2711373010441518,0.31359855828235106,0.2836304974287489,0.03261789187793093,4.3454993863348405e-8,-1.3286702415525495e-8,0.014049621522048873,2.1064788589242886e-8
2018-08-31,false,0.0,0.05059201579036134,-4.025523639838273e-8,-1.6547217089303903e-7,-3.2455011744201965e-8,-1.0410534535929361e-8,-9.42596060632562e-9,-6.8340231208593685e-9,0.03616555853942989,0.27182168863576095,0.31235729294433323,0.283386232509204,0.0317523645205566,4.039741198720241e-8,-1.367528795285336e-8,0.013925064060955995,2.113021129762716e-8
2018-09-28,false,0.0,0.05105034876946592,-4.040453197177076e-8,-1.671794083113402e-7,-3.1822790015358784e-8,-1.0543866398462113e-8,-9.506263054824114e-9,-6.846848605533266e-9,0.035248708561313284,0.26933437046927955,0.31268109142102796,0.28597022669314176,0.031404491018460025,3.9647749765930715e-8,-1.3223316648609406e-8,0.014310981045798058,2.1900788659360775e-8
2018-10-31,false,0.0,0.047676981531406704,-3.869872853010319e-8,-1.5135446633343263e-7,-2.8728112596480218e-8,-9.676035104953283e-9,-8.629991856076358e-9,-6.2919852977287106e-9,0.03483570382545144,0.27363682320782473,0.31185805089954544,0.2849983558258645,0.03296011639735542,4.084937669058786e-8,-1.3352597771147796e-8,0.014034163811679877,2.038341275318453e-8
2018-11-30,false,0.0,0.04872429157131656,-3.9744604867885385e-8,-1.5394014525418846e-7,-2.908385532917208e-8,-9.83120018800991e-9,-9.136847313822314e-9,-6.665011978296633e-9,0.03514814570632347,0.27610025317053766,0.31010871201929835,0.28445521681815433,0.03294148516271728,4.026656108617616e-8,-1.367931994662771e-8,0.012522101714820098,1.5651256122028908e-8
2018-12-31,false,0.0,0.04402119521453463,-3.569367050239236e-8,-1.3958950124759735e-7,-2.5352867931090706e-8,-9.20674268531851e-9,-8.805323993898935e-9,-6.414863599664442e-9,0.037057988173372566,0.2823366364340154,0.31370041079686023,0.27668347558042966,0.03432426789125567,4.305159124142646e-8,-1.2594429885961033e-8,0.011876206980181454,1.3535158925110384e-8
2019-01-31,false,0.0,0.04612881054266692,-3.7393134747921985e-8,-1.4716762187497478e-7,-2.7357071104321432e-8,-9.539769149537091e-9,-9.303124983977018e-9,-6.74111247801027e-9,0.03596025178686718,0.2758517785807659,0.31372063412005413,0.2815515753819519,0.03433898314437721,4.362367730874036e-8,-1.3569685336216746e-8,0.012448158225922422,1.566523660700358e-8
2019-02-28,false,0.0,0.04769008179305626,-3.856077726579209e-8,-1.530994284455487e-7,-2.8846880928587597e-8,-9.709575932541794e-9,-9.270941604218937e-9,-6.773988228471266e-9,0.03556365096139141,0.27390525404792887,0.3128791188292806,0.28329137479862027,0.034022996083778734,4.2346604370229665e-8,-1.3643426925940719e-8,0.012647724886787642,1.6157571189939175e-8
2019-03-29,false,0.0,0.04718364728532957,-3.7740900762211605e-8,-1.5253102017707028e-7,-2.7466856428881323e-8,-9.547906166205252e-9,-8.967053279974767e-9,-6.654620573775681e-9,0.036700135313302476,0.27533833980537353,0.31548095099104834,0.2803990945341931,0.03258820362562205,3.9546074344034375e-8,-1.3980666010623761e-8,0.012309829358946285,1.642913358148312e-8
2019-04-30,false,0.0,0.04923412737703383,-3.893157030743722e-8,-1.60789472851944e-7,-2.8516323932208565e-8,-9.830323600842291e-9,-9.248190940188819e-9,-6.848773375750804e-9,0.03563259393545788,0.27207879641354366,0.31549923226752874,0.2829740309697928,0.03219627519743302,3.918424498153732e-8,-1.3761018999795476e-8,0.01238515507140665,1.750923252294763e-8
2019-05-31,false,0.0,0.04635491366843276,-3.677781156745028e-8,-1.5081731154176382e-7,-2.6282583299976524e-8,-9.34713708220135e-9,-8.454192677657788e-9,-6.3332363358435495e-9,0.03749649029310944,0.2769566429477843,0.31767919444721204,0.27743985019121026,0.032174761126057744,3.777865256935986e-8,-1.3718708219575132e-8,0.01189834589600128,1.5382520287202216e-8
2019-06-28,false,0.0,0.047303868712645435,-3.751985727684735e-8,-1.5386247546494513e-7,-2.6616256034468574e-8,-9.483744477600016e-9,-8.767946556960321e-9,-6.51413605922955e-9,0.03728785009417936,0.2743262533303674,0.31890798476915905,0.2762123902682677,0.034135587884666675,3.8553068050029686e-8,-1.356963633319403e-8,0.01182626718613711,1.5535561378658204e-8
2019-07-31,false,0.0,0.0486233815086931,-3.841734057569111e-8,-1.5911164147576e-7,-2.72356737531029e-8,-9.379804498461375e-9,-8.597761037094124e-9,-6.433914438748893e-9,0.03692172070540428,0.27291789166745617,0.31914310944964785,0.27627239838467516,0.03452922828753782,4.1649924415159734e-8,-1.384772002291126e-8,0.011592476213185755,1.5157331198375087e-8
2019-08-30,false,0.0,0.045803198855319804,-3.562325679074987e-8,-1.512955360407117e-7,-2.4899393299813075e-8,-8.822401554492657e-9,-7.849961026613186e-9,-5.929390878885766e-9,0.04003883728095418,0.2758797810219353,0.32202912037856685,0.2696910729573732,0.03573783154442082,4.441366329340611e-8,-1.3863812306220432e-8,0.010820347575517067,1.4256001292130173e-8
2019-09-30,false,0.0,0.04680846884648758,-3.718651215348879e-8,-1.5109968764678133e-7,-2.5503552278365315e-8,-9.172642615581264e-9,-8.057747738972892e-9,-6.047428301345555e-9,0.039138260712335,0.27453167667141365,0.32090952995648775,0.2724198206763848,0.03521989085859388,4.2625920104696404e-8,-1.4221890923829083e-8,0.010972546863118063,1.4078720709906552e-8
2019-10-31,false,0.0,0.0480954923604872,-3.788408099931591e-8,-1.5650201123521871e-7,-2.6319965204299055e-8,-9.522118257448146e-9,-8.493679936537306e-9,-6.343491236992543e-9,0.03820730160511694,0.27314162060151875,0.32100944489183714,0.2732790952495533,0.035147096142376454,4.3473042641963996e-8,-1.440968845887664e-8,0.01112015135135875,1.3799744083162954e-8
2019-11-29,false,0.0,0.049552218265843676,-3.877454974405799e-8,-1.6262118519255014e-7,-2.7219860579563332e-8,-9.608973610741291e-9,-8.492716538617727e-9,-6.357304918634717e-9,0.03836713830918029,0.2713723336548288,0.32296165317796427,0.2726551874527006,0.0339078523190494,4.083777382956948e-8,-1.41595259577848e-8,0.01118382874109563,1.4475679860489915e-8
2019-12-31,false,0.0,0.05031757984691596,-3.9256267706187005e-8,-1.6518630354086396e-7,-2.755823909468167e-8,-9.710771346292088e-9,-8.91635477408267e-9,-6.659133835378367e-9,0.03714416738084307,0.2677222429510178,0.3230842017417221,0.27509520384298064,0.03504726030455601,4.281128587088078e-8,-1.3995207506543001e-8,0.011589557169985824,1.5232970368201442e-8
2020-01-31,false,0.0,0.050515436894287495,-3.85818212074805e-8,-1.693977534840499e-7,-2.686317125956274e-8,-9.485535764936933e-9,-8.40818926025802e-9,-6.307322299493929e-9,0.038600346393863276,0.2702319168884123,0.32352734967842867,0.270797352593073,0.03588954906892212,4.191858547441298e-8,-1.4208572751177128e-8,0.010438266967796714,1.2848997060457098e-8
2020-02-28,false,0.0,0.04577922126131275,-3.473323037442739e-8,-1.549402213550534e-7,-2.4382931227271032e-8,-8.643905253548936e-9,-7.944689065234713e-9,-5.984952893044081e-9,0.040625177560985326,0.27672901507276987,0.3245129349236874,0.2652877585616363,0.03723449617573551,4.1348311842688427e-8,-1.3348447124135213e-8,0.009831593774215306,1.129972308530162e-8
2020-03-31,true,0.5435949264049593,0.013094345563433888,-3.0027932286321685e-7,-3.2045103884802503e-7,-3.081755866381187e-7,-2.4375629742821917e-7,-2.5644376737889053e-7,-2.4593715961769614e-7,0.10929352821759591,0.299999832026973,0.07383947866152923,0.29999973050737005,0.10833821106109041,-1.6263713412309914e-8,-2.6160795041911614e-7,0.09543699824283147,-1.7117473524833168e-7
2020-04-30,false,0.0,0.014302402420899729,-3.265057059160493e-7,-3.5354846346955395e-7,-3.515792503148799e-7,-2.5490834881513696e-7,-2.7632449015881673e-7,-2.6488514990754516e-7,0.10880941248231853,0.296391722026338,0.07610495974672825,0.3045237493904404,0.11218577828196397,-1.7261609318198416e-8,-2.7249148523476986e-7,0.08768417249506989,-7.9339255811649e-8
2020-05-29,false,0.0,0.014579631196335987,-3.2564563281489513e-7,-3.687165545375358e-7,-3.557835428424477e-7,-2.6038274718623085e-7,-2.6991721328781896e-7,-2.605451324571729e-7,0.10358022909802878,0.29228181999396835,0.07604195365158457,0.3091255931063159,0.11079283559400145,-1.9289996251977483e-8,-2.72102458146329e-7,0.09360017702527418,-1.0728223201262568e-7
2020-06-30,false,0.0,0.014520059078411108,-3.1461848459006364e-7,-3.760140773714376e-7,-3.543412042525779e-7,-2.65506159086799e-7,-2.897642534995937e-7,-2.7995998034283945e-7,0.10404564189117536,0.2909608021290592,0.07715533984263448,0.3025188903517311,0.11293778719960831,-1.9572286089380478e-8,-2.6817901979879733e-7,0.09786376633189357,-1.1886904803172691e-7
2020-07-31,false,0.0,0.01479617207883169,-3.1780905649885617e-7,-3.885751306358314e-7,-3.5719595047291953e-7,-2.6430781044328e-7,-3.010473533438345e-7,-2.908813502838001e-7,0.10366497411726347,0.2806663988021369,0.07634669469813408,0.30675881964466145,0.1192894097324099,-2.4256199598241166e-8,-2.696449342434014e-7,0.09847986101086703,-1.1636651891300555e-7
2020-08-31,false,0.0,0.016059018249326026,-3.3347751436303485e-7,-4.336164631213256e-7,-3.782245504651905e-7,-2.736256920697327e-7,-3.153412364196477e-7,-3.0429131733214877e-7,0.09798708513112378,0.2786387754465387,0.0749968172648855,0.3086937625392147,0.11967268740243829,-2.791935398895252e-8,-2.7375618333611364e-7,0.10395431805046329,-1.2383167930050785e-7
2020-09-30,false,0.0,0.015407958740133842,-3.228893709403411e-7,-4.147861161412921e-7,-3.6356037646997935e-7,-2.697014271096083e-7,-3.0305094286343784e-7,-2.922286001936494e-7,0.10136445955439692,0.28351841993757004,0.07577790760729161,0.3072367369137604,0.11675872543390028,-2.4564162176910467e-8,-2.6489516356158366e-7,0.09993815959317272,-1.1210406647045943e-7
2020-10-30,false,0.0,0.01541970945554003,-3.240564816850799e-7,-4.1664501549404106e-7,-3.8057647301254895e-7,-2.624454987315857e-7,-3.1856824790507706e-7,-3.066885551750326e-7,0.09885934022760831,0.2824703381417784,0.07650931762003334,0.31202869185233034,0.11597359177354075,-2.379550313460957e-8,-2.6156105992339e-7,0.09874140907738728,-1.038113833582601e-7
2020-11-30,false,0.0,0.016616731043426883,-3.629123148497303e-7,-4.3783646810562867e-7,-4.415195033612471e-7,-2.980809463373198e-7,-3.44706841010905e-7,-3.3031519175246117e-7,0.09745417810338969,0.2767441768563941,0.07704129144951742,0.3166784404702972,0.10841840222257913,-2.2479249924147894e-8,-2.814081830278332e-7,0.10704942238369597,-1.2327060205210828e-7
2020-12-31,false,0.0,0.016814448483032766,-3.6401823646095004e-7,-4.503519824247197e-7,-4.6427322127897014e-7,-3.037902262809636e-7,-3.541154461796381e-7,-3.3700976558902975e-7,0.0945516678901605,0.2716732754204305,0.07627153550546549,0.3175530350802213,0.11304606684828541,-2.59302248499553e-8,-2.7887478241800175e-7,0.11009267697870773,-1.2784241847164393e-7
2021-01-29,false,0.0,0.01715412051330569,-3.714706857925118e-7,-4.5919951512506147e-7,-4.952203176979428e-7,-3.069611888001256e-7,-3.759452741603519e-7,-3.557625272367782e-7,0.09228432756783968,0.27090455575060207,0.07543150921851945,0.3192659138079135,0.11034048940108092,-2.5866841472135233e-8,-2.862115583521715e-7,0.11462189775782985,-1.3737918255366944e-7
2021-02-26,false,0.0,0.017549388534580268,-3.9575576577269753e-7,-4.528271374669268e-7,-5.232541552391593e-7,-3.1509098658967795e-7,-3.781013949009553e-7,-3.622323077766617e-7,0.08460265762649942,0.26463631407936883,0.07345922502008101,0.3222137952494649,0.10706237470734357,-2.6658078379181576e-8,-3.0010765593538433e-7,0.13047916573315474,-1.6692301071782845e-7
2021-03-31,false,0.0,0.01841033415186431,-4.214007598620937e-7,-4.613660256496777e-7,-5.27562797515466e-7,-3.2405886264129214e-7,-3.724226367572809e-7,-3.568748428606345e-7,0.08432797943053386,0.26461868951781964,0.07413856038430237,0.32804035474558607,0.10305150677434642,-2.3612946237740596e-8,-3.168398901396154e-7,0.12741554134270486,-1.6220839586353643e-7
2021-04-30,false,0.0,0.019075885455837088,-4.28296899019524e-7,-4.890981798891624e-7,-5.367697072741528e-7,-3.2747823452350407e-7,-3.7543860199688947e-7,-3.605360541123491e-7,0.08348868327389773,0.25973634105293775,0.0730039489738542,0.3232812872496745,0.10583217454071236,-2.501404217594143e-8,-3.294132255758516e-7,0.13558472085210968,-1.693540787274612e-7
2021-05-28,false,0.0,0.018767987145704875,-4.2800626162833663e-7,-4.706541794985957e-7,-5.230058957281156e-7,-3.2899671411769765e-7,-3.6694810041178637e-7,-3.540787765701526e-7,0.0826496291777188,0.2575350528480376,0.0725416400908779,0.31896456179783517,0.11155302555019228,-2.623391717655824e-8,-3.265578132249777e-7,0.1379910992394186,-1.7136812684652611e-7
2021-06-30,false,0.0,0.01908693622993585,-4.1916789339389197e-7,-4.991553796826161e-7,-5.286085594234359e-7,-3.26590629664794e-7,-3.727395675014342e-7,-3.6049379214132804e-7,0.08520829453509386,0.258159224468334,0.07367151549242792,0.3210987927587685,0.10272613928688547,-2.4045161259885696e-8,-3.3666767422442915e-7,0.14005215107373103,-1.8637651948082532e-7
2021-07-30,false,0.0,0.019310382770093705,-4.1768261317738026e-7,-5.088097090015387e-7,-5.029157162276019e-7,-3.22273492756819e-7,-3.431426909989493e-7,-3.329450073292333e-7,0.08672652504266402,0.2583253634813998,0.07342268046863344,0.3162481709322935,0.10478064448066811,-2.341652222664369e-8,-3.4281284864089487e-7,0.14118921170149412,-1.8487864623935064e-7
2021-08-31,false,0.0,0.01983657490884587,-4.251221138189748e-7,-5.257843463966462e-7,-5.095263237264689e-7,-3.2571907838238887e-7,-3.4058552514991814e-7,-3.339668610323337e-7,0.08750034971335541,0.25881843435524315,0.07348124267016537,0.3180576267450558,0.1036977735819105,-2.194682493445146e-8,-3.4933004994383715e-7,0.1386110060333685,-1.760268210668606e-7
2021-09-30,false,0.0,0.01930360160118821,-4.2028928728117594e-7,-5.034123955421309e-7,-5.050326609459054e-7,-3.1919741575366963e-7,-3.322668521522808e-7,-3.275243846664571e-7,0.08518492505495241,0.2564932797113606,0.07313443437640303,0.32058146973295254,0.0997235574622724,-1.9809780453324155e-8,-3.39797779938281e-7,0.14558169125264153,-1.9186121405196556e-7
2021-10-29,false,0.0,0.020036207968279957,-4.2847034125292927e-7,-5.313578382955554e-7,-5.131186570663147e-7,-3.2472354012342476e-7,-3.379404647776744e-7,-3.3282119359070693e-7,0.08559238998185545,0.2515804578246248,0.07222040673068744,0.3150964816399749,0.1022321581577916,-2.1731305544293706e-8,-3.561993870944647e-7,0.15324495087000997,-2.0681049645393698e-7
2021-11-30,false,0.0,0.02055560361791455,-4.2799603581464064e-7,-5.522066521339194e-7,-5.064043934127229e-7,-3.1461195386779915e-7,-3.233988706658235e-7,-3.222819700829893e-7,0.08788418375815123,0.25603129289429566,0.07282199190640827,0.31577788126688205,0.10253914152933927,-2.0871952560722015e-8,-3.555446274212654e-7,0.14439290937488547,-1.8103142087893514e-7
2021-12-31,false,0.0,0.020815693001279632,-4.3746514349358746e-7,-5.485560826167524e-7,-4.998459284341015e-7,-3.2105347059669053e-7,-3.24713274292319e-7,-3.237974803271841e-7,0.08594869531765606,0.25287495118602127,0.07203095895474164,0.31716411308666076,0.10299467886848847,-2.0727041845957312e-8,-3.7556258752533706e-7,0.1481739562599879,-1.9495382663198062e-7
2022-01-31,false,0.0,0.019547139319115128,-4.275009014445627e-7,-4.89138649467716e-7,-4.422410352621579e-7,-3.0844563912528517e-7,-3.164656566265856e-7,-3.1802778339041697e-7,0.08416603038620607,0.2504201428435118,0.07019046070984258,0.3125816965711579,0.10259965467948136,-2.0323800980305465e-8,-3.4458841248933236e-7,0.16049776385750383,-2.2163493966857213e-7
2022-02-28,false,0.0,0.01930076537938253,-4.2841890491044116e-7,-4.78970059321573e-7,-4.568406328599239e-7,-3.0726736849146245e-7,-3.1591863972381906e-7,-3.1867616117071254e-7,0.08044304987809013,0.24651940073849368,0.06789867322960509,0.309315743301121,0.10822505057986088,-2.192774167061639e-8,-3.40831705336994e-7,0.16830022037898595,-2.346343256088654e-7
2022-03-31,false,0.0,0.02007501486200434,-4.408043246946753e-7,-5.00429203935979e-7,-4.6354939467836303e-7,-3.04387153385448e-7,-3.015887630926131e-7,-3.0567995168282407e-7,0.07670734254004997,0.23664504637677847,0.06619612784314181,0.30398077361022446,0.10955846083621841,-2.2200293888163925e-8,-3.5769016486775437e-7,0.18684019799142618,-2.677305932668721e-7
2022-04-29,true,0.323015031658952,-3.279193553343695e-11,0.004295390341031458,2.6976314844929503e-10,1.370748544528898e-10,0.026714737548052547,7.686289863120453e-11,6.011927494862766e-11,0.13669099785182615,0.3000000013467378,0.04913828816995487,0.29999999713286535,0.09219935106775382,-1.5171427118132732e-10,1.782939613984857e-10,0.09096123612105445,-1.161841918229038e-10
2022-05-31,false,0.0,-3.1453348302954026e-11,0.004241995704030976,2.4962308540342757e-10,1.333084259452973e-10,0.02682768943384231,7.57642499059965e-11,5.902429907681923e-11,0.13351121989965728,0.30112658138360654,0.04948161841566318,0.3013290832006505,0.08935174753249321,-1.4267672121307403e-10,1.622081900118407e-10,0.09413006404956152,-1.2530383845762643e-10
2022-06-30,false,0.0,-3.034065017179068e-11,0.004056753520882957,2.420309388669573e-10,1.2738346240970537e-10,0.02569132520065383,7.686627811925301e-11,6.06697710886877e-11,0.1343337278474659,0.30837617440288173,0.04963987759425213,0.2920306031985587,0.09213529286557985,-1.4077674074515682e-10,1.557397431903485e-10,0.09373624500553741,-1.2738524355183854e-10
2022-07-29,false,0.0,-3.144773641725538e-11,0.004133738781028142,2.550315559151139e-10,1.3461745933324978e-10,0.025728811514272542,7.438346109108121e-11,5.846745457419831e-11,0.13517243017013209,0.3108128350672356,0.050416745751578146,0.30168679323854664,0.08641784294740168,-1.312933618078441e-10,1.6306652148633615e-10,0.08563080212085909,-1.1387934300501412e-10
2022-08-31,false,0.0,-3.1761552044481314e-11,0.004198348916583534,2.5707904418208437e-10,1.375796641375902e-10,0.025405966406871195,7.50344454707535e-11,5.964036829795576e-11,0.13378166376754183,0.3095856610218306,0.05032544956310668,0.30016751508268136,0.08739966906327301,-1.2426985278280766e-10,1.5949154146183157e-10,0.08913572575956918,-1.1425103637224535e-10
2022-09-30,false,0.0,-3.066314897045487e-11,0.004061911820793313,2.469785534937165e-10,1.3122471461558438e-10,0.024258137268930988,7.059850072789131e-11,5.679202657949032e-11,0.13000229264492846,0.311297050488658,0.04960859133149306,0.30513436939479244,0.08900503257997151,-1.3401766853291454e-10,1.4424768291918738e-10,0.08663261409137285,-1.0610147087377264e-10
2022-10-31,false,0.0,-3.260926345984535e-11,0.004412305993654591,2.5682654524274643e-10,1.4339231132772695e-10,0.025641551340663104,6.860375462336468e-11,5.487907197459762e-11,0.1207249407501131,0.3057007050817407,0.04910094819078199,0.3168778802768038,0.08761194687752681,-1.35296816568921e-10,1.497896419255165e-10,0.08992972109771398,-1.1458334143854056e-10
2022-11-30,false,0.0,-3.230532006207129e-11,0.004454954864194807,2.488860121729368e-10,1.3908938577767673e-10,0.02752752685905416,7.490398385871318e-11,5.933551284736258e-11,0.124416516297637,0.30537890934026335,0.05025736487502663,0.3106339198565206,0.09087359551095665,-1.4508342370860435e-10,1.5119465684828884e-10,0.08645721200486237,-1.0453631421396482e-10
2022-12-30,false,0.0,-3.1463033197578804e-11,0.004375982724058056,2.394825488730558e-10,1.33802287065774e-10,0.027791627678262164,7.605845364305949e-11,6.030897752698395e-11,0.12326913015963886,0.3049989978486659,0.05042122111553251,0.30966510922857166,0.09429049952265728,-1.6222918589467142e-10,1.4785012226181602e-10,0.08518743136331504,-1.0451144401004375e-10
2023-01-31,false,0.0,-3.178511413999283e-11,0.00437912140874136,2.460068050768833e-10,1.3829694822936754e-10,0.02883327865815861,7.930099672765094e-11,6.224683677209625e-11,0.12580193043086144,0.30287439881316836,0.05061488287375644,0.30850708279997435,0.09655932182440856,-1.5453153068912016e-10,1.5331411629700135e-10,0.08242998279818772,-1.001057565175968e-10
2023-02-28,false,0.0,-3.244411804217981e-11,0.004418818943924423,2.544471781078336e-10,1.4301608095225156e-10,0.02912064482548192,7.572790817699672e-11,6.02752358562726e-11,0.12347974331693481,0.30245167840583337,0.050230050123696184,0.3143347595725108,0.0938733881537996,-1.386518345907606e-10,1.516441895760965e-10,0.0820909162436717,-9.986764765014476e-11
2023-03-31,true,0.39053601505414337,3.5956925042300904e-9,4.481709064885898e-9,2.7858889022397464e-9,4.702013427998151e-9,3.6181011570160654e-9,1.2918840725297907e-9,1.3433863467305923e-9,-3.6680453497339917e-9,0.3000000419472276,0.24142040176672386,0.2999999553153305,0.07497240457598284,1.2539967914872161e-9,4.092322827603959e-9,0.08360716990953725,2.9842556962740763e-9
2023-04-28,false,0.0,3.6510829003390153e-9,4.536588290580594e-9,2.8211210823028867e-9,4.630847413145241e-9,3.7227310161889043e-9,1.2652205379782232e-9,1.3181269891103492e-9,-3.6532731255594635e-9,0.30011524690353736,0.24180315079903916,0.300875782791758,0.07474409590118102,1.2992799338270305e-9,4.115085678068982e-9,0.08246169691884063,2.9788330868303382e-9
2023-05-31,false,0.0,3.766809010933143e-9,4.4820074168212644e-9,3.027693363047097e-9,4.735317347332383e-9,3.6553980982358854e-9,1.2684115054632904e-9,1.3122081974924857e-9,-3.6119313951200848e-9,0.30073209359150765,0.24168820854153047,0.30330429088580946,0.07457122031075891,1.2217808376969184e-9,4.0281067143684935e-9,0.07970415994496002,2.8396323953344027e-9
2023-06-30,false,0.0,3.944128690707316e-9,4.7158370508304e-9,3.166841061784621e-9,5.037864585610673e-9,3.73465393715614e-9,1.3016070462180706e-9,1.3532232328457322e-9,-3.6094105923045932e-9,0.297638545040763,0.24283639819730835,0.30652104457638896,0.07257702648518073,1.1865287533129812e-9,4.250776461579042e-9,0.08042695775976602,2.8585427705178284e-9
2023-07-31,false,0.0,4.0602804346269795e-9,4.843919748145688e-9,3.2726041955658265e-9,5.237516598439817e-9,3.829894310112542e-9,1.3711247196803663e-9,1.4236167944211206e-9,-3.5031527793208775e-9,0.29216165942966743,0.2409089787322857,0.3067095397099192,0.07356024197610755,1.258419317410183e-9,4.275650190544206e-9,0.08665955085709849,3.2250479604198597e-9
2023-08-31,false,0.0,4.024225550820341e-9,4.766235342247406e-9,3.255575781462829e-9,5.057830329862391e-9,3.70921547622677e-9,1.301803658964425e-9,1.3626977433161784e-9,-3.3974868463840373e-9,0.2911113279768591,0.23925766771228577,0.3096437861540881,0.07326775206496718,1.2756122783550692e-9,4.205750488716287e-9,0.08671943722423396,3.306106187403144e-9
2023-09-29,false,0.0,3.9191563922157304e-9,4.683894778232927e-9,3.1491103624093505e-9,4.876349309930061e-9,3.6466004659983194e-9,1.2709784943581063e-9,1.339737279875786e-9,-3.206301891410878e-9,0.2886215608570586,0.23666188030635082,0.31153534503488767,0.07190748379386315,1.1962982003173778e-9,3.939349019952646e-9,0.09127370145711848,3.735548962727947e-9
2023-10-31,false,0.0,3.8485152559622215e-9,4.5114117361302205e-9,3.1252175083668294e-9,4.531420031989074e-9,3.5616663227904606e-9,1.2525218420874824e-9,1.3201110667105493e-9,-3.079172553048171e-9,0.28738028214609185,0.2337386814790957,0.31106703914964623,0.07777436841943841,1.2433898277006423e-9,3.786029843364734e-9,0.09003960119668943,3.507927734426041e-9
2023-11-30,false,0.0,4.008391764323187e-9,4.6224631894897e-9,3.3128789987527902e-9,4.724077580749079e-9,3.685712642146929e-9,1.2750647173445433e-9,1.3354680010260436e-9,-3.240512597955054e-9,0.2869482384608909,0.2403451293674835,0.31215375581450167,0.0758421220578792,1.2674132038570798e-9,4.070686267961738e-9,0.08471072606574664,3.171854461896148e-9
2023-12-29,false,0.0,4.1013134488978294e-9,4.794215273397416e-9,3.3753980327388457e-9,5.2438130555600596e-9,3.766371071090415e-9,1.2865418878396333e-9,1.341040491465602e-9,-3.409828797353185e-9,0.28869218376994354,0.24455548505564856,0.31372106976531344,0.07441115462903344,1.1807263626375403e-9,4.406938615956416e-9,0.07862007784922583,2.8443057621421395e-9
2024-01-31,false,0.0,4.2445166350108015e-9,4.859204335310622e-9,3.5369272527005582e-9,5.101124812862623e-9,3.790577230079971e-9,1.2399080050901902e-9,1.3078010246495983e-9,-3.2861705082342995e-9,0.2872812429158371,0.24319942105931236,0.31540344799124265,0.073658114596263,1.1421419555270872e-9,4.191712540384345e-9,0.08045774421987878,3.0897227295268336e-9
2024-02-29,false,0.0,4.42443186867336e-9,5.019957855196567e-9,3.708780502594696e-9,5.265129587545751e-9,3.9167034336764155e-9,1.297594362887357e-9,1.359559326444509e-9,-3.254065048318522e-9,0.28623545214865753,0.24156108275888216,0.31846262140807186,0.07438319664306811,1.1181313470559177e-9,4.240736628760215e-9,0.07935761679227486,3.152085768968485e-9
2024-03-28,false,0.0,4.494868056406939e-9,5.1667997830175245e-9,3.732288748909986e-9,5.356717516337053e-9,3.98752785703006e-9,1.302137405349077e-9,1.3564769110732897e-9,-3.2391367758100913e-9,0.28348840011440585,0.24088607828249256,0.31686241220677225,0.07858837562841138,1.1978799433441398e-9,4.241124594896356e-9,0.0801747029221862,3.2490476581859693e-9
2024-04-30,false,0.0,4.420009122796185e-9,5.075182241436146e-9,3.6566615708906376e-9,5.149735318820295e-9,3.932732004628859e-9,1.3336981408898621e-9,1.404638457209392e-9,-3.0791063453535336e-9,0.27813290508397576,0.23625377295237962,0.3170678103640516,0.08431113852447887,1.327483502770011e-9,4.029142498619992e-9,0.08423434246585686,3.359080758708291e-9
2024-05-31,false,0.0,4.500181412059906e-9,5.058736084736404e-9,3.7760328980385e-9,5.218529328038927e-9,4.014772536807905e-9,1.345015994963309e-9,1.4186857332955113e-9,-3.0997228130077028e-9,0.2788349959698183,0.23766423302494746,0.31688131891907917,0.083865715784426,1.4997962567066032e-9,4.0372184820506805e-9,0.08275370536604267,3.166440479734953e-9
2024-06-28,false,0.0,4.660387709810906e-9,5.012681119840569e-9,4.013813798523526e-9,5.11388008419959e-9,3.9238858970850595e-9,1.3465866234192084e-9,1.4123371873307626e-9,-3.1944802162514756e-9,0.2814524671301004,0.23863400312270938,0.31630854654381685,0.0821063848937199,1.3694611759781883e-9,4.103154925220859e-9,0.08149856724701893,3.3009262275310032e-9
2024-07-31,false,0.0,4.566764553509657e-9,5.199224888937699e-9,3.762535346466794e-9,5.554547840788419e-9,3.9259166930934354e-9,1.3151742799865601e-9,1.3888540076834882e-9,-3.1764087025006524e-9,0.28265858898254653,0.23914447330152172,0.31809912446721333,0.08392257911410478,1.3176406005067497e-9,4.423605397405166e-9,0.07617520282119661,3.0355619896463623e-9
2024-08-30,false,0.0,4.5863120698137375e-9,5.175758729393373e-9,3.7981933533779425e-9,5.313288315342087e-9,4.001872502484645e-9,1.3200654457924407e-9,1.3898871161600533e-9,-3.230262463487709e-9,0.2826762170305671,0.23987601614875448,0.31648145786049836,0.08570044060369404,1.3301886396233699e-9,4.4805903292911006e-9,0.07526583714987338,3.040718657678477e-9
2024-09-30,false,0.0,4.621472729638753e-9,5.17893042938204e-9,3.853234772296234e-9,5.265440388196218e-9,3.977571288577954e-9,1.3936260821488146e-9,1.4788567427425648e-9,-3.2153352144918593e-9,0.2812572597036096,0.24014510893683452,0.3164067154973162,0.088479469550134,1.3994948674849396e-9,4.5510413643228156e-9,0.0737114150874467,2.72032561042869e-9
2024-10-31,false,0.0,4.763540067981716e-9,5.25521232823089e-9,4.032210402837695e-9,5.371131573183939e-9,3.83620749382776e-9,1.3572738981765916e-9,1.451140054236195e-9,-3.066494633578679e-9,0.2753983957922059,0.23605773371693112,0.31898169897403805,0.09441507462950832,1.5112578939742713e-9,4.577391127201437e-9,0.07514706501192027,2.786526068267743e-9
2024-11-29,false,0.0,4.910038518382655e-9,5.52980049375272e-9,4.129791874757849e-9,5.822569486423691e-9,3.744846802226402e-9,1.3077069000534537e-9,1.407835166730672e-9,-3.0938179152255034e-9,0.2766009609920501,0.23804877934794458,0.32238767015908976,0.08902721588609687,1.3402456104426625e-9,4.7031963775303415e-9,0.0739353410230323,2.789573010828784e-9
2024-12-31,false,0.0,4.889033909596974e-9,5.203460496444134e-9,4.278342991458243e-9,5.399527598907725e-9,3.7218934476335026e-9,1.305420325623071e-9,1.4162814455208993e-9,-2.972959785225544e-9,0.27500771901162024,0.23627938532006457,0.32412604338911716,0.0888958199376365,1.3018788304081793e-9,4.293890345091244e-9,0.07569100056653007,2.9382620022363704e-9
2025-01-31,false,0.0,4.9408905398813825e-9,5.396578630489497e-9,4.256436000253479e-9,5.492491811170576e-9,3.869186694483146e-9,1.3206449420310318e-9,1.4139261885765929e-9,-2.939805596698785e-9,0.2719665479489068,0.23379868275926902,0.3236131474893237,0.09366737300271206,1.3883214716902854e-9,4.331500805774622e-9,0.0769542163361546,2.993462364597266e-9
2025-02-28,false,0.0,4.7101854457145394e-9,5.237640282207385e-9,3.9576271716387165e-9,5.029451462265806e-9,3.881899149435862e-9,1.3196577142401869e-9,1.4086233091613368e-9,-3.0054374614482743e-9,0.27378581293343585,0.23425013028151143,0.3207667821641464,0.09478457079943428,1.3526167380942232e-9,4.381952319180996e-9,0.07641267269412125,2.8531346771373635e-9
2025-03-31,false,0.0,4.456815770331665e-9,5.0781733266133516e-9,3.654178002142823e-9,4.723626967396013e-9,3.908163254441285e-9,1.309992392900181e-9,1.401568916941904e-9,-2.9601006929063066e-9,0.27403955102774885,0.23257374485501445,0.316227551171388,0.1010670248989562,1.4663772378563674e-9,4.238918485412028e-9,0.07609209795386673,2.8153120623027512e-9
2025-04-30,false,0.0,4.359745857493681e-9,4.885941359929094e-9,3.6376567012714914e-9,4.5376625302613875e-9,3.95873942916383e-9,1.2869703631410047e-9,1.376252596502828e-9,-2.9408813221264973e-9,0.2747341375553722,0.2312093326780786,0.3155186449566006,0.10753930113401228,1.3893822663788345e-9,4.100400007462537e-9,0.07099855465360748,2.4304591952261195e-9
2025-05-30,false,0.0,4.64409541211426e-9,5.063649342721392e-9,3.9660802780387374e-9,4.76918465316629e-9,4.143081184107465e-9,1.3601140685623728e-9,1.4509766947619587e-9,-2.822758543647364e-9,0.27142438472593144,0.230329779933698,0.3196346458850179,0.10726878084819667,1.4111327055001517e-9,4.164284178527288e-9,0.07134237798174213,2.4755740267805613e-9
2025-06-30,false,0.0,4.785799126970479e-9,5.1444702164408026e-9,4.127960717261766e-9,4.926212976542508e-9,4.1856230565847556e-9,1.4121031738510727e-9,1.489722842281869e-9,-2.8332276826927303e-9,0.2716976076113859,0.23128367035200312,0.3201020567234011,0.10416590759893989,1.493700004615753e-9,4.106954867261312e-9,0.07275072623882166,2.6361291562325683e-9
2025-07-31,false,0.0,4.9162018886132615e-9,5.219043165055611e-9,4.289449480411072e-9,5.0379743530919055e-9,4.124297360060934e-9,1.4275781305279812e-9,1.5031281983650204e-9,-2.8132919521824157e-9,0.2697616247708467,0.2312730499236704,0.32021065158038275,0.10355746374270292,1.524233353172878e-9,4.175023576406212e-9,0.07519717768349195,2.895267744488915e-9
2025-08-29,false,0.0,4.9477245661922604e-9,5.253858605191004e-9,4.322108034192716e-9,5.277154147468178e-9,4.22102391694311e-9,1.4408141881821153e-9,1.5269369743239994e-9,-2.7905347663309405e-9,0.2703793088106058,0.23094162128350648,0.31951943576598074,0.10665980193411782,1.588391062711478e-9,4.16774107415546e-9,0.07249979960939576,2.6411757880307392e-9
2025-09-30,false,0.0,4.9657105733409904e-9,5.2061199452708726e-9,4.3790757951432074e-9,5.294204676236033e-9,4.173827634051385e-9,1.4966969079508944e-9,1.5675488197579282e-9,-2.816229807638153e-9,0.26625707331985005,0.22966624646666456,0.31505899523755404,0.11668998745531121,1.8554946716895444e-9,4.0855290457390816e-9,0.07232766475673007,2.5559118044322693e-9
