date,rebalanced,turnover,SPY,IWD,IWF,IWM,EFA,EEM,VWO,TLT,IEF,LQD,HYG,GLD,SLV,VNQ,DBC,USO
2010-04-30,true,1.1739489664111868,-1.9663056934313686e-9,-1.8056714888675429e-9,0.09675945143120113,0.012928440632008084,-1.0046637184834769e-8,-2.4192589771426606e-8,-2.2388695637939395e-8,0.21402586893679434,0.30000000535269855,0.15790022711383442,0.10040474026056616,0.09288419010600776,-4.092318481533596e-9,-8.707771763120208e-10,0.02509714572081375,-4.199910754767846e-9
2010-05-28,false,0.0,-1.9663056934313686e-9,-1.8056714888675429e-9,0.09675945143120113,0.012928440632008084,-1.0046637184834769e-8,-2.4192589771426606e-8,-2.2388695637939395e-8,0.21402586893679434,0.30000000535269855,0.15790022711383442,0.10040474026056616,0.09288419010600776,-4.092318481533596e-9,-8.707771763120208e-10,0.02509714572081375,-4.199910754767846e-9
2010-06-30,false,0.0,-1.9663056934313686e-9,-1.8056714888675429e-9,0.09675945143120113,0.012928440632008084,-1.0046637184834769e-8,-2.4192589771426606e-8,-2.2388695637939395e-8,0.21402586893679434,0.30000000535269855,0.15790022711383442,0.10040474026056616,0.09288419010600776,-4.092318481533596e-9,-8.707771763120208e-10,0.02509714572081375,-4.199910754767846e-9
2010-07-30,false,0.0,-1.9663056934313686e-9,-1.8056714888675429e-9,0.09675945143120113,0.012928440632008084,-1.0046637184834769e-8,-2.4192589771426606e-8,-2.2388695637939395e-8,0.21402586893679434,0.30000000535269855,0.15790022711383442,0.10040474026056616,0.09288419010600776,-4.092318481533596e-9,-8.707771763120208e-10,0.02509714572081375,-4.199910754767846e-9
2010-08-31,false,0.0,-1.9663056934313686e-9,-1.8056714888675429e-9,0.09675945143120113,0.012928440632008084,-1.0046637184834769e-8,-2.4192589771426606e-8,-2.2388695637939395e-8,0.21402586893679434,0.30000000535269855,0.15790022711383442,0.10040474026056616,0.09288419010600776,-4.092318481533596e-9,-8.707771763120208e-10,0.02509714572081375,-4.199910754767846e-9
2010-09-30,false,0.0,-1.9663056934313686e-9,-1.8056714888675429e-9,0.09675945143120113,0.012928440632008084,-1.0046637184834769e-8,-2.4192589771426606e-8,-2.2388695637939395e-8,0.21402586893679434,0.30000000535269855,0.15790022711383442,0.10040474026056616,0.09288419010600776,-4.092318481533596e-9,-8.707771763120208e-10,0.02509714572081375,-4.199910754767846e-9
2010-10-29,false,0.0,-1.9663056934313686e-9,-1.8056714888675429e-9,0.09675945143120113,0.012928440632008084,-1.0046637184834769e-8,-2.4192589771426606e-8,-2.2388695637939395e-8,0.21402586893679434,0.30000000535269855,0.15790022711383442,0.10040474026056616,0.09288419010600776,-4.092318481533596e-9,-8.707771763120208e-10,0.02509714572081375,-4.199910754767846e-9
2010-11-30,false,0.0,-1.9663056934313686e-9,-1.8056714888675429e-9,0.09675945143120113,0.012928440632008084,-1.0046637184834769e-8,-2.4192589771426606e-8,-2.2388695637939395e-8,0.21402586893679434,0.30000000535269855,0.15790022711383442,0.10040474026056616,0.09288419010600776,-4.092318481533596e-9,-8.707771763120208e-10,0.02509714572081375,-4.199910754767846e-9
2010-12-31,false,0.0,-1.9663056934313686e-9,-1.8056714888675429e-9,0.09675945143120113,0.012928440632008084,-1.0046637184834769e-8,-2.4192589771426606e-8,-2.2388695637939395e-8,0.21402586893679434,0.30000000535269855,0.15790022711383442,0.10040474026056616,0.09288419010600776,-4.092318481533596e-9,-8.707771763120208e-10,0.02509714572081375,-4.199910754767846e-9
2011-01-31,false,0.0,-1.9663056934313686e-9,-1.8056714888675429e-9,0.09675945143120113,0.012928440632008084,-1.0046637184834769e-8,-2.4192589771426606e-8,-2.2388695637939395e-8,0.21402586893679434,0.30000000535269855,0.15790022711383442,0.10040474026056616,0.09288419010600776,-4.092318481533596e-9,-8.707771763120208e-10,0.02509714572081375,-4.199910754767846e-9
2011-02-28,false,0.0,-1.9663056934313686e-9,-1.8056714888675429e-9,0.09675945143120113,0.012928440632008084,-1.0046637184834769e-8,-2.4192589771426606e-8,-2.2388695637939395e-8,0.21402586893679434,0.30000000535269855,0.15790022711383442,0.10040474026056616,0.09288419010600776,-4.092318481533596e-9,-8.707771763120208e-10,0.02509714572081375,-4.199910754767846e-9
2011-03-31,false,0.0,-1.9663056934313686e-9,-1.8056714888675429e-9,0.09675945143120113,0.012928440632008084,-1.0046637184834769e-8,-2.4192589771426606e-8,-2.2388695637939395e-8,0.21402586893679434,0.30000000535269855,0.15790022711383442,0.10040474026056616,0.09288419010600776,-4.092318481533596e-9,-8.707771763120208e-10,0.02509714572081375,-4.199910754767846e-9
2011-04-29,false,0.0,-1.9663056934313686e-9,-1.8056714888675429e-9,0.09675945143120113,0.012928440632008084,-1.0046637184834769e-8,-2.4192589771426606e-8,-2.2388695637939395e-8,0.21402586893679434,0.30000000535269855,0.15790022711383442,0.10040474026056616,0.09288419010600776,-4.092318481533596e-9,-8.707771763120208e-10,0.02509714572081375,-4.199910754767846e-9
2011-05-31,false,0.0,-1.9663056934313686e-9,-1.8056714888675429e-9,0.09675945143120113,0.012928440632008084,-1.0046637184834769e-8,-2.4192589771426606e-8,-2.2388695637939395e-8,0.21402586893679434,0.30000000535269855,0.15790022711383442,0.10040474026056616,0.09288419010600776,-4.092318481533596e-9,-8.707771763120208e-10,0.02509714572081375,-4.199910754767846e-9
2011-06-30,false,0.0,-1.9663056934313686e-9,-1.8056714888675429e-9,0.09675945143120113,0.012928440632008084,-1.0046637184834769e-8,-2.4192589771426606e-8,-2.2388695637939395e-8,0.21402586893679434,0.30000000535269855,0.15790022711383442,0.10040474026056616,0.09288419010600776,-4.092318481533596e-9,-8.707771763120208e-10,0.02509714572081375,-4.199910754767846e-9
2011-07-29,false,0.0,-1.9663056934313686e-9,-1.8056714888675429e-9,0.09675945143120113,0.012928440632008084,-1.0046637184834769e-8,-2.4192589771426606e-8,-2.2388695637939395e-8,0.21402586893679434,0.30000000535269855,0.15790022711383442,0.10040474026056616,0.09288419010600776,-4.092318481533596e-9,-8.707771763120208e-10,0.02509714572081375,-4.199910754767846e-9
2011-08-31,false,0.0,-1.9663056934313686e-9,-1.8056714888675429e-9,0.09675945143120113,0.012928440632008084,-1.0046637184834769e-8,-2.4192589771426606e-8,-2.2388695637939395e-8,0.21402586893679434,0.30000000535269855,0.15790022711383442,0.10040474026056616,0.09288419010600776,-4.092318481533596e-9,-8.707771763120208e-10,0.02509714572081375,-4.199910754767846e-9
2011-09-30,true,0.38943456100686286,-6.251034992438869e-8,-4.39701167974209e-8,0.0268696299757192,0.019422077743013296,-4.555457759952056e-8,-2.998443644587709e-9,-1.1576562477521826e-8,0.10452160086904687,0.2999996842811854,0.2999996184412298,0.12868967041142243,0.07756146909802994,-2.6744853785621724e-9,-1.1430429351434167e-8,0.02757705156011038,0.015359378575483749
2011-10-31,false,0.0,-6.251034992438869e-8,-4.39701167974209e-8,0.0268696299757192,0.019422077743013296,-4.555457759952056e-8,-2.998443644587709e-9,-1.1576562477521826e-8,0.10452160086904687,0.2999996842811854,0.2999996184412298,0.12868967041142243,0.07756146909802994,-2.6744853785621724e-9,-1.1430429351434167e-8,0.02757705156011038,0.015359378575483749
2011-11-30,false,0.0,-6.251034992438869e-8,-4.39701167974209e-8,0.0268696299757192,0.019422077743013296,-4.555457759952056e-8,-2.998443644587709e-9,-1.1576562477521826e-8,0.10452160086904687,0.2999996842811854,0.2999996184412298,0.12868967041142243,0.07756146909802994,-2.6744853785621724e-9,-1.1430429351434167e-8,0.02757705156011038,0.015359378575483749
2011-12-30,false,0.0,-6.251034992438869e-8,-4.39701167974209e-8,0.0268696299757192,0.019422077743013296,-4.555457759952056e-8,-2.998443644587709e-9,-1.1576562477521826e-8,0.10452160086904687,0.2999996842811854,0.2999996184412298,0.12868967041142243,0.07756146909802994,-2.6744853785621724e-9,-1.1430429351434167e-8,0.02757705156011038,0.015359378575483749
2012-01-31,true,0.2910443029557797,0.025251741879886894,-2.2652790315257223e-8,-7.528740428465268e-8,-1.7534150751559627e-8,-8.379470259078678e-9,-1.0786805344494874e-8,-7.772271840691227e-9,0.03762856913066229,0.30000036163044785,0.3000005656843119,0.24790591872097664,0.060583447826939425,1.3883798722284243e-7,-9.834876311800877e-9,0.028629320131780725,8.82263843468503e-8
2012-02-29,false,0.0,0.025251741879886894,-2.2652790315257223e-8,-7.528740428465268e-8,-1.7534150751559627e-8,-8.379470259078678e-9,-1.0786805344494874e-8,-7.772271840691227e-9,0.03762856913066229,0.30000036163044785,0.3000005656843119,0.24790591872097664,0.060583447826939425,1.3883798722284243e-7,-9.834876311800877e-9,0.028629320131780725,8.82263843468503e-8
2012-03-30,false,0.0,0.025251741879886894,-2.2652790315257223e-8,-7.528740428465268e-8,-1.7534150751559627e-8,-8.379470259078678e-9,-1.0786805344494874e-8,-7.772271840691227e-9,0.03762856913066229,0.30000036163044785,0.3000005656843119,0.24790591872097664,0.060583447826939425,1.3883798722284243e-7,-9.834876311800877e-9,0.028629320131780725,8.82263843468503e-8
2012-04-30,false,0.0,0.025251741879886894,-2.2652790315257223e-8,-7.528740428465268e-8,-1.7534150751559627e-8,-8.379470259078678e-9,-1.0786805344494874e-8,-7.772271840691227e-9,0.03762856913066229,0.30000036163044785,0.3000005656843119,0.24790591872097664,0.060583447826939425,1.3883798722284243e-7,-9.834876311800877e-9,0.028629320131780725,8.82263843468503e-8
2012-05-31,false,0.0,0.025251741879886894,-2.2652790315257223e-8,-7.528740428465268e-8,-1.7534150751559627e-8,-8.379470259078678e-9,-1.0786805344494874e-8,-7.772271840691227e-9,0.03762856913066229,0.30000036163044785,0.3000005656843119,0.24790591872097664,0.060583447826939425,1.3883798722284243e-7,-9.834876311800877e-9,0.028629320131780725,8.82263843468503e-8
2012-06-29,false,0.0,0.025251741879886894,-2.2652790315257223e-8,-7.528740428465268e-8,-1.7534150751559627e-8,-8.379470259078678e-9,-1.0786805344494874e-8,-7.772271840691227e-9,0.03762856913066229,0.30000036163044785,0.3000005656843119,0.24790591872097664,0.060583447826939425,1.3883798722284243e-7,-9.834876311800877e-9,0.028629320131780725,8.82263843468503e-8
2012-07-31,false,0.0,0.025251741879886894,-2.2652790315257223e-8,-7.528740428465268e-8,-1.7534150751559627e-8,-8.379470259078678e-9,-1.0786805344494874e-8,-7.772271840691227e-9,0.03762856913066229,0.30000036163044785,0.3000005656843119,0.24790591872097664,0.060583447826939425,1.3883798722284243e-7,-9.834876311800877e-9,0.028629320131780725,8.82263843468503e-8
2012-08-31,false,0.0,0.025251741879886894,-2.2652790315257223e-8,-7.528740428465268e-8,-1.7534150751559627e-8,-8.379470259078678e-9,-1.0786805344494874e-8,-7.772271840691227e-9,0.03762856913066229,0.30000036163044785,0.3000005656843119,0.24790591872097664,0.060583447826939425,1.3883798722284243e-7,-9.834876311800877e-9,0.028629320131780725,8.82263843468503e-8
2012-09-28,false,0.0,0.025251741879886894,-2.2652790315257223e-8,-7.528740428465268e-8,-1.7534150751559627e-8,-8.379470259078678e-9,-1.0786805344494874e-8,-7.772271840691227e-9,0.03762856913066229,0.30000036163044785,0.3000005656843119,0.24790591872097664,0.060583447826939425,1.3883798722284243e-7,-9.834876311800877e-9,0.028629320131780725,8.82263843468503e-8
2012-10-31,false,0.0,0.025251741879886894,-2.2652790315257223e-8,-7.528740428465268e-8,-1.7534150751559627e-8,-8.379470259078678e-9,-1.0786805344494874e-8,-7.772271840691227e-9,0.03762856913066229,0.30000036163044785,0.3000005656843119,0.24790591872097664,0.060583447826939425,1.3883798722284243e-7,-9.834876311800877e-9,0.028629320131780725,8.82263843468503e-8
2012-11-30,false,0.0,0.025251741879886894,-2.2652790315257223e-8,-7.528740428465268e-8,-1.7534150751559627e-8,-8.379470259078678e-9,-1.0786805344494874e-8,-7.772271840691227e-9,0.03762856913066229,0.30000036163044785,0.3000005656843119,0.24790591872097664,0.060583447826939425,1.3883798722284243e-7,-9.834876311800877e-9,0.028629320131780725,8.82263843468503e-8
2012-12-31,false,0.0,0.025251741879886894,-2.2652790315257223e-8,-7.528740428465268e-8,-1.7534150751559627e-8,-8.379470259078678e-9,-1.0786805344494874e-8,-7.772271840691227e-9,0.03762856913066229,0.30000036163044785,0.3000005656843119,0.24790591872097664,0.060583447826939425,1.3883798722284243e-7,-9.834876311800877e-9,0.028629320131780725,8.82263843468503e-8
2013-01-31,false,0.0,0.025251741879886894,-2.2652790315257223e-8,-7.528740428465268e-8,-1.7534150751559627e-8,-8.379470259078678e-9,-1.0786805344494874e-8,-7.772271840691227e-9,0.03762856913066229,0.30000036163044785,0.3000005656843119,0.24790591872097664,0.060583447826939425,1.3883798722284243e-7,-9.834876311800877e-9,0.028629320131780725,8.82263843468503e-8
2013-02-28,false,0.0,0.025251741879886894,-2.2652790315257223e-8,-7.528740428465268e-8,-1.7534150751559627e-8,-8.379470259078678e-9,-1.0786805344494874e-8,-7.772271840691227e-9,0.03762856913066229,0.30000036163044785,0.3000005656843119,0.24790591872097664,0.060583447826939425,1.3883798722284243e-7,-9.834876311800877e-9,0.028629320131780725,8.82263843468503e-8
2013-03-28,false,0.0,0.025251741879886894,-2.2652790315257223e-8,-7.528740428465268e-8,-1.7534150751559627e-8,-8.379470259078678e-9,-1.0786805344494874e-8,-7.772271840691227e-9,0.03762856913066229,0.30000036163044785,0.3000005656843119,0.24790591872097664,0.060583447826939425,1.3883798722284243e-7,-9.834876311800877e-9,0.028629320131780725,8.82263843468503e-8
2013-04-30,false,0.0,0.025251741879886894,-2.2652790315257223e-8,-7.528740428465268e-8,-1.7534150751559627e-8,-8.379470259078678e-9,-1.0786805344494874e-8,-7.772271840691227e-9,0.03762856913066229,0.30000036163044785,0.3000005656843119,0.24790591872097664,0.060583447826939425,1.3883798722284243e-7,-9.834876311800877e-9,0.028629320131780725,8.82263843468503e-8
2013-05-31,false,0.0,0.025251741879886894,-2.2652790315257223e-8,-7.528740428465268e-8,-1.7534150751559627e-8,-8.379470259078678e-9,-1.0786805344494874e-8,-7.772271840691227e-9,0.03762856913066229,0.30000036163044785,0.3000005656843119,0.24790591872097664,0.060583447826939425,1.3883798722284243e-7,-9.834876311800877e-9,0.028629320131780725,8.82263843468503e-8
2013-06-28,false,0.0,0.025251741879886894,-2.2652790315257223e-8,-7.528740428465268e-8,-1.7534150751559627e-8,-8.379470259078678e-9,-1.0786805344494874e-8,-7.772271840691227e-9,0.03762856913066229,0.30000036163044785,0.3000005656843119,0.24790591872097664,0.060583447826939425,1.3883798722284243e-7,-9.834876311800877e-9,0.028629320131780725,8.82263843468503e-8
2013-07-31,false,0.0,0.025251741879886894,-2.2652790315257223e-8,-7.528740428465268e-8,-1.7534150751559627e-8,-8.379470259078678e-9,-1.0786805344494874e-8,-7.772271840691227e-9,0.03762856913066229,0.30000036163044785,0.3000005656843119,0.24790591872097664,0.060583447826939425,1.3883798722284243e-7,-9.834876311800877e-9,0.028629320131780725,8.82263843468503e-8
2013-08-30,false,0.0,0.025251741879886894,-2.2652790315257223e-8,-7.528740428465268e-8,-1.7534150751559627e-8,-8.379470259078678e-9,-1.0786805344494874e-8,-7.772271840691227e-9,0.03762856913066229,0.30000036163044785,0.3000005656843119,0.24790591872097664,0.060583447826939425,1.3883798722284243e-7,-9.834876311800877e-9,0.028629320131780725,8.82263843468503e-8
2013-09-30,false,0.0,0.025251741879886894,-2.2652790315257223e-8,-7.528740428465268e-8,-1.7534150751559627e-8,-8.379470259078678e-9,-1.0786805344494874e-8,-7.772271840691227e-9,0.03762856913066229,0.30000036163044785,0.3000005656843119,0.24790591872097664,0.060583447826939425,1.3883798722284243e-7,-9.834876311800877e-9,0.028629320131780725,8.82263843468503e-8
2013-10-31,false,0.0,0.025251741879886894,-2.2652790315257223e-8,-7.528740428465268e-8,-1.7534150751559627e-8,-8.379470259078678e-9,-1.0786805344494874e-8,-7.772271840691227e-9,0.03762856913066229,0.30000036163044785,0.3000005656843119,0.24790591872097664,0.060583447826939425,1.3883798722284243e-7,-9.834876311800877e-9,0.028629320131780725,8.82263843468503e-8
2013-11-29,false,0.0,0.025251741879886894,-2.2652790315257223e-8,-7.528740428465268e-8,-1.7534150751559627e-8,-8.379470259078678e-9,-1.0786805344494874e-8,-7.772271840691227e-9,0.03762856913066229,0.30000036163044785,0.3000005656843119,0.24790591872097664,0.060583447826939425,1.3883798722284243e-7,-9.834876311800877e-9,0.028629320131780725,8.82263843468503e-8
2013-12-31,false,0.0,0.025251741879886894,-2.2652790315257223e-8,-7.528740428465268e-8,-1.7534150751559627e-8,-8.379470259078678e-9,-1.0786805344494874e-8,-7.772271840691227e-9,0.03762856913066229,0.30000036163044785,0.3000005656843119,0.24790591872097664,0.060583447826939425,1.3883798722284243e-7,-9.834876311800877e-9,0.028629320131780725,8.82263843468503e-8
2014-01-31,false,0.0,0.025251741879886894,-2.2652790315257223e-8,-7.528740428465268e-8,-1.7534150751559627e-8,-8.379470259078678e-9,-1.0786805344494874e-8,-7.772271840691227e-9,0.03762856913066229,0.30000036163044785,0.3000005656843119,0.24790591872097664,0.060583447826939425,1.3883798722284243e-7,-9.834876311800877e-9,0.028629320131780725,8.82263843468503e-8
2014-02-28,false,0.0,0.025251741879886894,-2.2652790315257223e-8,-7.528740428465268e-8,-1.7534150751559627e-8,-8.379470259078678e-9,-1.0786805344494874e-8,-7.772271840691227e-9,0.03762856913066229,0.30000036163044785,0.3000005656843119,0.24790591872097664,0.060583447826939425,1.3883798722284243e-7,-9.834876311800877e-9,0.028629320131780725,8.82263843468503e-8
2014-03-31,false,0.0,0.025251741879886894,-2.2652790315257223e-8,-7.528740428465268e-8,-1.7534150751559627e-8,-8.379470259078678e-9,-1.0786805344494874e-8,-7.772271840691227e-9,0.03762856913066229,0.30000036163044785,0.3000005656843119,0.24790591872097664,0.060583447826939425,1.3883798722284243e-7,-9.834876311800877e-9,0.028629320131780725,8.82263843468503e-8
2014-04-30,false,0.0,0.025251741879886894,-2.2652790315257223e-8,-7.528740428465268e-8,-1.7534150751559627e-8,-8.379470259078678e-9,-1.0786805344494874e-8,-7.772271840691227e-9,0.03762856913066229,0.30000036163044785,0.3000005656843119,0.24790591872097664,0.060583447826939425,1.3883798722284243e-7,-9.834876311800877e-9,0.028629320131780725,8.82263843468503e-8
2014-05-30,false,0.0,0.025251741879886894,-2.2652790315257223e-8,-7.528740428465268e-8,-1.7534150751559627e-8,-8.379470259078678e-9,-1.0786805344494874e-8,-7.772271840691227e-9,0.03762856913066229,0.30000036163044785,0.3000005656843119,0.24790591872097664,0.060583447826939425,1.3883798722284243e-7,-9.834876311800877e-9,0.028629320131780725,8.82263843468503e-8
2014-06-30,false,0.0,0.025251741879886894,-2.2652790315257223e-8,-7.528740428465268e-8,-1.7534150751559627e-8,-8.379470259078678e-9,-1.0786805344494874e-8,-7.772271840691227e-9,0.03762856913066229,0.30000036163044785,0.3000005656843119,0.24790591872097664,0.060583447826939425,1.3883798722284243e-7,-9.834876311800877e-9,0.028629320131780725,8.82263843468503e-8
2014-07-31,false,0.0,0.025251741879886894,-2.2652790315257223e-8,-7.528740428465268e-8,-1.7534150751559627e-8,-8.379470259078678e-9,-1.0786805344494874e-8,-7.772271840691227e-9,0.03762856913066229,0.30000036163044785,0.3000005656843119,0.24790591872097664,0.060583447826939425,1.3883798722284243e-7,-9.834876311800877e-9,0.028629320131780725,8.82263843468503e-8
2014-08-29,false,0.0,0.025251741879886894,-2.2652790315257223e-8,-7.528740428465268e-8,-1.7534150751559627e-8,-8.379470259078678e-9,-1.0786805344494874e-8,-7.772271840691227e-9,0.03762856913066229,0.30000036163044785,0.3000005656843119,0.24790591872097664,0.060583447826939425,1.3883798722284243e-7,-9.834876311800877e-9,0.028629320131780725,8.82263843468503e-8
2014-09-30,false,0.0,0.025251741879886894,-2.2652790315257223e-8,-7.528740428465268e-8,-1.7534150751559627e-8,-8.379470259078678e-9,-1.0786805344494874e-8,-7.772271840691227e-9,0.03762856913066229,0.30000036163044785,0.3000005656843119,0.24790591872097664,0.060583447826939425,1.3883798722284243e-7,-9.834876311800877e-9,0.028629320131780725,8.82263843468503e-8
2014-10-31,false,0.0,0.025251741879886894,-2.2652790315257223e-8,-7.528740428465268e-8,-1.7534150751559627e-8,-8.379470259078678e-9,-1.0786805344494874e-8,-7.772271840691227e-9,0.03762856913066229,0.30000036163044785,0.3000005656843119,0.24790591872097664,0.060583447826939425,1.3883798722284243e-7,-9.834876311800877e-9,0.028629320131780725,8.82263843468503e-8
2014-11-28,false,0.0,0.025251741879886894,-2.2652790315257223e-8,-7.528740428465268e-8,-1.7534150751559627e-8,-8.379470259078678e-9,-1.0786805344494874e-8,-7.772271840691227e-9,0.03762856913066229,0.30000036163044785,0.3000005656843119,0.24790591872097664,0.060583447826939425,1.3883798722284243e-7,-9.834876311800877e-9,0.028629320131780725,8.82263843468503e-8
2014-12-31,false,0.0,0.025251741879886894,-2.2652790315257223e-8,-7.528740428465268e-8,-1.7534150751559627e-8,-8.379470259078678e-9,-1.0786805344494874e-8,-7.772271840691227e-9,0.03762856913066229,0.30000036163044785,0.3000005656843119,0.24790591872097664,0.060583447826939425,1.3883798722284243e-7,-9.834876311800877e-9,0.028629320131780725,8.82263843468503e-8
2015-01-30,false,0.0,0.025251741879886894,-2.2652790315257223e-8,-7.528740428465268e-8,-1.7534150751559627e-8,-8.379470259078678e-9,-1.0786805344494874e-8,-7.772271840691227e-9,0.03762856913066229,0.30000036163044785,0.3000005656843119,0.24790591872097664,0.060583447826939425,1.3883798722284243e-7,-9.834876311800877e-9,0.028629320131780725,8.82263843468503e-8
2015-02-27,false,0.0,0.025251741879886894,-2.2652790315257223e-8,-7.528740428465268e-8,-1.7534150751559627e-8,-8.379470259078678e-9,-1.0786805344494874e-8,-7.772271840691227e-9,0.03762856913066229,0.30000036163044785,0.3000005656843119,0.24790591872097664,0.060583447826939425,1.3883798722284243e-7,-9.834876311800877e-9,0.028629320131780725,8.82263843468503e-8
2015-03-31,false,0.0,0.025251741879886894,-2.2652790315257223e-8,-7.528740428465268e-8,-1.7534150751559627e-8,-8.379470259078678e-9,-1.0786805344494874e-8,-7.772271840691227e-9,0.03762856913066229,0.30000036163044785,0.3000005656843119,0.24790591872097664,0.060583447826939425,1.3883798722284243e-7,-9.834876311800877e-9,0.028629320131780725,8.82263843468503e-8
2015-04-30,false,0.0,0.025251741879886894,-2.2652790315257223e-8,-7.528740428465268e-8,-1.7534150751559627e-8,-8.379470259078678e-9,-1.0786805344494874e-8,-7.772271840691227e-9,0.03762856913066229,0.30000036163044785,0.3000005656843119,0.24790591872097664,0.060583447826939425,1.3883798722284243e-7,-9.834876311800877e-9,0.028629320131780725,8.82263843468503e-8
2015-05-29,false,0.0,0.025251741879886894,-2.2652790315257223e-8,-7.528740428465268e-8,-1.7534150751559627e-8,-8.379470259078678e-9,-1.0786805344494874e-8,-7.772271840691227e-9,0.03762856913066229,0.30000036163044785,0.3000005656843119,0.24790591872097664,0.060583447826939425,1.3883798722284243e-7,-9.834876311800877e-9,0.028629320131780725,8.82263843468503e-8
2015-06-30,false,0.0,0.025251741879886894,-2.2652790315257223e-8,-7.528740428465268e-8,-1.7534150751559627e-8,-8.379470259078678e-9,-1.0786805344494874e-8,-7.772271840691227e-9,0.03762856913066229,0.30000036163044785,0.3000005656843119,0.24790591872097664,0.060583447826939425,1.3883798722284243e-7,-9.834876311800877e-9,0.028629320131780725,8.82263843468503e-8
2015-07-31,false,0.0,0.025251741879886894,-2.2652790315257223e-8,-7.528740428465268e-8,-1.7534150751559627e-8,-8.379470259078678e-9,-1.0786805344494874e-8,-7.772271840691227e-9,0.03762856913066229,0.30000036163044785,0.3000005656843119,0.24790591872097664,0.060583447826939425,1.3883798722284243e-7,-9.834876311800877e-9,0.028629320131780725,8.82263843468503e-8
2015-08-31,false,0.0,0.025251741879886894,-2.2652790315257223e-8,-7.528740428465268e-8,-1.7534150751559627e-8,-8.379470259078678e-9,-1.0786805344494874e-8,-7.772271840691227e-9,0.03762856913066229,0.30000036163044785,0.3000005656843119,0.24790591872097664,0.060583447826939425,1.3883798722284243e-7,-9.834876311800877e-9,0.028629320131780725,8.82263843468503e-8
2015-09-30,false,0.0,0.025251741879886894,-2.2652790315257223e-8,-7.528740428465268e-8,-1.7534150751559627e-8,-8.379470259078678e-9,-1.0786805344494874e-8,-7.772271840691227e-9,0.03762856913066229,0.30000036163044785,0.3000005656843119,0.24790591872097664,0.060583447826939425,1.3883798722284243e-7,-9.834876311800877e-9,0.028629320131780725,8.82263843468503e-8
2015-10-30,false,0.0,0.025251741879886894,-2.2652790315257223e-8,-7.528740428465268e-8,-1.7534150751559627e-8,-8.379470259078678e-9,-1.0786805344494874e-8,-7.772271840691227e-9,0.03762856913066229,0.30000036163044785,0.3000005656843119,0.24790591872097664,0.060583447826939425,1.3883798722284243e-7,-9.834876311800877e-9,0.028629320131780725,8.82263843468503e-8
2015-11-30,false,0.0,0.025251741879886894,-2.2652790315257223e-8,-7.528740428465268e-8,-1.7534150751559627e-8,-8.379470259078678e-9,-1.0786805344494874e-8,-7.772271840691227e-9,0.03762856913066229,0.30000036163044785,0.3000005656843119,0.24790591872097664,0.060583447826939425,1.3883798722284243e-7,-9.834876311800877e-9,0.028629320131780725,8.82263843468503e-8
2015-12-31,false,0.0,0.025251741879886894,-2.2652790315257223e-8,-7.528740428465268e-8,-1.7534150751559627e-8,-8.379470259078678e-9,-1.0786805344494874e-8,-7.772271840691227e-9,0.03762856913066229,0.30000036163044785,0.3000005656843119,0.24790591872097664,0.060583447826939425,1.3883798722284243e-7,-9.834876311800877e-9,0.028629320131780725,8.82263843468503e-8
2016-01-29,false,0.0,0.025251741879886894,-2.2652790315257223e-8,-7.528740428465268e-8,-1.7534150751559627e-8,-8.379470259078678e-9,-1.0786805344494874e-8,-7.772271840691227e-9,0.03762856913066229,0.30000036163044785,0.3000005656843119,0.24790591872097664,0.060583447826939425,1.3883798722284243e-7,-9.834876311800877e-9,0.028629320131780725,8.82263843468503e-8
2016-02-29,false,0.0,0.025251741879886894,-2.2652790315257223e-8,-7.528740428465268e-8,-1.7534150751559627e-8,-8.379470259078678e-9,-1.0786805344494874e-8,-7.772271840691227e-9,0.03762856913066229,0.30000036163044785,0.3000005656843119,0.24790591872097664,0.060583447826939425,1.3883798722284243e-7,-9.834876311800877e-9,0.028629320131780725,8.82263843468503e-8
2016-03-31,false,0.0,0.025251741879886894,-2.2652790315257223e-8,-7.528740428465268e-8,-1.7534150751559627e-8,-8.379470259078678e-9,-1.0786805344494874e-8,-7.772271840691227e-9,0.03762856913066229,0.30000036163044785,0.3000005656843119,0.24790591872097664,0.060583447826939425,1.3883798722284243e-7,-9.834876311800877e-9,0.028629320131780725,8.82263843468503e-8
2016-04-29,false,0.0,0.025251741879886894,-2.2652790315257223e-8,-7.528740428465268e-8,-1.7534150751559627e-8,-8.379470259078678e-9,-1.0786805344494874e-8,-7.772271840691227e-9,0.03762856913066229,0.30000036163044785,0.3000005656843119,0.24790591872097664,0.060583447826939425,1.3883798722284243e-7,-9.834876311800877e-9,0.028629320131780725,8.82263843468503e-8
2016-05-31,false,0.0,0.025251741879886894,-2.2652790315257223e-8,-7.528740428465268e-8,-1.7534150751559627e-8,-8.379470259078678e-9,-1.0786805344494874e-8,-7.772271840691227e-9,0.03762856913066229,0.30000036163044785,0.3000005656843119,0.24790591872097664,0.060583447826939425,1.3883798722284243e-7,-9.834876311800877e-9,0.028629320131780725,8.82263843468503e-8
2016-06-30,false,0.0,0.025251741879886894,-2.2652790315257223e-8,-7.528740428465268e-8,-1.7534150751559627e-8,-8.379470259078678e-9,-1.0786805344494874e-8,-7.772271840691227e-9,0.03762856913066229,0.30000036163044785,0.3000005656843119,0.24790591872097664,0.060583447826939425,1.3883798722284243e-7,-9.834876311800877e-9,0.028629320131780725,8.82263843468503e-8
2016-07-29,false,0.0,0.025251741879886894,-2.2652790315257223e-8,-7.528740428465268e-8,-1.7534150751559627e-8,-8.379470259078678e-9,-1.0786805344494874e-8,-7.772271840691227e-9,0.03762856913066229,0.30000036163044785,0.3000005656843119,0.24790591872097664,0.060583447826939425,1.3883798722284243e-7,-9.834876311800877e-9,0.028629320131780725,8.82263843468503e-8
2016-08-31,false,0.0,0.025251741879886894,-2.2652790315257223e-8,-7.528740428465268e-8,-1.7534150751559627e-8,-8.379470259078678e-9,-1.0786805344494874e-8,-7.772271840691227e-9,0.03762856913066229,0.30000036163044785,0.3000005656843119,0.24790591872097664,0.060583447826939425,1.3883798722284243e-7,-9.834876311800877e-9,0.028629320131780725,8.82263843468503e-8
2016-09-30,false,0.0,0.025251741879886894,-2.2652790315257223e-8,-7.528740428465268e-8,-1.7534150751559627e-8,-8.379470259078678e-9,-1.0786805344494874e-8,-7.772271840691227e-9,0.03762856913066229,0.30000036163044785,0.3000005656843119,0.24790591872097664,0.060583447826939425,1.3883798722284243e-7,-9.834876311800877e-9,0.028629320131780725,8.82263843468503e-8
2016-10-31,false,0.0,0.025251741879886894,-2.2652790315257223e-8,-7.528740428465268e-8,-1.7534150751559627e-8,-8.379470259078678e-9,-1.0786805344494874e-8,-7.772271840691227e-9,0.03762856913066229,0.30000036163044785,0.3000005656843119,0.24790591872097664,0.060583447826939425,1.3883798722284243e-7,-9.834876311800877e-9,0.028629320131780725,8.82263843468503e-8
2016-11-30,false,0.0,0.025251741879886894,-2.2652790315257223e-8,-7.528740428465268e-8,-1.7534150751559627e-8,-8.379470259078678e-9,-1.0786805344494874e-8,-7.772271840691227e-9,0.03762856913066229,0.30000036163044785,0.3000005656843119,0.24790591872097664,0.060583447826939425,1.3883798722284243e-7,-9.834876311800877e-9,0.028629320131780725,8.82263843468503e-8
2016-12-30,false,0.0,0.025251741879886894,-2.2652790315257223e-8,-7.528740428465268e-8,-1.7534150751559627e-8,-8.379470259078678e-9,-1.0786805344494874e-8,-7.772271840691227e-9,0.03762856913066229,0.30000036163044785,0.3000005656843119,0.24790591872097664,0.060583447826939425,1.3883798722284243e-7,-9.834876311800877e-9,0.028629320131780725,8.82263843468503e-8
2017-01-31,false,0.0,0.025251741879886894,-2.2652790315257223e-8,-7.528740428465268e-8,-1.7534150751559627e-8,-8.379470259078678e-9,-1.0786805344494874e-8,-7.772271840691227e-9,0.03762856913066229,0.30000036163044785,0.3000005656843119,0.24790591872097664,0.060583447826939425,1.3883798722284243e-7,-9.834876311800877e-9,0.028629320131780725,8.82263843468503e-8
2017-02-28,false,0.0,0.025251741879886894,-2.2652790315257223e-8,-7.528740428465268e-8,-1.7534150751559627e-8,-8.379470259078678e-9,-1.0786805344494874e-8,-7.772271840691227e-9,0.03762856913066229,0.30000036163044785,0.3000005656843119,0.24790591872097664,0.060583447826939425,1.3883798722284243e-7,-9.834876311800877e-9,0.028629320131780725,8.82263843468503e-8
2017-03-31,false,0.0,0.025251741879886894,-2.2652790315257223e-8,-7.528740428465268e-8,-1.7534150751559627e-8,-8.379470259078678e-9,-1.0786805344494874e-8,-7.772271840691227e-9,0.03762856913066229,0.30000036163044785,0.3000005656843119,0.24790591872097664,0.060583447826939425,1.3883798722284243e-7,-9.834876311800877e-9,0.028629320131780725,8.82263843468503e-8
2017-04-28,false,0.0,0.025251741879886894,-2.2652790315257223e-8,-7.528740428465268e-8,-1.7534150751559627e-8,-8.379470259078678e-9,-1.0786805344494874e-8,-7.772271840691227e-9,0.03762856913066229,0.30000036163044785,0.3000005656843119,0.24790591872097664,0.060583447826939425,1.3883798722284243e-7,-9.834876311800877e-9,0.028629320131780725,8.82263843468503e-8
2017-05-31,false,0.0,0.025251741879886894,-2.2652790315257223e-8,-7.528740428465268e-8,-1.7534150751559627e-8,-8.379470259078678e-9,-1.0786805344494874e-8,-7.772271840691227e-9,0.03762856913066229,0.30000036163044785,0.3000005656843119,0.24790591872097664,0.060583447826939425,1.3883798722284243e-7,-9.834876311800877e-9,0.028629320131780725,8.82263843468503e-8
2017-06-30,false,0.0,0.025251741879886894,-2.2652790315257223e-8,-7.528740428465268e-8,-1.7534150751559627e-8,-8.379470259078678e-9,-1.0786805344494874e-8,-7.772271840691227e-9,0.03762856913066229,0.30000036163044785,0.3000005656843119,0.24790591872097664,0.060583447826939425,1.3883798722284243e-7,-9.834876311800877e-9,0.028629320131780725,8.82263843468503e-8
2017-07-31,false,0.0,0.025251741879886894,-2.2652790315257223e-8,-7.528740428465268e-8,-1.7534150751559627e-8,-8.379470259078678e-9,-1.0786805344494874e-8,-7.772271840691227e-9,0.03762856913066229,0.30000036163044785,0.3000005656843119,0.24790591872097664,0.060583447826939425,1.3883798722284243e-7,-9.834876311800877e-9,0.028629320131780725,8.82263843468503e-8
2017-08-31,false,0.0,0.025251741879886894,-2.2652790315257223e-8,-7.528740428465268e-8,-1.7534150751559627e-8,-8.379470259078678e-9,-1.0786805344494874e-8,-7.772271840691227e-9,0.03762856913066229,0.30000036163044785,0.3000005656843119,0.24790591872097664,0.060583447826939425,1.3883798722284243e-7,-9.834876311800877e-9,0.028629320131780725,8.82263843468503e-8
2017-09-29,false,0.0,0.025251741879886894,-2.2652790315257223e-8,-7.528740428465268e-8,-1.7534150751559627e-8,-8.379470259078678e-9,-1.0786805344494874e-8,-7.772271840691227e-9,0.03762856913066229,0.30000036163044785,0.3000005656843119,0.24790591872097664,0.060583447826939425,1.3883798722284243e-7,-9.834876311800877e-9,0.028629320131780725,8.82263843468503e-8
2017-10-31,false,0.0,0.025251741879886894,-2.2652790315257223e-8,-7.528740428465268e-8,-1.7534150751559627e-8,-8.379470259078678e-9,-1.0786805344494874e-8,-7.772271840691227e-9,0.03762856913066229,0.30000036163044785,0.3000005656843119,0.24790591872097664,0.060583447826939425,1.3883798722284243e-7,-9.834876311800877e-9,0.028629320131780725,8.82263843468503e-8
2017-11-30,false,0.0,0.025251741879886894,-2.2652790315257223e-8,-7.528740428465268e-8,-1.7534150751559627e-8,-8.379470259078678e-9,-1.0786805344494874e-8,-7.772271840691227e-9,0.03762856913066229,0.30000036163044785,0.3000005656843119,0.24790591872097664,0.060583447826939425,1.3883798722284243e-7,-9.834876311800877e-9,0.028629320131780725,8.82263843468503e-8
2017-12-29,false,0.0,0.025251741879886894,-2.2652790315257223e-8,-7.528740428465268e-8,-1.7534150751559627e-8,-8.379470259078678e-9,-1.0786805344494874e-8,-7.772271840691227e-9,0.03762856913066229,0.30000036163044785,0.3000005656843119,0.24790591872097664,0.060583447826939425,1.3883798722284243e-7,-9.834876311800877e-9,0.028629320131780725,8.82263843468503e-8
2018-01-31,false,0.0,0.025251741879886894,-2.2652790315257223e-8,-7.528740428465268e-8,-1.7534150751559627e-8,-8.379470259078678e-9,-1.0786805344494874e-8,-7.772271840691227e-9,0.03762856913066229,0.30000036163044785,0.3000005656843119,0.24790591872097664,0.060583447826939425,1.3883798722284243e-7,-9.834876311800877e-9,0.028629320131780725,8.82263843468503e-8
2018-02-28,false,0.0,0.025251741879886894,-2.2652790315257223e-8,-7.528740428465268e-8,-1.7534150751559627e-8,-8.379470259078678e-9,-1.0786805344494874e-8,-7.772271840691227e-9,0.03762856913066229,0.30000036163044785,0.3000005656843119,0.24790591872097664,0.060583447826939425,1.3883798722284243e-7,-9.834876311800877e-9,0.028629320131780725,8.82263843468503e-8
2018-03-29,false,0.0,0.025251741879886894,-2.2652790315257223e-8,-7.528740428465268e-8,-1.7534150751559627e-8,-8.379470259078678e-9,-1.0786805344494874e-8,-7.772271840691227e-9,0.03762856913066229,0.30000036163044785,0.3000005656843119,0.24790591872097664,0.060583447826939425,1.3883798722284243e-7,-9.834876311800877e-9,0.028629320131780725,8.82263843468503e-8
2018-04-30,false,0.0,0.025251741879886894,-2.2652790315257223e-8,-7.528740428465268e-8,-1.7534150751559627e-8,-8.379470259078678e-9,-1.0786805344494874e-8,-7.772271840691227e-9,0.03762856913066229,0.30000036163044785,0.3000005656843119,0.24790591872097664,0.060583447826939425,1.3883798722284243e-7,-9.834876311800877e-9,0.028629320131780725,8.82263843468503e-8
2018-05-31,false,0.0,0.025251741879886894,-2.2652790315257223e-8,-7.528740428465268e-8,-1.7534150751559627e-8,-8.379470259078678e-9,-1.0786805344494874e-8,-7.772271840691227e-9,0.03762856913066229,0.30000036163044785,0.3000005656843119,0.24790591872097664,0.060583447826939425,1.3883798722284243e-7,-9.834876311800877e-9,0.028629320131780725,8.82263843468503e-8
2018-06-29,false,0.0,0.025251741879886894,-2.2652790315257223e-8,-7.528740428465268e-8,-1.7534150751559627e-8,-8.379470259078678e-9,-1.0786805344494874e-8,-7.772271840691227e-9,0.03762856913066229,0.30000036163044785,0.3000005656843119,0.24790591872097664,0.060583447826939425,1.3883798722284243e-7,-9.834876311800877e-9,0.028629320131780725,8.82263843468503e-8
2018-07-31,false,0.0,0.025251741879886894,-2.2652790315257223e-8,-7.528740428465268e-8,-1.7534150751559627e-8,-8.379470259078678e-9,-1.0786805344494874e-8,-7.772271840691227e-9,0.03762856913066229,0.30000036163044785,0.3000005656843119,0.24790591872097664,0.060583447826939425,1.3883798722284243e-7,-9.834876311800877e-9,0.028629320131780725,8.82263843468503e-8
2018-08-31,false,0.0,0.025251741879886894,-2.2652790315257223e-8,-7.528740428465268e-8,-1.7534150751559627e-8,-8.379470259078678e-9,-1.0786805344494874e-8,-7.772271840691227e-9,0.03762856913066229,0.30000036163044785,0.3000005656843119,0.24790591872097664,0.060583447826939425,1.3883798722284243e-7,-9.834876311800877e-9,0.028629320131780725,8.82263843468503e-8
2018-09-28,false,0.0,0.025251741879886894,-2.2652790315257223e-8,-7.528740428465268e-8,-1.7534150751559627e-8,-8.379470259078678e-9,-1.0786805344494874e-8,-7.772271840691227e-9,0.03762856913066229,0.30000036163044785,0.3000005656843119,0.24790591872097664,0.060583447826939425,1.3883798722284243e-7,-9.834876311800877e-9,0.028629320131780725,8.82263843468503e-8
2018-10-31,false,0.0,0.025251741879886894,-2.2652790315257223e-8,-7.528740428465268e-8,-1.7534150751559627e-8,-8.379470259078678e-9,-1.0786805344494874e-8,-7.772271840691227e-9,0.03762856913066229,0.30000036163044785,0.3000005656843119,0.24790591872097664,0.060583447826939425,1.3883798722284243e-7,-9.834876311800877e-9,0.028629320131780725,8.82263843468503e-8
2018-11-30,false,0.0,0.025251741879886894,-2.2652790315257223e-8,-7.528740428465268e-8,-1.7534150751559627e-8,-8.379470259078678e-9,-1.0786805344494874e-8,-7.772271840691227e-9,0.03762856913066229,0.30000036163044785,0.3000005656843119,0.24790591872097664,0.060583447826939425,1.3883798722284243e-7,-9.834876311800877e-9,0.028629320131780725,8.82263843468503e-8
2018-12-31,false,0.0,0.025251741879886894,-2.2652790315257223e-8,-7.528740428465268e-8,-1.7534150751559627e-8,-8.379470259078678e-9,-1.0786805344494874e-8,-7.772271840691227e-9,0.03762856913066229,0.30000036163044785,0.3000005656843119,0.24790591872097664,0.060583447826939425,1.3883798722284243e-7,-9.834876311800877e-9,0.028629320131780725,8.82263843468503e-8
2019-01-31,false,0.0,0.025251741879886894,-2.2652790315257223e-8,-7.528740428465268e-8,-1.7534150751559627e-8,-8.379470259078678e-9,-1.0786805344494874e-8,-7.772271840691227e-9,0.03762856913066229,0.30000036163044785,0.3000005656843119,0.24790591872097664,0.060583447826939425,1.3883798722284243e-7,-9.834876311800877e-9,0.028629320131780725,8.82263843468503e-8
2019-02-28,false,0.0,0.025251741879886894,-2.2652790315257223e-8,-7.528740428465268e-8,-1.7534150751559627e-8,-8.379470259078678e-9,-1.0786805344494874e-8,-7.772271840691227e-9,0.03762856913066229,0.30000036163044785,0.3000005656843119,0.24790591872097664,0.060583447826939425,1.3883798722284243e-7,-9.834876311800877e-9,0.028629320131780725,8.82263843468503e-8
2019-03-29,false,0.0,0.025251741879886894,-2.2652790315257223e-8,-7.528740428465268e-8,-1.7534150751559627e-8,-8.379470259078678e-9,-1.0786805344494874e-8,-7.772271840691227e-9,0.03762856913066229,0.30000036163044785,0.3000005656843119,0.24790591872097664,0.060583447826939425,1.3883798722284243e-7,-9.834876311800877e-9,0.028629320131780725,8.82263843468503e-8
2019-04-30,false,0.0,0.025251741879886894,-2.2652790315257223e-8,-7.528740428465268e-8,-1.7534150751559627e-8,-8.379470259078678e-9,-1.0786805344494874e-8,-7.772271840691227e-9,0.03762856913066229,0.30000036163044785,0.3000005656843119,0.24790591872097664,0.060583447826939425,1.3883798722284243e-7,-9.834876311800877e-9,0.028629320131780725,8.82263843468503e-8
2019-05-31,false,0.0,0.025251741879886894,-2.2652790315257223e-8,-7.528740428465268e-8,-1.7534150751559627e-8,-8.379470259078678e-9,-1.0786805344494874e-8,-7.772271840691227e-9,0.03762856913066229,0.30000036163044785,0.3000005656843119,0.24790591872097664,0.060583447826939425,1.3883798722284243e-7,-9.834876311800877e-9,0.028629320131780725,8.82263843468503e-8
2019-06-28,false,0.0,0.025251741879886894,-2.2652790315257223e-8,-7.528740428465268e-8,-1.7534150751559627e-8,-8.379470259078678e-9,-1.0786805344494874e-8,-7.772271840691227e-9,0.03762856913066229,0.30000036163044785,0.3000005656843119,0.24790591872097664,0.060583447826939425,1.3883798722284243e-7,-9.834876311800877e-9,0.028629320131780725,8.82263843468503e-8
2019-07-31,false,0.0,0.025251741879886894,-2.2652790315257223e-8,-7.528740428465268e-8,-1.7534150751559627e-8,-8.379470259078678e-9,-1.0786805344494874e-8,-7.772271840691227e-9,0.03762856913066229,0.30000036163044785,0.3000005656843119,0.24790591872097664,0.060583447826939425,1.3883798722284243e-7,-9.834876311800877e-9,0.028629320131780725,8.82263843468503e-8
2019-08-30,false,0.0,0.025251741879886894,-2.2652790315257223e-8,-7.528740428465268e-8,-1.7534150751559627e-8,-8.379470259078678e-9,-1.0786805344494874e-8,-7.772271840691227e-9,0.03762856913066229,0.30000036163044785,0.3000005656843119,0.24790591872097664,0.060583447826939425,1.3883798722284243e-7,-9.834876311800877e-9,0.028629320131780725,8.82263843468503e-8
2019-09-30,false,0.0,0.025251741879886894,-2.2652790315257223e-8,-7.528740428465268e-8,-1.7534150751559627e-8,-8.379470259078678e-9,-1.0786805344494874e-8,-7.772271840691227e-9,0.03762856913066229,0.30000036163044785,0.3000005656843119,0.24790591872097664,0.060583447826939425,1.3883798722284243e-7,-9.834876311800877e-9,0.028629320131780725,8.82263843468503e-8
2019-10-31,false,0.0,0.025251741879886894,-2.2652790315257223e-8,-7.528740428465268e-8,-1.7534150751559627e-8,-8.379470259078678e-9,-1.0786805344494874e-8,-7.772271840691227e-9,0.03762856913066229,0.30000036163044785,0.3000005656843119,0.24790591872097664,0.060583447826939425,1.3883798722284243e-7,-9.834876311800877e-9,0.028629320131780725,8.82263843468503e-8
2019-11-29,false,0.0,0.025251741879886894,-2.2652790315257223e-8,-7.528740428465268e-8,-1.7534150751559627e-8,-8.379470259078678e-9,-1.0786805344494874e-8,-7.772271840691227e-9,0.03762856913066229,0.30000036163044785,0.3000005656843119,0.24790591872097664,0.060583447826939425,1.3883798722284243e-7,-9.834876311800877e-9,0.028629320131780725,8.82263843468503e-8
2019-12-31,false,0.0,0.025251741879886894,-2.2652790315257223e-8,-7.528740428465268e-8,-1.7534150751559627e-8,-8.379470259078678e-9,-1.0786805344494874e-8,-7.772271840691227e-9,0.03762856913066229,0.30000036163044785,0.3000005656843119,0.24790591872097664,0.060583447826939425,1.3883798722284243e-7,-9.834876311800877e-9,0.028629320131780725,8.82263843468503e-8
2020-01-31,false,0.0,0.025251741879886894,-2.2652790315257223e-8,-7.528740428465268e-8,-1.7534150751559627e-8,-8.379470259078678e-9,-1.0786805344494874e-8,-7.772271840691227e-9,0.03762856913066229,0.30000036163044785,0.3000005656843119,0.24790591872097664,0.060583447826939425,1.3883798722284243e-7,-9.834876311800877e-9,0.028629320131780725,8.82263843468503e-8
2020-02-28,false,0.0,0.025251741879886894,-2.2652790315257223e-8,-7.528740428465268e-8,-1.7534150751559627e-8,-8.379470259078678e-9,-1.0786805344494874e-8,-7.772271840691227e-9,0.03762856913066229,0.30000036163044785,0.3000005656843119,0.24790591872097664,0.060583447826939425,1.3883798722284243e-7,-9.834876311800877e-9,0.028629320131780725,8.82263843468503e-8
2020-03-31,true,0.4766424240706903,0.013094345564279025,-3.0027932289333755e-7,-3.2045103887712125e-7,-3.081755867286782e-7,-2.4375629747966165e-7,-2.5644376743097634e-7,-2.4593715966507424e-7,0.10929352821893545,0.299999832026973,0.07383947865904583,0.29999973050736994,0.10833821106106085,-1.6263713398852618e-8,-2.6160795041423395e-7,0.09543699824315982,-1.7117473525353312e-7
2020-04-30,false,0.0,0.013094345564279025,-3.0027932289333755e-7,-3.2045103887712125e-7,-3.081755867286782e-7,-2.4375629747966165e-7,-2.5644376743097634e-7,-2.4593715966507424e-7,0.10929352821893545,0.299999832026973,0.07383947865904583,0.29999973050736994,0.10833821106106085,-1.6263713398852618e-8,-2.6160795041423395e-7,0.09543699824315982,-1.7117473525353312e-7
2020-05-29,false,0.0,0.013094345564279025,-3.0027932289333755e-7,-3.2045103887712125e-7,-3.081755867286782e-7,-2.4375629747966165e-7,-2.5644376743097634e-7,-2.4593715966507424e-7,0.10929352821893545,0.299999832026973,0.07383947865904583,0.29999973050736994,0.10833821106106085,-1.6263713398852618e-8,-2.6160795041423395e-7,0.09543699824315982,-1.7117473525353312e-7
2020-06-30,false,0.0,0.013094345564279025,-3.0027932289333755e-7,-3.2045103887712125e-7,-3.081755867286782e-7,-2.4375629747966165e-7,-2.5644376743097634e-7,-2.4593715966507424e-7,0.10929352821893545,0.299999832026973,0.07383947865904583,0.29999973050736994,0.10833821106106085,-1.6263713398852618e-8,-2.6160795041423395e-7,0.09543699824315982,-1.7117473525353312e-7
2020-07-31,false,0.0,0.013094345564279025,-3.0027932289333755e-7,-3.2045103887712125e-7,-3.081755867286782e-7,-2.4375629747966165e-7,-2.5644376743097634e-7,-2.4593715966507424e-7,0.10929352821893545,0.299999832026973,0.07383947865904583,0.29999973050736994,0.10833821106106085,-1.6263713398852618e-8,-2.6160795041423395e-7,0.09543699824315982,-1.7117473525353312e-7
2020-08-31,false,0.0,0.013094345564279025,-3.0027932289333755e-7,-3.2045103887712125e-7,-3.081755867286782e-7,-2.4375629747966165e-7,-2.5644376743097634e-7,-2.4593715966507424e-7,0.10929352821893545,0.299999832026973,0.07383947865904583,0.29999973050736994,0.10833821106106085,-1.6263713398852618e-8,-2.6160795041423395e-7,0.09543699824315982,-1.7117473525353312e-7
2020-09-30,false,0.0,0.013094345564279025,-3.0027932289333755e-7,-3.2045103887712125e-7,-3.081755867286782e-7,-2.4375629747966165e-7,-2.5644376743097634e-7,-2.4593715966507424e-7,0.10929352821893545,0.299999832026973,0.07383947865904583,0.29999973050736994,0.10833821106106085,-1.6263713398852618e-8,-2.6160795041423395e-7,0.09543699824315982,-1.7117473525353312e-7
2020-10-30,false,0.0,0.013094345564279025,-3.0027932289333755e-7,-3.2045103887712125e-7,-3.081755867286782e-7,-2.4375629747966165e-7,-2.5644376743097634e-7,-2.4593715966507424e-7,0.10929352821893545,0.299999832026973,0.07383947865904583,0.29999973050736994,0.10833821106106085,-1.6263713398852618e-8,-2.6160795041423395e-7,0.09543699824315982,-1.7117473525353312e-7
2020-11-30,false,0.0,0.013094345564279025,-3.0027932289333755e-7,-3.2045103887712125e-7,-3.081755867286782e-7,-2.4375629747966165e-7,-2.5644376743097634e-7,-2.4593715966507424e-7,0.10929352821893545,0.299999832026973,0.07383947865904583,0.29999973050736994,0.10833821106106085,-1.6263713398852618e-8,-2.6160795041423395e-7,0.09543699824315982,-1.7117473525353312e-7
2020-12-31,false,0.0,0.013094345564279025,-3.0027932289333755e-7,-3.2045103887712125e-7,-3.081755867286782e-7,-2.4375629747966165e-7,-2.5644376743097634e-7,-2.4593715966507424e-7,0.10929352821893545,0.299999832026973,0.07383947865904583,0.29999973050736994,0.10833821106106085,-1.6263713398852618e-8,-2.6160795041423395e-7,0.09543699824315982,-1.7117473525353312e-7
2021-01-29,false,0.0,0.013094345564279025,-3.0027932289333755e-7,-3.2045103887712125e-7,-3.081755867286782e-7,-2.4375629747966165e-7,-2.5644376743097634e-7,-2.4593715966507424e-7,0.10929352821893545,0.299999832026973,0.07383947865904583,0.29999973050736994,0.10833821106106085,-1.6263713398852618e-8,-2.6160795041423395e-7,0.09543699824315982,-1.7117473525353312e-7
2021-02-26,false,0.0,0.013094345564279025,-3.0027932289333755e-7,-3.2045103887712125e-7,-3.081755867286782e-7,-2.4375629747966165e-7,-2.5644376743097634e-7,-2.4593715966507424e-7,0.10929352821893545,0.299999832026973,0.07383947865904583,0.29999973050736994,0.10833821106106085,-1.6263713398852618e-8,-2.6160795041423395e-7,0.09543699824315982,-1.7117473525353312e-7
2021-03-31,false,0.0,0.013094345564279025,-3.0027932289333755e-7,-3.2045103887712125e-7,-3.081755867286782e-7,-2.4375629747966165e-7,-2.5644376743097634e-7,-2.4593715966507424e-7,0.10929352821893545,0.299999832026973,0.07383947865904583,0.29999973050736994,0.10833821106106085,-1.6263713398852618e-8,-2.6160795041423395e-7,0.09543699824315982,-1.7117473525353312e-7
2021-04-30,false,0.0,0.013094345564279025,-3.0027932289333755e-7,-3.2045103887712125e-7,-3.081755867286782e-7,-2.4375629747966165e-7,-2.5644376743097634e-7,-2.4593715966507424e-7,0.10929352821893545,0.299999832026973,0.07383947865904583,0.29999973050736994,0.10833821106106085,-1.6263713398852618e-8,-2.6160795041423395e-7,0.09543699824315982,-1.7117473525353312e-7
2021-05-28,false,0.0,0.013094345564279025,-3.0027932289333755e-7,-3.2045103887712125e-7,-3.081755867286782e-7,-2.4375629747966165e-7,-2.5644376743097634e-7,-2.4593715966507424e-7,0.10929352821893545,0.299999832026973,0.07383947865904583,0.29999973050736994,0.10833821106106085,-1.6263713398852618e-8,-2.6160795041423395e-7,0.09543699824315982,-1.7117473525353312e-7
2021-06-30,false,0.0,0.013094345564279025,-3.0027932289333755e-7,-3.2045103887712125e-7,-3.081755867286782e-7,-2.4375629747966165e-7,-2.5644376743097634e-7,-2.4593715966507424e-7,0.10929352821893545,0.299999832026973,0.07383947865904583,0.29999973050736994,0.10833821106106085,-1.6263713398852618e-8,-2.6160795041423395e-7,0.09543699824315982,-1.7117473525353312e-7
2021-07-30,false,0.0,0.013094345564279025,-3.0027932289333755e-7,-3.2045103887712125e-7,-3.081755867286782e-7,-2.4375629747966165e-7,-2.5644376743097634e-7,-2.4593715966507424e-7,0.10929352821893545,0.299999832026973,0.07383947865904583,0.29999973050736994,0.10833821106106085,-1.6263713398852618e-8,-2.6160795041423395e-7,0.09543699824315982,-1.7117473525353312e-7
2021-08-31,false,0.0,0.013094345564279025,-3.0027932289333755e-7,-3.2045103887712125e-7,-3.081755867286782e-7,-2.4375629747966165e-7,-2.5644376743097634e-7,-2.4593715966507424e-7,0.10929352821893545,0.299999832026973,0.07383947865904583,0.29999973050736994,0.10833821106106085,-1.6263713398852618e-8,-2.6160795041423395e-7,0.09543699824315982,-1.7117473525353312e-7
2021-09-30,false,0.0,0.013094345564279025,-3.0027932289333755e-7,-3.2045103887712125e-7,-3.081755867286782e-7,-2.4375629747966165e-7,-2.5644376743097634e-7,-2.4593715966507424e-7,0.10929352821893545,0.299999832026973,0.07383947865904583,0.29999973050736994,0.10833821106106085,-1.6263713398852618e-8,-2.6160795041423395e-7,0.09543699824315982,-1.7117473525353312e-7
2021-10-29,false,0.0,0.013094345564279025,-3.0027932289333755e-7,-3.2045103887712125e-7,-3.081755867286782e-7,-2.4375629747966165e-7,-2.5644376743097634e-7,-2.4593715966507424e-7,0.10929352821893545,0.299999832026973,0.07383947865904583,0.29999973050736994,0.10833821106106085,-1.6263713398852618e-8,-2.6160795041423395e-7,0.09543699824315982,-1.7117473525353312e-7
2021-11-30,false,0.0,0.013094345564279025,-3.0027932289333755e-7,-3.2045103887712125e-7,-3.081755867286782e-7,-2.4375629747966165e-7,-2.5644376743097634e-7,-2.4593715966507424e-7,0.10929352821893545,0.299999832026973,0.07383947865904583,0.29999973050736994,0.10833821106106085,-1.6263713398852618e-8,-2.6160795041423395e-7,0.09543699824315982,-1.7117473525353312e-7
2021-12-31,false,0.0,0.013094345564279025,-3.0027932289333755e-7,-3.2045103887712125e-7,-3.081755867286782e-7,-2.4375629747966165e-7,-2.5644376743097634e-7,-2.4593715966507424e-7,0.10929352821893545,0.299999832026973,0.07383947865904583,0.29999973050736994,0.10833821106106085,-1.6263713398852618e-8,-2.6160795041423395e-7,0.09543699824315982,-1.7117473525353312e-7
2022-01-31,false,0.0,0.013094345564279025,-3.0027932289333755e-7,-3.2045103887712125e-7,-3.081755867286782e-7,-2.4375629747966165e-7,-2.5644376743097634e-7,-2.4593715966507424e-7,0.10929352821893545,0.299999832026973,0.07383947865904583,0.29999973050736994,0.10833821106106085,-1.6263713398852618e-8,-2.6160795041423395e-7,0.09543699824315982,-1.7117473525353312e-7
2022-02-28,false,0.0,0.013094345564279025,-3.0027932289333755e-7,-3.2045103887712125e-7,-3.081755867286782e-7,-2.4375629747966165e-7,-2.5644376743097634e-7,-2.4593715966507424e-7,0.10929352821893545,0.299999832026973,0.07383947865904583,0.29999973050736994,0.10833821106106085,-1.6263713398852618e-8,-2.6160795041423395e-7,0.09543699824315982,-1.7117473525353312e-7
2022-03-31,false,0.0,0.013094345564279025,-3.0027932289333755e-7,-3.2045103887712125e-7,-3.081755867286782e-7,-2.4375629747966165e-7,-2.5644376743097634e-7,-2.4593715966507424e-7,0.10929352821893545,0.299999832026973,0.07383947865904583,0.29999973050736994,0.10833821106106085,-1.6263713398852618e-8,-2.6160795041423395e-7,0.09543699824315982,-1.7117473525353312e-7
2022-04-29,false,0.0,0.013094345564279025,-3.0027932289333755e-7,-3.2045103887712125e-7,-3.081755867286782e-7,-2.4375629747966165e-7,-2.5644376743097634e-7,-2.4593715966507424e-7,0.10929352821893545,0.299999832026973,0.07383947865904583,0.29999973050736994,0.10833821106106085,-1.6263713398852618e-8,-2.6160795041423395e-7,0.09543699824315982,-1.7117473525353312e-7
2022-05-31,false,0.0,0.013094345564279025,-3.0027932289333755e-7,-3.2045103887712125e-7,-3.081755867286782e-7,-2.4375629747966165e-7,-2.5644376743097634e-7,-2.4593715966507424e-7,0.10929352821893545,0.299999832026973,0.07383947865904583,0.29999973050736994,0.10833821106106085,-1.6263713398852618e-8,-2.6160795041423395e-7,0.09543699824315982,-1.7117473525353312e-7
2022-06-30,false,0.0,0.013094345564279025,-3.0027932289333755e-7,-3.2045103887712125e-7,-3.081755867286782e-7,-2.4375629747966165e-7,-2.5644376743097634e-7,-2.4593715966507424e-7,0.10929352821893545,0.299999832026973,0.07383947865904583,0.29999973050736994,0.10833821106106085,-1.6263713398852618e-8,-2.6160795041423395e-7,0.09543699824315982,-1.7117473525353312e-7
2022-07-29,false,0.0,0.013094345564279025,-3.0027932289333755e-7,-3.2045103887712125e-7,-3.081755867286782e-7,-2.4375629747966165e-7,-2.5644376743097634e-7,-2.4593715966507424e-7,0.10929352821893545,0.299999832026973,0.07383947865904583,0.29999973050736994,0.10833821106106085,-1.6263713398852618e-8,-2.6160795041423395e-7,0.09543699824315982,-1.7117473525353312e-7
2022-08-31,false,0.0,0.013094345564279025,-3.0027932289333755e-7,-3.2045103887712125e-7,-3.081755867286782e-7,-2.4375629747966165e-7,-2.5644376743097634e-7,-2.4593715966507424e-7,0.10929352821893545,0.299999832026973,0.07383947865904583,0.29999973050736994,0.10833821106106085,-1.6263713398852618e-8,-2.6160795041423395e-7,0.09543699824315982,-1.7117473525353312e-7
2022-09-30,false,0.0,0.013094345564279025,-3.0027932289333755e-7,-3.2045103887712125e-7,-3.081755867286782e-7,-2.4375629747966165e-7,-2.5644376743097634e-7,-2.4593715966507424e-7,0.10929352821893545,0.299999832026973,0.07383947865904583,0.29999973050736994,0.10833821106106085,-1.6263713398852618e-8,-2.6160795041423395e-7,0.09543699824315982,-1.7117473525353312e-7
2022-10-31,false,0.0,0.013094345564279025,-3.0027932289333755e-7,-3.2045103887712125e-7,-3.081755867286782e-7,-2.4375629747966165e-7,-2.5644376743097634e-7,-2.4593715966507424e-7,0.10929352821893545,0.299999832026973,0.07383947865904583,0.29999973050736994,0.10833821106106085,-1.6263713398852618e-8,-2.6160795041423395e-7,0.09543699824315982,-1.7117473525353312e-7
2022-11-30,false,0.0,0.013094345564279025,-3.0027932289333755e-7,-3.2045103887712125e-7,-3.081755867286782e-7,-2.4375629747966165e-7,-2.5644376743097634e-7,-2.4593715966507424e-7,0.10929352821893545,0.299999832026973,0.07383947865904583,0.29999973050736994,0.10833821106106085,-1.6263713398852618e-8,-2.6160795041423395e-7,0.09543699824315982,-1.7117473525353312e-7
2022-12-30,false,0.0,0.013094345564279025,-3.0027932289333755e-7,-3.2045103887712125e-7,-3.081755867286782e-7,-2.4375629747966165e-7,-2.5644376743097634e-7,-2.4593715966507424e-7,0.10929352821893545,0.299999832026973,0.07383947865904583,0.29999973050736994,0.10833821106106085,-1.6263713398852618e-8,-2.6160795041423395e-7,0.09543699824315982,-1.7117473525353312e-7
2023-01-31,false,0.0,0.013094345564279025,-3.0027932289333755e-7,-3.2045103887712125e-7,-3.081755867286782e-7,-2.4375629747966165e-7,-2.5644376743097634e-7,-2.4593715966507424e-7,0.10929352821893545,0.299999832026973,0.07383947865904583,0.29999973050736994,0.10833821106106085,-1.6263713398852618e-8,-2.6160795041423395e-7,0.09543699824315982,-1.7117473525353312e-7
2023-02-28,false,0.0,0.013094345564279025,-3.0027932289333755e-7,-3.2045103887712125e-7,-3.081755867286782e-7,-2.4375629747966165e-7,-2.5644376743097634e-7,-2.4593715966507424e-7,0.10929352821893545,0.299999832026973,0.07383947865904583,0.29999973050736994,0.10833821106106085,-1.6263713398852618e-8,-2.6160795041423395e-7,0.09543699824315982,-1.7117473525353312e-7
2023-03-31,true,0.33516701715601244,3.5956924965302218e-9,4.481709045508567e-9,2.785888917419317e-9,4.7020134080214126e-9,3.6181011304995555e-9,1.2918840142351721e-9,1.3433863422512536e-9,-3.668045412377554e-9,0.30000004194722774,0.24142040176808433,0.29999995531533075,0.07497240457504575,1.2539967495156595e-9,4.092322770541625e-9,0.08360716990911413,2.9842557051218826e-9
2023-04-28,false,0.0,3.5956924965302218e-9,4.481709045508567e-9,2.785888917419317e-9,4.7020134080214126e-9,3.6181011304995555e-9,1.2918840142351721e-9,1.3433863422512536e-9,-3.668045412377554e-9,0.30000004194722774,0.24142040176808433,0.29999995531533075,0.07497240457504575,1.2539967495156595e-9,4.092322770541625e-9,0.08360716990911413,2.9842557051218826e-9
2023-05-31,false,0.0,3.5956924965302218e-9,4.481709045508567e-9,2.785888917419317e-9,4.7020134080214126e-9,3.6181011304995555e-9,1.2918840142351721e-9,1.3433863422512536e-9,-3.668045412377554e-9,0.30000004194722774,0.24142040176808433,0.29999995531533075,0.07497240457504575,1.2539967495156595e-9,4.092322770541625e-9,0.08360716990911413,2.9842557051218826e-9
2023-06-30,false,0.0,3.5956924965302218e-9,4.481709045508567e-9,2.785888917419317e-9,4.7020134080214126e-9,3.6181011304995555e-9,1.2918840142351721e-9,1.3433863422512536e-9,-3.668045412377554e-9,0.30000004194722774,0.24142040176808433,0.29999995531533075,0.07497240457504575,1.2539967495156595e-9,4.092322770541625e-9,0.08360716990911413,2.9842557051218826e-9
2023-07-31,false,0.0,3.5956924965302218e-9,4.481709045508567e-9,2.785888917419317e-9,4.7020134080214126e-9,3.6181011304995555e-9,1.2918840142351721e-9,1.3433863422512536e-9,-3.668045412377554e-9,0.30000004194722774,0.24142040176808433,0.29999995531533075,0.07497240457504575,1.2539967495156595e-9,4.092322770541625e-9,0.08360716990911413,2.9842557051218826e-9
2023-08-31,false,0.0,3.5956924965302218e-9,4.481709045508567e-9,2.785888917419317e-9,4.7020134080214126e-9,3.6181011304995555e-9,1.2918840142351721e-9,1.3433863422512536e-9,-3.668045412377554e-9,0.30000004194722774,0.24142040176808433,0.29999995531533075,0.07497240457504575,1.2539967495156595e-9,4.092322770541625e-9,0.08360716990911413,2.9842557051218826e-9
2023-09-29,false,0.0,3.5956924965302218e-9,4.481709045508567e-9,2.785888917419317e-9,4.7020134080214126e-9,3.6181011304995555e-9,1.2918840142351721e-9,1.3433863422512536e-9,-3.668045412377554e-9,0.30000004194722774,0.24142040176808433,0.29999995531533075,0.07497240457504575,1.2539967495156595e-9,4.092322770541625e-9,0.08360716990911413,2.9842557051218826e-9
2023-10-31,false,0.0,3.5956924965302218e-9,4.481709045508567e-9,2.785888917419317e-9,4.7020134080214126e-9,3.6181011304995555e-9,1.2918840142351721e-9,1.3433863422512536e-9,-3.668045412377554e-9,0.30000004194722774,0.24142040176808433,0.29999995531533075,0.07497240457504575,1.2539967495156595e-9,4.092322770541625e-9,0.08360716990911413,2.9842557051218826e-9
2023-11-30,false,0.0,3.5956924965302218e-9,4.481709045508567e-9,2.785888917419317e-9,4.7020134080214126e-9,3.6181011304995555e-9,1.2918840142351721e-9,1.3433863422512536e-9,-3.668045412377554e-9,0.30000004194722774,0.24142040176808433,0.29999995531533075,0.07497240457504575,1.2539967495156595e-9,4.092322770541625e-9,0.08360716990911413,2.9842557051218826e-9
2023-12-29,false,0.0,3.5956924965302218e-9,4.481709045508567e-9,2.785888917419317e-9,4.7020134080214126e-9,3.6181011304995555e-9,1.2918840142351721e-9,1.3433863422512536e-9,-3.668045412377554e-9,0.30000004194722774,0.24142040176808433,0.29999995531533075,0.07497240457504575,1.2539967495156595e-9,4.092322770541625e-9,0.08360716990911413,2.9842557051218826e-9
2024-01-31,false,0.0,3.5956924965302218e-9,4.481709045508567e-9,2.785888917419317e-9,4.7020134080214126e-9,3.6181011304995555e-9,1.2918840142351721e-9,1.3433863422512536e-9,-3.668045412377554e-9,0.30000004194722774,0.24142040176808433,0.29999995531533075,0.07497240457504575,1.2539967495156595e-9,4.092322770541625e-9,0.08360716990911413,2.9842557051218826e-9
2024-02-29,false,0.0,3.5956924965302218e-9,4.481709045508567e-9,2.785888917419317e-9,4.7020134080214126e-9,3.6181011304995555e-9,1.2918840142351721e-9,1.3433863422512536e-9,-3.668045412377554e-9,0.30000004194722774,0.24142040176808433,0.29999995531533075,0.07497240457504575,1.2539967495156595e-9,4.092322770541625e-9,0.08360716990911413,2.9842557051218826e-9
2024-03-28,false,0.0,3.5956924965302218e-9,4.481709045508567e-9,2.785888917419317e-9,4.7020134080214126e-9,3.6181011304995555e-9,1.2918840142351721e-9,1.3433863422512536e-9,-3.668045412377554e-9,0.30000004194722774,0.24142040176808433,0.29999995531533075,0.07497240457504575,1.2539967495156595e-9,4.092322770541625e-9,0.08360716990911413,2.9842557051218826e-9
2024-04-30,false,0.0,3.5956924965302218e-9,4.481709045508567e-9,2.785888917419317e-9,4.7020134080214126e-9,3.6181011304995555e-9,1.2918840142351721e-9,1.3433863422512536e-9,-3.668045412377554e-9,0.30000004194722774,0.24142040176808433,0.29999995531533075,0.07497240457504575,1.2539967495156595e-9,4.092322770541625e-9,0.08360716990911413,2.9842557051218826e-9
2024-05-31,false,0.0,3.5956924965302218e-9,4.481709045508567e-9,2.785888917419317e-9,4.7020134080214126e-9,3.6181011304995555e-9,1.2918840142351721e-9,1.3433863422512536e-9,-3.668045412377554e-9,0.30000004194722774,0.24142040176808433,0.29999995531533075,0.07497240457504575,1.2539967495156595e-9,4.092322770541625e-9,0.08360716990911413,2.9842557051218826e-9
2024-06-28,false,0.0,3.5956924965302218e-9,4.481709045508567e-9,2.785888917419317e-9,4.7020134080214126e-9,3.6181011304995555e-9,1.2918840142351721e-9,1.3433863422512536e-9,-3.668045412377554e-9,0.30000004194722774,0.24142040176808433,0.29999995531533075,0.07497240457504575,1.2539967495156595e-9,4.092322770541625e-9,0.08360716990911413,2.9842557051218826e-9
2024-07-31,false,0.0,3.5956924965302218e-9,4.481709045508567e-9,2.785888917419317e-9,4.7020134080214126e-9,3.6181011304995555e-9,1.2918840142351721e-9,1.3433863422512536e-9,-3.668045412377554e-9,0.30000004194722774,0.24142040176808433,0.29999995531533075,0.07497240457504575,1.2539967495156595e-9,4.092322770541625e-9,0.08360716990911413,2.9842557051218826e-9
2024-08-30,false,0.0,3.5956924965302218e-9,4.481709045508567e-9,2.785888917419317e-9,4.7020134080214126e-9,3.6181011304995555e-9,1.2918840142351721e-9,1.3433863422512536e-9,-3.668045412377554e-9,0.30000004194722774,0.24142040176808433,0.29999995531533075,0.07497240457504575,1.2539967495156595e-9,4.092322770541625e-9,0.08360716990911413,2.9842557051218826e-9
2024-09-30,false,0.0,3.5956924965302218e-9,4.481709045508567e-9,2.785888917419317e-9,4.7020134080214126e-9,3.6181011304995555e-9,1.2918840142351721e-9,1.3433863422512536e-9,-3.668045412377554e-9,0.30000004194722774,0.24142040176808433,0.29999995531533075,0.07497240457504575,1.2539967495156595e-9,4.092322770541625e-9,0.08360716990911413,2.9842557051218826e-9
2024-10-31,false,0.0,3.5956924965302218e-9,4.481709045508567e-9,2.785888917419317e-9,4.7020134080214126e-9,3.6181011304995555e-9,1.2918840142351721e-9,1.3433863422512536e-9,-3.668045412377554e-9,0.30000004194722774,0.24142040176808433,0.29999995531533075,0.07497240457504575,1.2539967495156595e-9,4.092322770541625e-9,0.08360716990911413,2.9842557051218826e-9
2024-11-29,false,0.0,3.5956924965302218e-9,4.481709045508567e-9,2.785888917419317e-9,4.7020134080214126e-9,3.6181011304995555e-9,1.2918840142351721e-9,1.3433863422512536e-9,-3.668045412377554e-9,0.30000004194722774,0.24142040176808433,0.29999995531533075,0.07497240457504575,1.2539967495156595e-9,4.092322770541625e-9,0.08360716990911413,2.9842557051218826e-9
2024-12-31,false,0.0,3.5956924965302218e-9,4.481709045508567e-9,2.785888917419317e-9,4.7020134080214126e-9,3.6181011304995555e-9,1.2918840142351721e-9,1.3433863422512536e-9,-3.668045412377554e-9,0.30000004194722774,0.24142040176808433,0.29999995531533075,0.07497240457504575,1.2539967495156595e-9,4.092322770541625e-9,0.08360716990911413,2.9842557051218826e-9
2025-01-31,false,0.0,3.5956924965302218e-9,4.481709045508567e-9,2.785888917419317e-9,4.7020134080214126e-9,3.6181011304995555e-9,1.2918840142351721e-9,1.3433863422512536e-9,-3.668045412377554e-9,0.30000004194722774,0.24142040176808433,0.29999995531533075,0.07497240457504575,1.2539967495156595e-9,4.092322770541625e-9,0.08360716990911413,2.9842557051218826e-9
2025-02-28,false,0.0,3.5956924965302218e-9,4.481709045508567e-9,2.785888917419317e-9,4.7020134080214126e-9,3.6181011304995555e-9,1.2918840142351721e-9,1.3433863422512536e-9,-3.668045412377554e-9,0.30000004194722774,0.24142040176808433,0.29999995531533075,0.07497240457504575,1.2539967495156595e-9,4.092322770541625e-9,0.08360716990911413,2.9842557051218826e-9
2025-03-31,false,0.0,3.5956924965302218e-9,4.481709045508567e-9,2.785888917419317e-9,4.7020134080214126e-9,3.6181011304995555e-9,1.2918840142351721e-9,1.3433863422512536e-9,-3.668045412377554e-9,0.30000004194722774,0.24142040176808433,0.29999995531533075,0.07497240457504575,1.2539967495156595e-9,4.092322770541625e-9,0.08360716990911413,2.9842557051218826e-9
2025-04-30,false,0.0,3.5956924965302218e-9,4.481709045508567e-9,2.785888917419317e-9,4.7020134080214126e-9,3.6181011304995555e-9,1.2918840142351721e-9,1.3433863422512536e-9,-3.668045412377554e-9,0.30000004194722774,0.24142040176808433,0.29999995531533075,0.07497240457504575,1.2539967495156595e-9,4.092322770541625e-9,0.08360716990911413,2.9842557051218826e-9
2025-05-30,false,0.0,3.5956924965302218e-9,4.481709045508567e-9,2.785888917419317e-9,4.7020134080214126e-9,3.6181011304995555e-9,1.2918840142351721e-9,1.3433863422512536e-9,-3.668045412377554e-9,0.30000004194722774,0.24142040176808433,0.29999995531533075,0.07497240457504575,1.2539967495156595e-9,4.092322770541625e-9,0.08360716990911413,2.9842557051218826e-9
2025-06-30,false,0.0,3.5956924965302218e-9,4.481709045508567e-9,2.785888917419317e-9,4.7020134080214126e-9,3.6181011304995555e-9,1.2918840142351721e-9,1.3433863422512536e-9,-3.668045412377554e-9,0.30000004194722774,0.24142040176808433,0.29999995531533075,0.07497240457504575,1.2539967495156595e-9,4.092322770541625e-9,0.08360716990911413,2.9842557051218826e-9
2025-07-31,false,0.0,3.5956924965302218e-9,4.481709045508567e-9,2.785888917419317e-9,4.7020134080214126e-9,3.6181011304995555e-9,1.2918840142351721e-9,1.3433863422512536e-9,-3.668045412377554e-9,0.30000004194722774,0.24142040176808433,0.29999995531533075,0.07497240457504575,1.2539967495156595e-9,4.092322770541625e-9,0.08360716990911413,2.9842557051218826e-9
2025-08-29,false,0.0,3.5956924965302218e-9,4.481709045508567e-9,2.785888917419317e-9,4.7020134080214126e-9,3.6181011304995555e-9,1.2918840142351721e-9,1.3433863422512536e-9,-3.668045412377554e-9,0.30000004194722774,0.24142040176808433,0.29999995531533075,0.07497240457504575,1.2539967495156595e-9,4.092322770541625e-9,0.08360716990911413,2.9842557051218826e-9
2025-09-30,false,0.0,3.5956924965302218e-9,4.481709045508567e-9,2.785888917419317e-9,4.7020134080214126e-9,3.6181011304995555e-9,1.2918840142351721e-9,1.3433863422512536e-9,-3.668045412377554e-9,0.30000004194722774,0.24142040176808433,0.29999995531533075,0.07497240457504575,1.2539967495156595e-9,4.092322770541625e-9,0.08360716990911413,2.9842557051218826e-9
2025-10-03,false,0.0,3.5956924965302218e-9,4.481709045508567e-9,2.785888917419317e-9,4.7020134080214126e-9,3.6181011304995555e-9,1.2918840142351721e-9,1.3433863422512536e-9,-3.668045412377554e-9,0.30000004194722774,0.24142040176808433,0.29999995531533075,0.07497240457504575,1.2539967495156595e-9,4.092322770541625e-9,0.08360716990911413,2.9842557051218826e-9
